{"learner":{"attributes":{"best_iteration":"189","best_score":"0.14264180971692245","scikit_learn":"{\"_estimator_type\": \"regressor\"}"},"feature_names":[],"feature_types":[],"gradient_booster":{"model":{"cats":{"enc":[],"feature_segments":[],"sorted_idx":[]},"gbtree_model_param":{"num_parallel_tree":"1","num_trees":"220"},"iteration_indptr":[0,1,2,3,4,5,6,7,8,9,10,11,12,13,14,15,16,17,18,19,20,21,22,23,24,25,26,27,28,29,30,31,32,33,34,35,36,37,38,39,40,41,42,43,44,45,46,47,48,49,50,51,52,53,54,55,56,57,58,59,60,61,62,63,64,65,66,67,68,69,70,71,72,73,74,75,76,77,78,79,80,81,82,83,84,85,86,87,88,89,90,91,92,93,94,95,96,97,98,99,100,101,102,103,104,105,106,107,108,109,110,111,112,113,114,115,116,117,118,119,120,121,122,123,124,125,126,127,128,129,130,131,132,133,134,135,136,137,138,139,140,141,142,143,144,145,146,147,148,149,150,151,152,153,154,155,156,157,158,159,160,161,162,163,164,165,166,167,168,169,170,171,172,173,174,175,176,177,178,179,180,181,182,183,184,185,186,187,188,189,190,191,192,193,194,195,196,197,198,199,200,201,202,203,204,205,206,207,208,209,210,211,212,213,214,215,216,217,218,219,220],"tree_info":[0,0,0,0,0,0,0,0,0,0,0,0,0,0,0,0,0,0,0,0,0,0,0,0,0,0,0,0,0,0,0,0,0,0,0,0,0,0,0,0,0,0,0,0,0,0,0,0,0,0,0,0,0,0,0,0,0,0,0,0,0,0,0,0,0,0,0,0,0,0,0,0,0,0,0,0,0,0,0,0,0,0,0,0,0,0,0,0,0,0,0,0,0,0,0,0,0,0,0,0,0,0,0,0,0,0,0,0,0,0,0,0,0,0,0,0,0,0,0,0,0,0,0,0,0,0,0,0,0,0,0,0,0,0,0,0,0,0,0,0,0,0,0,0,0,0,0,0,0,0,0,0,0,0,0,0,0,0,0,0,0,0,0,0,0,0,0,0,0,0,0,0,0,0,0,0,0,0,0,0,0,0,0,0,0,0,0,0,0,0,0,0,0,0,0,0,0,0,0,0,0,0,0,0,0,0,0,0,0,0,0,0,0,0,0,0,0,0,0,0],"trees":[{"base_weights":[-2.2162057E-2,-6.7868674E-1,7.198083E-1,-1.1087421E0,-2.3975219E-1,3.8136238E-1,1.004734E0,-6.8926774E-2,-9.323042E-1,-4.1017595E-1,-1.4025034E-1,1.1190978E-1,4.806403E-1,8.894233E-1,5.9435125E-2,-5.004078E-2,-8.2732373E-1,-5.0604796E-1,-2.975916E-1,-1.819768E-1,-3.754975E-2,6.829782E-2,8.517596E-3,3.5036293E-1,2.8028974E-2,3.3133157E-2,4.6567895E-2,-1.7567936E-2,-4.3000482E-2,-1.4908835E-2,-2.673067E-2,-3.4320447E-1,-1.2875491E-1,-6.573816E-2,-2.0906338E-1,6.403666E-3,-7.406119E-2,-4.2094663E-3,5.2176784E-3,4.9872664E-3,1.8822107E-2,-1.9548958E-2,-8.32802E-3,-9.984604E-3,-9.845964E-4,-5.4201763E-3,1.3444077E-3,-1.4650541E-2,-8.742131E-3,-5.1154136E-3,3.8487308E-3,-2.9846025E-3,1.7654013E-3],"categories":[],"categories_nodes":[],"categories_segments":[],"categories_sizes":[],"default_left":[0,0,0,0,0,0,0,0,0,0,0,0,0,0,0,0,0,0,0,0,0,0,0,0,0,0,0,0,0,0,0,0,0,0,0,0,0,0,0,0,0,0,0,0,0,0,0,0,0,0,0,0,0],"id":0,"left_children":[1,3,5,7,9,11,13,-1,15,17,19,21,23,25,-1,-1,27,29,31,33,35,37,-1,39,-1,-1,-1,-1,-1,-1,-1,41,43,45,47,-1,49,51,-1,-1,-1,-1,-1,-1,-1,-1,-1,-1,-1,-1,-1,-1,-1],"loss_changes":[4.2963876E2,8.794188E1,3.9401047E1,9.717743E0,3.838523E0,4.996336E0,3.4867554E0,0E0,3.9276123E-2,6.8650436E-1,6.097286E-1,9.958553E-2,1.1600838E0,5.737152E-1,0E0,0E0,5.72361E-1,1.858139E-2,2.3206186E-1,2.8936982E-1,2.762052E-1,9.672573E-2,0E0,2.808442E-1,0E0,0E0,0E0,0E0,0E0,0E0,0E0,1.4917612E-1,5.9232086E-2,9.80089E-2,1.4329433E-1,0E0,1.7252867E-1,2.866387E-2,0E0,0E0,0E0,0E0,0E0,0E0,0E0,0E0,0E0,0E0,0E0,0E0,0E0,0E0,0E0],"parents":[2147483647,0,0,1,1,2,2,3,3,4,4,5,5,6,6,8,8,9,9,10,10,11,11,12,12,13,13,16,16,17,17,18,18,19,19,20,20,21,21,23,23,31,31,32,32,33,33,34,34,36,36,37,37],"right_children":[2,4,6,8,10,12,14,-1,16,18,20,22,24,26,-1,-1,28,30,32,34,36,38,-1,40,-1,-1,-1,-1,-1,-1,-1,42,44,46,48,-1,50,52,-1,-1,-1,-1,-1,-1,-1,-1,-1,-1,-1,-1,-1,-1,-1],"split_conditions":[5.07E0,4.26E0,5.64E0,3.72E0,4.68E0,5.21E0,6.02E0,-6.8926774E-2,4.03E0,9.721574E-1,4.88E0,5.14E0,5.444E0,-5.407229E-2,5.9435125E-2,-5.004078E-2,3.89E0,-1.1523441E-1,6E0,-5.755979E-2,4.4216E0,5.09E0,8.517596E-3,1.5996E2,2.8028974E-2,3.3133157E-2,4.6567895E-2,-1.7567936E-2,-4.3000482E-2,-1.4908835E-2,-2.673067E-2,6.174957E-1,-2.1321962E-3,5.01E0,6E0,6.403666E-3,1.1E1,5.315836E0,5.2176784E-3,4.9872664E-3,1.8822107E-2,-1.9548958E-2,-8.32802E-3,-9.984604E-3,-9.845964E-4,-5.4201763E-3,1.3444077E-3,-1.4650541E-2,-8.742131E-3,-5.1154136E-3,3.8487308E-3,-2.9846025E-3,1.7654013E-3],"split_indices":[0,0,0,0,0,0,0,0,0,21,0,0,14,25,0,0,13,25,42,25,20,1,0,44,0,0,0,0,0,0,0,36,6,12,42,0,42,30,0,0,0,0,0,0,0,0,0,0,0,0,0,0,0],"split_type":[0,0,0,0,0,0,0,0,0,0,0,0,0,0,0,0,0,0,0,0,0,0,0,0,0,0,0,0,0,0,0,0,0,0,0,0,0,0,0,0,0,0,0,0,0,0,0,0,0,0,0,0,0],"sum_hessian":[8.8E2,4.67E2,4.13E2,2.35E2,2.32E2,1.9E2,2.23E2,9E1,1.45E2,8.4E1,1.48E2,5.2E1,1.38E2,1.41E2,8.2E1,8.2E1,6.3E1,4.3E1,4.1E1,1.04E2,4.4E1,3.2E1,2E1,5.5E1,8.3E1,2.5E1,1.16E2,5E0,5.8E1,7E0,3.6E1,3.1E1,1E1,2.1E1,8.3E1,7E0,3.7E1,1E1,2.2E1,6E0,4.9E1,2.3E1,8E0,5E0,5E0,1.5E1,6E0,2.1E1,6.2E1,3.2E1,5E0,5E0,5E0],"tree_param":{"num_deleted":"0","num_feature":"45","num_nodes":"53","size_leaf_vector":"1"}},{"base_weights":[-1.3085307E-2,-6.6631633E-1,6.59876E-1,-1.0538807E0,-2.4588715E-1,3.4004745E-1,9.5735157E-1,-6.563242E-2,-4.4656146E-2,-3.8520533E-1,-1.5427718E-1,9.802684E-2,4.6226218E-1,8.666539E-1,5.9423234E-2,-4.713511E-1,-2.783149E-1,-3.6374513E-2,-1.8385968E-1,1.4684554E-2,1.4656223E-1,3.4323964E-1,2.7462533E-2,3.58461E-2,9.225329E-1,-1.1464591E-2,-2.504527E-2,-1.8244663E-2,-1.9410944E-1,2.763219E-3,-6.3046634E-2,-2.0069313E-1,-8.101432E-2,-4.330759E-2,6.7135386E-2,1.5661733E-1,2.0055168E-3,5.560475E-3,1.8470315E-2,2.546819E-2,4.6794757E-2,-1.34167895E-2,-1.8860017E-3,-5.6192763E-3,-4.3781503E-4,-1.5008089E-2,-8.63208E-3,-9.34356E-3,1.1366521E-3,-6.104782E-3,4.3484507E-4,-0E0,5.880996E-3,4.542434E-3,9.108067E-3],"categories":[],"categories_nodes":[],"categories_segments":[],"categories_sizes":[],"default_left":[0,0,0,0,0,0,0,0,0,0,0,0,0,0,0,0,0,0,0,0,0,0,0,0,0,0,0,0,0,0,0,0,0,0,0,0,0,0,0,0,0,0,0,0,0,0,0,0,0,0,0,0,0,0,0],"id":1,"left_children":[1,3,5,7,9,11,13,-1,-1,15,17,19,21,23,-1,25,27,29,31,33,35,37,-1,-1,39,-1,-1,-1,41,-1,43,45,47,49,51,53,-1,-1,-1,-1,-1,-1,-1,-1,-1,-1,-1,-1,-1,-1,-1,-1,-1,-1,-1],"loss_changes":[3.8025403E2,7.114302E1,4.0074844E1,8.091614E0,2.5923662E0,6.0214005E0,3.3760223E0,0E0,0E0,5.5812645E-1,4.247098E-1,2.6892173E-1,1.1406689E0,5.3009796E-1,0E0,1.2689781E-1,1.6488504E-1,7.2700165E-2,1.3388848E-1,9.045887E-2,2.1142185E-2,2.8121662E-1,0E0,0E0,8.140564E-3,0E0,0E0,0E0,2.2626168E-1,0E0,4.8510112E-2,1.4365077E-1,2.073623E-1,6.5667056E-2,5.2395456E-2,2.1669567E-2,0E0,0E0,0E0,0E0,0E0,0E0,0E0,0E0,0E0,0E0,0E0,0E0,0E0,0E0,0E0,0E0,0E0,0E0,0E0],"parents":[2147483647,0,0,1,1,2,2,3,3,4,4,5,5,6,6,9,9,10,10,11,11,12,12,13,13,15,15,16,16,17,17,18,18,19,19,20,20,21,21,24,24,28,28,30,30,31,31,32,32,33,33,34,34,35,35],"right_children":[2,4,6,8,10,12,14,-1,-1,16,18,20,22,24,-1,26,28,30,32,34,36,38,-1,-1,40,-1,-1,-1,42,-1,44,46,48,50,52,54,-1,-1,-1,-1,-1,-1,-1,-1,-1,-1,-1,-1,-1,-1,-1,-1,-1,-1,-1],"split_conditions":[4.98E0,4.26E0,5.64E0,3.72E0,4.68E0,5.21E0,6.05893E0,-6.563242E-2,-4.4656146E-2,9.721574E-1,-5.4244347E-2,5.09E0,5.49E0,5.79E0,5.9423234E-2,9.053145E-1,4.1177493E-1,-4.82E0,3.73444E-2,4E0,1.23655915E-1,1.5996E2,2.7462533E-2,3.58461E-2,-5.9926875E-2,-1.1464591E-2,-2.504527E-2,-1.8244663E-2,4.1982E0,2.763219E-3,4.78E0,6E0,4.097E0,5.07E0,9.640648E-1,5.13E0,2.0055168E-3,5.560475E-3,1.8470315E-2,2.546819E-2,4.6794757E-2,-1.34167895E-2,-1.8860017E-3,-5.6192763E-3,-4.3781503E-4,-1.5008089E-2,-8.63208E-3,-9.34356E-3,1.1366521E-3,-6.104782E-3,4.3484507E-4,-0E0,5.880996E-3,4.542434E-3,9.108067E-3],"split_indices":[0,0,0,0,0,0,22,0,0,21,24,0,0,8,0,21,36,39,6,42,7,44,0,0,25,0,0,0,20,0,3,42,20,0,21,0,0,0,0,0,0,0,0,0,0,0,0,0,0,0,0,0,0,0,0],"split_type":[0,0,0,0,0,0,0,0,0,0,0,0,0,0,0,0,0,0,0,0,0,0,0,0,0,0,0,0,0,0,0,0,0,0,0,0,0,0,0,0,0,0,0,0,0,0,0,0,0,0,0,0,0,0,0],"sum_hessian":[8.63E2,4.38E2,4.25E2,2.27E2,2.11E2,2.06E2,2.19E2,8.4E1,1.43E2,8.2E1,1.29E2,7E1,1.36E2,1.61E2,5.8E1,4.3E1,3.9E1,2.7E1,1.02E2,2.7E1,4.3E1,6E1,7.6E1,4.8E1,1.13E2,6E0,3.7E1,1.7E1,2.2E1,5E0,2.2E1,8.6E1,1.6E1,1.2E1,1.5E1,3.8E1,5E0,7E0,5.3E1,5E0,1.08E2,1.4E1,8E0,1E1,1.2E1,1.6E1,7E1,8E0,8E0,5E0,7E0,7E0,8E0,1.3E1,2.5E1],"tree_param":{"num_deleted":"0","num_feature":"45","num_nodes":"55","size_leaf_vector":"1"}},{"base_weights":[8.423144E-3,-6.183584E-1,6.589051E-1,-1.0160207E0,-2.2104126E-1,3.5393372E-1,9.181461E-1,-6.252437E-2,-4.3120123E-2,-3.6944294E-1,-1.279824E-1,1.8785013E-1,4.9249217E-1,8.002725E-1,5.4415084E-2,-4.4593543E-1,-2.697405E-1,-1.6937424E-1,-2.5973283E-2,7.571094E-2,2.4759391E-1,1.0883867E-2,5.0855243E-1,2.3183296E-2,8.190954E-1,-1.11081535E-2,-2.3891956E-2,-1.6161803E-2,-1.630449E-1,-1.8737645E-1,-8.679215E-4,-6.1827317E-2,6.0817385E-3,-1.710048E-6,4.952677E-3,4.055812E-3,2.7393755E-1,1.90322E-2,2.6823467E-2,3.1480614E-2,4.2738874E-2,-3.7154965E-3,-1.063466E-2,-7.8622075E-3,-1.2466821E-2,4.197557E-3,-5.1104496E-3,2.58167E-3,-5.053068E-3,5.197651E-3,1.4414622E-2],"categories":[],"categories_nodes":[],"categories_segments":[],"categories_sizes":[],"default_left":[0,0,0,0,0,0,0,0,0,0,0,0,0,0,0,0,0,0,0,0,0,0,0,0,0,0,0,0,0,0,0,0,0,0,0,0,0,0,0,0,0,0,0,0,0,0,0,0,0,0,0],"id":2,"left_children":[1,3,5,7,9,11,13,-1,-1,15,17,19,21,23,-1,25,27,29,31,33,35,-1,37,-1,39,-1,-1,-1,41,43,45,47,-1,-1,-1,-1,49,-1,-1,-1,-1,-1,-1,-1,-1,-1,-1,-1,-1,-1,-1],"loss_changes":[3.5471155E2,6.964484E1,3.3306915E1,6.670349E0,2.982625E0,4.3958836E0,3.5532837E0,0E0,0E0,4.56398E-1,5.6297207E-1,5.6528854E-1,2.889309E-1,3.7895966E-1,0E0,1.5224361E-1,1.2697983E-1,2.782948E-1,2.2381805E-1,7.002032E-2,2.010262E-1,0E0,6.1164856E-2,0E0,1.9909668E-1,0E0,0E0,0E0,2.5983095E-2,8.4430695E-2,1.0495855E-1,1.6596422E-1,0E0,0E0,0E0,0E0,5.28121E-2,0E0,0E0,0E0,0E0,0E0,0E0,0E0,0E0,0E0,0E0,0E0,0E0,0E0,0E0],"parents":[2147483647,0,0,1,1,2,2,3,3,4,4,5,5,6,6,9,9,10,10,11,11,12,12,13,13,15,15,16,16,17,17,18,18,19,19,20,20,22,22,24,24,28,28,29,29,30,30,31,31,36,36],"right_children":[2,4,6,8,10,12,14,-1,-1,16,18,20,22,24,-1,26,28,30,32,34,36,-1,38,-1,40,-1,-1,-1,42,44,46,48,-1,-1,-1,-1,50,-1,-1,-1,-1,-1,-1,-1,-1,-1,-1,-1,-1,-1,-1],"split_conditions":[5.07E0,4.26E0,5.63E0,3.72E0,4.68E0,5.36E0,6.01E0,-6.252437E-2,-4.3120123E-2,9.721574E-1,4.88E0,5.15E0,5.351E2,5.45E0,5.4415084E-2,9.284217E-1,6.174957E-1,5.12E0,1.0974643E0,5.08E0,6.36098E2,1.0883867E-2,-6.6E-1,2.3183296E-2,-5.2438177E-2,-1.11081535E-2,-2.3891956E-2,-1.6161803E-2,1.5883424E0,2.5584599E-2,4.95E0,-3.2258064E-2,6.0817385E-3,-1.710048E-6,4.952677E-3,4.055812E-3,-9.1E-1,1.90322E-2,2.6823467E-2,3.1480614E-2,4.2738874E-2,-3.7154965E-3,-1.063466E-2,-7.8622075E-3,-1.2466821E-2,4.197557E-3,-5.1104496E-3,2.58167E-3,-5.053068E-3,5.197651E-3,1.4414622E-2],"split_indices":[0,0,0,8,0,8,0,0,0,21,0,0,35,12,0,19,36,13,21,8,44,0,37,0,25,0,0,0,36,25,16,6,0,0,0,0,37,0,0,0,0,0,0,0,0,0,0,0,0,0,0],"split_type":[0,0,0,0,0,0,0,0,0,0,0,0,0,0,0,0,0,0,0,0,0,0,0,0,0,0,0,0,0,0,0,0,0,0,0,0,0,0,0,0,0,0,0,0,0,0,0,0,0,0,0],"sum_hessian":[8.68E2,4.42E2,4.26E2,2.2E2,2.22E2,1.97E2,2.29E2,8.4E1,1.36E2,8.4E1,1.38E2,9.1E1,1.06E2,1.39E2,9E1,4.5E1,3.9E1,9.7E1,4.1E1,3.3E1,5.8E1,7E0,9.9E1,9E0,1.3E2,7E0,3.8E1,2.4E1,1.5E1,8.7E1,1E1,3.4E1,7E0,7E0,2.6E1,9E0,4.9E1,2.1E1,7.8E1,2.4E1,1.06E2,7E0,8E0,6.2E1,2.5E1,5E0,5E0,8E0,2.6E1,5E0,4.4E1],"tree_param":{"num_deleted":"0","num_feature":"45","num_nodes":"51","size_leaf_vector":"1"}},{"base_weights":[9.593588E-3,-5.6032205E-1,6.222311E-1,-9.484979E-1,-1.9850801E-1,3.8587573E-1,8.9042866E-1,-5.9722662E-2,-7.980239E-1,-3.7902117E-1,-1.2728451E-1,1.7511284E-1,5.098375E-1,7.122835E-1,9.886069E-1,-8.129262E-1,-1.5528415E-2,-4.3612692E-1,-1.9378175E-1,-1.5220186E-1,5.6741916E-2,7.192949E-2,2.3806198E-1,1.2586008E-2,5.224347E-1,5.7466614E-1,3.9950322E-2,4.4851914E-2,5.682989E-2,-4.3077704E-2,-3.4469802E-2,-1.2888026E-2,-2.3588726E-2,-6.0142594E-4,-1.2753463E-2,-1.8812563E-1,-0E0,1.2427696E-2,-4.9775083E-2,5.42904E-3,-3.795078E-3,4.277616E-3,2.6105142E-1,1.8285235E-2,2.7350271E-2,1.8251996E-2,3.1157246E-2,-1.630098E-2,-8.34478E-3,-2.0586613E-3,2.7734379E-3,-8.833779E-3,2.749237E-3,3.4285437E-3,1.4317075E-2],"categories":[],"categories_nodes":[],"categories_segments":[],"categories_sizes":[],"default_left":[0,0,0,0,0,0,0,0,0,0,0,0,0,0,0,0,0,0,0,0,0,0,0,0,0,0,0,0,0,0,0,0,0,0,0,0,0,0,0,0,0,0,0,0,0,0,0,0,0,0,0,0,0,0,0],"id":3,"left_children":[1,3,5,7,9,11,13,-1,15,17,19,21,23,25,27,29,-1,31,33,35,37,39,41,-1,43,45,-1,-1,-1,-1,-1,-1,-1,-1,-1,47,49,-1,51,-1,-1,-1,53,-1,-1,-1,-1,-1,-1,-1,-1,-1,-1,-1,-1],"loss_changes":[3.107507E2,6.444331E1,2.6723068E1,7.063736E0,2.9867525E0,5.8513336E0,2.6237488E0,0E0,6.5943146E-1,5.6123734E-1,8.1605077E-1,5.169687E-1,2.5930023E-1,2.985611E-1,4.845276E-1,6.790924E-2,0E0,1.2335873E-1,1.7072773E-1,8.5643435E-1,4.6130574E-1,2.0114644E-1,1.2882996E-1,0E0,2.3241806E-1,9.068489E-3,0E0,0E0,0E0,0E0,0E0,0E0,0E0,0E0,0E0,2.622342E-1,7.189395E-2,0E0,2.0800056E-1,0E0,0E0,0E0,1.6392684E-1,0E0,0E0,0E0,0E0,0E0,0E0,0E0,0E0,0E0,0E0,0E0,0E0],"parents":[2147483647,0,0,1,1,2,2,3,3,4,4,5,5,6,6,8,8,9,9,10,10,11,11,12,12,13,13,14,14,15,15,17,17,18,18,19,19,20,20,21,21,22,22,24,24,25,25,35,35,36,36,38,38,42,42],"right_children":[2,4,6,8,10,12,14,-1,16,18,20,22,24,26,28,30,-1,32,34,36,38,40,42,-1,44,46,-1,-1,-1,-1,-1,-1,-1,-1,-1,48,50,-1,52,-1,-1,-1,54,-1,-1,-1,-1,-1,-1,-1,-1,-1,-1,-1,-1],"split_conditions":[5.09E0,4.26E0,5.734E0,4.026704E0,4.6E0,5.36E0,5.956E0,-5.9722662E-2,1.0549451E0,9.090909E-3,1.0239162E0,5.1994E0,1.092826E3,5.8E0,6.146E0,3.9244719E0,-1.5528415E-2,4.17E0,1.13700196E-1,5.12E0,2.3157645E-2,2.7656473E-2,1.80631E2,1.2586008E-2,-1.0714286E-1,9.36E1,3.9950322E-2,4.4851914E-2,5.682989E-2,-4.3077704E-2,-3.4469802E-2,-1.2888026E-2,-2.3588726E-2,-6.0142594E-4,-1.2753463E-2,9.665324E-1,-7.797271E-3,1.2427696E-2,4.107143E-2,5.42904E-3,-3.795078E-3,4.277616E-3,-3.5587188E-3,1.8285235E-2,2.7350271E-2,1.8251996E-2,3.1157246E-2,-1.630098E-2,-8.34478E-3,-2.0586613E-3,2.7734379E-3,-8.833779E-3,2.749237E-3,3.4285437E-3,1.4317075E-2],"split_indices":[8,1,14,30,14,8,14,0,19,6,15,20,44,2,14,31,0,13,32,13,28,27,44,0,38,34,0,0,0,0,0,0,0,0,0,19,6,0,7,0,0,0,5,0,0,0,0,0,0,0,0,0,0,0,0],"split_type":[0,0,0,0,0,0,0,0,0,0,0,0,0,0,0,0,0,0,0,0,0,0,0,0,0,0,0,0,0,0,0,0,0,0,0,0,0,0,0,0,0,0,0,0,0,0,0,0,0,0,0,0,0,0,0],"sum_hessian":[8.88E2,4.6E2,4.28E2,2.21E2,2.39E2,2.29E2,1.99E2,8.1E1,1.4E2,6.6E1,1.73E2,8.6E1,1.43E2,7.4E1,1.25E2,1.35E2,5E0,4.9E1,1.7E1,1.53E2,2E1,3.4E1,5.2E1,8E0,1.35E2,3.2E1,4.2E1,8.2E1,4.3E1,9.2E1,4.3E1,1E1,3.9E1,5E0,1.2E1,1.24E2,2.9E1,7E0,1.3E1,2.8E1,6E0,8E0,4.4E1,2.1E1,1.14E2,8E0,2.4E1,1.4E1,1.1E2,1.6E1,1.3E1,6E0,7E0,6E0,3.8E1],"tree_param":{"num_deleted":"0","num_feature":"45","num_nodes":"55","size_leaf_vector":"1"}},{"base_weights":[-3.8702344E-3,-5.109207E-1,6.3796616E-1,-8.8864017E-1,-1.7475416E-1,3.6993924E-1,8.161592E-1,-5.618913E-2,-7.5575405E-1,-3.3201206E-1,-8.04504E-2,2.5192603E-1,4.4907022E-1,3.357633E-2,9.433698E-1,-4.14457E-2,-6.668628E-1,-3.8206038E-1,-2.2185738E-1,-1.22924246E-1,2.1787453E-2,8.130475E-3,2.857865E-1,9.498989E-3,2.3038087E-2,4.2332087E-2,5.333626E-2,-1.184285E-2,-3.4676354E-2,-2.0572033E-2,-9.700313E-3,-1.4591823E-2,-1.0860915E-3,1.3666827E-2,-1.4126746E-1,-3.1828456E-2,5.2715044E-2,9.4554955E-3,1.5609036E-2,-1.917776E-3,4.2727124E-3,-7.5479522E-3,-0E0,1.5677968E-3,-7.04285E-3,-1.7214156E-3,3.8997685E-3],"categories":[],"categories_nodes":[],"categories_segments":[],"categories_sizes":[],"default_left":[0,0,0,0,0,0,0,0,0,0,0,0,0,0,0,0,0,0,0,0,0,0,0,0,0,0,0,0,0,0,0,0,0,0,0,0,0,0,0,0,0,0,0,0,0,0,0],"id":4,"left_children":[1,3,5,7,9,11,13,-1,15,17,19,21,23,-1,25,-1,27,29,31,33,35,-1,37,-1,-1,-1,-1,-1,-1,-1,-1,-1,-1,39,41,43,45,-1,-1,-1,-1,-1,-1,-1,-1,-1,-1],"loss_changes":[2.824727E2,6.1322037E1,1.7871735E1,6.087097E0,3.7581859E0,1.2642345E0,3.418335E0,0E0,2.666397E-1,3.84099E-1,7.2060883E-1,1.05268E-1,1.23046875E-1,0E0,3.2543182E-1,0E0,5.7970047E-1,2.1323776E-1,4.2447996E-1,3.053311E-1,8.336062E-2,0E0,5.6610107E-3,0E0,0E0,0E0,0E0,0E0,0E0,0E0,0E0,0E0,0E0,6.0271215E-2,1.5497851E-1,1.3247816E-1,7.753835E-2,0E0,0E0,0E0,0E0,0E0,0E0,0E0,0E0,0E0,0E0],"parents":[2147483647,0,0,1,1,2,2,3,3,4,4,5,5,6,6,8,8,9,9,10,10,11,11,12,12,14,14,16,16,17,17,18,18,19,19,20,20,22,22,33,33,34,34,35,35,36,36],"right_children":[2,4,6,8,10,12,14,-1,16,18,20,22,24,-1,26,-1,28,30,32,34,36,-1,38,-1,-1,-1,-1,-1,-1,-1,-1,-1,-1,40,42,44,46,-1,-1,-1,-1,-1,-1,-1,-1,-1,-1],"split_conditions":[5.14E0,4.3E0,5.64E0,3.72E0,4.7E0,5.43E0,5.962E0,-5.618913E-2,4.03E0,4.3071112E-1,4.96E0,5.21E0,8.71747E2,3.357633E-2,6.18E0,-4.14457E-2,3.89E0,-2.4393426E-2,4.1982E0,-8.2272716E-2,-2.4994407E-2,8.130475E-3,4.517309E-3,9.498989E-3,2.3038087E-2,4.2332087E-2,5.333626E-2,-1.184285E-2,-3.4676354E-2,-2.0572033E-2,-9.700313E-3,-1.4591823E-2,-1.0860915E-3,-1.9267823E-3,9.3600434E-1,-8.617061E-2,1.292611E-2,9.4554955E-3,1.5609036E-2,-1.917776E-3,4.2727124E-3,-7.5479522E-3,-0E0,1.5677968E-3,-7.04285E-3,-1.7214156E-3,3.8997685E-3],"split_indices":[0,0,0,0,0,14,14,0,0,33,0,0,44,0,8,0,13,24,20,25,25,0,27,0,0,0,0,0,0,0,0,0,0,6,33,24,28,0,0,0,0,0,0,0,0,0,0],"split_type":[0,0,0,0,0,0,0,0,0,0,0,0,0,0,0,0,0,0,0,0,0,0,0,0,0,0,0,0,0,0,0,0,0,0,0,0,0,0,0,0,0,0,0,0,0,0,0],"sum_hessian":[8.66E2,4.84E2,3.82E2,2.27E2,2.57E2,1.54E2,2.28E2,7.9E1,1.48E2,9.5E1,1.62E2,6.4E1,9E1,1.1E2,1.18E2,7.6E1,7.2E1,6.3E1,3.2E1,1.15E2,4.7E1,2E1,4.4E1,5E0,8.5E1,7.1E1,4.7E1,5E0,6.7E1,5.3E1,1E1,2.3E1,9E0,1.3E1,1.02E2,1.6E1,3.1E1,1.2E1,3.2E1,7E0,6E0,9.6E1,6E0,1E1,6E0,6E0,2.5E1],"tree_param":{"num_deleted":"0","num_feature":"45","num_nodes":"47","size_leaf_vector":"1"}},{"base_weights":[-3.6576735E-3,-5.1513845E-1,5.782268E-1,-8.5288894E-1,-1.818244E-1,3.108866E-1,7.80937E-1,-5.362275E-2,-7.269381E-1,-3.0807346E-1,-9.3071066E-2,1.7032595E-1,4.1985804E-1,6.82378E-1,4.6857476E-2,-3.8874723E-2,-3.1533055E-2,-3.442928E-1,-1.8309255E-1,-1.0997816E-1,4.280939E-2,1.00346304E-1,2.5002158E-1,9.921067E-3,2.1651657E-2,1.9361293E-2,6.9776195E-1,-2.2489153E-2,-2.8706086E-1,-1.2867035E-2,-5.695656E-4,-1.2937354E-1,5.143904E-2,-2.594844E-3,7.825139E-3,1.1395309E-1,-0E0,5.4049934E-3,1.38099985E-2,2.8173799E-2,7.310985E-1,-1.5537964E-2,-7.322583E-3,-9.488749E-3,-4.6885237E-3,4.659679E-3,-0E0,4.1906666E-3,1.0034649E-2,3.773354E-2,2.45641E-2],"categories":[],"categories_nodes":[],"categories_segments":[],"categories_sizes":[],"default_left":[0,0,0,0,0,0,0,0,0,0,0,0,0,0,0,0,0,0,0,0,0,0,0,0,0,0,0,0,0,0,0,0,0,0,0,0,0,0,0,0,0,0,0,0,0,0,0,0,0,0,0],"id":5,"left_children":[1,3,5,7,9,11,13,-1,15,17,19,21,23,25,-1,-1,-1,27,29,31,33,35,37,-1,-1,-1,39,-1,41,-1,-1,43,45,-1,-1,47,-1,-1,-1,-1,49,-1,-1,-1,-1,-1,-1,-1,-1,-1,-1],"loss_changes":[2.6725916E2,5.3553253E1,2.2408936E1,5.594574E0,2.642829E0,2.6724968E0,2.8628235E0,0E0,1.1843109E-1,3.323698E-1,3.422426E-1,3.971944E-1,1.485138E-1,3.024063E-1,0E0,0E0,0E0,2.5000572E-1,2.889079E-1,4.183147E-1,1.9086221E-1,6.920603E-2,6.917834E-2,0E0,0E0,0E0,8.9790344E-2,0E0,8.204317E-2,0E0,0E0,2.0330536E-1,3.2436695E-2,0E0,0E0,6.1915696E-2,0E0,0E0,0E0,0E0,1.2082672E-1,0E0,0E0,0E0,0E0,0E0,0E0,0E0,0E0,0E0,0E0],"parents":[2147483647,0,0,1,1,2,2,3,3,4,4,5,5,6,6,8,8,9,9,10,10,11,11,12,12,13,13,17,17,18,18,19,19,20,20,21,21,22,22,26,26,28,28,31,31,32,32,35,35,40,40],"right_children":[2,4,6,8,10,12,14,-1,16,18,20,22,24,26,-1,-1,-1,28,30,32,34,36,38,-1,-1,-1,40,-1,42,-1,-1,44,46,-1,-1,48,-1,-1,-1,-1,50,-1,-1,-1,-1,-1,-1,-1,-1,-1,-1],"split_conditions":[5.09E0,4.26E0,5.63E0,3.72E0,4.7E0,5.36E0,6.02E0,-5.362275E-2,4.02E0,1.0101466E0,4.5045044E-2,5.21E0,5.351E2,5.5E0,4.6857476E-2,-3.8874723E-2,-3.1533055E-2,4.51E0,4.4922633E0,5.24E0,1.609E3,1.8363E3,1.092826E3,9.921067E-3,2.1651657E-2,1.9361293E-2,-4.6071663E-2,-2.2489153E-2,6E0,-1.2867035E-2,-5.695656E-4,4.804134E0,7E1,-2.594844E-3,7.825139E-3,1.1907E3,-0E0,5.4049934E-3,1.38099985E-2,2.8173799E-2,1.621695E4,-1.5537964E-2,-7.322583E-3,-9.488749E-3,-4.6885237E-3,4.659679E-3,-0E0,4.1906666E-3,1.0034649E-2,3.773354E-2,2.45641E-2],"split_indices":[0,0,0,0,0,0,0,0,2,17,6,0,35,12,0,0,0,14,22,13,4,35,44,0,0,0,24,0,42,0,0,22,4,0,0,35,0,0,0,0,35,0,0,0,0,0,0,0,0,0,0],"split_type":[0,0,0,0,0,0,0,0,0,0,0,0,0,0,0,0,0,0,0,0,0,0,0,0,0,0,0,0,0,0,0,0,0,0,0,0,0,0,0,0,0,0,0,0,0,0,0,0,0,0,0],"sum_hessian":[8.96E2,4.77E2,4.19E2,2.36E2,2.41E2,1.82E2,2.37E2,8.3E1,1.53E2,9.8E1,1.43E2,8.1E1,1.01E2,1.49E2,8.8E1,9.5E1,5.8E1,7.4E1,2.4E1,1.28E2,1.5E1,4.5E1,3.6E1,7E0,9.4E1,9E0,1.4E2,2.3E1,5.1E1,1.6E1,8E0,1.15E2,1.3E1,8E0,7E0,4E1,5E0,7E0,2.9E1,3.2E1,1.08E2,4.2E1,9E0,4E1,7.5E1,7E0,6E0,3.2E1,8E0,9.6E1,1.2E1],"tree_param":{"num_deleted":"0","num_feature":"45","num_nodes":"51","size_leaf_vector":"1"}},{"base_weights":[3.125015E-3,-4.9474975E-1,5.5174285E-1,-8.259394E-1,-1.7380024E-1,2.928522E-1,7.4154073E-1,-9.757306E-1,-3.245212E-2,-3.0270025E-1,-9.7048886E-2,1.5687403E-1,3.9498666E-1,6.815131E-1,4.942232E-2,-4.984812E-2,-2.720095E-2,-3.265443E-1,-1.6140218E-1,-1.2453387E-1,-5.302983E-3,9.238171E-2,1.173382E-2,9.0509495E-3,4.0329E-1,5.6593156E-1,7.328969E-1,-3.6622036E-1,-1.8161498E-1,-1.1161599E-2,-4.213383E-3,-1.4932233E-1,-4.7641736E-2,-6.7076236E-2,2.0560298E-2,-0E0,5.1218993E-3,1.4584077E-2,2.1391494E-2,1.430205E-2,2.9141087E-2,1.6573833E-2,3.7270095E-2,-2.2393819E-2,-1.5395268E-2,-2.140954E-3,-1.1955567E-2,-1.1555846E-2,-6.4841122E-3,-3.7330964E-3,1.8759584E-3,-2.319606E-4,-4.836283E-3,4.137631E-3,-1.3536569E-3],"categories":[],"categories_nodes":[],"categories_segments":[],"categories_sizes":[],"default_left":[0,0,0,0,0,0,0,0,0,0,0,0,0,0,0,0,0,0,0,0,0,0,0,0,0,0,0,0,0,0,0,0,0,0,0,0,0,0,0,0,0,0,0,0,0,0,0,0,0,0,0,0,0,0,0],"id":6,"left_children":[1,3,5,7,9,11,13,15,-1,17,19,21,23,25,-1,-1,-1,27,29,31,33,35,-1,-1,37,39,41,43,45,-1,-1,47,49,51,53,-1,-1,-1,-1,-1,-1,-1,-1,-1,-1,-1,-1,-1,-1,-1,-1,-1,-1,-1,-1],"loss_changes":[2.3763992E2,4.822706E1,2.002208E1,5.1397095E0,2.2357764E0,2.3410358E0,2.686798E0,3.9429474E-1,0E0,1.8824482E-1,3.5955775E-1,3.3699143E-1,4.623127E-2,6.13472E-1,0E0,0E0,0E0,2.9272127E-1,2.1977007E-2,1.8857181E-1,6.3546434E-2,3.569454E-2,0E0,0E0,6.345081E-2,5.3684235E-2,3.028183E-1,4.8415184E-2,1.05213046E-1,0E0,0E0,6.889045E-2,7.554745E-2,1.162944E-2,8.186916E-2,0E0,0E0,0E0,0E0,0E0,0E0,0E0,0E0,0E0,0E0,0E0,0E0,0E0,0E0,0E0,0E0,0E0,0E0,0E0,0E0],"parents":[2147483647,0,0,1,1,2,2,3,3,4,4,5,5,6,6,7,7,9,9,10,10,11,11,12,12,13,13,17,17,18,18,19,19,20,20,21,21,24,24,25,25,26,26,27,27,28,28,31,31,32,32,33,33,34,34],"right_children":[2,4,6,8,10,12,14,16,-1,18,20,22,24,26,-1,-1,-1,28,30,32,34,36,-1,-1,38,40,42,44,46,-1,-1,48,50,52,54,-1,-1,-1,-1,-1,-1,-1,-1,-1,-1,-1,-1,-1,-1,-1,-1,-1,-1,-1,-1],"split_conditions":[5.09E0,4.26E0,5.64E0,3.94E0,4.68E0,5.36E0,6.18E0,8.285624E3,-3.245212E-2,4.69E0,5.13E0,5.21E0,4.518E2,-4.7912216E-3,4.942232E-2,-4.984812E-2,-2.720095E-2,8.988764E-3,2.6093448E-2,4.89E0,9.647451E-1,4.9062E0,1.173382E-2,9.0509495E-3,-6.6E-1,3.94E1,5.5E0,4.525E0,1.3388266E-1,-1.1161599E-2,-4.213383E-3,4.5E0,3.809524E-2,1E-2,-3.7837837E-2,-0E0,5.1218993E-3,1.4584077E-2,2.1391494E-2,1.430205E-2,2.9141087E-2,1.6573833E-2,3.7270095E-2,-2.2393819E-2,-1.5395268E-2,-2.140954E-3,-1.1955567E-2,-1.1555846E-2,-6.4841122E-3,-3.7330964E-3,1.8759584E-3,-2.319606E-4,-4.836283E-3,4.137631E-3,-1.3536569E-3],"split_indices":[0,0,0,0,0,8,0,44,0,9,13,0,35,25,0,0,0,7,27,0,17,20,0,0,37,34,13,16,32,0,0,13,6,40,7,0,0,0,0,0,0,0,0,0,0,0,0,0,0,0,0,0,0,0,0],"split_type":[0,0,0,0,0,0,0,0,0,0,0,0,0,0,0,0,0,0,0,0,0,0,0,0,0,0,0,0,0,0,0,0,0,0,0,0,0,0,0,0,0,0,0,0,0,0,0,0,0,0,0,0,0,0,0],"sum_hessian":[8.68E2,4.55E2,4.13E2,2.23E2,2.32E2,1.76E2,2.37E2,1.18E2,1.05E2,8.5E1,1.47E2,7.7E1,9.9E1,1.94E2,4.3E1,1.11E2,7E0,7.1E1,1.4E1,1.12E2,3.5E1,4.4E1,3.3E1,5E0,9.4E1,6.4E1,1.3E2,5.4E1,1.7E1,6E0,8E0,8.3E1,2.9E1,1.1E1,2.4E1,5E0,3.9E1,2E1,7.4E1,5E0,5.9E1,5E0,1.25E2,1.9E1,3.5E1,6E0,1.1E1,1.3E1,7E1,2.3E1,6E0,5E0,6E0,1.1E1,1.3E1],"tree_param":{"num_deleted":"0","num_feature":"45","num_nodes":"55","size_leaf_vector":"1"}},{"base_weights":[-7.0764474E-3,-4.6155176E-1,5.227323E-1,-7.7803034E-1,-1.6577905E-1,2.96538E-1,7.2300535E-1,-4.8373353E-2,-6.5748155E-1,-2.961282E-1,-9.413613E-2,1.5015581E-1,3.9281088E-1,6.5589374E-1,4.6265487E-2,-6.678513E-1,-1.4550109E-2,-3.637333E-1,-2.195202E-1,-1.293729E-1,-1.51858125E-2,5.7538096E-2,1.9791578E-1,8.980378E-3,4.0393764E-1,5.7444936E-1,3.6020946E-2,-3.4972742E-2,-2.685971E-2,-1.9454544E-2,-6.081004E-3,-1.4236107E-2,-1.4326097E-1,-1.0290438E-3,-1.4390922E-1,-3.585098E-2,6.627782E-3,8.661844E-2,-2.799029E-4,1.1312542E-1,1.1885337E-2,1.1845407E-2,2.105639E-2,1.4664403E-2,2.9406605E-2,-2.6835022E-3,-1.06290085E-2,1.4711272E-3,-2.280967E-3,-7.693983E-3,-0E0,-3.6633753E-3,1.1473031E-3,8.8297046E-4,5.0407215E-3,3.4096555E-3,7.69416E-3],"categories":[],"categories_nodes":[],"categories_segments":[],"categories_sizes":[],"default_left":[0,0,0,0,0,0,0,0,0,0,0,0,0,0,0,0,0,0,0,0,0,0,0,0,0,0,0,0,0,0,0,0,0,0,0,0,0,0,0,0,0,0,0,0,0,0,0,0,0,0,0,0,0,0,0,0,0],"id":7,"left_children":[1,3,5,7,9,11,13,-1,15,17,19,21,23,25,-1,27,-1,29,31,33,35,37,39,-1,41,43,-1,-1,-1,-1,-1,-1,45,47,49,51,-1,53,-1,55,-1,-1,-1,-1,-1,-1,-1,-1,-1,-1,-1,-1,-1,-1,-1,-1,-1],"loss_changes":[2.133299E2,4.4426567E1,1.8211609E1,4.453781E0,2.2490687E0,2.6206913E0,2.1676025E0,0E0,2.570114E-1,3.1240892E-1,4.3425584E-1,3.1251705E-1,1.4427757E-1,3.290329E-1,0E0,7.455444E-2,0E0,1.7174101E-1,1.3519096E-1,1.9244516E-1,1.5384306E-1,6.183155E-2,1.1009443E-1,0E0,1.4739609E-1,4.3283463E-2,0E0,0E0,0E0,0E0,0E0,0E0,1.0480434E-1,2.0613903E-2,1.281867E-1,1.1011246E-1,0E0,6.9300532E-3,0E0,2.0940602E-3,0E0,0E0,0E0,0E0,0E0,0E0,0E0,0E0,0E0,0E0,0E0,0E0,0E0,0E0,0E0,0E0,0E0],"parents":[2147483647,0,0,1,1,2,2,3,3,4,4,5,5,6,6,8,8,9,9,10,10,11,11,12,12,13,13,15,15,17,17,18,18,19,19,20,20,21,21,22,22,24,24,25,25,32,32,33,33,34,34,35,35,37,37,39,39],"right_children":[2,4,6,8,10,12,14,-1,16,18,20,22,24,26,-1,28,-1,30,32,34,36,38,40,-1,42,44,-1,-1,-1,-1,-1,-1,46,48,50,52,-1,54,-1,56,-1,-1,-1,-1,-1,-1,-1,-1,-1,-1,-1,-1,-1,-1,-1,-1,-1],"split_conditions":[5.09E0,4.26E0,5.7E0,3.72E0,4.68E0,5.36E0,6.17E0,-4.8373353E-2,1.9616771E4,9.721574E-1,4.88E0,5.4242234E0,5.351E2,5.8E0,4.6265487E-2,4.24706E0,-1.4550109E-2,5.03E0,3.9374268E-1,-6.9999725E-2,1.0210971E0,1.9813558E-2,5.21E0,8.980378E-3,-1.1038961E-1,5.45E0,3.6020946E-2,-3.4972742E-2,-2.685971E-2,-1.9454544E-2,-6.081004E-3,-1.4236107E-2,-1.1988127E-2,4.84E0,9.415468E-1,5.09E0,6.627782E-3,4.2295E2,-2.799029E-4,1.031682E-1,1.1885337E-2,1.1845407E-2,2.105639E-2,1.4664403E-2,2.9406605E-2,-2.6835022E-3,-1.06290085E-2,1.4711272E-3,-2.280967E-3,-7.693983E-3,-0E0,-3.6633753E-3,1.1473031E-3,8.8297046E-4,5.0407215E-3,3.4096555E-3,7.69416E-3],"split_indices":[0,0,0,0,0,0,0,0,44,21,8,30,35,3,0,23,0,12,36,24,15,27,0,0,38,12,0,0,0,0,0,0,26,11,33,10,0,44,0,32,0,0,0,0,0,0,0,0,0,0,0,0,0,0,0,0,0],"split_type":[0,0,0,0,0,0,0,0,0,0,0,0,0,0,0,0,0,0,0,0,0,0,0,0,0,0,0,0,0,0,0,0,0,0,0,0,0,0,0,0,0,0,0,0,0,0,0,0,0,0,0,0,0,0,0,0,0],"sum_hessian":[8.84E2,4.76E2,4.08E2,2.29E2,2.47E2,1.93E2,2.15E2,8.6E1,1.43E2,8.6E1,1.61E2,7.8E1,1.15E2,1.65E2,5E1,1.38E2,5E0,4.3E1,4.3E1,1.1E2,5.1E1,2.8E1,5E1,7E0,1.08E2,7.8E1,8.7E1,1.07E2,3.1E1,3.8E1,5E0,2.1E1,2.2E1,1.2E1,9.8E1,4.6E1,5E0,2E1,8E0,1.8E1,3.2E1,1.2E1,9.6E1,5E0,7.3E1,1.1E1,1.1E1,6E0,6E0,9.1E1,7E0,2.9E1,1.7E1,5E0,1.5E1,1.1E1,7E0],"tree_param":{"num_deleted":"0","num_feature":"45","num_nodes":"57","size_leaf_vector":"1"}},{"base_weights":[-9.567638E-3,-4.3855137E-1,5.0563335E-1,-7.2891873E-1,-1.6020788E-1,2.7763456E-1,6.7297626E-1,-4.5960464E-2,-6.1883247E-1,-2.753136E-1,-8.091758E-2,1.5422086E-1,3.6789206E-1,5.435346E-1,7.6732653E-1,-1.4434262E-2,-6.2747663E-1,-3.125945E-1,-1.9190614E-1,-1.1469554E-1,-1.3125829E-2,9.405975E-2,2.2711796E-1,6.9820993E-3,3.7769216E-1,2.3470826E-2,3.0749962E-2,3.453317E-2,4.5113266E-2,-3.399324E-2,-5.540658E-1,-1.7422307E-2,-1.6080254E-1,-2.6819083E-1,-0E0,-1.2584251E-1,2.9336961E-3,-2.943782E-2,4.8726867E-3,6.6015415E-2,9.077943E-3,4.8901825E-3,1.2467595E-2,1.3895151E-2,2.0008136E-2,-1.3806446E-2,-2.8520677E-2,-1.3893637E-3,-1.0726574E-2,-6.6369087E-3,-1.5020591E-2,-2.540643E-3,1.8054041E-3,-4.694761E-3,-1.0414044E-2,9.248088E-5,-4.723368E-3,-0E0,3.9299983E-3],"categories":[],"categories_nodes":[],"categories_segments":[],"categories_sizes":[],"default_left":[0,0,0,0,0,0,0,0,0,0,0,0,0,0,0,0,0,0,0,0,0,0,0,0,0,0,0,0,0,0,0,0,0,0,0,0,0,0,0,0,0,0,0,0,0,0,0,0,0,0,0,0,0,0,0,0,0,0,0],"id":8,"left_children":[1,3,5,7,9,11,13,-1,15,17,19,21,23,25,27,-1,29,31,33,35,37,39,41,-1,43,-1,-1,-1,-1,-1,45,-1,47,49,51,53,-1,55,-1,57,-1,-1,-1,-1,-1,-1,-1,-1,-1,-1,-1,-1,-1,-1,-1,-1,-1,-1,-1],"loss_changes":[1.9315927E2,3.8346344E1,1.4865227E1,4.158325E0,2.1781564E0,1.7846842E0,2.236374E0,0E0,1.581726E-1,1.9740248E-1,3.2232285E-1,2.7105176E-1,1.125021E-1,1.3254738E-1,5.520325E-1,0E0,6.141281E-2,2.5221586E-1,4.740808E-1,2.0155728E-1,8.805965E-2,6.8772614E-2,3.290224E-2,0E0,2.7279854E-2,0E0,0E0,0E0,0E0,0E0,6.226158E-2,0E0,7.700837E-2,2.1555066E-2,2.3314442E-2,1.9252455E-1,0E0,1.0302846E-1,0E0,2.6629418E-2,0E0,0E0,0E0,0E0,0E0,0E0,0E0,0E0,0E0,0E0,0E0,0E0,0E0,0E0,0E0,0E0,0E0,0E0,0E0],"parents":[2147483647,0,0,1,1,2,2,3,3,4,4,5,5,6,6,8,8,9,9,10,10,11,11,12,12,13,13,14,14,16,16,17,17,18,18,19,19,20,20,21,21,22,22,24,24,30,30,32,32,33,33,34,34,35,35,37,37,39,39],"right_children":[2,4,6,8,10,12,14,-1,16,18,20,22,24,26,28,-1,30,32,34,36,38,40,42,-1,44,-1,-1,-1,-1,-1,46,-1,48,50,52,54,-1,56,-1,58,-1,-1,-1,-1,-1,-1,-1,-1,-1,-1,-1,-1,-1,-1,-1,-1,-1,-1,-1],"split_conditions":[5.09E0,4.26E0,5.63E0,3.72E0,4.7E0,5.36E0,5.962E0,-4.5960464E-2,3.51E0,4.3071112E-1,4.89E0,5.21E0,5.351E2,5.8E0,6.18E0,-1.4434262E-2,4.03E0,4.68E0,4.4297824E0,8.944909E-1,1.1E1,1.1907E3,1.092826E3,6.9820993E-3,-6.6E-1,2.3470826E-2,3.0749962E-2,3.453317E-2,4.5113266E-2,-3.399324E-2,3.96E0,-1.7422307E-2,4.62E0,4.04E0,9.758E2,2.5584599E-2,2.9336961E-3,2.4624566E-2,4.8726867E-3,1E0,9.077943E-3,4.8901825E-3,1.2467595E-2,1.3895151E-2,2.0008136E-2,-1.3806446E-2,-2.8520677E-2,-1.3893637E-3,-1.0726574E-2,-6.6369087E-3,-1.5020591E-2,-2.540643E-3,1.8054041E-3,-4.694761E-3,-1.0414044E-2,9.248088E-5,-4.723368E-3,-0E0,3.9299983E-3],"split_indices":[0,0,0,0,0,0,14,0,13,33,0,0,35,2,0,0,0,9,23,33,42,35,44,0,37,0,0,0,0,0,13,0,0,11,34,25,0,27,0,41,0,0,0,0,0,0,0,0,0,0,0,0,0,0,0,0,0,0,0],"split_type":[0,0,0,0,0,0,0,0,0,0,0,0,0,0,0,0,0,0,0,0,0,0,0,0,0,0,0,0,0,0,0,0,0,0,0,0,0,0,0,0,0,0,0,0,0,0,0,0,0,0,0,0,0,0,0,0,0,0,0],"sum_hessian":[8.72E2,4.76E2,3.96E2,2.32E2,2.44E2,1.69E2,2.27E2,8.2E1,1.5E2,9.8E1,1.46E2,7.3E1,9.6E1,9.9E1,1.28E2,5E0,1.45E2,6.5E1,3.3E1,9.6E1,5E1,4.2E1,3.1E1,5E0,9.1E1,5.3E1,4.6E1,8.6E1,4.2E1,7.9E1,6.6E1,5.1E1,1.4E1,2.3E1,1E1,9.1E1,5E0,4.5E1,5E0,3.4E1,8E0,6E0,2.5E1,2E1,7.1E1,5E0,6.1E1,5E0,9E0,6E0,1.7E1,5E0,5E0,6.8E1,2.3E1,3E1,1.5E1,6E0,2.8E1],"tree_param":{"num_deleted":"0","num_feature":"45","num_nodes":"59","size_leaf_vector":"1"}},{"base_weights":[2.1255864E-3,-4.135593E-1,4.677286E-1,-6.929691E-1,-1.4848784E-1,2.896932E-1,6.563842E-1,-8.3336806E-1,-5.480376E-1,-2.6151446E-1,-7.930759E-2,1.4999405E-1,3.7018752E-1,6.0249126E-1,4.145219E-2,-4.537262E-2,-3.5552606E-2,-2.7855698E-2,-1.383283E-2,-3.0424896E-1,-1.6851929E-1,-9.649215E-2,1.9734683E-2,8.319905E-2,2.1899907E-1,3.111062E-1,4.1118342E-1,1.7132113E-2,3.0681077E-2,-3.2314184E-1,-5.172647E-3,-1.2993953E-2,-0E0,-1.1355828E-1,1.573719E-2,-3.213965E-2,8.362171E-2,9.732323E-2,-0E0,1.3730256E-1,1.2599458E-2,6.624964E-3,1.6155796E-2,1.2304303E-2,2.1286553E-2,-7.2533325E-3,-1.682929E-2,-1.7214973E-3,1.7874392E-3,-8.837304E-3,-4.297934E-3,-2.288969E-3,4.330815E-3,-4.096831E-3,7.3233765E-4,5.5328202E-3,1.2991698E-3,3.8732027E-3,7.7122482E-3,2.944928E-3,9.650338E-3],"categories":[],"categories_nodes":[],"categories_segments":[],"categories_sizes":[],"default_left":[0,0,0,0,0,0,0,0,0,0,0,0,0,0,0,0,0,0,0,0,0,0,0,0,0,0,0,0,0,0,0,0,0,0,0,0,0,0,0,0,0,0,0,0,0,0,0,0,0,0,0,0,0,0,0,0,0,0,0,0,0],"id":9,"left_children":[1,3,5,7,9,11,13,15,17,19,21,23,25,27,-1,-1,-1,-1,-1,29,31,33,35,37,39,41,43,-1,-1,45,-1,-1,47,49,51,53,55,57,-1,59,-1,-1,-1,-1,-1,-1,-1,-1,-1,-1,-1,-1,-1,-1,-1,-1,-1,-1,-1,-1,-1],"loss_changes":[1.6819518E2,3.380812E1,1.3486069E1,3.94281E0,1.7983298E0,2.2876377E0,1.1997681E0,1.9874573E-1,4.0828705E-2,2.551465E-1,2.6317757E-1,3.2029486E-1,1.2440872E-1,1.4241028E-1,0E0,0E0,0E0,0E0,0E0,1.4773417E-1,4.7038126E-1,2.5673032E-1,8.0745906E-2,4.3335706E-2,2.8888822E-2,4.0327072E-2,8.184433E-3,0E0,0E0,2.9891014E-2,0E0,0E0,1.59658E-2,1.5385997E-1,8.2173E-2,3.5886943E-2,6.0136616E-4,5.5757165E-3,0E0,2.4585724E-2,0E0,0E0,0E0,0E0,0E0,0E0,0E0,0E0,0E0,0E0,0E0,0E0,0E0,0E0,0E0,0E0,0E0,0E0,0E0,0E0,0E0],"parents":[2147483647,0,0,1,1,2,2,3,3,4,4,5,5,6,6,7,7,8,8,9,9,10,10,11,11,12,12,13,13,19,19,20,20,21,21,22,22,23,23,24,24,25,25,26,26,29,29,32,32,33,33,34,34,35,35,36,36,37,37,39,39],"right_children":[2,4,6,8,10,12,14,16,18,20,22,24,26,28,-1,-1,-1,-1,-1,30,32,34,36,38,40,42,44,-1,-1,46,-1,-1,48,50,52,54,56,58,-1,60,-1,-1,-1,-1,-1,-1,-1,-1,-1,-1,-1,-1,-1,-1,-1,-1,-1,-1,-1,-1,-1],"split_conditions":[5.09E0,4.3E0,5.734E0,3.94E0,4.7E0,5.36E0,6.18E0,3.68E0,8.720818E-2,4.3071112E-1,5.35014E0,5.21E0,5.51E0,-5.407229E-2,4.145219E-2,-4.537262E-2,-3.5552606E-2,-2.7855698E-2,-1.383283E-2,7E0,4.4297824E0,3.809524E-2,9.705612E-1,1.43419E4,4.517309E-3,5.351E2,1.832209E3,1.7132113E-2,3.0681077E-2,-1.17448665E-1,-5.172647E-3,-1.2993953E-2,7.474E3,4.782051E0,7.79285E3,4.83E0,-3.887689E-2,1.5382E3,-0E0,1.4291415E-2,1.2599458E-2,6.624964E-3,1.6155796E-2,1.2304303E-2,2.1286553E-2,-7.2533325E-3,-1.682929E-2,-1.7214973E-3,1.7874392E-3,-8.837304E-3,-4.297934E-3,-2.288969E-3,4.330815E-3,-4.096831E-3,7.3233765E-4,5.5328202E-3,1.2991698E-3,3.8732027E-3,7.7122482E-3,2.944928E-3,9.650338E-3],"split_indices":[0,0,14,0,0,0,0,14,24,33,30,0,0,25,0,0,0,0,0,42,23,6,17,43,27,35,44,0,0,25,0,0,43,23,43,3,7,34,0,26,0,0,0,0,0,0,0,0,0,0,0,0,0,0,0,0,0,0,0,0,0],"split_type":[0,0,0,0,0,0,0,0,0,0,0,0,0,0,0,0,0,0,0,0,0,0,0,0,0,0,0,0,0,0,0,0,0,0,0,0,0,0,0,0,0,0,0,0,0,0,0,0,0,0,0,0,0,0,0,0,0,0,0,0,0],"sum_hessian":[8.67E2,4.58E2,4.09E2,2.22E2,2.36E2,2.12E2,1.97E2,1.1E2,1.12E2,8.8E1,1.48E2,7.9E1,1.33E2,1.54E2,4.3E1,6.4E1,4.6E1,1.07E2,5E0,5.8E1,3E1,1.27E2,2.1E1,4.2E1,3.7E1,5.9E1,7.4E1,8E0,1.46E2,5.2E1,6E0,1.9E1,1.1E1,1.11E2,1.6E1,1.1E1,1E1,3.5E1,7E0,1.3E1,2.4E1,5E0,5.4E1,8E0,6.6E1,5E0,4.7E1,6E0,5E0,3.1E1,8E1,8E0,8E0,6E0,5E0,5E0,5E0,2.9E1,6E0,7E0,6E0],"tree_param":{"num_deleted":"0","num_feature":"45","num_nodes":"61","size_leaf_vector":"1"}},{"base_weights":[8.466144E-3,-3.893196E-1,4.3976775E-1,-6.59038E-1,-1.4710356E-1,2.5664875E-1,6.1132985E-1,-4.1503236E-2,-5.506738E-1,-2.611952E-1,-8.391673E-2,1.4001705E-1,3.404521E-1,4.9061036E-1,6.867637E-1,-5.62331E-1,-1.392262E-2,-3.142726E-1,-1.8185143E-1,-1.0517485E-1,-0E0,7.558969E-2,2.0054242E-1,1.1587468E-2,3.599622E-1,1.1178231E-2,2.5132699E-2,3.2318722E-2,4.333157E-2,-2.9562954E-2,-2.256165E-2,-5.542643E-3,-3.3218917E-1,-1.1435043E-2,-6.647172E-2,-3.413108E-2,-1.23542115E-1,-2.8621359E-2,6.502289E-2,8.805719E-2,-2.76827E-4,1.366696E-1,1.19058015E-2,1.2308309E-2,1.9036015E-2,-8.046718E-3,-1.7592272E-2,-1.4267284E-4,-4.668822E-3,2.8318234E-4,-3.031846E-3,-8.891302E-3,-4.8909527E-3,-4.5159385E-3,5.1748723E-4,5.804598E-3,-0E0,2.9971555E-3,8.512346E-3,8.301593E-3,2.2067574E-3],"categories":[],"categories_nodes":[],"categories_segments":[],"categories_sizes":[],"default_left":[0,0,0,0,0,0,0,0,0,0,0,0,0,0,0,0,0,0,0,0,0,0,0,0,0,0,0,0,0,0,0,0,0,0,0,0,0,0,0,0,0,0,0,0,0,0,0,0,0,0,0,0,0,0,0,0,0,0,0,0,0],"id":10,"left_children":[1,3,5,7,9,11,13,-1,15,17,19,21,23,25,27,29,-1,31,33,35,37,39,41,-1,43,-1,-1,-1,-1,-1,-1,-1,45,-1,47,49,51,53,55,57,-1,59,-1,-1,-1,-1,-1,-1,-1,-1,-1,-1,-1,-1,-1,-1,-1,-1,-1,-1,-1],"loss_changes":[1.5372751E2,3.0266273E1,1.3265305E1,3.482132E0,1.7242155E0,1.956852E0,1.5578308E0,0E0,1.9726181E-1,2.5962543E-1,2.932005E-1,3.08182E-1,1.14025116E-1,1.0124588E-1,2.5473785E-1,4.996872E-2,0E0,1.01100445E-1,1.6068864E-1,1.4834559E-1,6.534893E-2,5.5265903E-2,3.7975192E-2,0E0,7.980919E-2,0E0,0E0,0E0,0E0,0E0,0E0,0E0,4.3578625E-2,0E0,1.2361776E-2,3.6429733E-2,9.607184E-2,6.4233236E-2,3.4356307E-2,6.151411E-2,0E0,2.599585E-2,0E0,0E0,0E0,0E0,0E0,0E0,0E0,0E0,0E0,0E0,0E0,0E0,0E0,0E0,0E0,0E0,0E0,0E0,0E0],"parents":[2147483647,0,0,1,1,2,2,3,3,4,4,5,5,6,6,8,8,9,9,10,10,11,11,12,12,13,13,14,14,15,15,17,17,18,18,19,19,20,20,21,21,22,22,24,24,32,32,34,34,35,35,36,36,37,37,38,38,39,39,41,41],"right_children":[2,4,6,8,10,12,14,-1,16,18,20,22,24,26,28,30,-1,32,34,36,38,40,42,-1,44,-1,-1,-1,-1,-1,-1,-1,46,-1,48,50,52,54,56,58,-1,60,-1,-1,-1,-1,-1,-1,-1,-1,-1,-1,-1,-1,-1,-1,-1,-1,-1,-1,-1],"split_conditions":[5.09E0,4.26E0,5.66E0,4.0502152E0,4.68E0,5.36E0,5.95E0,-4.1503236E-2,1.0230093E0,9.721574E-1,4.96E0,5.21E0,2.424E2,9.48334E-10,1.435263E-1,4.24706E0,-1.392262E-2,9.17309E-1,6.174957E-1,-5.755979E-2,1.3646E3,1.8363E3,7.86144E-3,1.1587468E-2,-6.6E-1,1.1178231E-2,2.5132699E-2,3.2318722E-2,4.333157E-2,-2.9562954E-2,-2.256165E-2,-5.542643E-3,-1.1251403E-1,-1.1435043E-2,1.5883424E0,4.84E0,6E0,-1.7769555E-2,1.90485E3,1.1907E3,-2.76827E-4,5.34E0,1.19058015E-2,1.2308309E-2,1.9036015E-2,-8.046718E-3,-1.7592272E-2,-1.4267284E-4,-4.668822E-3,2.8318234E-4,-3.031846E-3,-8.891302E-3,-4.8909527E-3,-4.5159385E-3,5.1748723E-4,5.804598E-3,-0E0,2.9971555E-3,8.512346E-3,8.301593E-3,2.2067574E-3],"split_indices":[0,0,0,30,0,0,0,0,21,21,0,0,34,27,25,23,0,19,36,25,34,35,27,0,37,0,0,0,0,0,0,0,25,0,36,11,42,25,35,35,0,12,0,0,0,0,0,0,0,0,0,0,0,0,0,0,0,0,0,0,0],"split_type":[0,0,0,0,0,0,0,0,0,0,0,0,0,0,0,0,0,0,0,0,0,0,0,0,0,0,0,0,0,0,0,0,0,0,0,0,0,0,0,0,0,0,0,0,0,0,0,0,0,0,0,0,0,0,0,0,0,0,0,0,0],"sum_hessian":[8.94E2,4.65E2,4.29E2,2.19E2,2.46E2,2.09E2,2.2E2,8.2E1,1.37E2,8.6E1,1.6E2,8.9E1,1.2E2,8.8E1,1.32E2,1.3E2,7E0,4.9E1,3.7E1,1.28E2,3.2E1,4.5E1,4.4E1,2.1E1,9.9E1,5E0,8.3E1,1.12E2,2E1,9.9E1,3.1E1,5E0,4.4E1,2.5E1,1.2E1,2.8E1,1E2,2.2E1,1E1,4E1,5E0,1.9E1,2.5E1,1.8E1,8.1E1,6E0,3.8E1,5E0,7E0,1E1,1.8E1,2.9E1,7.1E1,9E0,1.3E1,5E0,5E0,3.2E1,8E0,1.3E1,6E0],"tree_param":{"num_deleted":"0","num_feature":"45","num_nodes":"61","size_leaf_vector":"1"}},{"base_weights":[-1.01368865E-2,-3.9209452E-1,4.119542E-1,-6.3521016E-1,-1.4352603E-1,2.1441637E-1,5.719319E-1,-4.029068E-2,-5.2670944E-1,-2.3896712E-1,-8.159197E-2,1.1729243E-1,3.1128708E-1,4.981821E-1,3.4737363E-2,-2.8610786E-2,-4.6074522E-1,-2.6560858E-1,-1.6240029E-1,-1.0756295E-1,-1.2773988E-2,6.556577E-2,1.8298425E-1,1.1263639E-2,3.2946762E-1,3.976351E-1,2.673525E-2,-9.857944E-3,-2.3902325E-2,-2.7687344E-1,-4.8828754E-3,-1.1800072E-2,-3.1489536E-2,-8.015833E-2,-1.6749968E-1,7.531686E-3,-4.327891E-2,7.705638E-2,-1.2225104E-3,1.1527849E-3,1.0115766E-2,1.7022183E-2,8.231343E-3,2.0932255E-2,1.0774578E-2,-1.4859663E-2,-7.7895573E-3,-3.2603932E-3,-0E0,-5.7023824E-3,-2.1615864E-3,-4.764698E-3,-1.0349027E-2,-0E0,-5.255973E-3,1.3723652E-3,5.5741626E-3],"categories":[],"categories_nodes":[],"categories_segments":[],"categories_sizes":[],"default_left":[0,0,0,0,0,0,0,0,0,0,0,0,0,0,0,0,0,0,0,0,0,0,0,0,0,0,0,0,0,0,0,0,0,0,0,0,0,0,0,0,0,0,0,0,0,0,0,0,0,0,0,0,0,0,0,0,0],"id":11,"left_children":[1,3,5,7,9,11,13,-1,15,17,19,21,23,25,-1,-1,27,29,31,33,35,37,39,-1,41,43,-1,-1,-1,45,-1,-1,47,49,51,-1,53,55,-1,-1,-1,-1,-1,-1,-1,-1,-1,-1,-1,-1,-1,-1,-1,-1,-1,-1,-1],"loss_changes":[1.3816463E2,2.7024857E1,1.2660614E1,3.6442184E0,1.2725224E0,1.6517878E0,1.5634918E0,0E0,5.9314728E-2,9.153175E-2,2.3323554E-1,2.825613E-1,1.26104355E-2,2.2295761E-1,0E0,0E0,1.3009262E-1,5.2808285E-2,2.1633393E-1,1.2441945E-1,1.9517335E-1,6.4033255E-2,9.646201E-2,0E0,2.371645E-2,1.092577E-2,0E0,0E0,0E0,4.8642635E-2,0E0,0E0,1.4604892E-2,6.8192214E-2,3.272015E-2,0E0,8.9144185E-2,6.84413E-2,0E0,0E0,0E0,0E0,0E0,0E0,0E0,0E0,0E0,0E0,0E0,0E0,0E0,0E0,0E0,0E0,0E0,0E0,0E0],"parents":[2147483647,0,0,1,1,2,2,3,3,4,4,5,5,6,6,8,8,9,9,10,10,11,11,12,12,13,13,16,16,17,17,18,18,19,19,20,20,21,21,22,22,24,24,25,25,29,29,32,32,33,33,34,34,36,36,37,37],"right_children":[2,4,6,8,10,12,14,-1,16,18,20,22,24,26,-1,-1,28,30,32,34,36,38,40,-1,42,44,-1,-1,-1,46,-1,-1,48,50,52,-1,54,56,-1,-1,-1,-1,-1,-1,-1,-1,-1,-1,-1,-1,-1,-1,-1,-1,-1,-1,-1],"split_conditions":[5.04E0,4.26E0,5.63E0,3.72E0,4.68E0,5.36E0,6.01E0,-4.029068E-2,4.03E0,4.3071112E-1,4.88E0,5.21E0,-6.6E-1,5.8E0,3.4737363E-2,-2.8610786E-2,3.93E0,5.307273E0,4.3967924E0,2.5584599E-2,4.4216E0,1.1963E4,1.476E2,1.1263639E-2,5.63E0,6.044905E-2,2.673525E-2,-9.857944E-3,-2.3902325E-2,-2.4393426E-2,-4.8828754E-3,-1.1800072E-2,4.53E0,1.292611E-2,-2.460457E-2,7.531686E-3,2.4624566E-2,1.832209E3,-1.2225104E-3,1.1527849E-3,1.0115766E-2,1.7022183E-2,8.231343E-3,2.0932255E-2,1.0774578E-2,-1.4859663E-2,-7.7895573E-3,-3.2603932E-3,-0E0,-5.7023824E-3,-2.1615864E-3,-4.764698E-3,-1.0349027E-2,-0E0,-5.255973E-3,1.3723652E-3,5.5741626E-3],"split_indices":[0,0,0,0,0,0,0,0,0,33,0,0,37,1,0,0,13,30,23,25,20,44,44,0,2,7,0,0,0,24,0,0,0,28,7,0,27,44,0,0,0,0,0,0,0,0,0,0,0,0,0,0,0,0,0,0,0],"split_type":[0,0,0,0,0,0,0,0,0,0,0,0,0,0,0,0,0,0,0,0,0,0,0,0,0,0,0,0,0,0,0,0,0,0,0,0,0,0,0,0,0,0,0,0,0,0,0,0,0,0,0,0,0,0,0,0,0],"sum_hessian":[8.55E2,4.49E2,4.06E2,2.26E2,2.23E2,1.83E2,2.23E2,8.5E1,1.41E2,8.6E1,1.37E2,9.3E1,9E1,1.43E2,8E1,7.8E1,6.3E1,6.1E1,2.5E1,9.8E1,3.9E1,5.4E1,3.9E1,1.9E1,7.1E1,4.2E1,1.01E2,5E0,5.8E1,5.6E1,5E0,1.5E1,1E1,7E1,2.8E1,5E0,3.4E1,4.9E1,5E0,5E0,3.4E1,6.5E1,6E0,3.6E1,6E0,4.6E1,1E1,5E0,5E0,3.4E1,3.6E1,1.2E1,1.6E1,2.1E1,1.3E1,2.2E1,2.7E1],"tree_param":{"num_deleted":"0","num_feature":"45","num_nodes":"57","size_leaf_vector":"1"}},{"base_weights":[-3.2764082E-3,-3.96766E-1,3.482361E-1,-5.961684E-1,-1.6430826E-1,1.5893422E-1,5.2936023E-1,-7.0708346E-1,-4.6970838E-1,-2.3196834E-1,-1.0610405E-1,3.71454E-2,2.6030305E-1,4.2726114E-1,6.3218874E-1,-3.623822E-2,-1.8043803E-2,-2.3927188E-2,-1.2915768E-2,-2.8234163E-1,-1.7176062E-1,-1.160374E-1,2.472316E-4,5.644867E-2,-4.464626E-2,1.8647069E-1,1.5584928E-2,1.787659E-2,2.4935992E-2,2.777248E-2,3.6819253E-2,-6.0308534E-3,-3.1058317E-1,-1.0806414E-2,-8.269854E-2,-1.2969365E-5,-1.2367381E-1,3.6357243E-2,1.2015915E-2,-6.8929225E-2,-0E0,1.1047436E-3,1.0023318E-2,-1.6735384E-2,-7.0822537E-3,-5.9464476E-3,-7.286602E-4,-5.1587983E-3,-1.08358795E-2,-2.2484727E-4,3.5681375E-3,-6.337714E-4,-4.3830923E-3],"categories":[],"categories_nodes":[],"categories_segments":[],"categories_sizes":[],"default_left":[0,0,0,0,0,0,0,0,0,0,0,0,0,0,0,0,0,0,0,0,0,0,0,0,0,0,0,0,0,0,0,0,0,0,0,0,0,0,0,0,0,0,0,0,0,0,0,0,0,0,0,0,0],"id":12,"left_children":[1,3,5,7,9,11,13,15,17,19,21,23,25,27,29,-1,-1,-1,-1,31,33,35,-1,37,39,41,-1,-1,-1,-1,-1,-1,43,-1,45,-1,47,49,-1,51,-1,-1,-1,-1,-1,-1,-1,-1,-1,-1,-1,-1,-1],"loss_changes":[1.2338303E2,1.9340454E1,1.59962845E1,2.7201462E0,7.134476E-1,2.8247628E0,2.143631E0,3.521881E-1,6.2828064E-3,1.7601919E-1,1.3081622E-1,1.7263702E-1,3.7018585E-1,3.5392952E-1,3.9731598E-1,0E0,0E0,0E0,0E0,1.295166E-1,1.2610877E-1,7.598758E-2,0E0,2.8868502E-1,2.6651561E-2,9.984505E-2,0E0,0E0,0E0,0E0,0E0,0E0,5.9825897E-2,0E0,2.6876166E-2,0E0,1.23019814E-1,1.22847326E-1,0E0,3.6080554E-3,0E0,0E0,0E0,0E0,0E0,0E0,0E0,0E0,0E0,0E0,0E0,0E0,0E0],"parents":[2147483647,0,0,1,1,2,2,3,3,4,4,5,5,6,6,7,7,8,8,9,9,10,10,11,11,12,12,13,13,14,14,19,19,20,20,21,21,23,23,24,24,25,25,32,32,34,34,36,36,37,37,39,39],"right_children":[2,4,6,8,10,12,14,16,18,20,22,24,26,28,30,-1,-1,-1,-1,32,34,36,-1,38,40,42,-1,-1,-1,-1,-1,-1,44,-1,46,-1,48,50,-1,52,-1,-1,-1,-1,-1,-1,-1,-1,-1,-1,-1,-1,-1],"split_conditions":[4.88E0,4.26E0,5.59E0,3.94E0,4.68E0,5.21E0,5.962E0,8.285624E3,2.0218232E-1,9.708394E-1,5.09E0,1.86515E3,5.444E0,5.77E0,6.17E0,-3.623822E-2,-1.8043803E-2,-2.3927188E-2,-1.2915768E-2,9.284217E-1,5.966587E-1,4.5E0,2.472316E-4,3.0692E3,3.626943E-2,1.476E2,1.5584928E-2,1.787659E-2,2.4935992E-2,2.777248E-2,3.6819253E-2,-6.0308534E-3,4.0579712E1,-1.0806414E-2,2.4477411E-2,-1.2969365E-5,1.0170354E0,5.09E0,1.2015915E-2,-1E-2,-0E0,1.1047436E-3,1.0023318E-2,-1.6735384E-2,-7.0822537E-3,-5.9464476E-3,-7.286602E-4,-5.1587983E-3,-1.08358795E-2,-2.2484727E-4,3.5681375E-3,-6.337714E-4,-4.3830923E-3],"split_indices":[0,0,0,0,0,0,14,44,32,21,13,35,14,2,0,0,0,0,0,19,36,11,0,34,6,44,0,0,0,0,0,0,29,0,28,0,19,1,0,7,0,0,0,0,0,0,0,0,0,0,0,0,0],"split_type":[0,0,0,0,0,0,0,0,0,0,0,0,0,0,0,0,0,0,0,0,0,0,0,0,0,0,0,0,0,0,0,0,0,0,0,0,0,0,0,0,0,0,0,0,0,0,0,0,0,0,0,0,0],"sum_hessian":[8.9E2,4.2E2,4.7E2,2.25E2,1.95E2,2.31E2,2.39E2,1.17E2,1.08E2,8.8E1,1.07E2,1.06E2,1.25E2,1.23E2,1.16E2,1.1E2,7E0,1.02E2,6E0,4.5E1,4.3E1,9.9E1,8E0,8.7E1,1.9E1,5.4E1,7.1E1,6.6E1,5.7E1,7.1E1,4.5E1,8E0,3.7E1,2.7E1,1.6E1,7E0,9.2E1,8E1,7E0,1.3E1,6E0,5E0,4.9E1,3.1E1,6E0,9E0,7E0,7.8E1,1.4E1,3.6E1,4.4E1,5E0,8E0],"tree_param":{"num_deleted":"0","num_feature":"45","num_nodes":"53","size_leaf_vector":"1"}},{"base_weights":[-2.6281062E-4,-3.3632794E-1,3.8157228E-1,-5.7281953E-1,-1.2305768E-1,2.3790993E-1,5.571448E-1,-6.914947E-1,-4.4242036E-1,-1.918446E-1,-5.6305807E-2,1.3323589E-1,3.0881628E-1,5.058284E-1,3.5052624E-2,-3.5399344E-2,-1.8701842E-2,-1.0798942E-2,-2.2517247E-2,-3.0097097E-1,-1.6464637E-1,-7.335355E-2,4.5447424E-2,1.8597463E-1,6.945425E-2,2.0660378E-1,3.294466E-1,3.1958915E-2,4.7157118E-1,-1.6867973E-2,-6.5520876E-3,-2.0006596E-1,-8.110955E-2,3.4138195E-2,-8.914253E-2,-3.010824E-4,4.8612426E-3,4.40793E-3,1.0006315E-2,8.26625E-2,-0E0,1.1270877E-2,4.4827494E-3,1.2359644E-2,3.522961E-1,1.2043431E-2,2.3947943E-2,-4.3416084E-3,-1.0400533E-2,-0E0,-6.1548003E-3,-2.484456E-3,4.8670527E-3,-9.621411E-3,-3.828636E-3,2.8158573E-3,6.226112E-3,1.0114281E-2,1.8446624E-2],"categories":[],"categories_nodes":[],"categories_segments":[],"categories_sizes":[],"default_left":[0,0,0,0,0,0,0,0,0,0,0,0,0,0,0,0,0,0,0,0,0,0,0,0,0,0,0,0,0,0,0,0,0,0,0,0,0,0,0,0,0,0,0,0,0,0,0,0,0,0,0,0,0,0,0,0,0,0,0],"id":13,"left_children":[1,3,5,7,9,11,13,15,17,19,21,23,25,27,-1,-1,-1,-1,-1,29,31,33,35,37,39,41,43,-1,45,-1,-1,47,49,51,53,-1,-1,-1,-1,55,-1,-1,-1,-1,57,-1,-1,-1,-1,-1,-1,-1,-1,-1,-1,-1,-1,-1,-1],"loss_changes":[1.1214844E2,2.3312954E1,1.0104221E1,2.9852142E0,1.0939302E0,1.5994568E0,8.761215E-1,2.1860123E-1,2.9901505E-2,2.6004982E-1,2.264266E-1,2.7773404E-1,1.6089153E-1,2.2248459E-1,0E0,0E0,0E0,0E0,0E0,4.4988155E-2,2.4858022E-1,1.9523394E-1,5.767462E-2,2.2741675E-2,3.5749108E-2,5.4893494E-3,5.782795E-2,0E0,8.649826E-3,0E0,0E0,1.3627052E-2,1.0768488E-1,8.3775744E-2,8.429849E-2,0E0,0E0,0E0,0E0,1.5707314E-2,0E0,0E0,0E0,0E0,7.289028E-2,0E0,0E0,0E0,0E0,0E0,0E0,0E0,0E0,0E0,0E0,0E0,0E0,0E0,0E0],"parents":[2147483647,0,0,1,1,2,2,3,3,4,4,5,5,6,6,7,7,8,8,9,9,10,10,11,11,12,12,13,13,19,19,20,20,21,21,22,22,23,23,24,24,25,25,26,26,28,28,31,31,32,32,33,33,34,34,39,39,44,44],"right_children":[2,4,6,8,10,12,14,16,18,20,22,24,26,28,-1,-1,-1,-1,-1,30,32,34,36,38,40,42,44,-1,46,-1,-1,48,50,52,54,-1,-1,-1,-1,56,-1,-1,-1,-1,58,-1,-1,-1,-1,-1,-1,-1,-1,-1,-1,-1,-1,-1,-1],"split_conditions":[5.09E0,4.26E0,5.79E0,3.94E0,4.78E0,5.44E0,6.146E0,8.285624E3,3.51E0,4.48E0,5.24E0,-3.015478E-2,2.513343E3,1.0954952E-2,3.5052624E-2,-3.5399344E-2,-1.8701842E-2,-1.0798942E-2,-2.2517247E-2,1.9586523E-1,9.993338E-1,4.71E0,1.524614E-2,-8E-1,2.5013503E-2,5.64E0,5.514E0,3.1958915E-2,-6.1E0,-1.6867973E-2,-6.5520876E-3,-5.4375246E-2,1.13700196E-1,6.5926653E-1,4.694106E0,-3.010824E-4,4.8612426E-3,4.40793E-3,1.0006315E-2,6.237863E3,-0E0,1.1270877E-2,4.4827494E-3,1.2359644E-2,5.5E0,1.2043431E-2,2.3947943E-2,-4.3416084E-3,-1.0400533E-2,-0E0,-6.1548003E-3,-2.484456E-3,4.8670527E-3,-9.621411E-3,-3.828636E-3,2.8158573E-3,6.226112E-3,1.0114281E-2,1.8446624E-2],"split_indices":[1,0,0,0,8,8,14,44,13,9,13,25,44,28,0,0,0,0,0,32,17,10,28,37,27,8,18,0,39,0,0,26,32,36,22,0,0,0,0,44,0,0,0,0,8,0,0,0,0,0,0,0,0,0,0,0,0,0,0],"split_type":[0,0,0,0,0,0,0,0,0,0,0,0,0,0,0,0,0,0,0,0,0,0,0,0,0,0,0,0,0,0,0,0,0,0,0,0,0,0,0,0,0,0,0,0,0,0,0,0,0,0,0,0,0,0,0,0,0,0,0],"sum_hessian":[8.72E2,4.64E2,4.08E2,2.19E2,2.45E2,2.26E2,1.82E2,1.12E2,1.07E2,1.19E2,1.26E2,9.3E1,1.33E2,1.38E2,4.4E1,1.05E2,7E0,5E0,1.02E2,2.1E1,9.8E1,1.09E2,1.7E1,4.9E1,4.4E1,2.5E1,1.08E2,2.4E1,1.14E2,1.6E1,5E0,6.7E1,3.1E1,1.3E1,9.6E1,8E0,9E0,8E0,4.1E1,3.6E1,8E0,2E1,5E0,2.7E1,8.1E1,5E0,1.09E2,6E0,6.1E1,1.1E1,2E1,5E0,8E0,8E0,8.8E1,2.5E1,1.1E1,1E1,7.1E1],"tree_param":{"num_deleted":"0","num_feature":"45","num_nodes":"59","size_leaf_vector":"1"}},{"base_weights":[-2.8864606E-4,-3.3293927E-1,3.6010972E-1,-5.3708714E-1,-1.2321316E-1,2.0412812E-1,4.9116912E-1,-3.4516573E-2,-4.5213124E-1,-2.2102095E-1,-8.208366E-2,1.2212414E-1,2.8552034E-1,3.9751107E-1,5.718801E-1,-4.7031167E-1,-2.5048658E-1,-2.6380566E-1,-1.0656509E-1,-1.029301E-1,4.7589857E-3,3.5453092E-2,1.5658802E-1,5.466357E-3,1.464915E-2,3.3143383E-1,2.3145132E-2,2.6941022E-2,3.948804E-2,-2.4522603E-2,-1.7586052E-2,-1.7577397E-2,-5.2807205E-3,-6.6759647E-3,-1.3875532E-2,7.427923E-4,-1.546958E-1,-1.5088573E-1,-6.44175E-2,-4.093885E-3,3.2826897E-2,3.573816E-3,-3.9417055E-3,1.19318575E-1,1.0021571E-2,9.1102095E-3,3.530841E-1,-1.0022592E-2,-1.7993205E-3,-9.7105345E-3,-6.4250757E-4,-4.077529E-3,6.476906E-3,-7.238409E-4,3.0910699E-3,6.889971E-4,6.5408084E-3,8.222063E-3,1.8425537E-2],"categories":[],"categories_nodes":[],"categories_segments":[],"categories_sizes":[],"default_left":[0,0,0,0,0,0,0,0,0,0,0,0,0,0,0,0,0,0,0,0,0,0,0,0,0,0,0,0,0,0,0,0,0,0,0,0,0,0,0,0,0,0,0,0,0,0,0,0,0,0,0,0,0,0,0,0,0,0,0],"id":14,"left_children":[1,3,5,7,9,11,13,-1,15,17,19,21,23,25,27,29,31,33,35,37,39,41,43,-1,-1,45,-1,-1,-1,-1,-1,-1,-1,-1,-1,-1,47,49,51,-1,53,-1,-1,55,-1,-1,57,-1,-1,-1,-1,-1,-1,-1,-1,-1,-1,-1,-1],"loss_changes":[1.0393911E2,1.9177418E1,8.3344345E0,2.5419693E0,8.526516E-1,1.2058678E0,1.3765602E0,0E0,3.6001015E-1,2.531526E-1,2.999648E-1,2.6797223E-1,5.2649975E-2,2.3380089E-1,2.9156113E-1,6.810951E-2,1.3676989E-1,3.9801598E-3,1.3316362E-1,2.0884645E-1,7.3165745E-2,1.284088E-1,5.685711E-2,0E0,0E0,6.9527626E-2,0E0,0E0,0E0,0E0,0E0,0E0,0E0,0E0,0E0,0E0,5.0617725E-2,3.1169975E-1,2.5499457E-1,0E0,3.9918125E-2,0E0,0E0,3.348881E-2,0E0,0E0,2.8703213E-2,0E0,0E0,0E0,0E0,0E0,0E0,0E0,0E0,0E0,0E0,0E0,0E0],"parents":[2147483647,0,0,1,1,2,2,3,3,4,4,5,5,6,6,8,8,9,9,10,10,11,11,12,12,13,13,14,14,15,15,16,16,17,17,18,18,19,19,20,20,21,21,22,22,25,25,36,36,37,37,38,38,40,40,43,43,46,46],"right_children":[2,4,6,8,10,12,14,-1,16,18,20,22,24,26,28,30,32,34,36,38,40,42,44,-1,-1,46,-1,-1,-1,-1,-1,-1,-1,-1,-1,-1,48,50,52,-1,54,-1,-1,56,-1,-1,58,-1,-1,-1,-1,-1,-1,-1,-1,-1,-1,-1,-1],"split_conditions":[5.09E0,4.26E0,5.622E0,3.718E0,4.604E0,5.43E0,5.962E0,-3.4516573E-2,3.98475E-3,1.141925E-2,5.13E0,5.134E0,1.343059E3,5.8E0,6.32E0,4.2E0,4.01E0,-4.9530704E-2,2.1475773E-2,6E0,1.8518518E0,2.7378064E-2,5.838567E3,5.466357E-3,1.464915E-2,-2.7E-1,2.3145132E-2,2.6941022E-2,3.948804E-2,-2.4522603E-2,-1.7586052E-2,-1.7577397E-2,-5.2807205E-3,-6.6759647E-3,-1.3875532E-2,7.427923E-4,3.101741E-2,4.89E0,3.626943E-2,-4.093885E-3,5.252092E0,3.573816E-3,-3.9417055E-3,2.7777779E1,1.0021571E-2,9.1102095E-3,9.48334E-10,-1.0022592E-2,-1.7993205E-3,-9.7105345E-3,-6.4250757E-4,-4.077529E-3,6.476906E-3,-7.238409E-4,3.0910699E-3,6.889971E-4,6.5408084E-3,8.222063E-3,1.8425537E-2],"split_indices":[1,1,14,14,14,14,14,0,25,6,13,14,44,2,2,2,2,26,27,42,29,27,44,0,0,37,0,0,0,0,0,0,0,0,0,0,28,1,6,0,30,0,0,29,0,0,27,0,0,0,0,0,0,0,0,0,0,0,0],"split_type":[0,0,0,0,0,0,0,0,0,0,0,0,0,0,0,0,0,0,0,0,0,0,0,0,0,0,0,0,0,0,0,0,0,0,0,0,0,0,0,0,0,0,0,0,0,0,0,0,0,0,0,0,0,0,0,0,0,0,0],"sum_hessian":[8.65E2,4.5E2,4.15E2,2.27E2,2.23E2,1.91E2,2.24E2,7.8E1,1.49E2,6.4E1,1.59E2,9.7E1,9.4E1,1.07E2,1.17E2,1.35E2,1.4E1,4.5E1,1.9E1,1.29E2,3E1,2.9E1,6.8E1,5E0,8.9E1,5.7E1,5E1,1.05E2,1.2E1,1.12E2,2.3E1,7E0,7E0,6E0,3.9E1,5E0,1.4E1,5.5E1,7.4E1,6E0,2.4E1,2.3E1,6E0,4E1,2.8E1,9E0,4.8E1,9E0,5E0,4.1E1,1.4E1,6.9E1,5E0,8E0,1.6E1,5E0,3.5E1,5E0,4.3E1],"tree_param":{"num_deleted":"0","num_feature":"45","num_nodes":"59","size_leaf_vector":"1"}},{"base_weights":[8.788918E-3,-3.1421733E-1,3.494901E-1,-5.1251346E-1,-1.16720594E-1,1.8964012E-1,4.726803E-1,-3.2604147E-2,-4.395758E-1,-1.9598547E-1,-7.210896E-2,1.0775999E-1,2.5879824E-1,4.2913422E-1,3.174669E-2,-2.434644E-2,-3.704155E-1,-2.2997005E-1,-1.1705386E-1,6.4831446E-3,-8.460688E-2,4.0484454E-2,1.436945E-1,5.453627E-3,2.66131E-1,3.6950964E-1,2.4134457E-2,-4.5497133E-3,-1.9509392E-2,-1.3588575E-2,-1.7787686E-1,-0E0,-1.5682317E-1,-5.4140124E-2,4.126021E-3,-9.981639E-2,-2.0311423E-2,6.21477E-2,-2.5345716E-3,1.2696258E-3,1.5283406E-1,1.7419331E-1,1.3875067E-2,9.564229E-3,3.8025448E-1,-3.3930491E-3,-9.724753E-3,-1.0025842E-2,-1.6373424E-3,-4.0142058E-4,-3.728091E-3,-8.749577E-3,-3.9647236E-3,-4.013126E-3,3.2547924E-3,-0E0,3.7668142E-3,8.251972E-3,3.3213452E-3,1.0744351E-2,3.3726923E-3,1.4292757E-2,2.055501E-2],"categories":[],"categories_nodes":[],"categories_segments":[],"categories_sizes":[],"default_left":[0,0,0,0,0,0,0,0,0,0,0,0,0,0,0,0,0,0,0,0,0,0,0,0,0,0,0,0,0,0,0,0,0,0,0,0,0,0,0,0,0,0,0,0,0,0,0,0,0,0,0,0,0,0,0,0,0,0,0,0,0,0,0],"id":15,"left_children":[1,3,5,7,9,11,13,-1,15,17,19,21,23,25,-1,-1,27,29,31,33,35,37,39,-1,41,43,-1,-1,-1,-1,45,-1,47,49,-1,51,53,55,-1,-1,57,59,-1,-1,61,-1,-1,-1,-1,-1,-1,-1,-1,-1,-1,-1,-1,-1,-1,-1,-1,-1,-1],"loss_changes":[9.607573E1,1.742221E1,8.213203E0,1.8743057E0,7.582247E-1,9.9437666E-1,1.3097763E0,0E0,2.2514153E-1,1.5297556E-1,1.5274978E-1,1.8850589E-1,4.3242455E-2,3.49514E-1,0E0,0E0,2.8101444E-1,2.428174E-2,1.21926785E-1,9.9498264E-2,1.1113125E-1,6.947644E-2,3.88453E-2,0E0,4.755497E-3,5.3949356E-2,0E0,0E0,0E0,0E0,1.1757255E-2,0E0,7.8534305E-2,1.5008375E-3,0E0,1.1805487E-1,1.4498842E-1,2.239237E-2,0E0,0E0,1.9676447E-2,1.8081695E-2,0E0,0E0,7.194042E-2,0E0,0E0,0E0,0E0,0E0,0E0,0E0,0E0,0E0,0E0,0E0,0E0,0E0,0E0,0E0,0E0,0E0,0E0],"parents":[2147483647,0,0,1,1,2,2,3,3,4,4,5,5,6,6,8,8,9,9,10,10,11,11,12,12,13,13,16,16,17,17,18,18,19,19,20,20,21,21,22,22,24,24,25,25,30,30,32,32,33,33,35,35,36,36,37,37,40,40,41,41,44,44],"right_children":[2,4,6,8,10,12,14,-1,16,18,20,22,24,26,-1,-1,28,30,32,34,36,38,40,-1,42,44,-1,-1,-1,-1,46,-1,48,50,-1,52,54,56,-1,-1,58,60,-1,-1,62,-1,-1,-1,-1,-1,-1,-1,-1,-1,-1,-1,-1,-1,-1,-1,-1,-1,-1],"split_conditions":[5.07E0,4.3E0,5.63E0,3.72E0,4.68E0,5.36E0,6.146E0,-3.2604147E-2,4.03E0,3.6470342E-2,9.584993E-1,5.4242234E0,5.351E2,5.8E0,3.174669E-2,-2.434644E-2,3.93E0,4.524E0,1.02912985E-1,9.600415E-1,1.0256411E0,1.6038115E-1,5.12E0,5.453627E-3,-6.7E-1,5.5E0,2.4134457E-2,-4.5497133E-3,-1.9509392E-2,-1.3588575E-2,-7.979208E-2,-0E0,6.174957E-1,5.35E0,4.126021E-3,6E0,5.311159E-1,2E-1,-2.5345716E-3,1.2696258E-3,1.2E1,-3.4614727E-2,1.3875067E-2,9.564229E-3,-5.407229E-2,-3.3930491E-3,-9.724753E-3,-1.0025842E-2,-1.6373424E-3,-4.0142058E-4,-3.728091E-3,-8.749577E-3,-3.9647236E-3,-4.013126E-3,3.2547924E-3,-0E0,3.7668142E-3,8.251972E-3,3.3213452E-3,1.0744351E-2,3.3726923E-3,1.4292757E-2,2.055501E-2],"split_indices":[0,0,0,0,0,0,14,0,0,24,19,30,35,3,0,0,13,14,24,17,17,24,1,0,37,13,0,0,0,0,25,0,36,11,0,42,36,34,0,0,42,24,0,0,25,0,0,0,0,0,0,0,0,0,0,0,0,0,0,0,0,0,0],"split_type":[0,0,0,0,0,0,0,0,0,0,0,0,0,0,0,0,0,0,0,0,0,0,0,0,0,0,0,0,0,0,0,0,0,0,0,0,0,0,0,0,0,0,0,0,0,0,0,0,0,0,0,0,0,0,0,0,0,0,0,0,0,0,0],"sum_hessian":[8.71E2,4.47E2,4.24E2,2.22E2,2.25E2,1.86E2,2.38E2,7.3E1,1.49E2,7.9E1,1.46E2,8.7E1,9.9E1,1.91E2,4.7E1,8.4E1,6.5E1,5.3E1,2.6E1,1.9E1,1.27E2,3.2E1,5.5E1,6E0,9.3E1,9.5E1,9.6E1,5E0,6E1,2.6E1,2.7E1,7E0,1.9E1,1E1,9E0,1.01E2,2.6E1,2.7E1,5E0,5E0,5E1,1.3E1,8E1,7E0,8.8E1,5E0,2.2E1,1.3E1,6E0,5E0,5E0,1.9E1,8.2E1,1.6E1,1E1,5E0,2.2E1,4.2E1,8E0,8E0,5E0,2.5E1,6.3E1],"tree_param":{"num_deleted":"0","num_feature":"45","num_nodes":"63","size_leaf_vector":"1"}},{"base_weights":[-1.031583E-2,-3.003625E-1,3.2053226E-1,-4.903284E-1,-1.0782994E-1,1.8488398E-1,4.3664962E-1,-5.9025764E-1,-3.853101E-1,-1.939582E-1,-6.341627E-2,1.03242174E-1,2.5172666E-1,3.635767E-1,2.5018198E-2,-3.590207E-2,-5.2729803E-1,-1.9599535E-2,-9.041711E-3,-2.2775814E-1,-1.2671146E-1,-8.455517E-2,-1.1364854E-2,2.8814012E-2,1.3285396E-1,5.725228E-3,2.5658858E-1,9.81292E-3,3.7250495E-1,-2.7406504E-2,-1.4315623E-2,-5.0666924E-3,-2.5117025E-1,-3.315866E-2,-9.245793E-3,-0E0,-9.6638106E-2,-3.4106955E-2,3.3095807E-3,5.0137687E-2,-1.8754237E-3,3.5075877E-2,1.5404296E-1,1.7842357E-1,1.3543698E-2,4.1814658E-1,3.1628892E-1,-1.3409267E-2,-6.854334E-3,1.0973485E-3,-4.1421526E-3,1.302149E-3,-2.016881E-3,-5.098651E-3,-0E0,-4.5381277E-3,1.2203589E-4,2.8790177E-3,2.0135958E-4,-0E0,4.437366E-3,8.181873E-3,2.0671438E-3,1.0213225E-2,3.5862082E-3,2.1914218E-2,9.037788E-3,1.8611887E-2,1.2873082E-2],"categories":[],"categories_nodes":[],"categories_segments":[],"categories_sizes":[],"default_left":[0,0,0,0,0,0,0,0,0,0,0,0,0,0,0,0,0,0,0,0,0,0,0,0,0,0,0,0,0,0,0,0,0,0,0,0,0,0,0,0,0,0,0,0,0,0,0,0,0,0,0,0,0,0,0,0,0,0,0,0,0,0,0,0,0,0,0,0,0],"id":16,"left_children":[1,3,5,7,9,11,13,15,17,19,21,23,25,27,-1,-1,29,-1,-1,31,33,35,37,39,41,-1,43,-1,45,-1,-1,-1,47,49,-1,51,53,55,-1,57,-1,59,61,63,-1,65,67,-1,-1,-1,-1,-1,-1,-1,-1,-1,-1,-1,-1,-1,-1,-1,-1,-1,-1,-1,-1,-1,-1],"loss_changes":[8.281298E1,1.6711636E1,6.204815E0,2.0992203E0,8.4177494E-1,9.644604E-1,7.373352E-1,4.3008423E-1,3.0290604E-2,1.1070943E-1,1.5889466E-1,1.7174876E-1,1.5602112E-3,2.6871681E-2,0E0,0E0,1.712799E-1,0E0,0E0,8.43308E-2,1.2997133E-1,1.05704546E-1,8.194759E-2,4.1327972E-2,1.0206592E-1,0E0,1.5051842E-2,0E0,4.5749664E-2,0E0,0E0,0E0,3.5357475E-4,4.350033E-2,0E0,1.7493995E-2,4.7607422E-2,8.7737665E-2,0E0,1.1574216E-3,0E0,3.1262405E-2,2.5720477E-2,1.0137498E-2,0E0,9.789848E-2,2.4676323E-3,0E0,0E0,0E0,0E0,0E0,0E0,0E0,0E0,0E0,0E0,0E0,0E0,0E0,0E0,0E0,0E0,0E0,0E0,0E0,0E0,0E0,0E0],"parents":[2147483647,0,0,1,1,2,2,3,3,4,4,5,5,6,6,7,7,8,8,9,9,10,10,11,11,12,12,13,13,16,16,19,19,20,20,21,21,22,22,23,23,24,24,26,26,28,28,32,32,33,33,35,35,36,36,37,37,39,39,41,41,42,42,43,43,45,45,46,46],"right_children":[2,4,6,8,10,12,14,16,18,20,22,24,26,28,-1,-1,30,-1,-1,32,34,36,38,40,42,-1,44,-1,46,-1,-1,-1,48,50,-1,52,54,56,-1,58,-1,60,62,64,-1,66,68,-1,-1,-1,-1,-1,-1,-1,-1,-1,-1,-1,-1,-1,-1,-1,-1,-1,-1,-1,-1,-1,-1],"split_conditions":[5.09E0,4.3E0,5.64E0,3.94E0,4.68E0,5.36E0,5.962E0,3.54E0,2.0474623E-1,2.0895775E-2,4.88E0,5.15E0,5.4E2,5.45E0,2.5018198E-2,-3.590207E-2,8.285624E3,-1.9599535E-2,-9.041711E-3,-3.920537E-2,2.5952987E-2,-6.713674E-2,1.0347034E0,2E-2,6.36098E2,5.725228E-3,-6.6E-1,9.81292E-3,5.5675955E0,-2.7406504E-2,-1.4315623E-2,-5.0666924E-3,4.62E0,2E-2,-9.245793E-3,3E0,1.0502167E0,5.1E0,3.3095807E-3,1.0392346E0,-1.8754237E-3,5.525721E0,1.90995E4,-3.320053E-2,1.3543698E-2,1.1212871E0,9.9317074E-1,-1.3409267E-2,-6.854334E-3,1.0973485E-3,-4.1421526E-3,1.302149E-3,-2.016881E-3,-5.098651E-3,-0E0,-4.5381277E-3,1.2203589E-4,2.8790177E-3,2.0135958E-4,-0E0,4.437366E-3,8.181873E-3,2.0671438E-3,1.0213225E-2,3.5862082E-3,2.1914218E-2,9.037788E-3,1.8611887E-2,1.2873082E-2],"split_indices":[0,0,0,0,0,0,14,0,32,25,0,0,35,12,0,0,44,0,0,26,28,24,17,37,44,0,37,0,31,0,0,0,2,7,0,41,17,12,0,21,0,30,43,24,0,21,17,0,0,0,0,0,0,0,0,0,0,0,0,0,0,0,0,0,0,0,0,0,0],"split_type":[0,0,0,0,0,0,0,0,0,0,0,0,0,0,0,0,0,0,0,0,0,0,0,0,0,0,0,0,0,0,0,0,0,0,0,0,0,0,0,0,0,0,0,0,0,0,0,0,0,0,0,0,0,0,0,0,0,0,0,0,0,0,0,0,0,0,0,0,0],"sum_hessian":[8.61E2,4.59E2,4.02E2,2.3E2,2.29E2,1.87E2,2.15E2,1.15E2,1.15E2,7.6E1,1.53E2,8.6E1,1.01E2,1.04E2,1.11E2,3.4E1,8.1E1,1.1E2,5E0,4.8E1,2.8E1,1.07E2,4.6E1,2.6E1,6E1,5E0,9.6E1,7E0,9.7E1,7.3E1,8E0,9E0,3.9E1,1.2E1,1.6E1,1.4E1,9.3E1,3.7E1,9E0,2.1E1,5E0,1.2E1,4.8E1,1.8E1,7.8E1,4.9E1,4.8E1,3.2E1,7E0,5E0,7E0,8E0,6E0,8.8E1,5E0,1.5E1,2.2E1,1.6E1,5E0,7E0,5E0,4.3E1,5E0,1.3E1,5E0,4.4E1,5E0,2.1E1,2.7E1],"tree_param":{"num_deleted":"0","num_feature":"45","num_nodes":"69","size_leaf_vector":"1"}},{"base_weights":[1.2543707E-2,-2.772621E-1,3.1838986E-1,-4.645559E-1,-9.895326E-2,1.661589E-1,4.3432307E-1,-2.9512605E-2,-3.9280078E-1,-1.465394E-1,-4.96371E-2,9.571977E-2,2.3008902E-1,3.9488417E-1,5.840667E-1,-4.0052888E-1,-6.774846E-3,-1.6659112E-1,-3.1194305E-2,-5.832573E-2,3.9231293E-3,1.1383307E-3,1.1796043E-1,1.4967811E-1,2.420451E-1,3.4638363E-1,2.224458E-2,2.5071824E-2,3.769561E-2,-2.1305602E-2,-1.5742516E-2,-2.1641439E-1,-1.3059321E-1,-6.8789306E-3,2.0796806E-2,-1.0016605E-1,-3.311308E-2,-2.3290392E-3,4.1189544E-2,4.7874898E-2,1.3858385E-1,9.59084E-3,3.5531155E-3,5.484744E-3,1.2497124E-2,3.9025852E-1,2.8135917E-1,-1.2151085E-2,-5.380587E-3,-4.454029E-3,-8.166413E-3,3.2360821E-3,-1.12321366E-4,-6.6640414E-3,-3.1088552E-4,2.6408385E-3,-2.0969163E-3,1.4188619E-5,3.2690675E-3,2.9584712E-3,-0E0,1.6102307E-3,7.4563497E-3,9.2485985E-3,2.0870246E-2,6.560191E-3,1.5119091E-2],"categories":[],"categories_nodes":[],"categories_segments":[],"categories_sizes":[],"default_left":[0,0,0,0,0,0,0,0,0,0,0,0,0,0,0,0,0,0,0,0,0,0,0,0,0,0,0,0,0,0,0,0,0,0,0,0,0,0,0,0,0,0,0,0,0,0,0,0,0,0,0,0,0,0,0,0,0,0,0,0,0,0,0,0,0,0,0],"id":17,"left_children":[1,3,5,7,9,11,13,-1,15,17,19,21,23,25,27,29,-1,31,33,35,-1,37,39,41,43,45,-1,-1,-1,-1,-1,47,49,-1,51,53,55,-1,57,59,61,-1,-1,-1,-1,63,65,-1,-1,-1,-1,-1,-1,-1,-1,-1,-1,-1,-1,-1,-1,-1,-1,-1,-1,-1,-1],"loss_changes":[7.667388E1,1.4725563E1,7.297859E0,1.6180229E0,5.105183E-1,7.7398014E-1,1.0770302E0,0E0,1.7250443E-1,2.4100447E-1,1.3055891E-1,1.7727572E-1,1.5931606E-2,2.3244476E-1,1.560421E-1,8.984375E-2,0E0,1.11009836E-1,1.1962911E-1,9.8339975E-2,0E0,3.7692472E-2,7.878852E-2,1.3085425E-2,2.0236969E-2,1.16888046E-1,0E0,0E0,0E0,0E0,0E0,4.87926E-2,4.1744947E-2,0E0,1.9551128E-2,1.06553555E-1,5.4970182E-2,0E0,5.2899513E-3,5.466178E-3,3.7629128E-2,0E0,0E0,0E0,0E0,1.8577671E-1,6.217432E-2,0E0,0E0,0E0,0E0,0E0,0E0,0E0,0E0,0E0,0E0,0E0,0E0,0E0,0E0,0E0,0E0,0E0,0E0,0E0,0E0],"parents":[2147483647,0,0,1,1,2,2,3,3,4,4,5,5,6,6,8,8,9,9,10,10,11,11,12,12,13,13,14,14,15,15,17,17,18,18,19,19,21,21,22,22,23,23,24,24,25,25,31,31,32,32,34,34,35,35,36,36,38,38,39,39,40,40,45,45,46,46],"right_children":[2,4,6,8,10,12,14,-1,16,18,20,22,24,26,28,30,-1,32,34,36,-1,38,40,42,44,46,-1,-1,-1,-1,-1,48,50,-1,52,54,56,-1,58,60,62,-1,-1,-1,-1,64,66,-1,-1,-1,-1,-1,-1,-1,-1,-1,-1,-1,-1,-1,-1,-1,-1,-1,-1,-1,-1],"split_conditions":[5.09E0,4.3E0,5.63E0,3.72E0,4.79E0,5.36E0,6.04E0,-2.9512605E-2,2.0474623E-1,4.225352E-2,1.0334527E0,6.64787E2,-1.1038961E-1,5.956E0,3.311258E-2,4.13E0,-6.774846E-3,4.55E0,4.27E0,6E0,3.9231293E-3,2E0,5.14E0,5.4E0,4.518E2,5.5675955E0,2.224458E-2,2.5071824E-2,3.769561E-2,-2.1305602E-2,-1.5742516E-2,4.7325253E0,1.1269547E-1,-6.8789306E-3,1.3040711E-1,3.398478E-2,3.6275E2,-2.3290392E-3,9.863819E-1,5.14E0,-9.345794E-3,9.59084E-3,3.5531155E-3,5.484744E-3,1.2497124E-2,5.5E0,-4.481132E-2,-1.2151085E-2,-5.380587E-3,-4.454029E-3,-8.166413E-3,3.2360821E-3,-1.12321366E-4,-6.6640414E-3,-3.1088552E-4,2.6408385E-3,-2.0969163E-3,1.4188619E-5,3.2690675E-3,2.9584712E-3,-0E0,1.6102307E-3,7.4563497E-3,9.2485985E-3,2.0870246E-2,6.560191E-3,1.5119091E-2],"split_indices":[1,1,8,1,8,8,3,0,32,6,15,44,38,14,6,2,0,2,11,42,0,41,8,3,35,31,0,0,0,0,0,23,32,0,32,26,35,0,21,11,5,0,0,0,0,12,38,0,0,0,0,0,0,0,0,0,0,0,0,0,0,0,0,0,0,0,0],"split_type":[0,0,0,0,0,0,0,0,0,0,0,0,0,0,0,0,0,0,0,0,0,0,0,0,0,0,0,0,0,0,0,0,0,0,0,0,0,0,0,0,0,0,0,0,0,0,0,0,0,0,0,0,0,0,0,0,0,0,0,0,0,0,0,0,0,0,0],"sum_hessian":[8.63E2,4.43E2,4.2E2,2.15E2,2.28E2,1.83E2,2.37E2,7.5E1,1.4E2,1.14E2,1.14E2,8.9E1,9.4E1,1.91E2,4.6E1,1.35E2,5E0,9.6E1,1.8E1,1.08E2,6E0,1.8E1,7.1E1,1.5E1,7.9E1,1.02E2,8.9E1,3.4E1,1.2E1,1E2,3.5E1,3.7E1,5.9E1,6E0,1.2E1,3.8E1,7E1,7E0,1.1E1,1.8E1,5.3E1,8E0,7E0,6E0,7.3E1,5.7E1,4.5E1,2.8E1,9E0,2.9E1,3E1,5E0,7E0,2.7E1,1.1E1,5E0,6.5E1,6E0,5E0,1.3E1,5E0,6E0,4.7E1,8E0,4.9E1,7E0,3.8E1],"tree_param":{"num_deleted":"0","num_feature":"45","num_nodes":"67","size_leaf_vector":"1"}},{"base_weights":[-2.7607006E-3,-2.804005E-1,2.771821E-1,-4.4471335E-1,-1.106242E-1,1.442729E-1,3.99693E-1,-2.8047606E-2,-3.7602332E-1,-1.6749205E-1,-6.4440295E-2,3.742799E-2,2.0016566E-1,3.6268604E-1,5.571958E-1,-2.075886E-2,-3.168837E-1,-5.660764E-4,-1.7476957E-1,-7.969635E-2,1.8800907E-2,-2.002169E-2,4.811289E-2,1.5989766E-1,2.3838817E-1,7.8007034E-3,3.6926445E-1,3.0791182E-2,2.0392632E-2,-3.9166957E-3,-1.6718682E-2,-1.315886E-2,-1.4350565E-1,-0E0,-9.488727E-2,-2.5291783E-3,8.2951754E-2,-1.9183826E-3,-0E0,5.7997208E-2,-8.531267E-4,8.5901536E-2,9.541831E-3,2.4866857E-1,3.702302E-3,6.770002E-3,3.7457082E-1,-8.180794E-3,-2.542653E-3,2.7429573E-3,-1.2769274E-3,-3.0013951E-3,-9.131513E-3,6.5293424E-3,2.4123509E-4,-0E0,3.3396184E-3,1.9998173E-3,6.371309E-3,1.2830126E-2,5.693105E-3,1.4802309E-2,1.9849036E-2],"categories":[],"categories_nodes":[],"categories_segments":[],"categories_sizes":[],"default_left":[0,0,0,0,0,0,0,0,0,0,0,0,0,0,0,0,0,0,0,0,0,0,0,0,0,0,0,0,0,0,0,0,0,0,0,0,0,0,0,0,0,0,0,0,0,0,0,0,0,0,0,0,0,0,0,0,0,0,0,0,0,0,0],"id":18,"left_children":[1,3,5,7,9,11,13,-1,15,17,19,21,23,25,27,-1,29,-1,31,33,35,37,39,41,43,-1,45,-1,-1,-1,-1,-1,47,49,51,-1,53,-1,-1,55,-1,57,-1,59,-1,-1,61,-1,-1,-1,-1,-1,-1,-1,-1,-1,-1,-1,-1,-1,-1,-1,-1],"loss_changes":[6.8707695E1,1.22812805E1,7.0523834E0,1.4918709E0,5.438175E-1,1.2407541E0,1.0348663E0,0E0,1.3098717E-1,8.9655876E-2,1.6505963E-1,4.9810737E-2,1.3599491E-1,1.4546204E-1,5.4483414E-3,0E0,1.9538546E-1,0E0,1.7584944E-1,1.2805998E-1,9.200319E-2,4.422913E-3,4.6956986E-2,1.2076712E-1,6.420207E-2,0E0,1.2290001E-1,0E0,0E0,0E0,0E0,0E0,1.025244E-1,2.653598E-2,2.3699236E-1,0E0,2.6766285E-2,0E0,0E0,2.3506597E-2,0E0,2.3909912E-2,0E0,1.1177063E-3,0E0,0E0,1.2288666E-1,0E0,0E0,0E0,0E0,0E0,0E0,0E0,0E0,0E0,0E0,0E0,0E0,0E0,0E0,0E0,0E0],"parents":[2147483647,0,0,1,1,2,2,3,3,4,4,5,5,6,6,8,8,9,9,10,10,11,11,12,12,13,13,14,14,16,16,18,18,19,19,20,20,21,21,22,22,23,23,24,24,26,26,32,32,33,33,34,34,36,36,39,39,41,41,43,43,46,46],"right_children":[2,4,6,8,10,12,14,-1,16,18,20,22,24,26,28,-1,30,-1,32,34,36,38,40,42,44,-1,46,-1,-1,-1,-1,-1,48,50,52,-1,54,-1,-1,56,-1,58,-1,60,-1,-1,62,-1,-1,-1,-1,-1,-1,-1,-1,-1,-1,-1,-1,-1,-1,-1,-1],"split_conditions":[4.986E0,4.25E0,5.65E0,3.718E0,4.7E0,5.21E0,6.168E0,-2.8047606E-2,4.02E0,4.0419707E0,1.0433191E0,1.4705882E1,5.5E0,5.2742906E0,6.0148134E0,-2.075886E-2,3.93E0,-5.660764E-4,4.48E0,9.548348E-1,4.6642394E0,-5.8027077E-3,6E-2,7.86144E-3,5.82E0,7.8007034E-3,-6.12E0,3.0791182E-2,2.0392632E-2,-3.9166957E-3,-1.6718682E-2,-1.315886E-2,9.993338E-1,4.86E0,5.096642E0,-2.5291783E-3,4.9E0,-1.9183826E-3,-0E0,6.705276E-2,-8.531267E-4,1.2839888E-2,9.541831E-3,7.857143E1,3.702302E-3,6.770002E-3,-3.085768E-2,-8.180794E-3,-2.542653E-3,2.7429573E-3,-1.2769274E-3,-3.0013951E-3,-9.131513E-3,6.5293424E-3,2.4123509E-4,-0E0,3.3396184E-3,1.9998173E-3,6.371309E-3,1.2830126E-2,5.693105E-3,1.4802309E-2,1.9849036E-2],"split_indices":[14,0,0,14,0,0,14,0,0,23,17,29,8,31,31,0,13,0,9,21,22,5,37,27,10,0,39,0,0,0,0,0,17,11,30,0,1,0,0,32,0,26,0,29,0,0,24,0,0,0,0,0,0,0,0,0,0,0,0,0,0,0,0],"split_type":[0,0,0,0,0,0,0,0,0,0,0,0,0,0,0,0,0,0,0,0,0,0,0,0,0,0,0,0,0,0,0,0,0,0,0,0,0,0,0,0,0,0,0,0,0,0,0,0,0,0,0,0,0,0,0,0,0,0,0,0,0,0,0],"sum_hessian":[8.82E2,4.43E2,4.39E2,2.24E2,2.19E2,2.12E2,2.27E2,8E1,1.44E2,9.6E1,1.23E2,7.4E1,1.38E2,1.87E2,4E1,8.2E1,6.2E1,5E0,9.1E1,1.05E2,1.8E1,1E1,6.4E1,7.1E1,6.7E1,7E0,1.8E2,2.6E1,1.4E1,5E0,5.7E1,2.1E1,7E1,1.7E1,8.8E1,8E0,1E1,5E0,5E0,5.7E1,7E0,2.3E1,4.8E1,6.2E1,5E0,5E0,1.75E2,5.6E1,1.4E1,5E0,1.2E1,6.5E1,2.3E1,5E0,5E0,9E0,4.8E1,1.3E1,1E1,5.7E1,5E0,4.3E1,1.32E2],"tree_param":{"num_deleted":"0","num_feature":"45","num_nodes":"63","size_leaf_vector":"1"}},{"base_weights":[-7.7734496E-3,-2.790709E-1,2.6581195E-1,-4.3901977E-1,-1.2525703E-1,1.3472813E-1,3.8653103E-1,-3.0213399E-2,-3.908515E-1,-2.4859728E-1,-9.248532E-2,6.962027E-2,1.994571E-1,3.468955E-1,2.6552493E-2,-4.2540607E-1,-3.0967653E-1,-2.8803223E-3,-1.34022385E-2,-1.3821267E-1,-5.2665856E-2,2.7219275E-2,1.0324836E-1,1.3062626E-1,2.140935E-1,2.5526622E-1,3.6580047E-1,-4.4066757E-1,-1.4380907E-2,-2.957077E-3,-1.6577361E-2,-1.5485673E-1,-0E0,4.608601E-3,-6.5774955E-2,-5.825715E-3,4.9114134E-2,1.1649485E-3,1.1541663E-1,1.4527988E-3,7.645418E-3,7.703428E-3,2.4003223E-1,1.3651705E-2,6.5452056E-3,2.3170283E-2,3.4767315E-1,-2.2450224E-2,-1.0858285E-2,-5.1812786E-3,-9.834236E-3,-4.5767887E-3,-1.4529697E-3,9.5078174E-4,-3.2706559E-3,1.0356575E-4,4.2309156E-3,6.3160607E-3,8.82877E-4,1.3505655E-2,8.177861E-3,8.451461E-3,1.7789228E-2],"categories":[],"categories_nodes":[],"categories_segments":[],"categories_sizes":[],"default_left":[0,0,0,0,0,0,0,0,0,0,0,0,0,0,0,0,0,0,0,0,0,0,0,0,0,0,0,0,0,0,0,0,0,0,0,0,0,0,0,0,0,0,0,0,0,0,0,0,0,0,0,0,0,0,0,0,0,0,0,0,0,0,0],"id":19,"left_children":[1,3,5,7,9,11,13,-1,15,17,19,21,23,25,-1,27,29,-1,-1,31,33,35,37,39,41,43,45,47,-1,-1,-1,49,-1,-1,51,53,55,-1,57,-1,-1,-1,59,-1,-1,-1,61,-1,-1,-1,-1,-1,-1,-1,-1,-1,-1,-1,-1,-1,-1,-1,-1],"loss_changes":[6.472376E1,1.066441E1,6.7635555E0,1.3676872E0,8.523662E-1,8.442228E-1,1.0168037E0,0E0,2.687931E-1,1.2285137E-1,3.0138397E-1,1.367104E-1,4.2335033E-2,1.5632248E-1,0E0,4.225731E-2,2.4268818E-1,0E0,0E0,1.8415916E-1,1.9139361E-1,4.0790744E-2,3.986448E-2,2.7151048E-2,5.283737E-2,1.2028217E-3,1.609993E-2,2.4068832E-2,0E0,0E0,0E0,1.0601902E-1,0E0,0E0,7.229623E-2,3.4008022E-2,4.4602692E-2,0E0,3.5606682E-2,0E0,0E0,0E0,3.89781E-2,0E0,0E0,0E0,7.285881E-2,0E0,0E0,0E0,0E0,0E0,0E0,0E0,0E0,0E0,0E0,0E0,0E0,0E0,0E0,0E0,0E0],"parents":[2147483647,0,0,1,1,2,2,3,3,4,4,5,5,6,6,8,8,9,9,10,10,11,11,12,12,13,13,15,15,16,16,19,19,20,20,21,21,22,22,23,23,24,24,25,25,26,26,27,27,31,31,34,34,35,35,36,36,38,38,42,42,46,46],"right_children":[2,4,6,8,10,12,14,-1,16,18,20,22,24,26,-1,28,30,-1,-1,32,34,36,38,40,42,44,46,48,-1,-1,-1,50,-1,-1,52,54,56,-1,58,-1,-1,-1,60,-1,-1,-1,62,-1,-1,-1,-1,-1,-1,-1,-1,-1,-1,-1,-1,-1,-1,-1,-1],"split_conditions":[4.92E0,4.22E0,5.64E0,3.56E0,4.48E0,5.36E0,6.17E0,-3.0213399E-2,4.01E0,4.038E0,6E0,5.13E0,2.424E2,5.734E0,2.6552493E-2,8.874296E3,4.0258E0,-2.8803223E-3,-1.34022385E-2,7.3529415E-2,4.652E0,-2.4994407E-2,6.36098E2,-4.527559E-2,-6.1E-1,1.0389909E0,1.0454774E-2,3.9455228E0,-1.4380907E-2,-2.957077E-3,-1.6577361E-2,5.202787E3,-0E0,4.608601E-3,4.83E0,2.5013503E-2,9.536368E-2,1.1649485E-3,3.721E3,1.4527988E-3,7.645418E-3,7.703428E-3,1.6864341E-1,1.3651705E-2,6.5452056E-3,2.3170283E-2,5.8255E2,-2.2450224E-2,-1.0858285E-2,-5.1812786E-3,-9.834236E-3,-4.5767887E-3,-1.4529697E-3,9.5078174E-4,-3.2706559E-3,1.0356575E-4,4.2309156E-3,6.3160607E-3,8.82877E-4,1.3505655E-2,8.177861E-3,8.451461E-3,1.7789228E-2],"split_indices":[0,0,0,0,9,0,0,0,0,18,42,0,34,14,0,44,20,0,0,6,18,25,44,6,37,19,28,31,0,0,0,44,0,0,9,27,32,0,4,0,0,0,25,0,0,0,35,0,0,0,0,0,0,0,0,0,0,0,0,0,0,0,0],"split_type":[0,0,0,0,0,0,0,0,0,0,0,0,0,0,0,0,0,0,0,0,0,0,0,0,0,0,0,0,0,0,0,0,0,0,0,0,0,0,0,0,0,0,0,0,0,0,0,0,0,0,0,0,0,0,0,0,0,0,0,0,0,0,0],"sum_hessian":[8.7E2,4.37E2,4.33E2,2.13E2,2.24E2,2.09E2,2.24E2,4.5E1,1.68E2,4.5E1,1.79E2,1.06E2,1.03E2,1.79E2,4.5E1,1.14E2,5.4E1,5E0,4E1,8.1E1,9.8E1,4.9E1,5.7E1,2.1E1,8.2E1,3.4E1,1.45E2,1E2,1.4E1,5E0,4.9E1,7.2E1,9E0,7E0,9.1E1,1.8E1,3.1E1,9E0,4.8E1,5E0,1.6E1,2.8E1,5.4E1,2.8E1,6E0,1.8E1,1.27E2,9.5E1,5E0,3.5E1,3.7E1,5.1E1,4E1,1.2E1,6E0,1.5E1,1.6E1,4.2E1,6E0,3.6E1,1.8E1,7E0,1.2E2],"tree_param":{"num_deleted":"0","num_feature":"45","num_nodes":"63","size_leaf_vector":"1"}},{"base_weights":[7.5742643E-4,-2.5357515E-1,2.604689E-1,-3.9444372E-1,-9.11045E-2,1.359129E-1,3.682629E-1,-5.1580715E-1,-3.2481506E-1,-1.3595042E-1,-5.5427406E-2,4.3434612E-2,1.8381733E-1,3.5252413E-1,3.2524224E-2,-2.7893633E-2,-1.8986326E-2,-3.6591682E-1,-2.8049842E-1,-0E0,-1.4301491E-1,-6.2493164E-2,3.6874246E-3,2.393197E-2,7.1046026E-3,1.1856471E-1,2.0779966E-1,2.81883E-1,2.0616505E-2,-1.8954543E-2,-1.0657362E-2,-9.860945E-4,-2.9607946E-1,-2.1013457E-1,-1.1552619E-1,1.852143E-2,-7.477479E-2,3.6617503E-2,-2.2569362E-3,4.3049813E-4,6.7387037E-3,1.7140947E-1,2.4899136E-1,2.912504E-1,5.7942173E-3,-1.5557966E-2,-9.0695135E-3,-3.9893826E-3,-1.2278181E-2,-6.163045E-3,-1.1290629E-4,4.904082E-3,-1.7152781E-3,-2.7298906E-3,-6.6954195E-3,-0E0,2.6679847E-3,9.0671E-3,2.0874056E-3,3.9490773E-3,1.33564165E-2,1.4864511E-2,6.4702504E-3],"categories":[],"categories_nodes":[],"categories_segments":[],"categories_sizes":[],"default_left":[0,0,0,0,0,0,0,0,0,0,0,0,0,0,0,0,0,0,0,0,0,0,0,0,0,0,0,0,0,0,0,0,0,0,0,0,0,0,0,0,0,0,0,0,0,0,0,0,0,0,0,0,0,0,0,0,0,0,0,0,0,0,0],"id":20,"left_children":[1,3,5,7,9,11,13,15,17,19,21,23,25,27,-1,-1,-1,29,31,-1,33,35,-1,37,-1,39,41,43,-1,-1,-1,-1,45,47,49,51,53,55,-1,-1,-1,57,59,61,-1,-1,-1,-1,-1,-1,-1,-1,-1,-1,-1,-1,-1,-1,-1,-1,-1,-1,-1],"loss_changes":[5.92503E1,1.0283323E1,5.8608475E0,1.7933846E0,3.1252098E-1,8.9075565E-1,7.2309875E-1,1.8669128E-1,1.18694305E-1,7.904267E-2,1.1392307E-1,1.2045495E-1,1.5555334E-1,7.7337265E-1,0E0,0E0,0E0,1.4944077E-2,2.9169798E-1,0E0,1.0367572E-1,1.2242925E-1,0E0,5.6001242E-2,0E0,5.5793047E-2,6.0680866E-2,9.347248E-2,0E0,0E0,0E0,0E0,2.5745392E-2,5.40874E-2,4.411596E-2,7.278626E-2,9.553826E-2,3.4449488E-2,0E0,0E0,0E0,4.22405E-2,7.379627E-2,1.7588615E-2,0E0,0E0,0E0,0E0,0E0,0E0,0E0,0E0,0E0,0E0,0E0,0E0,0E0,0E0,0E0,0E0,0E0,0E0,0E0],"parents":[2147483647,0,0,1,1,2,2,3,3,4,4,5,5,6,6,7,7,8,8,9,9,10,10,11,11,12,12,13,13,17,17,18,18,20,20,21,21,23,23,25,25,26,26,27,27,32,32,33,33,34,34,35,35,36,36,37,37,41,41,42,42,43,43],"right_children":[2,4,6,8,10,12,14,16,18,20,22,24,26,28,-1,-1,-1,30,32,-1,34,36,-1,38,-1,40,42,44,-1,-1,-1,-1,46,48,50,52,54,56,-1,-1,-1,58,60,62,-1,-1,-1,-1,-1,-1,-1,-1,-1,-1,-1,-1,-1,-1,-1,-1,-1,-1,-1],"split_conditions":[4.98E0,4.4E0,5.64E0,4.04317E0,4.71E0,5.21E0,8.3950615E1,2.4336284E-2,4.03E0,9.300567E-1,5.24E0,5.4104477E-2,2.896E2,5.944E0,3.2524224E-2,-2.7893633E-2,-1.8986326E-2,8.874296E3,3.89E0,-0E0,9.759159E-1,4.69E0,3.6874246E-3,2.112E3,7.1046026E-3,1.5996E2,5.5525E0,5.88E0,2.0616505E-2,-1.8954543E-2,-1.0657362E-2,-9.860945E-4,3.201451E-2,-8.026031E-2,1.33636E4,2.4618743E-2,5.203395E0,5.1E0,-2.2569362E-3,4.3049813E-4,6.7387037E-3,5.61E0,2.368957E-3,1.05965E0,5.7942173E-3,-1.5557966E-2,-9.0695135E-3,-3.9893826E-3,-1.2278181E-2,-6.163045E-3,-1.1290629E-4,4.904082E-3,-1.7152781E-3,-2.7298906E-3,-6.6954195E-3,-0E0,2.6679847E-3,9.0671E-3,2.0874056E-3,3.9490773E-3,1.33564165E-2,1.4864511E-2,6.4702504E-3],"split_indices":[0,0,0,30,0,0,29,7,0,19,13,6,34,16,0,0,0,44,13,0,19,9,0,4,0,44,18,40,0,0,0,0,27,7,34,28,30,9,0,0,0,13,27,19,0,0,0,0,0,0,0,0,0,0,0,0,0,0,0,0,0,0,0],"split_type":[0,0,0,0,0,0,0,0,0,0,0,0,0,0,0,0,0,0,0,0,0,0,0,0,0,0,0,0,0,0,0,0,0,0,0,0,0,0,0,0,0,0,0,0,0,0,0,0,0,0,0,0,0,0,0,0,0,0,0,0,0,0,0],"sum_hessian":[8.95E2,4.52E2,4.43E2,2.41E2,2.11E2,2.07E2,2.36E2,8.5E1,1.56E2,9.1E1,1.2E2,7.2E1,1.35E2,2.26E2,1E1,6.2E1,2.3E1,7.6E1,8E1,5E0,8.6E1,1.15E2,5E0,6.2E1,1E1,3.9E1,9.6E1,1.07E2,1.19E2,6.8E1,8E0,5E0,7.5E1,2.2E1,6.4E1,1.4E1,1.01E2,5.4E1,8E0,6E0,3.3E1,5.5E1,4.1E1,1E2,7E0,6.4E1,1.1E1,6E0,1.6E1,5.9E1,5E0,6E0,8E0,7.8E1,2.3E1,1.7E1,3.7E1,5E1,5E0,5E0,3.6E1,9.5E1,5E0],"tree_param":{"num_deleted":"0","num_feature":"45","num_nodes":"63","size_leaf_vector":"1"}},{"base_weights":[1.0047843E-2,-2.2887677E-1,2.619012E-1,-3.841335E-1,-7.6229E-2,1.4033824E-1,3.5546112E-1,-2.7746096E-2,-3.4018388E-1,-1.2916796E-1,-3.0294398E-2,4.2890295E-2,1.7412044E-1,3.2066676E-1,4.81354E-1,-3.7465423E-1,-2.73934E-1,-1.8399309E-1,-1.0272034E-1,-4.102637E-2,2.363636E-2,5.3359248E-2,-1.3926697E-3,1.3746312E-1,2.0544313E-1,2.1532276E-1,3.3727074E-1,2.6370376E-2,1.7752482E-2,-1.9627033E-2,-9.75256E-3,-1.3907708E-1,-1.4807726E-2,-2.0821336E-1,-1.3834826E-3,-1.1969837E-1,-0E0,-5.9518855E-2,5.08831E-3,-2.4596922E-2,6.550601E-3,1.9682659E-2,9.4916366E-2,7.3407374E-2,8.0034705E-3,1.21762745E-1,2.2539178E-1,4.3298597E-3,1.16802E-2,5.1746024E-3,3.4481275E-1,-9.575279E-3,-1.9032153E-3,-5.1807957E-3,-1.2076888E-2,-0E0,-6.477348E-3,-1.3107888E-3,1.9471915E-3,-6.107396E-3,-1.9886743E-3,-3.0740707E-3,1.8317774E-3,1.5883127E-4,-3.941221E-3,1.8225895E-3,-1.0773209E-3,7.5675035E-3,2.0525432E-3,1.2586112E-3,5.293911E-3,1.284062E-3,7.566164E-3,1.2333643E-2,7.2055976E-3,2.2316689E-2,1.6270248E-2],"categories":[],"categories_nodes":[],"categories_segments":[],"categories_sizes":[],"default_left":[0,0,0,0,0,0,0,0,0,0,0,0,0,0,0,0,0,0,0,0,0,0,0,0,0,0,0,0,0,0,0,0,0,0,0,0,0,0,0,0,0,0,0,0,0,0,0,0,0,0,0,0,0,0,0,0,0,0,0,0,0,0,0,0,0,0,0,0,0,0,0,0,0,0,0,0,0],"id":21,"left_children":[1,3,5,7,9,11,13,-1,15,17,19,21,23,25,27,29,31,33,35,37,39,41,-1,43,45,47,49,-1,-1,-1,-1,51,-1,53,-1,55,57,59,61,63,-1,65,67,69,-1,71,73,-1,-1,-1,75,-1,-1,-1,-1,-1,-1,-1,-1,-1,-1,-1,-1,-1,-1,-1,-1,-1,-1,-1,-1,-1,-1,-1,-1,-1,-1],"loss_changes":[5.3377377E1,1.0707994E1,4.813854E0,1.4105835E0,5.4187036E-1,5.9631205E-1,8.2987404E-1,0E0,2.4813843E-1,1.06128335E-1,7.56354E-2,4.1808046E-2,9.821749E-2,2.1144867E-1,1.5336037E-2,2.3731804E-1,1.1605978E-1,9.180868E-2,1.3994032E-1,9.6992835E-2,1.1744562E-1,5.1048994E-2,0E0,6.481826E-2,5.8030367E-2,1.8348455E-2,2.1040535E-1,0E0,0E0,0E0,0E0,3.3304855E-2,0E0,3.456998E-2,0E0,7.564443E-2,1.3223333E-2,7.540709E-2,6.277054E-2,2.8900437E-2,0E0,2.1634467E-2,3.2303616E-2,1.7120712E-2,0E0,2.66971E-2,2.2237778E-2,0E0,0E0,0E0,9.086418E-2,0E0,0E0,0E0,0E0,0E0,0E0,0E0,0E0,0E0,0E0,0E0,0E0,0E0,0E0,0E0,0E0,0E0,0E0,0E0,0E0,0E0,0E0,0E0,0E0,0E0,0E0],"parents":[2147483647,0,0,1,1,2,2,3,3,4,4,5,5,6,6,8,8,9,9,10,10,11,11,12,12,13,13,14,14,15,15,16,16,17,17,18,18,19,19,20,20,21,21,23,23,24,24,25,25,26,26,31,31,33,33,35,35,36,36,37,37,38,38,39,39,41,41,42,42,43,43,45,45,46,46,50,50],"right_children":[2,4,6,8,10,12,14,-1,16,18,20,22,24,26,28,30,32,34,36,38,40,42,-1,44,46,48,50,-1,-1,-1,-1,52,-1,54,-1,56,58,60,62,64,-1,66,68,70,-1,72,74,-1,-1,-1,76,-1,-1,-1,-1,-1,-1,-1,-1,-1,-1,-1,-1,-1,-1,-1,-1,-1,-1,-1,-1,-1,-1,-1,-1,-1,-1],"split_conditions":[5.09E0,4.26E0,5.64E0,3.56E0,4.77E0,5.21E0,6.18E0,-2.7746096E-2,4.05E0,4.51E0,1.0354779E0,1.1727009E4,5.5E0,-5.407229E-2,6.0148134E0,8.874296E3,4.058E0,2.0218232E-1,1.0091908E0,5.293824E0,4.671E0,1.147594E-1,-1.3926697E-3,7.86144E-3,3.205457E3,9.48334E-10,5.45E0,2.6370376E-2,1.7752482E-2,-1.9627033E-2,-9.75256E-3,-2E-2,-1.4807726E-2,-1.080571E-1,-1.3834826E-3,9.300567E-1,4.21354E0,6E0,9.580708E-1,4.69E0,6.550601E-3,1.0057266E0,1.7843106E-1,1.1516817E-2,8.0034705E-3,5.56E0,1.7171608E-1,4.3298597E-3,1.16802E-2,5.1746024E-3,1.0954952E-2,-9.575279E-3,-1.9032153E-3,-5.1807957E-3,-1.2076888E-2,-0E0,-6.477348E-3,-1.3107888E-3,1.9471915E-3,-6.107396E-3,-1.9886743E-3,-3.0740707E-3,1.8317774E-3,1.5883127E-4,-3.941221E-3,1.8225895E-3,-1.0773209E-3,7.5675035E-3,2.0525432E-3,1.2586112E-3,5.293911E-3,1.284062E-3,7.566164E-3,1.2333643E-2,7.2055976E-3,2.2316689E-2,1.6270248E-2],"split_indices":[0,0,0,0,0,0,0,0,1,14,17,44,9,25,31,44,14,32,17,30,16,32,0,27,44,27,12,0,0,0,0,39,0,25,0,19,31,42,17,10,0,15,32,26,0,13,25,0,0,0,28,0,0,0,0,0,0,0,0,0,0,0,0,0,0,0,0,0,0,0,0,0,0,0,0,0,0],"split_type":[0,0,0,0,0,0,0,0,0,0,0,0,0,0,0,0,0,0,0,0,0,0,0,0,0,0,0,0,0,0,0,0,0,0,0,0,0,0,0,0,0,0,0,0,0,0,0,0,0,0,0,0,0,0,0,0,0,0,0,0,0,0,0,0,0,0,0,0,0,0,0,0,0,0,0,0,0],"sum_hessian":[8.85E2,4.54E2,4.31E2,2.24E2,2.3E2,1.89E2,2.42E2,4.3E1,1.81E2,1.05E2,1.25E2,5E1,1.39E2,1.93E2,4.9E1,1.15E2,6.6E1,3.1E1,7.4E1,1.06E2,1.9E1,4.5E1,5E0,6.8E1,7.1E1,2.9E1,1.64E2,3.3E1,1.6E1,1.03E2,1.2E1,1.1E1,5.5E1,2.6E1,5E0,6.4E1,1E1,7.7E1,2.9E1,1.3E1,6E0,2.7E1,1.8E1,2E1,4.8E1,1.6E1,5.5E1,5E0,2.4E1,6E0,1.58E2,6E0,5E0,8E0,1.8E1,5E0,5.9E1,5E0,5E0,1.6E1,6.1E1,8E0,2.1E1,8E0,5E0,2.1E1,6E0,7E0,1.1E1,1E1,1E1,5E0,1.1E1,4.1E1,1.4E1,2.1E1,1.37E2],"tree_param":{"num_deleted":"0","num_feature":"45","num_nodes":"77","size_leaf_vector":"1"}},{"base_weights":[1.1887858E-3,-2.1613774E-1,2.4539065E-1,-3.6207333E-1,-7.929781E-2,1.5551224E-1,3.566994E-1,-4.3759915E-1,-2.8097367E-1,-1.3213035E-1,-3.2856897E-2,7.2761156E-2,2.0258398E-1,3.3571234E-1,3.3600345E-2,-2.5764072E-2,-1.9013567E-2,-7.494318E-3,-2.901806E-1,-1.4699306E-1,-4.7946222E-2,-1.3039318E-1,-2.1812046E-2,1.0634184E-1,3.6780473E-2,3.4828447E-3,2.0813751E-1,3.085443E-1,2.0627653E-2,-6.736763E-3,-1.4791577E-2,-4.5142826E-2,-1.604563E-1,1.297032E-2,-7.2913878E-3,-9.320749E-3,-1.3317777E-3,7.6938726E-2,-3.5723463E-2,2.6449242E-3,1.1826481E-1,5.153126E-2,-7.5991364E-4,1.2859409E-2,1.8346807E-1,4.0360685E-3,3.1609073E-1,1.3199635E-5,-4.3027545E-3,-1.2029749E-2,-6.9148326E-3,-1.0885072E-3,2.7590336E-3,-9.506526E-4,8.188959E-3,-2.4945012E-3,1.498218E-3,1.788516E-3,6.425652E-3,3.0035833E-3,-0E0,7.145411E-3,1.0042901E-2,6.8504936E-3,1.61506E-2],"categories":[],"categories_nodes":[],"categories_segments":[],"categories_sizes":[],"default_left":[0,0,0,0,0,0,0,0,0,0,0,0,0,0,0,0,0,0,0,0,0,0,0,0,0,0,0,0,0,0,0,0,0,0,0,0,0,0,0,0,0,0,0,0,0,0,0,0,0,0,0,0,0,0,0,0,0,0,0,0,0,0,0,0,0],"id":22,"left_children":[1,3,5,7,9,11,13,15,17,19,21,23,25,27,-1,-1,-1,-1,29,31,33,35,37,39,41,-1,43,45,-1,-1,-1,47,49,51,-1,-1,-1,53,55,-1,57,59,-1,-1,61,-1,63,-1,-1,-1,-1,-1,-1,-1,-1,-1,-1,-1,-1,-1,-1,-1,-1,-1,-1],"loss_changes":[4.5962852E1,9.073328E0,3.9750443E0,1.1588402E0,5.6311464E-1,8.4584E-1,8.713703E-1,2.13274E-1,4.5259476E-2,1.1109066E-1,1.20903626E-1,8.447817E-2,6.402445E-2,1.5966988E-1,0E0,0E0,0E0,0E0,5.804062E-3,9.835017E-2,1.2846667E-1,4.348196E-2,1.6073103E-1,3.390193E-3,3.8152486E-2,0E0,7.452536E-2,1.6174316E-1,0E0,0E0,0E0,3.2751866E-2,7.090497E-2,2.2139233E-2,0E0,0E0,0E0,1.342455E-1,1.0119741E-1,0E0,6.028235E-3,1.626981E-2,0E0,0E0,4.6315193E-3,0E0,6.715584E-2,0E0,0E0,0E0,0E0,0E0,0E0,0E0,0E0,0E0,0E0,0E0,0E0,0E0,0E0,0E0,0E0,0E0,0E0],"parents":[2147483647,0,0,1,1,2,2,3,3,4,4,5,5,6,6,7,7,8,8,9,9,10,10,11,11,12,12,13,13,18,18,19,19,20,20,21,21,22,22,23,23,24,24,26,26,27,27,31,31,32,32,33,33,37,37,38,38,40,40,41,41,44,44,46,46],"right_children":[2,4,6,8,10,12,14,16,18,20,22,24,26,28,-1,-1,-1,-1,30,32,34,36,38,40,42,-1,44,46,-1,-1,-1,48,50,52,-1,-1,-1,54,56,-1,58,60,-1,-1,62,-1,64,-1,-1,-1,-1,-1,-1,-1,-1,-1,-1,-1,-1,-1,-1,-1,-1,-1,-1],"split_conditions":[5.09E0,4.3E0,5.79E0,3.95E0,4.77E0,5.36E0,1.0497556E0,3.56E0,3.89E0,1.0101466E0,4.48E0,-2.724363E-2,4.02E1,6.2E0,3.3600345E-2,-2.5764072E-2,-1.9013567E-2,-7.494318E-3,-3.5897437E-2,-4.6149E-2,4.77177E4,4.94672E-2,4.73E0,7.86144E-3,5.33E0,3.4828447E-3,1.05225E3,3.3333332E1,2.0627653E-2,-6.736763E-3,-1.4791577E-2,4.82E0,4.48E0,1.809E3,-7.2913878E-3,-9.320749E-3,-1.3317777E-3,4.6205E0,5.24E0,2.6449242E-3,-9.1E-1,2.1562E3,-7.5991364E-4,1.2859409E-2,-5.4E-1,4.0360685E-3,-6.1E0,1.3199635E-5,-4.3027545E-3,-1.2029749E-2,-6.9148326E-3,-1.0885072E-3,2.7590336E-3,-9.506526E-4,8.188959E-3,-2.4945012E-3,1.498218E-3,1.788516E-3,6.425652E-3,3.0035833E-3,-0E0,7.145411E-3,1.0042901E-2,6.8504936E-3,1.61506E-2],"split_indices":[1,0,8,0,0,0,17,0,13,17,13,25,34,8,0,0,0,0,5,26,44,26,18,27,12,0,35,29,0,0,0,11,1,4,0,0,0,18,13,0,37,34,0,0,37,0,39,0,0,0,0,0,0,0,0,0,0,0,0,0,0,0,0,0,0],"split_type":[0,0,0,0,0,0,0,0,0,0,0,0,0,0,0,0,0,0,0,0,0,0,0,0,0,0,0,0,0,0,0,0,0,0,0,0,0,0,0,0,0,0,0,0,0,0,0,0,0,0,0,0,0,0,0,0,0,0,0,0,0,0,0,0,0],"sum_hessian":[8.64E2,4.57E2,4.07E2,2.2E2,2.37E2,2.27E2,1.8E2,1.11E2,1.09E2,1.09E2,1.28E2,8.4E1,1.43E2,1.71E2,9E0,4.3E1,6.8E1,9E0,1E2,9.1E1,1.8E1,1.1E1,1.17E2,4.1E1,4.3E1,7E0,1.36E2,1.31E2,4E1,5E0,9.5E1,1.2E1,7.9E1,1.1E1,7E0,6E0,5E0,1.3E1,1.04E2,1E1,3.1E1,3.5E1,8E0,4.1E1,9.5E1,5E0,1.26E2,5E0,7E0,1.4E1,6.5E1,5E0,6E0,6E0,7E0,8.7E1,1.7E1,5E0,2.6E1,3E1,5E0,3.3E1,6.2E1,6E0,1.2E2],"tree_param":{"num_deleted":"0","num_feature":"45","num_nodes":"65","size_leaf_vector":"1"}},{"base_weights":[-5.9412676E-4,-1.9838375E-1,2.438055E-1,-3.3984408E-1,-5.74274E-2,1.639375E-1,3.34707E-1,-4.4918013E-1,-2.8116074E-1,-8.039041E-2,-3.7496668E-4,9.1109395E-2,1.9828016E-1,3.155933E-1,2.6992356E-2,-4.738709E-1,-1.4236772E-2,-7.2752684E-3,-2.902552E-1,-1.1467469E-1,-4.563082E-2,2.4017908E-2,-6.366803E-2,1.0164081E-1,2.780213E-2,1.3941667E-2,1.8535239E-1,6.985457E-3,3.2266825E-1,-2.4641974E-2,-1.49439275E-2,-3.2941163E-1,-2.506315E-1,-1.3138747E-1,-0E0,5.4501407E-3,-5.7051413E-2,9.742289E-3,4.530024E-3,-0E0,-8.987027E-2,7.886392E-2,1.382514E-1,2.2365625E-3,-0E0,6.3823583E-3,1.9703491E-1,2.3784699E-1,3.340277E-1,-1.7450152E-2,-1.0297912E-2,-2.8787844E-3,-1.3198748E-2,-9.2562195E-4,-6.968472E-3,-2.2163664E-4,3.3149243E-4,-4.3491106E-3,-1.4730368E-3,-1.3450059E-3,1.6757455E-3,-5.5399216E-3,-9.928456E-4,8.645169E-4,4.207887E-3,2.616852E-3,8.639737E-3,1.0530075E-2,6.431203E-3,4.7266087E-3,1.4270795E-2,1.7983591E-2,1.4040189E-2],"categories":[],"categories_nodes":[],"categories_segments":[],"categories_sizes":[],"default_left":[0,0,0,0,0,0,0,0,0,0,0,0,0,0,0,0,0,0,0,0,0,0,0,0,0,0,0,0,0,0,0,0,0,0,0,0,0,0,0,0,0,0,0,0,0,0,0,0,0,0,0,0,0,0,0,0,0,0,0,0,0,0,0,0,0,0,0,0,0,0,0,0,0],"id":23,"left_children":[1,3,5,7,9,11,13,15,17,19,21,23,25,27,-1,29,-1,-1,31,33,35,37,39,41,43,-1,45,-1,47,-1,-1,49,51,53,55,-1,57,59,-1,-1,61,63,65,-1,-1,-1,67,69,71,-1,-1,-1,-1,-1,-1,-1,-1,-1,-1,-1,-1,-1,-1,-1,-1,-1,-1,-1,-1,-1,-1,-1,-1],"loss_changes":[4.3356205E1,9.830864E0,2.8065739E0,1.3854771E0,3.1941718E-1,4.932356E-1,4.7338676E-1,1.3027382E-1,1.16518974E-1,1.8966901E-1,1.1974277E-1,3.2233298E-2,5.289793E-2,1.23960495E-1,0E0,9.203911E-3,0E0,0E0,9.526634E-2,1.6788805E-1,1.6173035E-1,3.945996E-2,4.0047042E-2,1.7417967E-2,5.958616E-3,0E0,2.9345512E-2,0E0,2.2346497E-2,0E0,0E0,4.6764374E-2,1.6130495E-1,5.0105095E-2,4.0127314E-4,0E0,5.6812912E-2,4.163299E-2,0E0,0E0,8.178368E-3,1.7644167E-3,2.7798653E-2,0E0,0E0,0E0,3.5511494E-2,9.8640084E-2,2.8767586E-2,0E0,0E0,0E0,0E0,0E0,0E0,0E0,0E0,0E0,0E0,0E0,0E0,0E0,0E0,0E0,0E0,0E0,0E0,0E0,0E0,0E0,0E0,0E0,0E0],"parents":[2147483647,0,0,1,1,2,2,3,3,4,4,5,5,6,6,7,7,8,8,9,9,10,10,11,11,12,12,13,13,15,15,18,18,19,19,20,20,21,21,22,22,23,23,24,24,26,26,28,28,31,31,32,32,33,33,34,34,36,36,37,37,40,40,41,41,42,42,46,46,47,47,48,48],"right_children":[2,4,6,8,10,12,14,16,18,20,22,24,26,28,-1,30,-1,-1,32,34,36,38,40,42,44,-1,46,-1,48,-1,-1,50,52,54,56,-1,58,60,-1,-1,62,64,66,-1,-1,-1,68,70,72,-1,-1,-1,-1,-1,-1,-1,-1,-1,-1,-1,-1,-1,-1,-1,-1,-1,-1,-1,-1,-1,-1,-1,-1],"split_conditions":[5.14E0,4.42E0,5.8E0,3.72E0,4.89E0,5.44E0,6.25E0,3.88E0,-1.1821354E-1,6E0,2.4673853E-2,1.2E1,5E0,-5.727863E-2,2.6992356E-2,1.045284E0,-1.4236772E-2,-7.2752684E-3,3.96E0,4.557927E-2,4.6665E0,2.775E3,-4E-2,1.004973E0,-3.7313432E-3,1.3941667E-2,-5.7E-1,6.985457E-3,-2.1E-1,-2.4641974E-2,-1.49439275E-2,4.0974884E0,3.89E0,-1.1821354E-1,4.191E0,5.4501407E-3,4.79E0,5.01E0,4.530024E-3,-0E0,5.782E3,5.426386E0,5.12E0,2.2365625E-3,-0E0,6.3823583E-3,1.7623986E-1,1.0952028E-2,1.7944172E-2,-1.7450152E-2,-1.0297912E-2,-2.8787844E-3,-1.3198748E-2,-9.2562195E-4,-6.968472E-3,-2.2163664E-4,3.3149243E-4,-4.3491106E-3,-1.4730368E-3,-1.3450059E-3,1.6757455E-3,-5.5399216E-3,-9.928456E-4,8.645169E-4,4.207887E-3,2.616852E-3,8.639737E-3,1.0530075E-2,6.431203E-3,4.7266087E-3,1.4270795E-2,1.7983591E-2,1.4040189E-2],"split_indices":[0,0,0,1,0,8,3,13,25,42,27,42,42,25,0,19,0,0,3,26,18,4,39,15,6,0,37,0,37,0,0,22,13,25,18,0,1,8,0,0,4,30,3,0,0,0,25,27,27,0,0,0,0,0,0,0,0,0,0,0,0,0,0,0,0,0,0,0,0,0,0,0,0],"split_type":[0,0,0,0,0,0,0,0,0,0,0,0,0,0,0,0,0,0,0,0,0,0,0,0,0,0,0,0,0,0,0,0,0,0,0,0,0,0,0,0,0,0,0,0,0,0,0,0,0,0,0,0,0,0,0,0,0,0,0,0,0,0,0,0,0,0,0,0,0,0,0,0,0],"sum_hessian":[8.95E2,4.95E2,4E2,2.46E2,2.49E2,2.15E2,1.85E2,8.3E1,1.63E2,1.76E2,7.3E1,7.1E1,1.44E2,1.72E2,1.3E1,7E1,1.3E1,1.2E1,1.51E2,8.6E1,9E1,5.2E1,2.1E1,5.9E1,1.2E1,1.6E1,1.28E2,8E0,1.64E2,6.1E1,9E0,7.1E1,8E1,7.5E1,1.1E1,5E0,8.5E1,4.5E1,7E0,6E0,1.5E1,4E1,1.9E1,7E0,5E0,2.5E1,1.03E2,2.3E1,1.41E2,5.9E1,1.2E1,6E0,7.4E1,6E0,6.9E1,6E0,5E0,3.8E1,4.7E1,1.6E1,2.9E1,1E1,5E0,5E0,3.5E1,7E0,1.2E1,8.3E1,2E1,7E0,1.6E1,9E1,5.1E1],"tree_param":{"num_deleted":"0","num_feature":"45","num_nodes":"73","size_leaf_vector":"1"}},{"base_weights":[-2.611963E-4,-2.1876293E-1,2.1112621E-1,-3.339564E-1,-7.9021975E-2,9.286284E-2,3.012934E-1,-4.1330788E-1,-2.7031603E-1,-1.19263195E-1,-4.2058032E-2,1.7388403E-2,1.3452269E-1,2.4135794E-1,3.5622078E-1,-2.524153E-2,-1.8525215E-2,-8.696328E-3,-2.8016406E-1,-1.2809081E-1,-0E0,4.5877267E-3,-5.507097E-2,3.35115E-2,-2.0401068E-2,7.6887555E-2,1.510351E-1,5.08536E-3,2.5183865E-1,3.311372E-1,3.199887E-2,-1.6536127E-1,-2.8826192E-1,-0E0,-1.3655862E-1,-1.0162563E-1,-2.0290669E-2,7.793683E-4,6.008646E-2,2.975294E-2,-4.1765184E-3,-0E0,9.3657285E-2,1.169335E-1,1.7792568E-1,1.4927101E-1,2.672446E-1,1.4531582E-2,3.734101E-1,-1.0900545E-2,-3.4242384E-3,-6.3619167E-3,-1.47717865E-2,-1.2325679E-3,-7.370612E-3,-7.8096963E-3,-3.6046521E-3,-1.3433838E-3,1.2260667E-3,-2.5155947E-3,1.1811171E-3,3.9851116E-3,7.60893E-4,-0E0,2.7373584E-3,5.4284353E-3,4.5955498E-4,6.206917E-3,1.5772413E-3,9.511052E-3,3.931721E-3,9.450771E-3,2.2763791E-3,6.894681E-3,1.3888517E-2,2.043303E-2,1.2894948E-2],"categories":[],"categories_nodes":[],"categories_segments":[],"categories_sizes":[],"default_left":[0,0,0,0,0,0,0,0,0,0,0,0,0,0,0,0,0,0,0,0,0,0,0,0,0,0,0,0,0,0,0,0,0,0,0,0,0,0,0,0,0,0,0,0,0,0,0,0,0,0,0,0,0,0,0,0,0,0,0,0,0,0,0,0,0,0,0,0,0,0,0,0,0,0,0,0,0],"id":24,"left_children":[1,3,5,7,9,11,13,15,17,19,21,23,25,27,29,-1,-1,-1,31,33,-1,-1,35,37,39,41,43,-1,45,47,-1,49,51,-1,53,55,57,59,61,63,-1,-1,65,67,69,71,73,-1,75,-1,-1,-1,-1,-1,-1,-1,-1,-1,-1,-1,-1,-1,-1,-1,-1,-1,-1,-1,-1,-1,-1,-1,-1,-1,-1,-1,-1],"loss_changes":[4.0369522E1,6.85413E0,4.6671906E0,1.0066509E0,2.7039683E-1,5.924549E-1,6.8058205E-1,1.2500954E-1,3.306198E-2,8.603549E-2,1.8422058E-1,4.525383E-2,8.360505E-2,1.20522976E-1,6.020241E-1,0E0,0E0,0E0,1.760006E-2,7.859552E-2,0E0,0E0,1.4280728E-1,3.9099053E-2,7.1186766E-2,4.480128E-2,3.5907745E-2,0E0,9.859371E-2,3.0546188E-2,0E0,1.2525648E-2,4.6052933E-2,0E0,7.511294E-2,3.037256E-2,1.798774E-2,2.8863514E-2,1.3058662E-2,8.245903E-3,0E0,0E0,1.9973442E-2,8.815527E-3,1.797676E-2,4.2158246E-2,5.2197456E-2,0E0,4.7829628E-2,0E0,0E0,0E0,0E0,0E0,0E0,0E0,0E0,0E0,0E0,0E0,0E0,0E0,0E0,0E0,0E0,0E0,0E0,0E0,0E0,0E0,0E0,0E0,0E0,0E0,0E0,0E0,0E0],"parents":[2147483647,0,0,1,1,2,2,3,3,4,4,5,5,6,6,7,7,8,8,9,9,10,10,11,11,12,12,13,13,14,14,18,18,19,19,22,22,23,23,24,24,25,25,26,26,28,28,29,29,31,31,32,32,34,34,35,35,36,36,37,37,38,38,39,39,42,42,43,43,44,44,45,45,46,46,48,48],"right_children":[2,4,6,8,10,12,14,16,18,20,22,24,26,28,30,-1,-1,-1,32,34,-1,-1,36,38,40,42,44,-1,46,48,-1,50,52,-1,54,56,58,60,62,64,-1,-1,66,68,70,72,74,-1,76,-1,-1,-1,-1,-1,-1,-1,-1,-1,-1,-1,-1,-1,-1,-1,-1,-1,-1,-1,-1,-1,-1,-1,-1,-1,-1,-1,-1],"split_conditions":[4.96E0,4.4E0,5.6E0,3.918E0,6E0,5.19E0,5.95E0,3.5E0,7.600874E-2,5.08E0,4.6715E0,2.5013503E-2,2.012E2,5.5E0,8.717949E1,-2.524153E-2,-1.8525215E-2,-8.696328E-3,4.0052E0,3.96E0,-0E0,4.5877267E-3,4.79E0,4.666E2,-4E-2,-2.7989822E-2,5.48E0,5.08536E-3,2.5555063E-3,6.071E0,3.199887E-2,3.93E0,3.85E0,-0E0,-4.9530704E-2,4.75E0,5.24E0,5.09E0,1E-2,1.0239498E-1,-4.1765184E-3,-0E0,5.7E0,5.56E0,2.510201E0,2.7512026E-1,5.5E0,1.4531582E-2,6.0476317E0,-1.0900545E-2,-3.4242384E-3,-6.3619167E-3,-1.47717865E-2,-1.2325679E-3,-7.370612E-3,-7.8096963E-3,-3.6046521E-3,-1.3433838E-3,1.2260667E-3,-2.5155947E-3,1.1811171E-3,3.9851116E-3,7.60893E-4,-0E0,2.7373584E-3,5.4284353E-3,4.5955498E-4,6.206917E-3,1.5772413E-3,9.511052E-3,3.931721E-3,9.450771E-3,2.2763791E-3,6.894681E-3,1.3888517E-2,2.043303E-2,1.2894948E-2],"split_indices":[0,0,0,18,42,0,0,0,32,12,18,27,34,13,29,0,0,0,20,12,0,0,1,34,39,7,2,0,27,16,0,1,14,0,26,11,13,10,40,32,0,0,1,11,36,33,12,0,31,0,0,0,0,0,0,0,0,0,0,0,0,0,0,0,0,0,0,0,0,0,0,0,0,0,0,0,0],"split_type":[0,0,0,0,0,0,0,0,0,0,0,0,0,0,0,0,0,0,0,0,0,0,0,0,0,0,0,0,0,0,0,0,0,0,0,0,0,0,0,0,0,0,0,0,0,0,0,0,0,0,0,0,0,0,0,0,0,0,0,0,0,0,0,0,0,0,0,0,0,0,0,0,0,0,0,0,0],"sum_hessian":[8.72E2,4.29E2,4.43E2,2.34E2,1.95E2,1.93E2,2.5E2,1.01E2,1.33E2,9.1E1,1.04E2,7E1,1.23E2,1.23E2,1.27E2,2.8E1,7.3E1,1.5E1,1.18E2,8.4E1,7E0,8E0,9.6E1,5.1E1,1.9E1,3E1,9.3E1,1E1,1.13E2,1.19E2,8E0,1E1,1.08E2,6E0,7.8E1,3.9E1,5.7E1,2.5E1,2.6E1,1E1,9E0,5E0,2.5E1,4.5E1,4.8E1,1.7E1,9.6E1,6.6E1,5.3E1,5E0,5E0,6E0,1.02E2,8E0,7E1,1.1E1,2.8E1,5.2E1,5E0,6E0,1.9E1,1.6E1,1E1,5E0,5E0,2E1,5E0,4E1,5E0,4.1E1,7E0,1.1E1,6E0,9E0,8.7E1,3.8E1,1.5E1],"tree_param":{"num_deleted":"0","num_feature":"45","num_nodes":"77","size_leaf_vector":"1"}},{"base_weights":[-1.1036817E-3,-2.0593147E-1,2.0487754E-1,-3.2735172E-1,-8.688681E-2,8.1169404E-2,2.7254567E-1,-3.7667295E-1,-2.5111264E-1,-1.7898862E-1,-6.995646E-2,2.4162434E-2,1.2303005E-1,2.2061105E-1,3.3960748E-1,-2.4038175E-2,-3.443757E-1,-5.1737423E-3,-2.648354E-1,-9.776762E-3,-2.6257627E-3,-1.011382E-1,-4.2140458E-2,3.6881022E-2,-2.29186E-3,-0E0,1.2985931E-1,1.8841271E-1,2.686748E-1,1.5855374E-2,2.4249641E-2,-1.7788462E-2,-9.528014E-3,-8.811611E-3,-1.4187941E-2,-1.14141114E-1,-7.6484974E-3,3.9517195E-3,-4.9835637E-2,2.474072E-2,5.0858967E-3,3.9519533E-3,6.989274E-3,2.6305607E-1,1.6148151E-1,2.1216705E-2,2.4621564E-1,-6.3493373E-3,-0E0,-3.2217414E-3,1.1698658E-3,-4.004643E-3,-1.492082E-3,1.6085347E-3,-1.1697086E-3,1.4676875E-2,6.4227777E-3,8.562691E-3,-0E0,6.7984127E-3,1.29567925E-2],"categories":[],"categories_nodes":[],"categories_segments":[],"categories_sizes":[],"default_left":[0,0,0,0,0,0,0,0,0,0,0,0,0,0,0,0,0,0,0,0,0,0,0,0,0,0,0,0,0,0,0,0,0,0,0,0,0,0,0,0,0,0,0,0,0,0,0,0,0,0,0,0,0,0,0,0,0,0,0,0,0],"id":25,"left_children":[1,3,5,7,9,11,13,15,17,19,21,23,25,27,29,-1,31,-1,33,-1,-1,35,37,39,-1,-1,41,43,45,-1,-1,-1,-1,-1,-1,47,49,-1,51,53,-1,-1,-1,55,57,-1,59,-1,-1,-1,-1,-1,-1,-1,-1,-1,-1,-1,-1,-1,-1],"loss_changes":[3.7845146E1,6.4346275E0,3.6843853E0,6.773987E-1,3.1966722E-1,3.6412382E-1,8.721142E-1,1.9568634E-1,1.20131016E-1,3.6078334E-2,1.5141106E-1,6.311567E-2,7.2844386E-2,1.6056728E-1,1.6834927E-1,0E0,6.158352E-2,0E0,4.1481018E-2,0E0,0E0,9.635544E-2,1.0079233E-1,3.285308E-2,0E0,0E0,1.0451674E-2,1.2413192E-1,4.8713684E-2,0E0,0E0,0E0,0E0,0E0,0E0,1.1259508E-1,2.8530063E-2,0E0,4.8322648E-2,2.094287E-2,0E0,0E0,0E0,2.2664547E-2,1.1348772E-1,0E0,7.871866E-3,0E0,0E0,0E0,0E0,0E0,0E0,0E0,0E0,0E0,0E0,0E0,0E0,0E0,0E0],"parents":[2147483647,0,0,1,1,2,2,3,3,4,4,5,5,6,6,7,7,8,8,9,9,10,10,11,11,12,12,13,13,14,14,16,16,18,18,21,21,22,22,23,23,26,26,27,27,28,28,35,35,36,36,38,38,39,39,43,43,44,44,46,46],"right_children":[2,4,6,8,10,12,14,16,18,20,22,24,26,28,30,-1,32,-1,34,-1,-1,36,38,40,-1,-1,42,44,46,-1,-1,-1,-1,-1,-1,48,50,-1,52,54,-1,-1,-1,56,58,-1,60,-1,-1,-1,-1,-1,-1,-1,-1,-1,-1,-1,-1,-1,-1],"split_conditions":[4.96E0,4.568292E0,5.51E0,3.96E0,4.48E0,5.21E0,6E0,3.5E0,3.89E0,4.2056076E1,6E0,2.7819425E-2,1.5248E2,1.0008186E0,6.32E0,-2.4038175E-2,8.477676E3,-5.1737423E-3,7.600874E-2,-9.776762E-3,-2.6257627E-3,1.0502167E0,4.6E0,3.3524E3,-2.29186E-3,-0E0,-1.8691589E-3,-1.8910803E-2,1.0454774E-2,1.5855374E-2,2.4249641E-2,-1.7788462E-2,-9.528014E-3,-8.811611E-3,-1.4187941E-2,5.08E0,4.66E0,3.9517195E-3,4.79E0,5E-2,5.0858967E-3,3.9519533E-3,6.989274E-3,-1.7825312E-3,5.88E0,2.1216705E-2,1.3183619E-2,-6.3493373E-3,-0E0,-3.2217414E-3,1.1698658E-3,-4.004643E-3,-1.492082E-3,1.6085347E-3,-1.1697086E-3,1.4676875E-2,6.4227777E-3,8.562691E-3,-0E0,6.7984127E-3,1.29567925E-2],"split_indices":[0,30,9,0,8,8,8,0,13,29,42,27,44,15,2,0,44,0,32,0,0,17,11,34,0,0,5,26,28,0,0,0,0,0,0,12,9,0,8,37,0,0,0,7,40,0,28,0,0,0,0,0,0,0,0,0,0,0,0,0,0],"split_type":[0,0,0,0,0,0,0,0,0,0,0,0,0,0,0,0,0,0,0,0,0,0,0,0,0,0,0,0,0,0,0,0,0,0,0,0,0,0,0,0,0,0,0,0,0,0,0,0,0,0,0,0,0,0,0,0,0,0,0,0,0],"sum_hessian":[8.95E2,4.49E2,4.46E2,2.21E2,2.28E2,1.59E2,2.87E2,1.31E2,9E1,3.3E1,1.95E2,6.9E1,9E1,1.65E2,1.22E2,2.7E1,1.04E2,9E0,8.1E1,2.8E1,5E0,8.9E1,1.06E2,6E1,9E0,5E0,8.5E1,1.03E2,6.2E1,1.09E2,1.3E1,9.5E1,9E0,1.7E1,6.4E1,7.7E1,1.2E1,5E0,1.01E2,5.3E1,7E0,1.7E1,6.8E1,2.4E1,7.9E1,5E0,5.7E1,6.9E1,8E0,5E0,7E0,3.7E1,6.4E1,4.8E1,5E0,1.8E1,6E0,7.4E1,5E0,8E0,4.9E1],"tree_param":{"num_deleted":"0","num_feature":"45","num_nodes":"61","size_leaf_vector":"1"}},{"base_weights":[2.0539963E-3,-1.837578E-1,1.9417259E-1,-3.0270553E-1,-7.630554E-2,1.05449684E-1,2.7182835E-1,-2.2397932E-2,-2.7135372E-1,-1.3335723E-1,-5.05313E-2,5.4992437E-2,1.4968462E-1,2.4213053E-1,3.812452E-1,-3.0407986E-1,-2.310899E-1,-4.1649878E-4,-1.4533943E-1,-5.872221E-2,3.5740442E-3,1.30804395E-2,7.787361E-2,1.5511389E-1,1.8227196E-3,2.0491812E-1,2.8191504E-1,1.6119724E-2,2.5639473E-2,-6.7244642E-3,-1.6210789E-2,-1.5509649E-3,-2.4480022E-1,-9.550844E-3,-1.10657535E-1,1.7900647E-3,-6.844099E-2,2.6901316E-2,-2.3072155E-3,7.867683E-3,6.4523906E-2,3.1419806E-3,8.015416E-3,2.1289673E-1,1.4550042E-3,7.190905E-3,1.44706E-2,-6.0621253E-3,-1.2601194E-2,-6.703912E-3,-0E0,-8.9757715E-4,3.5401338E-3,-5.187468E-3,-2.3309283E-3,-0E0,1.8394096E-3,2.122738E-3,4.942076E-3,1.1139004E-2,3.3151738E-3],"categories":[],"categories_nodes":[],"categories_segments":[],"categories_sizes":[],"default_left":[0,0,0,0,0,0,0,0,0,0,0,0,0,0,0,0,0,0,0,0,0,0,0,0,0,0,0,0,0,0,0,0,0,0,0,0,0,0,0,0,0,0,0,0,0,0,0,0,0,0,0,0,0,0,0,0,0,0,0,0,0],"id":26,"left_children":[1,3,5,7,9,11,13,-1,15,17,19,21,23,25,27,29,31,-1,33,35,-1,37,39,41,-1,43,45,-1,-1,-1,-1,-1,47,-1,49,51,53,55,-1,-1,57,-1,-1,59,-1,-1,-1,-1,-1,-1,-1,-1,-1,-1,-1,-1,-1,-1,-1,-1,-1],"loss_changes":[3.10582E1,5.588291E0,2.8824615E0,7.582855E-1,3.1896102E-1,4.2215943E-1,5.829735E-1,0E0,1.0680771E-1,8.97876E-2,1.6682172E-1,8.290854E-2,4.0352583E-2,1.6299438E-1,1.0726881E-1,2.2469234E-1,1.9523907E-1,0E0,5.0082684E-2,9.794402E-2,0E0,2.9602947E-2,3.238234E-2,1.5542507E-2,0E0,1.0848093E-1,2.020359E-3,0E0,0E0,0E0,0E0,0E0,1.7356873E-3,0E0,1.0343653E-1,3.5166945E-2,8.414596E-2,1.0676492E-2,0E0,0E0,2.33289E-2,0E0,0E0,9.251022E-2,0E0,0E0,0E0,0E0,0E0,0E0,0E0,0E0,0E0,0E0,0E0,0E0,0E0,0E0,0E0,0E0,0E0],"parents":[2147483647,0,0,1,1,2,2,3,3,4,4,5,5,6,6,8,8,9,9,10,10,11,11,12,12,13,13,14,14,15,15,16,16,18,18,19,19,21,21,22,22,23,23,25,25,26,26,32,32,34,34,35,35,36,36,37,37,40,40,43,43],"right_children":[2,4,6,8,10,12,14,-1,16,18,20,22,24,26,28,30,32,-1,34,36,-1,38,40,42,-1,44,46,-1,-1,-1,-1,-1,48,-1,50,52,54,56,-1,-1,58,-1,-1,60,-1,-1,-1,-1,-1,-1,-1,-1,-1,-1,-1,-1,-1,-1,-1,-1,-1],"split_conditions":[5.07E0,4.25E0,5.64E0,3.56E0,4.6E0,5.36E0,6.04E0,-2.2397932E-2,4E0,4.015E0,8.944909E-1,5.15E0,5.682E0,5.944E0,1.0215505E0,3.064516E1,3.9972E0,-4.1649878E-4,4.48E0,-8.013405E-2,3.5740442E-3,9.111857E3,8E0,-6.9E-1,1.8227196E-3,5.9420595E0,8E1,1.6119724E-2,2.5639473E-2,-6.7244642E-3,-1.6210789E-2,-1.5509649E-3,4.002E0,-9.550844E-3,1.1E-1,2.8273128E-2,6E0,4.468E2,-2.3072155E-3,7.867683E-3,1.4291415E-2,3.1419806E-3,8.015416E-3,1.123833E0,1.4550042E-3,7.190905E-3,1.44706E-2,-6.0621253E-3,-1.2601194E-2,-6.703912E-3,-0E0,-8.9757715E-4,3.5401338E-3,-5.187468E-3,-2.3309283E-3,-0E0,1.8394096E-3,2.122738E-3,4.942076E-3,1.1139004E-2,3.3151738E-3],"split_indices":[0,0,0,0,14,0,3,0,0,20,33,0,14,16,17,29,20,0,9,24,0,44,42,37,0,22,34,0,0,0,0,0,14,0,37,27,42,35,0,0,26,0,0,21,0,0,0,0,0,0,0,0,0,0,0,0,0,0,0,0,0],"split_type":[0,0,0,0,0,0,0,0,0,0,0,0,0,0,0,0,0,0,0,0,0,0,0,0,0,0,0,0,0,0,0,0,0,0,0,0,0,0,0,0,0,0,0,0,0,0,0,0,0,0,0,0,0,0,0,0,0,0,0,0,0],"sum_hessian":[8.68E2,4.41E2,4.27E2,2.08E2,2.33E2,2.01E2,2.26E2,3.4E1,1.74E2,7E1,1.63E2,9.6E1,1.05E2,1.81E2,4.5E1,9.1E1,8.3E1,7E0,6.3E1,1.54E2,9E0,3.6E1,6E1,9.9E1,6E0,9.8E1,8.3E1,3.4E1,1.1E1,1.1E1,8E1,6E0,7.7E1,2.4E1,3.9E1,2E1,1.34E2,3.1E1,5E0,6E0,5.4E1,7E0,9.2E1,9.3E1,5E0,6E0,7.7E1,6E0,7.1E1,3.2E1,7E0,1.5E1,5E0,4.8E1,8.6E1,7E0,2.4E1,3.6E1,1.8E1,8.6E1,7E0],"tree_param":{"num_deleted":"0","num_feature":"45","num_nodes":"61","size_leaf_vector":"1"}},{"base_weights":[7.422363E-3,-1.6250826E-1,2.0527983E-1,-2.7321437E-1,-4.8358962E-2,1.2739198E-1,2.780295E-1,-3.6295936E-1,-2.2687809E-1,-9.2244886E-2,-1.2596699E-2,8.166674E-2,1.5612216E-1,2.634515E-1,2.8242081E-2,-3.9243516E-1,-1.2834857E-2,-2.3651128E-1,-1.09396644E-1,-3.3246708E-4,-9.915854E-2,6.6501684E-3,-4.6679504E-2,5.3558152E-2,6.102484E-3,2.3821944E-3,1.6148798E-1,2.342264E-1,3.3419895E-1,-2.0823358E-2,-1.3291097E-2,-1.9651416E-1,-2.7409026E-1,2.021265E-4,-8.826024E-3,-1.2681481E-1,-5.820013E-2,-2.2529608E-2,8.041563E-2,-7.3311575E-2,8.245612E-3,2.0190291E-2,4.0509966E-3,1.3489299E-1,1.9440228E-1,5.101466E-3,2.4133249E-1,1.2927945E-2,1.8629834E-2,-2.3425452E-3,-1.0243393E-2,-1.0361164E-2,-1.5125818E-2,-1.8293271E-3,-6.7537846E-3,-4.1821986E-3,-4.99007E-4,-4.283559E-3,-3.8731837E-4,5.896404E-3,-9.303052E-4,-7.1676197E-3,-1.3093998E-3,1.799607E-3,-1.366531E-3,2.2716904E-3,-1.07145E-3,1.4994001E-3,7.1474253E-3,1.0337579E-2,4.0006563E-3,1.2283944E-2,6.3475217E-3],"categories":[],"categories_nodes":[],"categories_segments":[],"categories_sizes":[],"default_left":[0,0,0,0,0,0,0,0,0,0,0,0,0,0,0,0,0,0,0,0,0,0,0,0,0,0,0,0,0,0,0,0,0,0,0,0,0,0,0,0,0,0,0,0,0,0,0,0,0,0,0,0,0,0,0,0,0,0,0,0,0,0,0,0,0,0,0,0,0,0,0,0,0],"id":27,"left_children":[1,3,5,7,9,11,13,15,17,19,21,23,25,27,-1,29,-1,31,33,-1,35,37,39,41,-1,-1,43,45,47,-1,-1,49,51,-1,-1,53,55,57,59,61,63,65,-1,67,69,-1,71,-1,-1,-1,-1,-1,-1,-1,-1,-1,-1,-1,-1,-1,-1,-1,-1,-1,-1,-1,-1,-1,-1,-1,-1,-1,-1],"loss_changes":[2.9894014E1,5.995126E0,2.2528954E0,8.650131E-1,3.6031592E-1,2.2752404E-1,6.505871E-1,8.4923744E-2,1.2400532E-1,5.0896585E-2,9.155966E-2,6.784612E-2,4.1823864E-2,2.8460217E-1,0E0,3.6315918E-3,0E0,1.23031616E-1,1.3217846E-1,0E0,8.286244E-2,1.8840694E-1,8.024957E-2,3.4976542E-2,0E0,0E0,4.063773E-2,8.007336E-2,3.1929016E-3,0E0,0E0,6.1498165E-2,2.5093079E-2,0E0,0E0,1.8886864E-2,4.1332662E-2,4.600083E-2,1.0499008E-1,9.481192E-2,1.7643707E-2,3.069013E-2,0E0,3.5884023E-2,2.1174073E-2,0E0,6.5135956E-4,0E0,0E0,0E0,0E0,0E0,0E0,0E0,0E0,0E0,0E0,0E0,0E0,0E0,0E0,0E0,0E0,0E0,0E0,0E0,0E0,0E0,0E0,0E0,0E0,0E0,0E0],"parents":[2147483647,0,0,1,1,2,2,3,3,4,4,5,5,6,6,7,7,8,8,9,9,10,10,11,11,12,12,13,13,15,15,17,17,18,18,20,20,21,21,22,22,23,23,26,26,27,27,28,28,31,31,32,32,35,35,36,36,37,37,38,38,39,39,40,40,41,41,43,43,44,44,46,46],"right_children":[2,4,6,8,10,12,14,16,18,20,22,24,26,28,-1,30,-1,32,34,-1,36,38,40,42,-1,-1,44,46,48,-1,-1,50,52,-1,-1,54,56,58,60,62,64,66,-1,68,70,-1,72,-1,-1,-1,-1,-1,-1,-1,-1,-1,-1,-1,-1,-1,-1,-1,-1,-1,-1,-1,-1,-1,-1,-1,-1,-1,-1],"split_conditions":[5.14E0,4.48E0,5.734E0,4.04317E0,4.79E0,5.424E0,1.0497556E0,1.018269E0,3.98475E-3,-1.080571E-1,2.4213519E-2,