{"learner":{"attributes":{"best_iteration":"172","best_score":"0.12555697823794382","scikit_learn":"{\"_estimator_type\": \"regressor\"}"},"feature_names":[],"feature_types":[],"gradient_booster":{"model":{"cats":{"enc":[],"feature_segments":[],"sorted_idx":[]},"gbtree_model_param":{"num_parallel_tree":"1","num_trees":"203"},"iteration_indptr":[0,1,2,3,4,5,6,7,8,9,10,11,12,13,14,15,16,17,18,19,20,21,22,23,24,25,26,27,28,29,30,31,32,33,34,35,36,37,38,39,40,41,42,43,44,45,46,47,48,49,50,51,52,53,54,55,56,57,58,59,60,61,62,63,64,65,66,67,68,69,70,71,72,73,74,75,76,77,78,79,80,81,82,83,84,85,86,87,88,89,90,91,92,93,94,95,96,97,98,99,100,101,102,103,104,105,106,107,108,109,110,111,112,113,114,115,116,117,118,119,120,121,122,123,124,125,126,127,128,129,130,131,132,133,134,135,136,137,138,139,140,141,142,143,144,145,146,147,148,149,150,151,152,153,154,155,156,157,158,159,160,161,162,163,164,165,166,167,168,169,170,171,172,173,174,175,176,177,178,179,180,181,182,183,184,185,186,187,188,189,190,191,192,193,194,195,196,197,198,199,200,201,202,203],"tree_info":[0,0,0,0,0,0,0,0,0,0,0,0,0,0,0,0,0,0,0,0,0,0,0,0,0,0,0,0,0,0,0,0,0,0,0,0,0,0,0,0,0,0,0,0,0,0,0,0,0,0,0,0,0,0,0,0,0,0,0,0,0,0,0,0,0,0,0,0,0,0,0,0,0,0,0,0,0,0,0,0,0,0,0,0,0,0,0,0,0,0,0,0,0,0,0,0,0,0,0,0,0,0,0,0,0,0,0,0,0,0,0,0,0,0,0,0,0,0,0,0,0,0,0,0,0,0,0,0,0,0,0,0,0,0,0,0,0,0,0,0,0,0,0,0,0,0,0,0,0,0,0,0,0,0,0,0,0,0,0,0,0,0,0,0,0,0,0,0,0,0,0,0,0,0,0,0,0,0,0,0,0,0,0,0,0,0,0,0,0,0,0,0,0,0,0,0,0,0,0,0,0,0,0],"trees":[{"base_weights":[-2.3072412E-2,-7.145731E-1,6.905575E-1,-1.1138602E0,-2.6834613E-1,3.5175124E-1,1.0061716E0,-6.9107644E-2,-9.383226E-1,-4.1317165E-1,-1.4512886E-1,1.0533236E-1,4.7791547E-1,4.2220578E-2,1.1512797E0,-5.0341535E-2,-4.1662615E-2,-4.5943692E-1,-3.1523216E-1,-1.5510687E-1,2.432441E-3,7.471697E-2,2.0347989E-1,3.6016878E-1,2.7827341E-2,5.2020043E-2,6.5520816E-2,-2.7813826E-2,-1.9150784E-2,-1.928189E-2,-1.5872742E-1,-1.6483653E-1,-7.1650825E-4,-1.6053909E-3,9.445109E-2,5.7834913E-3,1.3216562E-2,6.844796E-3,1.9048763E-2,-1.0283437E-2,-2.650888E-3,-2.2100639E-3,-8.8068005E-3,-1.5675537E-3,5.567401E-3],"categories":[],"categories_nodes":[],"categories_segments":[],"categories_sizes":[],"default_left":[0,0,0,0,0,0,0,0,0,0,0,0,0,0,0,0,0,0,0,0,0,0,0,0,0,0,0,0,0,0,0,0,0,0,0,0,0,0,0,0,0,0,0,0,0],"id":0,"left_children":[1,3,5,7,9,11,13,-1,15,17,19,21,23,-1,25,-1,-1,27,29,31,-1,33,35,37,-1,-1,-1,-1,-1,-1,39,41,-1,-1,43,-1,-1,-1,-1,-1,-1,-1,-1,-1,-1],"loss_changes":[4.352478E2,7.938423E1,4.5918793E1,9.585571E0,3.685195E0,6.45117E0,4.0861664E0,0E0,2.798462E-2,2.1722794E-1,2.444129E-1,1.7632908E-1,9.9481964E-1,0E0,4.3070984E-1,0E0,0E0,1.5924644E-1,2.7001095E-1,1.331284E-1,0E0,1.315364E-1,1.691848E-2,1.7014456E-1,0E0,0E0,0E0,0E0,0E0,0E0,2.7735204E-2,1.11944914E-1,0E0,0E0,1.1777407E-1,0E0,0E0,0E0,0E0,0E0,0E0,0E0,0E0,0E0,0E0],"parents":[2147483647,0,0,1,1,2,2,3,3,4,4,5,5,6,6,8,8,9,9,10,10,11,11,12,12,14,14,17,17,18,18,19,19,21,21,22,22,23,23,30,30,31,31,34,34],"right_children":[2,4,6,8,10,12,14,-1,16,18,20,22,24,-1,26,-1,-1,28,30,32,-1,34,36,38,-1,-1,-1,-1,-1,-1,40,42,-1,-1,44,-1,-1,-1,-1,-1,-1,-1,-1,-1,-1],"split_conditions":[4.97E0,4.26E0,5.64E0,3.72E0,4.7E0,5.21E0,6E0,-6.9107644E-2,4.03E0,4.3071112E-1,5.24E0,5.16E0,5.466E0,4.2220578E-2,6.17E0,-5.0341535E-2,-4.1662615E-2,4.51E0,4.1982E0,8.944909E-1,2.432441E-3,3.6055E2,8.9065306E-2,1.5996E2,2.7827341E-2,5.2020043E-2,6.5520816E-2,-2.7813826E-2,-1.9150784E-2,-1.928189E-2,1.0054E3,-8.2272716E-2,-7.1650825E-4,-1.6053909E-3,1.8518518E0,5.7834913E-3,1.3216562E-2,6.844796E-3,1.9048763E-2,-1.0283437E-2,-2.650888E-3,-2.2100639E-3,-8.8068005E-3,-1.5675537E-3,5.567401E-3],"split_indices":[0,0,0,0,0,0,0,0,0,33,13,0,14,0,1,0,0,14,20,33,0,35,32,44,0,0,0,0,0,0,34,25,0,0,29,0,0,0,0,0,0,0,0,0,0],"split_type":[0,0,0,0,0,0,0,0,0,0,0,0,0,0,0,0,0,0,0,0,0,0,0,0,0,0,0,0,0,0,0,0,0,0,0,0,0,0,0,0,0,0,0,0,0],"sum_hessian":[8.8E2,4.47E2,4.33E2,2.35E2,2.12E2,2.1E2,2.23E2,9E1,1.45E2,9.6E1,1.16E2,7.2E1,1.38E2,1.09E2,1.14E2,8.2E1,6.3E1,6.2E1,3.4E1,1.11E2,5E0,5.7E1,1.5E1,5.8E1,8E1,7.2E1,4.2E1,2.4E1,3.8E1,2.2E1,1.2E1,1.03E2,8E0,8E0,4.9E1,8E0,7E0,6E0,5.2E1,7E0,5E0,1E1,9.3E1,5E0,4.4E1],"tree_param":{"num_deleted":"0","num_feature":"45","num_nodes":"45","size_leaf_vector":"1"}},{"base_weights":[-1.4410211E-2,-6.714024E-1,6.624301E-1,-1.0558815E0,-2.542674E-1,3.4236133E-1,9.601202E-1,-6.577598E-2,-8.945959E-1,-4.0742463E-1,-1.5375727E-1,1.0740382E-1,4.5581245E-1,3.883054E-2,1.073569E0,-4.82324E-2,-3.9909907E-2,-2.4101572E-2,-3.126715E-1,-1.7386734E-1,-3.633517E-2,5.646685E-2,1.6840632E-1,3.1716865E-1,5.24359E-1,4.8255708E-2,6.018374E-2,-3.5028672E-1,-9.36894E-3,-1.5560205E-1,-1.3260041E-2,-5.3963177E-3,-0E0,-2.362524E-2,1.0434818E-1,2.0178099E-1,2.8500445E-3,7.077356E-3,1.680283E-2,1.547158E-2,2.6869772E-2,-1.9810596E-2,-1.1501309E-2,-9.413804E-3,-5.7265125E-3,2.250638E-3,-2.297851E-3,-5.751291E-3,1.1788816E-3,6.164794E-3,1.9866147E-4,7.4301674E-3,1.5107706E-2],"categories":[],"categories_nodes":[],"categories_segments":[],"categories_sizes":[],"default_left":[0,0,0,0,0,0,0,0,0,0,0,0,0,0,0,0,0,0,0,0,0,0,0,0,0,0,0,0,0,0,0,0,0,0,0,0,0,0,0,0,0,0,0,0,0,0,0,0,0,0,0,0,0],"id":1,"left_children":[1,3,5,7,9,11,13,-1,15,17,19,21,23,-1,25,-1,-1,-1,27,29,31,33,35,37,39,-1,-1,41,-1,43,-1,-1,45,47,49,51,-1,-1,-1,-1,-1,-1,-1,-1,-1,-1,-1,-1,-1,-1,-1,-1,-1],"loss_changes":[3.846482E2,7.000716E1,4.013086E1,8.149826E0,3.1447334E0,5.4125557E0,3.5614166E0,0E0,2.6161194E-2,3.5655785E-1,2.7963996E-1,1.8240577E-1,1.0705318E0,0E0,4.9813843E-1,0E0,0E0,0E0,6.9113255E-2,1.0015941E-1,5.3811554E-2,1.6393417E-1,7.4163675E-2,6.721163E-2,4.0016174E-3,0E0,0E0,6.403923E-3,0E0,7.5644255E-2,0E0,0E0,3.3105567E-2,7.657241E-2,3.6231905E-2,2.7450502E-2,0E0,0E0,0E0,0E0,0E0,0E0,0E0,0E0,0E0,0E0,0E0,0E0,0E0,0E0,0E0,0E0,0E0],"parents":[2147483647,0,0,1,1,2,2,3,3,4,4,5,5,6,6,8,8,9,9,10,10,11,11,12,12,14,14,18,18,19,19,20,20,21,21,22,22,23,23,24,24,27,27,29,29,32,32,33,33,34,34,35,35],"right_children":[2,4,6,8,10,12,14,-1,16,18,20,22,24,-1,26,-1,-1,-1,28,30,32,34,36,38,40,-1,-1,42,-1,44,-1,-1,46,48,50,52,-1,-1,-1,-1,-1,-1,-1,-1,-1,-1,-1,-1,-1,-1,-1,-1,-1],"split_conditions":[4.98E0,4.26E0,5.64E0,3.72E0,4.68E0,5.21E0,5.91E0,-6.577598E-2,4.03E0,-3.1932622E-2,4.997043E0,2.065463E-1,5.44E0,3.883054E-2,6.0673003E0,-4.82324E-2,-3.9909907E-2,-2.4101572E-2,6E0,5.1991396E0,9.600415E-1,5.09E0,1.226431E4,1.476E2,8.71747E2,4.8255708E-2,6.018374E-2,6.174957E-1,-9.36894E-3,4.84E0,-1.3260041E-2,-5.3963177E-3,-3.887689E-2,-7.797271E-3,4.4660855E-2,6.625259E-2,2.8500445E-3,7.077356E-3,1.680283E-2,1.547158E-2,2.6869772E-2,-1.9810596E-2,-1.1501309E-2,-9.413804E-3,-5.7265125E-3,2.250638E-3,-2.297851E-3,-5.751291E-3,1.1788816E-3,6.164794E-3,1.9866147E-4,7.4301674E-3,1.5107706E-2],"split_indices":[0,0,0,0,0,8,0,0,0,24,23,36,10,0,22,0,0,0,42,30,17,1,44,44,44,0,0,36,0,0,0,0,7,6,36,6,0,0,0,0,0,0,0,0,0,0,0,0,0,0,0,0,0],"split_type":[0,0,0,0,0,0,0,0,0,0,0,0,0,0,0,0,0,0,0,0,0,0,0,0,0,0,0,0,0,0,0,0,0,0,0,0,0,0,0,0,0,0,0,0,0,0,0,0,0,0,0,0,0],"sum_hessian":[8.63E2,4.38E2,4.25E2,2.27E2,2.11E2,2.06E2,2.19E2,8.4E1,1.43E2,8.2E1,1.29E2,6.8E1,1.38E2,8.7E1,1.32E2,7.7E1,6.6E1,4.3E1,3.9E1,1.09E2,2E1,3.9E1,2.9E1,4.8E1,9E1,7.7E1,5.5E1,2.8E1,1.1E1,9.4E1,1.5E1,6E0,1.4E1,1.4E1,2.5E1,2.1E1,8E0,6E0,4.2E1,7E0,8.3E1,1.8E1,1E1,4.9E1,4.5E1,7E0,7E0,5E0,9E0,2E1,5E0,1.6E1,5E0],"tree_param":{"num_deleted":"0","num_feature":"45","num_nodes":"53","size_leaf_vector":"1"}},{"base_weights":[7.827411E-3,-6.4443064E-1,6.309776E-1,-1.0146569E0,-2.416772E-1,3.2811874E-1,9.122234E-1,-6.0536783E-2,-4.1126292E-2,-3.6457574E-1,-1.291741E-1,1.6651419E-1,4.9025312E-1,7.620875E-1,1.0426639E0,-4.3341193E-1,-2.892015E-1,-1.4366109E-2,-1.435297E-1,8.915529E-2,2.9209003E-1,1.6200546E-2,2.5436668E-2,3.879512E-2,2.1585457E-2,4.725864E-2,5.883881E-2,-4.5734292E-1,-8.650223E-3,-3.1690714E-1,-1.8817931E-1,2.790355E-3,-3.5331564E-3,-1.0314963E-3,-1.5333161E-1,-2.5406713E-2,1.22679584E-1,6.540359E-3,1.5657201E-2,-2.434976E-2,-1.2711996E-2,-6.6671404E-3,-1.6914856E-2,-1.1330816E-2,-4.1246964E-3,-1.8412316E-3,-8.085546E-3,-7.210174E-3,1.630516E-3,3.8340797E-3,8.35948E-3],"categories":[],"categories_nodes":[],"categories_segments":[],"categories_sizes":[],"default_left":[0,0,0,0,0,0,0,0,0,0,0,0,0,0,0,0,0,0,0,0,0,0,0,0,0,0,0,0,0,0,0,0,0,0,0,0,0,0,0,0,0,0,0,0,0,0,0,0,0,0,0],"id":2,"left_children":[1,3,5,7,9,11,13,-1,-1,15,17,19,21,23,25,27,29,31,33,35,37,-1,-1,-1,-1,-1,-1,39,-1,41,43,-1,-1,-1,45,47,49,-1,-1,-1,-1,-1,-1,-1,-1,-1,-1,-1,-1,-1,-1],"loss_changes":[3.536144E2,6.300087E1,3.748076E1,7.1264954E0,2.737957E0,5.512245E0,3.52919E0,0E0,0E0,3.056774E-1,1.6179538E-1,1.0044188E0,8.0616E-2,5.089569E-2,2.445221E-1,1.5697002E-1,2.9800415E-2,6.0736697E-2,9.508741E-2,2.8168696E-1,5.3864956E-2,0E0,0E0,0E0,0E0,0E0,0E0,6.102848E-2,0E0,5.3004503E-2,7.265687E-3,0E0,0E0,0E0,6.010151E-2,1.2613763E-1,7.539797E-2,0E0,0E0,0E0,0E0,0E0,0E0,0E0,0E0,0E0,0E0,0E0,0E0,0E0,0E0],"parents":[2147483647,0,0,1,1,2,2,3,3,4,4,5,5,6,6,9,9,10,10,11,11,12,12,13,13,14,14,15,15,16,16,17,17,18,18,19,19,20,20,27,27,29,29,30,30,34,34,35,35,36,36],"right_children":[2,4,6,8,10,12,14,-1,-1,16,18,20,22,24,26,28,30,32,34,36,38,-1,-1,-1,-1,-1,-1,40,-1,42,44,-1,-1,-1,46,48,50,-1,-1,-1,-1,-1,-1,-1,-1,-1,-1,-1,-1,-1,-1],"split_conditions":[4.98E0,4.26E0,5.63E0,3.89E0,4.7E0,5.36E0,6E0,-6.0536783E-2,-4.1126292E-2,-3.4076348E-2,-8.2272716E-2,5.21E0,5.43E0,1.597706E-1,6.18E0,1.0158201E0,6E0,4.886E0,4.69E0,4.496E2,1.5996E2,1.6200546E-2,2.5436668E-2,3.879512E-2,2.1585457E-2,4.725864E-2,5.883881E-2,5.3034577E0,-8.650223E-3,4.0419707E0,2.177E3,2.790355E-3,-3.5331564E-3,-1.0314963E-3,9.6337765E-1,5.09E0,1.9746585E-1,6.540359E-3,1.5657201E-2,-2.434976E-2,-1.2711996E-2,-6.6671404E-3,-1.6914856E-2,-1.1330816E-2,-4.1246964E-3,-1.8412316E-3,-8.085546E-3,-7.210174E-3,1.630516E-3,3.8340797E-3,8.35948E-3],"split_indices":[0,0,0,0,0,8,0,0,0,24,25,0,14,32,0,17,42,16,9,35,44,0,0,0,0,0,0,30,0,23,4,0,0,0,19,11,36,0,0,0,0,0,0,0,0,0,0,0,0,0,0],"split_type":[0,0,0,0,0,0,0,0,0,0,0,0,0,0,0,0,0,0,0,0,0,0,0,0,0,0,0,0,0,0,0,0,0,0,0,0,0,0,0,0,0,0,0,0,0,0,0,0,0,0,0],"sum_hessian":[8.68E2,4.24E2,4.44E2,2.2E2,2.04E2,2.15E2,2.29E2,1.06E2,1.14E2,9.6E1,1.08E2,1.09E2,1.06E2,1.1E2,1.19E2,4.7E1,4.9E1,1.3E1,9.5E1,6.9E1,4E1,1.3E1,9.3E1,1.04E2,6E0,7.4E1,4.5E1,4.2E1,5E0,3.6E1,1.3E1,5E0,8E0,8E0,8.7E1,1.5E1,5.4E1,6E0,3.4E1,3.5E1,7E0,5E0,3.1E1,8E0,5E0,7E0,8E1,5E0,1E1,2.9E1,2.5E1],"tree_param":{"num_deleted":"0","num_feature":"45","num_nodes":"51","size_leaf_vector":"1"}},{"base_weights":[1.0079805E-2,-5.5773735E-1,6.23214E-1,-9.5089954E-1,-1.928421E-1,3.796014E-1,8.809859E-1,-5.9747975E-2,-8.0151075E-1,-3.793903E-1,-1.19747415E-1,1.8433627E-1,4.9867582E-1,7.1070373E-1,9.8401886E-1,-4.062138E-2,-2.01905E-2,-2.1284739E-2,-2.3474239E-1,-1.685925E-1,-1.3917377E-2,8.0666974E-2,2.4864566E-1,1.7365703E-2,2.6036322E-2,1.4088853E-2,7.3359793E-1,4.4724967E-2,5.641243E-2,-4.1696304E-3,-2.756964E-1,-2.0329604E-1,-5.5528764E-2,-4.9774982E-2,7.4795433E-3,5.5300184E-3,-2.029047E-3,6.491918E-3,2.6816723E-1,2.5032258E-2,3.8368195E-2,-6.790101E-3,-1.6360765E-2,-1.5193862E-2,-7.8062178E-3,-4.4318805E-3,1.0231357E-3,-4.1943085E-3,2.0411655E-3,6.8129427E-3,1.4578374E-2],"categories":[],"categories_nodes":[],"categories_segments":[],"categories_sizes":[],"default_left":[0,0,0,0,0,0,0,0,0,0,0,0,0,0,0,0,0,0,0,0,0,0,0,0,0,0,0,0,0,0,0,0,0,0,0,0,0,0,0,0,0,0,0,0,0,0,0,0,0,0,0],"id":3,"left_children":[1,3,5,7,9,11,13,-1,15,17,19,21,23,25,27,-1,-1,-1,29,31,33,35,37,-1,-1,-1,39,-1,-1,-1,41,43,45,47,-1,-1,-1,-1,49,-1,-1,-1,-1,-1,-1,-1,-1,-1,-1,-1,-1],"loss_changes":[3.098578E2,6.598218E1,2.6416412E1,6.936661E0,3.190855E0,5.0015144E0,2.7629242E0,0E0,1.6248322E-1,2.8278255E-1,8.8402605E-1,5.203655E-1,1.8959808E-1,4.969902E-1,4.153366E-1,0E0,0E0,0E0,5.8869362E-2,4.2975044E-1,3.316561E-1,1.3851786E-1,4.5984745E-2,0E0,0E0,0E0,9.469223E-2,0E0,0E0,0E0,1.0162711E-2,3.3356977E-1,8.411096E-2,1.5607071E-1,0E0,0E0,0E0,0E0,5.0216436E-2,0E0,0E0,0E0,0E0,0E0,0E0,0E0,0E0,0E0,0E0,0E0,0E0],"parents":[2147483647,0,0,1,1,2,2,3,3,4,4,5,5,6,6,8,8,9,9,10,10,11,11,12,12,13,13,14,14,18,18,19,19,20,20,21,21,22,22,26,26,30,30,31,31,32,32,33,33,38,38],"right_children":[2,4,6,8,10,12,14,-1,16,18,20,22,24,26,28,-1,-1,-1,30,32,34,36,38,-1,-1,-1,40,-1,-1,-1,42,44,46,48,-1,-1,-1,-1,50,-1,-1,-1,-1,-1,-1,-1,-1,-1,-1,-1,-1],"split_conditions":[5.09E0,4.26E0,5.704E0,4.026704E0,4.6E0,5.36E0,5.956E0,-5.9747975E-2,1.0549451E0,7.370199E-2,4.88E0,5.1994E0,5.466E0,9.656741E-1,6.146E0,-4.062138E-2,-2.01905E-2,-2.1284739E-2,4.047E0,4.68E0,1.0454453E0,2.7656473E-2,2.08669E2,1.7365703E-2,2.6036322E-2,1.4088853E-2,7.0853685E-3,4.4724967E-2,5.641243E-2,-4.1696304E-3,1.14744715E-1,4.68E0,5.278251E0,5.069E0,7.4795433E-3,5.5300184E-3,-2.029047E-3,6.491918E-3,-1.7921147E-3,2.5032258E-2,3.8368195E-2,-6.790101E-3,-1.6360765E-2,-1.5193862E-2,-7.8062178E-3,-4.4318805E-3,1.0231357E-3,-4.1943085E-3,2.0411655E-3,6.8129427E-3,1.4578374E-2],"split_indices":[1,1,14,30,14,8,14,0,19,25,2,20,14,17,14,0,0,0,20,40,17,27,44,0,0,0,27,0,0,0,25,2,30,16,0,0,0,0,5,0,0,0,0,0,0,0,0,0,0,0,0],"split_type":[0,0,0,0,0,0,0,0,0,0,0,0,0,0,0,0,0,0,0,0,0,0,0,0,0,0,0,0,0,0,0,0,0,0,0,0,0,0,0,0,0,0,0,0,0,0,0,0,0,0,0],"sum_hessian":[8.88E2,4.61E2,4.27E2,2.21E2,2.4E2,2.21E2,2.06E2,8.1E1,1.4E2,6.6E1,1.74E2,8.5E1,1.36E2,8.1E1,1.25E2,1.35E2,5E0,4.8E1,1.8E1,1.18E2,5.6E1,3.4E1,5.1E1,2E1,1.16E2,5E0,7.6E1,8.2E1,4.3E1,5E0,1.3E1,8.9E1,2.9E1,4.7E1,9E0,2.8E1,6E0,9E0,4.2E1,1.2E1,6.4E1,5E0,8E0,2.6E1,6.3E1,2.1E1,8E0,3.5E1,1.2E1,8E0,3.4E1],"tree_param":{"num_deleted":"0","num_feature":"45","num_nodes":"51","size_leaf_vector":"1"}},{"base_weights":[-2.491965E-3,-5.683457E-1,5.7899904E-1,-9.0190625E-1,-2.177927E-1,3.001225E-1,8.195943E-1,-5.5981617E-2,-3.7921183E-2,-3.4859538E-1,-1.24361224E-1,8.80248E-2,3.9855063E-1,7.078217E-1,4.9162254E-2,-2.0521345E-2,-2.6724994E-1,-3.3907571E-3,-1.4195678E-1,5.451498E-2,7.324894E-3,2.7759793E-1,2.280877E-2,2.96148E-2,3.7762854E-2,-1.424588E-2,-4.8545594E-3,-1.9996543E-3,1.3272068E-3,-3.207741E-6,-1.4911194E-1,-0E0,7.673492E-2,7.511037E-3,1.4681672E-2,-7.88721E-3,-3.4097868E-3,5.8026346E-3,-3.757998E-3,-0E0,4.5662606E-3],"categories":[],"categories_nodes":[],"categories_segments":[],"categories_sizes":[],"default_left":[0,0,0,0,0,0,0,0,0,0,0,0,0,0,0,0,0,0,0,0,0,0,0,0,0,0,0,0,0,0,0,0,0,0,0,0,0,0,0,0,0],"id":4,"left_children":[1,3,5,7,9,11,13,-1,-1,15,17,19,21,23,-1,-1,25,27,29,31,-1,33,-1,-1,-1,-1,-1,-1,-1,-1,35,37,39,-1,-1,-1,-1,-1,-1,-1,-1],"loss_changes":[2.8560474E2,5.1141083E1,2.8359299E1,5.9920197E0,2.5491076E0,4.0915356E0,3.3237305E0,0E0,0E0,2.701893E-1,2.5743747E-1,9.9274814E-2,7.478924E-1,1.8510437E-1,0E0,0E0,6.0400963E-2,2.2128839E-2,9.7767115E-2,5.1772848E-2,0E0,7.5051785E-3,0E0,0E0,0E0,0E0,0E0,0E0,0E0,0E0,3.998995E-2,1.3165054E-1,3.431192E-2,0E0,0E0,0E0,0E0,0E0,0E0,0E0,0E0],"parents":[2147483647,0,0,1,1,2,2,3,3,4,4,5,5,6,6,9,9,10,10,11,11,12,12,13,13,16,16,17,17,18,18,19,19,21,21,30,30,31,31,32,32],"right_children":[2,4,6,8,10,12,14,-1,-1,16,18,20,22,24,-1,-1,26,28,30,32,-1,34,-1,-1,-1,-1,-1,-1,-1,-1,36,38,40,-1,-1,-1,-1,-1,-1,-1,-1],"split_conditions":[4.98E0,4.26E0,5.64E0,3.8E0,4.68E0,5.21E0,6.01E0,-5.5981617E-2,-3.7921183E-2,9.721574E-1,-8.2272716E-2,5.14E0,5.43E0,5.79E0,4.9162254E-2,-2.0521345E-2,4.78E0,-1.9267823E-3,9.584993E-1,5.08E0,7.324894E-3,5.24E0,2.280877E-2,2.96148E-2,3.7762854E-2,-1.424588E-2,-4.8545594E-3,-1.9996543E-3,1.3272068E-3,-3.207741E-6,4.5045044E-2,4.91E0,9.408199E-1,7.511037E-3,1.4681672E-2,-7.88721E-3,-3.4097868E-3,5.8026346E-3,-3.757998E-3,-0E0,4.5662606E-3],"split_indices":[0,0,0,0,0,8,0,0,0,21,25,0,14,9,0,0,13,6,19,10,0,0,0,0,0,0,0,0,0,0,6,8,21,0,0,0,0,0,0,0,0],"split_type":[0,0,0,0,0,0,0,0,0,0,0,0,0,0,0,0,0,0,0,0,0,0,0,0,0,0,0,0,0,0,0,0,0,0,0,0,0,0,0,0,0],"sum_hessian":[8.66E2,4.39E2,4.27E2,2.24E2,2.15E2,1.99E2,2.28E2,8.6E1,1.38E2,8.8E1,1.27E2,6.4E1,1.35E2,1.39E2,8.9E1,4.7E1,4.1E1,1.7E1,1.1E2,4.3E1,2.1E1,4.6E1,8.9E1,4.5E1,9.4E1,3.6E1,5E0,9E0,8E0,6E0,1.04E2,1.3E1,3E1,7E0,3.9E1,9.2E1,1.2E1,5E0,8E0,5E0,2.5E1],"tree_param":{"num_deleted":"0","num_feature":"45","num_nodes":"41","size_leaf_vector":"1"}},{"base_weights":[-5.8972896E-3,-5.474645E-1,5.476554E-1,-8.556514E-1,-2.0944725E-1,2.8001538E-1,7.7771354E-1,-5.4152608E-2,-7.2540903E-1,-3.2570726E-1,-1.1095403E-1,7.950993E-2,3.7681293E-1,6.775411E-1,4.6834078E-2,-3.852527E-2,-3.1010514E-2,-3.9210245E-1,-2.6364377E-1,-1.2288E-1,-0E0,4.4737127E-2,1.5746643E-1,2.7162382E-1,2.1770652E-2,2.910153E-2,3.685411E-2,-1.198295E-2,-2.129766E-2,-2.8302926E-1,-7.5640455E-3,-4.1841004E-2,-1.4196159E-1,-2.3319866E-3,2.7472847E-3,-3.5001747E-2,7.34705E-2,1.8808377E-1,1.9006006E-3,5.0601317E-3,1.42592145E-2,-1.5477343E-2,-8.191713E-3,-0E0,-3.055582E-3,-1.047673E-2,-6.284392E-3,-5.3051584E-3,5.0997676E-4,4.1464176E-3,-0E0,5.588562E-3,1.3362869E-2],"categories":[],"categories_nodes":[],"categories_segments":[],"categories_sizes":[],"default_left":[0,0,0,0,0,0,0,0,0,0,0,0,0,0,0,0,0,0,0,0,0,0,0,0,0,0,0,0,0,0,0,0,0,0,0,0,0,0,0,0,0,0,0,0,0,0,0,0,0,0,0,0,0],"id":5,"left_children":[1,3,5,7,9,11,13,-1,15,17,19,21,23,25,-1,-1,-1,27,29,31,33,35,37,39,-1,-1,-1,-1,-1,41,-1,43,45,-1,-1,47,49,51,-1,-1,-1,-1,-1,-1,-1,-1,-1,-1,-1,-1,-1,-1,-1],"loss_changes":[2.6920782E2,4.700859E1,2.701477E1,6.052765E0,2.4164743E0,3.9419556E0,2.9938965E0,0E0,1.136322E-1,2.3900032E-1,1.534499E-1,1.5977791E-1,6.6783524E-1,2.9210663E-1,0E0,0E0,0E0,6.3569546E-2,3.35536E-2,1.4268601E-1,3.5516288E-2,1.2097682E-1,4.3388486E-2,5.4982662E-2,0E0,0E0,0E0,0E0,0E0,4.4181824E-2,0E0,2.3223355E-2,3.471303E-2,0E0,0E0,5.2452944E-2,2.1823928E-2,2.2854507E-2,0E0,0E0,0E0,0E0,0E0,0E0,0E0,0E0,0E0,0E0,0E0,0E0,0E0,0E0,0E0],"parents":[2147483647,0,0,1,1,2,2,3,3,4,4,5,5,6,6,8,8,9,9,10,10,11,11,12,12,13,13,17,17,18,18,19,19,20,20,21,21,22,22,23,23,29,29,31,31,32,32,35,35,36,36,37,37],"right_children":[2,4,6,8,10,12,14,-1,16,18,20,22,24,26,-1,-1,-1,28,30,32,34,36,38,40,-1,-1,-1,-1,-1,42,-1,44,46,-1,-1,48,50,52,-1,-1,-1,-1,-1,-1,-1,-1,-1,-1,-1,-1,-1,-1,-1],"split_conditions":[4.98E0,4.26E0,5.63E0,3.72E0,4.7E0,5.21E0,6.02E0,-5.4152608E-2,4.11E0,9.784508E-1,1.0239162E0,2.065463E-1,5.47E0,5.8E0,4.6834078E-2,-3.852527E-2,-3.1010514E-2,9.5477384E-1,2.9684514E-2,-6.713674E-2,1.609E3,5.04E0,1.226431E4,1.476E2,2.1770652E-2,2.910153E-2,3.685411E-2,-1.198295E-2,-2.129766E-2,6E0,-7.5640455E-3,4.84E0,4.768E0,-2.3319866E-3,2.7472847E-3,-7.797271E-3,8.693307E-2,6.625259E-2,1.9006006E-3,5.0601317E-3,1.42592145E-2,-1.5477343E-2,-8.191713E-3,-0E0,-3.055582E-3,-1.047673E-2,-6.284392E-3,-5.3051584E-3,5.0997676E-4,4.1464176E-3,-0E0,5.588562E-3,1.3362869E-2],"split_indices":[0,0,0,0,0,8,0,0,0,19,15,36,0,2,0,0,0,17,28,24,4,8,44,44,0,0,0,0,0,42,0,14,14,0,0,6,36,6,0,0,0,0,0,0,0,0,0,0,0,0,0,0,0],"split_type":[0,0,0,0,0,0,0,0,0,0,0,0,0,0,0,0,0,0,0,0,0,0,0,0,0,0,0,0,0,0,0,0,0,0,0,0,0,0,0,0,0,0,0,0,0,0,0,0,0,0,0,0,0],"sum_hessian":[8.96E2,4.53E2,4.43E2,2.36E2,2.17E2,2.06E2,2.37E2,8.3E1,1.53E2,9.8E1,1.19E2,6.8E1,1.38E2,1.49E2,8.8E1,1.02E2,5.1E1,4.4E1,5.4E1,1.07E2,1.2E1,4.9E1,1.9E1,5.2E1,8.6E1,6.2E1,8.7E1,1E1,3.4E1,4.4E1,1E1,2.2E1,8.5E1,7E0,5E0,1.2E1,3.7E1,1.4E1,5E0,5E0,4.7E1,3.4E1,1E1,6E0,1.6E1,1.3E1,7.2E1,5E0,7E0,3.2E1,5E0,9E0,5E0],"tree_param":{"num_deleted":"0","num_feature":"45","num_nodes":"53","size_leaf_vector":"1"}},{"base_weights":[4.9501057E-3,-5.130996E-1,5.3526855E-1,-8.243614E-1,-1.8897185E-1,2.7965724E-1,7.477479E-1,-4.9871337E-2,-3.3533603E-2,-3.0778754E-1,-9.657146E-2,8.996732E-2,3.653669E-1,6.866551E-1,4.968395E-2,-3.6741507E-1,-2.5063807E-1,-1.0814491E-1,1.8090172E-3,-2.4139225E-4,1.03688635E-1,1.2125604E-2,4.017561E-1,2.6571557E-2,7.288213E-1,-1.953678E-2,-8.868796E-3,-2.6948133E-1,-5.040755E-3,-0E0,-1.1916053E-1,3.245766E-2,1.1815715E-1,1.0110064E-2,4.1108036E-1,2.0765107E-2,3.6925394E-2,-4.9263667E-3,-1.429437E-2,-1.9368719E-3,1.3461072E-3,-4.890298E-3,-8.26208E-3,2.8287643E-3,-0E0,4.2016343E-3,7.955991E-3,1.5194151E-2,2.1698797E-2],"categories":[],"categories_nodes":[],"categories_segments":[],"categories_sizes":[],"default_left":[0,0,0,0,0,0,0,0,0,0,0,0,0,0,0,0,0,0,0,0,0,0,0,0,0,0,0,0,0,0,0,0,0,0,0,0,0,0,0,0,0,0,0,0,0,0,0,0,0],"id":6,"left_children":[1,3,5,7,9,11,13,-1,-1,15,17,19,21,23,-1,25,27,29,-1,-1,31,-1,33,-1,35,-1,-1,37,-1,39,41,43,45,-1,47,-1,-1,-1,-1,-1,-1,-1,-1,-1,-1,-1,-1,-1,-1],"loss_changes":[2.390184E2,4.413385E1,2.3042358E1,5.1222687E0,2.3122E0,3.1244745E0,2.6654053E0,0E0,0E0,1.6642857E-1,2.0162237E-1,9.233165E-2,4.4166946E-1,7.367935E-1,0E0,6.444883E-2,8.2606316E-2,1.317581E-1,0E0,0E0,3.8817406E-2,0E0,4.53434E-2,0E0,2.4345398E-2,0E0,0E0,5.9601545E-2,0E0,1.4077149E-2,5.987382E-2,9.763342E-3,2.5215805E-2,0E0,2.9953003E-2,0E0,0E0,0E0,0E0,0E0,0E0,0E0,0E0,0E0,0E0,0E0,0E0,0E0,0E0],"parents":[2147483647,0,0,1,1,2,2,3,3,4,4,5,5,6,6,9,9,10,10,11,11,12,12,13,13,15,15,16,16,17,17,20,20,22,22,24,24,27,27,29,29,30,30,31,31,32,32,34,34],"right_children":[2,4,6,8,10,12,14,-1,-1,16,18,20,22,24,-1,26,28,30,-1,-1,32,-1,34,-1,36,-1,-1,38,-1,40,42,44,46,-1,48,-1,-1,-1,-1,-1,-1,-1,-1,-1,-1,-1,-1,-1,-1],"split_conditions":[5.01E0,4.26E0,5.64E0,3.89E0,4.7E0,5.21E0,6.18E0,-4.9871337E-2,-3.3533603E-2,9.708394E-1,4.95E0,5.1855262E-2,5.36E0,5.79E0,4.968395E-2,4.8776E0,4.79E0,-9.049322E-2,1.8090172E-3,-2.4139225E-4,4.69E0,1.2125604E-2,1.092826E3,2.6571557E-2,-5.9926875E-2,-1.953678E-2,-8.868796E-3,4.038E0,-5.040755E-3,1.9577432E-1,2.0895775E-2,6.762609E-2,1.0239498E-1,1.0110064E-2,-6.6E-1,2.0765107E-2,3.6925394E-2,-4.9263667E-3,-1.429437E-2,-1.9368719E-3,1.3461072E-3,-4.890298E-3,-8.26208E-3,2.8287643E-3,-0E0,4.2016343E-3,7.955991E-3,1.5194151E-2,2.1698797E-2],"split_indices":[0,0,8,0,0,0,0,0,0,21,3,32,8,0,0,20,13,25,0,0,13,0,44,0,25,0,0,18,0,33,25,25,32,0,37,0,0,0,0,0,0,0,0,0,0,0,0,0,0],"split_type":[0,0,0,0,0,0,0,0,0,0,0,0,0,0,0,0,0,0,0,0,0,0,0,0,0,0,0,0,0,0,0,0,0,0,0,0,0,0,0,0,0,0,0,0,0,0,0,0,0],"sum_hessian":[8.68E2,4.39E2,4.29E2,2.23E2,2.16E2,1.96E2,2.33E2,1.02E2,1.21E2,9.3E1,1.23E2,6.2E1,1.34E2,1.9E2,4.3E1,4.2E1,5.1E1,1.14E2,9E0,7E0,5.5E1,3.3E1,1.01E2,4.4E1,1.46E2,3.6E1,6E0,4.4E1,7E0,1.1E1,1.03E2,1.1E1,4.4E1,6E0,9.5E1,6E0,1.4E2,5E0,3.9E1,5E0,6E0,7.4E1,2.9E1,6E0,5E0,2.7E1,1.7E1,2E1,7.5E1],"tree_param":{"num_deleted":"0","num_feature":"45","num_nodes":"49","size_leaf_vector":"1"}},{"base_weights":[-5.0965482E-3,-4.9053636E-1,4.9798036E-1,-7.777241E-1,-1.9033946E-1,2.713157E-1,7.260741E-1,-4.8515942E-2,-6.5526944E-1,-3.0492395E-1,-1.1490423E-1,6.848435E-2,3.628844E-1,6.579736E-1,4.6850417E-2,-3.4964945E-2,-2.7679697E-2,-3.500541E-1,-2.50591E-1,-1.3328631E-1,-5.7362754E-2,3.0261623E-2,1.2453309E-1,2.4454361E-1,4.1305244E-1,5.707227E-1,3.609058E-2,-1.009429E-2,-1.8976461E-2,-1.5008132E-2,-9.39658E-3,-1.4352234E-1,-3.707559E-2,-7.518717E-2,6.468289E-4,-2.9450862E-2,7.265285E-2,1.483407E-1,-0E0,6.202852E-3,1.2982485E-2,1.3913186E-2,2.1407561E-2,2.0081498E-2,5.976525E-1,-8.721746E-3,-4.9942243E-3,-5.6694467E-3,2.073462E-3,-4.6789316E-3,-9.5231965E-4,3.4369653E-4,-5.995638E-3,4.291154E-3,-0E0,1.7567428E-3,8.684372E-3,3.0733576E-2,1.5842995E-2],"categories":[],"categories_nodes":[],"categories_segments":[],"categories_sizes":[],"default_left":[0,0,0,0,0,0,0,0,0,0,0,0,0,0,0,0,0,0,0,0,0,0,0,0,0,0,0,0,0,0,0,0,0,0,0,0,0,0,0,0,0,0,0,0,0,0,0,0,0,0,0,0,0,0,0,0,0,0,0],"id":7,"left_children":[1,3,5,7,9,11,13,-1,15,17,19,21,23,25,-1,-1,-1,27,29,31,33,35,37,39,41,43,-1,-1,-1,-1,-1,45,47,49,-1,51,53,55,-1,-1,-1,-1,-1,-1,57,-1,-1,-1,-1,-1,-1,-1,-1,-1,-1,-1,-1,-1,-1],"loss_changes":[2.1637253E2,3.863716E1,2.21931E1,4.6259613E0,1.8418827E0,4.018072E0,2.3267593E0,0E0,1.3223648E-1,6.554413E-2,1.1714089E-1,1.3071546E-1,7.297077E-1,3.889618E-1,0E0,0E0,0E0,5.739689E-2,3.145027E-2,7.608545E-2,5.230733E-2,1.17836446E-1,6.537998E-2,1.6781569E-2,2.1875381E-2,6.1130524E-3,0E0,0E0,0E0,0E0,0E0,7.655096E-2,8.3822355E-2,1.7930493E-2,0E0,7.1276344E-2,1.9525439E-2,3.614208E-2,0E0,0E0,0E0,0E0,0E0,0E0,1.3147354E-2,0E0,0E0,0E0,0E0,0E0,0E0,0E0,0E0,0E0,0E0,0E0,0E0,0E0,0E0],"parents":[2147483647,0,0,1,1,2,2,3,3,4,4,5,5,6,6,8,8,9,9,10,10,11,11,12,12,13,13,17,17,18,18,19,19,20,20,21,21,22,22,23,23,24,24,25,25,31,31,32,32,33,33,35,35,36,36,37,37,44,44],"right_children":[2,4,6,8,10,12,14,-1,16,18,20,22,24,26,-1,-1,-1,28,30,32,34,36,38,40,42,44,-1,-1,-1,-1,-1,46,48,50,-1,52,54,56,-1,-1,-1,-1,-1,-1,58,-1,-1,-1,-1,-1,-1,-1,-1,-1,-1,-1,-1,-1,-1],"split_conditions":[4.98E0,4.26E0,5.7E0,3.72E0,4.68E0,5.21E0,6.18E0,-4.8515942E-2,4.11E0,9.721574E-1,4.9046E0,1.2097022E-1,5.43E0,5.92E0,4.6850417E-2,-3.4964945E-2,-2.7679697E-2,9.063173E-1,3.9374268E-1,8.89832E-1,1.9232141E0,5.09E0,1.3825764E-1,4.2295E2,-1.0714286E-1,7.0853685E-3,3.609058E-2,-1.009429E-2,-1.8976461E-2,-1.5008132E-2,-9.39658E-3,4.804134E0,4.1297607E0,5.12E0,6.468289E-4,1.504642E3,4.4660855E-2,1.21485945E-2,-0E0,6.202852E-3,1.2982485E-2,1.3913186E-2,2.1407561E-2,2.0081498E-2,1.5038969E-1,-8.721746E-3,-4.9942243E-3,-5.6694467E-3,2.073462E-3,-4.6789316E-3,-9.5231965E-4,3.4369653E-4,-5.995638E-3,4.291154E-3,-0E0,1.7567428E-3,8.684372E-3,3.0733576E-2,1.5842995E-2],"split_indices":[0,0,0,0,0,8,0,0,0,21,20,36,14,0,0,0,0,21,36,33,36,1,24,44,38,27,0,0,0,0,0,22,31,13,0,44,36,27,0,0,0,0,0,0,24,0,0,0,0,0,0,0,0,0,0,0,0,0,0],"split_type":[0,0,0,0,0,0,0,0,0,0,0,0,0,0,0,0,0,0,0,0,0,0,0,0,0,0,0,0,0,0,0,0,0,0,0,0,0,0,0,0,0,0,0,0,0,0,0,0,0,0,0,0,0,0,0,0,0,0,0],"sum_hessian":[8.84E2,4.5E2,4.34E2,2.29E2,2.21E2,2.19E2,2.15E2,8.6E1,1.43E2,8.6E1,1.35E2,6.9E1,1.5E2,1.66E2,4.9E1,9.5E1,4.8E1,4.3E1,4.3E1,1E2,3.5E1,4.3E1,2.6E1,4.7E1,1.03E2,7.5E1,9.1E1,9E0,3.4E1,2.1E1,2.2E1,8.9E1,1.1E1,2.9E1,6E0,1.7E1,2.6E1,2.1E1,5E0,7E0,4E1,1.3E1,9E1,1.3E1,6.2E1,4.9E1,4E1,6E0,5E0,2E1,9E0,1.2E1,5E0,2.1E1,5E0,5E0,1.6E1,5.7E1,5E0],"tree_param":{"num_deleted":"0","num_feature":"45","num_nodes":"59","size_leaf_vector":"1"}},{"base_weights":[-1.0690193E-2,-4.6563715E-1,4.7416034E-1,-7.306277E-1,-1.8112376E-1,2.6622224E-1,6.8937004E-1,-4.6099793E-2,-6.199378E-1,-2.8059575E-1,-9.741427E-2,7.094491E-2,3.5419482E-1,6.309067E-1,4.4466935E-2,-3.3750605E-2,-5.4325503E-1,-3.284012E-1,-2.2914848E-1,-1.5833825E-2,-1.1054645E-1,2.7184146E-2,1.1756879E-1,2.607422E-1,2.0657165E-2,2.5832286E-2,3.3780597E-2,-1.4060362E-2,-2.7888557E-2,-3.4970078E-1,-5.2176947E-3,-2.5748652E-1,-1.4304498E-1,2.1215023E-3,-5.3681E-2,-0E0,-1.1681273E-1,-2.948837E-3,5.9405684E-2,6.5418355E-2,1.5385339E-1,1.8686684E-3,1.3911637E-2,-1.023749E-2,-1.9219525E-2,-5.445547E-3,-1.370865E-2,-9.321663E-3,-2.31705E-3,-3.5924339E-3,-1.9219636E-4,-4.650246E-3,-8.299131E-3,-0E0,3.8770996E-3,7.68415E-5,4.26124E-3,4.9325186E-3,1.1097526E-2],"categories":[],"categories_nodes":[],"categories_segments":[],"categories_sizes":[],"default_left":[0,0,0,0,0,0,0,0,0,0,0,0,0,0,0,0,0,0,0,0,0,0,0,0,0,0,0,0,0,0,0,0,0,0,0,0,0,0,0,0,0,0,0,0,0,0,0,0,0,0,0,0,0,0,0,0,0,0,0],"id":8,"left_children":[1,3,5,7,9,11,13,-1,15,17,19,21,23,25,-1,-1,27,29,31,33,35,37,39,41,-1,-1,-1,-1,-1,43,-1,45,47,-1,49,-1,51,-1,53,55,57,-1,-1,-1,-1,-1,-1,-1,-1,-1,-1,-1,-1,-1,-1,-1,-1,-1,-1],"loss_changes":[1.927874E2,3.3778893E1,1.8650284E1,4.209755E0,1.7584233E0,3.6602125E0,1.7068939E0,0E0,1.4917755E-1,1.1247873E-1,1.1524248E-1,1.2310913E-1,6.457119E-1,3.694458E-1,0E0,0E0,2.1722794E-2,1.4716387E-1,4.9994946E-2,4.5300115E-2,6.4872384E-2,1.0904343E-1,2.8560221E-2,1.963582E-1,0E0,0E0,0E0,0E0,0E0,7.859945E-2,0E0,2.3561716E-2,3.5216153E-2,0E0,3.92507E-3,0E0,7.221496E-2,0E0,3.5951458E-2,1.1437111E-2,9.95028E-3,0E0,0E0,0E0,0E0,0E0,0E0,0E0,0E0,0E0,0E0,0E0,0E0,0E0,0E0,0E0,0E0,0E0,0E0],"parents":[2147483647,0,0,1,1,2,2,3,3,4,4,5,5,6,6,8,8,9,9,10,10,11,11,12,12,13,13,16,16,17,17,18,18,19,19,20,20,21,21,22,22,23,23,29,29,31,31,32,32,34,34,36,36,38,38,39,39,40,40],"right_children":[2,4,6,8,10,12,14,-1,16,18,20,22,24,26,-1,-1,28,30,32,34,36,38,40,42,-1,-1,-1,-1,-1,44,-1,46,48,-1,50,-1,52,-1,54,56,58,-1,-1,-1,-1,-1,-1,-1,-1,-1,-1,-1,-1,-1,-1,-1,-1,-1,-1],"split_conditions":[4.98E0,4.26E0,5.704E0,3.72E0,4.7E0,5.21E0,6.18E0,-4.6099793E-2,4.03E0,-4.2903934E-2,-8.2272716E-2,3.638968E3,5.5E0,1.6601777E-2,4.4466935E-2,-3.3750605E-2,3.89E0,7.696114E-4,6E0,4.886E0,4.51E0,5.04E0,1.0027366E0,1.5996E2,2.0657165E-2,2.5832286E-2,3.3780597E-2,-1.4060362E-2,-2.7888557E-2,9.063173E-1,-5.2176947E-3,4.5E0,2.926E3,2.1215023E-3,4.91E0,-0E0,2.0895775E-2,-2.948837E-3,5.09E0,5.08E0,3.3702E3,1.8686684E-3,1.3911637E-2,-1.023749E-2,-1.9219525E-2,-5.445547E-3,-1.370865E-2,-9.321663E-3,-2.31705E-3,-3.5924339E-3,-1.9219636E-4,-4.650246E-3,-8.299131E-3,-0E0,3.8770996E-3,7.68415E-5,4.26124E-3,4.9325186E-3,1.1097526E-2],"split_indices":[0,0,14,0,0,0,0,0,0,24,25,44,0,25,0,0,13,26,42,16,11,1,15,44,0,0,0,0,0,21,0,0,34,0,9,0,25,0,9,14,34,0,0,0,0,0,0,0,0,0,0,0,0,0,0,0,0,0,0],"split_type":[0,0,0,0,0,0,0,0,0,0,0,0,0,0,0,0,0,0,0,0,0,0,0,0,0,0,0,0,0,0,0,0,0,0,0,0,0,0,0,0,0,0,0,0,0,0,0,0,0,0,0,0,0,0,0,0,0,0,0],"sum_hessian":[8.72E2,4.5E2,4.22E2,2.32E2,2.18E2,2.16E2,2.06E2,8.2E1,1.5E2,9.8E1,1.2E2,6.8E1,1.48E2,1.63E2,4.3E1,8.2E1,6.8E1,4.7E1,5.1E1,1.8E1,1.02E2,3.7E1,3.1E1,6E1,8.8E1,5E1,1.13E2,5E0,6.3E1,4.2E1,5E0,3.6E1,1.5E1,6E0,1.2E1,6E0,9.6E1,9E0,2.8E1,1.5E1,1.6E1,5E0,5.5E1,1E1,3.2E1,5E0,3.1E1,9E0,6E0,7E0,5E0,6.8E1,2.8E1,6E0,2.2E1,5E0,1E1,1.1E1,5E0],"tree_param":{"num_deleted":"0","num_feature":"45","num_nodes":"59","size_leaf_vector":"1"}},{"base_weights":[3.8554752E-3,-4.3932936E-1,4.4218954E-1,-6.995912E-1,-1.7046633E-1,2.5226945E-1,6.573813E-1,-8.3812E-1,-2.755925E-2,-2.6893422E-1,-9.318781E-2,6.6681266E-2,3.2886884E-1,2.7634755E-2,7.343029E-1,-4.910477E-2,-3.8571827E-2,-3.1872654E-1,-2.0651738E-1,-1.0385E-1,-9.810144E-3,-0E0,8.786956E-2,2.4893843E-1,1.9204594E-2,3.451497E-2,4.694466E-2,-3.4174085E-1,-7.2780335E-3,-2.2933836E-1,-3.9320174E-3,-2.8771127E-2,-1.2176723E-1,2.03996E-3,-2.7127834E-3,-2.66558E-3,2.2363155E-3,1.10077895E-1,4.6017535E-2,4.7074705E-3,1.2886161E-2,-8.109632E-3,-1.7945891E-2,-1.323304E-2,-5.634897E-3,6.285318E-4,-2.916239E-3,-8.7365275E-3,-5.1178816E-3,6.366819E-3,2.3824878E-3,3.2841607E-3,-3.524143E-5],"categories":[],"categories_nodes":[],"categories_segments":[],"categories_sizes":[],"default_left":[0,0,0,0,0,0,0,0,0,0,0,0,0,0,0,0,0,0,0,0,0,0,0,0,0,0,0,0,0,0,0,0,0,0,0,0,0,0,0,0,0,0,0,0,0,0,0,0,0,0,0,0,0],"id":9,"left_children":[1,3,5,7,9,11,13,15,-1,17,19,21,23,-1,25,-1,-1,27,29,31,33,35,37,39,-1,-1,-1,41,-1,43,-1,45,47,-1,-1,-1,-1,49,51,-1,-1,-1,-1,-1,-1,-1,-1,-1,-1,-1,-1,-1,-1],"loss_changes":[1.6881482E2,3.002285E1,1.7603058E1,3.9014282E0,1.5671487E0,3.2650461E0,1.1081924E0,1.3270569E-1,0E0,1.7068624E-1,9.607196E-2,1.0568982E-1,5.6939125E-1,0E0,2.15271E-1,0E0,0E0,9.680462E-2,8.248937E-2,1.253798E-1,3.954897E-2,4.3583125E-2,2.9515982E-2,3.7093163E-2,0E0,0E0,0E0,1.9207478E-2,0E0,8.4878325E-2,0E0,3.340999E-2,4.1785836E-2,0E0,0E0,0E0,0E0,1.198855E-2,2.675834E-2,0E0,0E0,0E0,0E0,0E0,0E0,0E0,0E0,0E0,0E0,0E0,0E0,0E0,0E0],"parents":[2147483647,0,0,1,1,2,2,3,3,4,4,5,5,6,6,7,7,9,9,10,10,11,11,12,12,14,14,17,17,18,18,19,19,20,20,21,21,22,22,23,23,27,27,29,29,31,31,32,32,37,37,38,38],"right_children":[2,4,6,8,10,12,14,16,-1,18,20,22,24,-1,26,-1,-1,28,30,32,34,36,38,40,-1,-1,-1,42,-1,44,-1,46,48,-1,-1,-1,-1,50,52,-1,-1,-1,-1,-1,-1,-1,-1,-1,-1,-1,-1,-1,-1],"split_conditions":[4.98E0,4.26E0,5.704E0,3.94E0,4.7E0,5.21E0,6E0,3.54E0,-2.755925E-2,9.84252E-1,1.0347034E0,4.496E2,5.5E0,2.7634755E-2,1.3825764E-1,-4.910477E-2,-3.8571827E-2,-2.5557999E-2,2.9684514E-2,-5.4244347E-2,2.6017105E-2,5.293824E0,1E-1,1.5996E2,1.9204594E-2,3.451497E-2,4.694466E-2,-1.3982014E-1,-7.2780335E-3,6E0,-3.9320174E-3,4.878E2,4.7850747E0,2.03996E-3,-2.7127834E-3,-2.66558E-3,2.2363155E-3,5.2E0,2.4514731E-2,4.7074705E-3,1.2886161E-2,-8.109632E-3,-1.7945891E-2,-1.323304E-2,-5.634897E-3,6.285318E-4,-2.916239E-3,-8.7365275E-3,-5.1178816E-3,6.366819E-3,2.3824878E-3,3.2841607E-3,-3.524143E-5],"split_indices":[0,1,14,0,0,0,0,1,0,19,17,35,0,0,24,0,0,24,28,24,27,30,40,44,0,0,0,24,0,42,0,35,22,0,0,0,0,2,27,0,0,0,0,0,0,0,0,0,0,0,0,0,0],"split_type":[0,0,0,0,0,0,0,0,0,0,0,0,0,0,0,0,0,0,0,0,0,0,0,0,0,0,0,0,0,0,0,0,0,0,0,0,0,0,0,0,0,0,0,0,0,0,0,0,0,0,0,0,0],"sum_hessian":[8.67E2,4.31E2,4.36E2,2.18E2,2.13E2,2.33E2,2.03E2,1.1E2,1.08E2,9.2E1,1.21E2,6.9E1,1.64E2,9E1,1.13E2,3E1,8E1,4.8E1,4.4E1,1.06E2,1.5E1,1.6E1,5.3E1,7E1,9.4E1,9.7E1,1.6E1,4.1E1,7E0,3.6E1,8E0,2.2E1,8.4E1,6E0,9E0,8E0,8E0,3.2E1,2.1E1,5E0,6.5E1,5E0,3.6E1,2.6E1,1E1,8E0,1.4E1,1.9E1,6.5E1,2.3E1,9E0,1.6E1,5E0],"tree_param":{"num_deleted":"0","num_feature":"45","num_nodes":"53","size_leaf_vector":"1"}},{"base_weights":[9.139906E-3,-4.1883525E-1,4.1317472E-1,-6.6289115E-1,-1.678578E-1,2.1777058E-1,6.080468E-1,-4.2793125E-2,-5.6055933E-1,-2.5599688E-1,-9.023587E-2,6.082592E-2,2.9319987E-1,4.8417118E-1,6.9399995E-1,-2.993453E-2,-2.3228167E-2,-2.9619318E-1,-1.9583355E-1,-1.0148224E-1,-1.22288475E-2,-6.1097927E-3,8.012234E-2,2.1132222E-1,3.3593813E-1,1.7890371E-2,2.5438372E-2,3.136397E-2,3.9849963E-2,-6.2543503E-3,-3.156463E-1,-2.1998857E-1,-0E0,-1.3813601E-1,-7.843651E-2,1.7741824E-3,-2.9587978E-3,-4.466714E-3,1.9157883E-3,1.02888316E-1,1.9119207E-2,4.5022084E-3,1.0966443E-2,6.9546388E-3,1.7297959E-2,-1.7483922E-2,-1.1156612E-2,-1.2301306E-2,-5.4938504E-3,-7.6682637E-3,-1.942416E-3,-4.1265045E-3,-8.9288707E-4,3.8928383E-3,7.636588E-3,3.2450731E-3,-1.9722038E-3],"categories":[],"categories_nodes":[],"categories_segments":[],"categories_sizes":[],"default_left":[0,0,0,0,0,0,0,0,0,0,0,0,0,0,0,0,0,0,0,0,0,0,0,0,0,0,0,0,0,0,0,0,0,0,0,0,0,0,0,0,0,0,0,0,0,0,0,0,0,0,0,0,0,0,0,0,0],"id":10,"left_children":[1,3,5,7,9,11,13,-1,15,17,19,21,23,25,27,-1,-1,29,31,33,35,37,39,41,43,-1,-1,-1,-1,-1,45,47,-1,49,51,-1,-1,-1,-1,53,55,-1,-1,-1,-1,-1,-1,-1,-1,-1,-1,-1,-1,-1,-1,-1,-1],"loss_changes":[1.5493307E2,2.6450493E1,1.733934E1,3.7229614E0,1.4200463E0,2.6932316E0,1.9950943E0,0E0,1.5363312E-1,1.3462639E-1,9.0031505E-2,1.0734549E-1,4.2017555E-1,3.5894394E-2,2.7162933E-1,0E0,0E0,1.06170654E-1,1.9996953E-1,5.28239E-2,4.2548392E-2,7.137875E-2,7.054868E-2,4.6622753E-3,1.0063362E-1,0E0,0E0,0E0,0E0,0E0,2.2117138E-2,4.9191475E-2,0E0,2.925545E-2,4.8543513E-3,0E0,0E0,0E0,0E0,1.8699259E-2,5.604774E-2,0E0,0E0,0E0,0E0,0E0,0E0,0E0,0E0,0E0,0E0,0E0,0E0,0E0,0E0,0E0,0E0],"parents":[2147483647,0,0,1,1,2,2,3,3,4,4,5,5,6,6,8,8,9,9,10,10,11,11,12,12,13,13,14,14,17,17,18,18,19,19,20,20,21,21,22,22,23,23,24,24,30,30,31,31,33,33,34,34,39,39,40,40],"right_children":[2,4,6,8,10,12,14,-1,16,18,20,22,24,26,28,-1,-1,30,32,34,36,38,40,42,44,-1,-1,-1,-1,-1,46,48,-1,50,52,-1,-1,-1,-1,54,56,-1,-1,-1,-1,-1,-1,-1,-1,-1,-1,-1,-1,-1,-1,-1,-1],"split_conditions":[4.97E0,4.26E0,5.64E0,3.718E0,4.7E0,5.21E0,5.95E0,-4.2793125E-2,4.11E0,4.582E0,1.0347034E0,4.496E2,5.44E0,7.0853685E-3,6.1E0,-2.993453E-2,-2.3228167E-2,4.0258E0,9.973707E-1,4.804134E0,1.0732138E0,5.069E0,2.5013503E-2,1.5248E2,8.71747E2,1.7890371E-2,2.5438372E-2,3.136397E-2,3.9849963E-2,-6.2543503E-3,9.9527204E-1,6E0,-0E0,3.0094415E-2,9E-2,1.7741824E-3,-2.9587978E-3,-4.466714E-3,1.9157883E-3,5.15E0,1E-1,4.5022084E-3,1.0966443E-2,6.9546388E-3,1.7297959E-2,-1.7483922E-2,-1.1156612E-2,-1.2301306E-2,-5.4938504E-3,-7.6682637E-3,-1.942416E-3,-4.1265045E-3,-8.9288707E-4,3.8928383E-3,7.636588E-3,3.2450731E-3,-1.9722038E-3],"split_indices":[0,0,0,14,0,0,0,0,0,14,17,35,9,27,14,0,0,20,17,22,19,16,27,44,44,0,0,0,0,0,19,42,0,27,39,0,0,0,0,0,40,0,0,0,0,0,0,0,0,0,0,0,0,0,0,0,0],"split_type":[0,0,0,0,0,0,0,0,0,0,0,0,0,0,0,0,0,0,0,0,0,0,0,0,0,0,0,0,0,0,0,0,0,0,0,0,0,0,0,0,0,0,0,0,0,0,0,0,0,0,0,0,0,0,0,0,0],"sum_hessian":[8.94E2,4.34E2,4.6E2,2.19E2,2.15E2,2.31E2,2.29E2,7.3E1,1.46E2,9.9E1,1.16E2,7.6E1,1.55E2,9.7E1,1.32E2,1E2,4.6E1,5.6E1,4.3E1,1E2,1.6E1,1.6E1,6E1,5.6E1,9.9E1,1.9E1,7.8E1,8.5E1,4.7E1,7E0,4.9E1,3.8E1,5E0,3.5E1,6.5E1,7E0,9E0,6E0,1E1,4.2E1,1.8E1,5E0,5.1E1,6E0,9.3E1,3.3E1,1.6E1,2.9E1,9E0,2.9E1,6E0,5.9E1,6E0,3.1E1,1.1E1,1.1E1,7E0],"tree_param":{"num_deleted":"0","num_feature":"45","num_nodes":"57","size_leaf_vector":"1"}},{"base_weights":[-1.0960506E-2,-3.954046E-1,4.0796015E-1,-6.4146435E-1,-1.4042285E-1,2.0914876E-1,5.716645E-1,-4.056956E-2,-5.3332937E-1,-2.3457085E-1,-7.796879E-2,6.723483E-2,2.7008614E-1,4.649185E-1,6.5947E-1,-2.8861715E-2,-2.3461921E-2,-2.4972937E-1,-1.2138164E-1,-1.0201445E-1,-8.8204155E-3,-1.7259072E-4,8.232935E-2,2.0633286E-1,3.1718835E-1,1.9332727E-2,2.5372619E-2,2.9966203E-2,3.8322862E-2,-6.4717764E-3,-1.3132839E-2,-4.6860365E-5,-9.202113E-3,-8.3267525E-2,-1.5017465E-1,-5.647416E-2,5.100476E-2,8.1199594E-4,9.4293475E-2,3.5948069E-3,1.0779872E-2,1.6337411E-2,7.045248E-3,-5.681481E-3,-2.9741044E-3,-9.113563E-3,-3.087528E-3,-3.6460792E-3,-0E0,5.177675E-3,-9.9408026E-5,-0E0,5.403045E-3],"categories":[],"categories_nodes":[],"categories_segments":[],"categories_sizes":[],"default_left":[0,0,0,0,0,0,0,0,0,0,0,0,0,0,0,0,0,0,0,0,0,0,0,0,0,0,0,0,0,0,0,0,0,0,0,0,0,0,0,0,0,0,0,0,0,0,0,0,0,0,0,0,0],"id":11,"left_children":[1,3,5,7,9,11,13,-1,15,17,19,21,23,25,27,-1,-1,29,31,33,35,-1,37,39,41,-1,-1,-1,-1,-1,-1,-1,-1,43,45,47,49,-1,51,-1,-1,-1,-1,-1,-1,-1,-1,-1,-1,-1,-1,-1,-1],"loss_changes":[1.380202E2,2.7876854E1,1.3146332E1,3.60392E0,1.2499199E0,1.565259E0,1.6804886E0,0E0,2.4066925E-2,8.18491E-2,2.1248376E-1,7.0056856E-2,2.7258205E-1,6.391144E-2,1.7624664E-1,0E0,0E0,4.342556E-2,7.944216E-2,5.3533792E-2,1.0891046E-1,0E0,2.6159734E-2,2.9234648E-2,2.8531551E-2,0E0,0E0,0E0,0E0,0E0,0E0,0E0,0E0,3.0093133E-2,3.5295308E-2,2.0233192E-2,5.491779E-2,0E0,4.1373044E-2,0E0,0E0,0E0,0E0,0E0,0E0,0E0,0E0,0E0,0E0,0E0,0E0,0E0,0E0],"parents":[2147483647,0,0,1,1,2,2,3,3,4,4,5,5,6,6,8,8,9,9,10,10,11,11,12,12,13,13,14,14,17,17,18,18,19,19,20,20,22,22,23,23,24,24,33,33,34,34,35,35,36,36,38,38],"right_children":[2,4,6,8,10,12,14,-1,16,18,20,22,24,26,28,-1,-1,30,32,34,36,-1,38,40,42,-1,-1,-1,-1,-1,-1,-1,-1,44,46,48,50,-1,52,-1,-1,-1,-1,-1,-1,-1,-1,-1,-1,-1,-1,-1,-1],"split_conditions":[5.01E0,4.26E0,5.63E0,3.72E0,4.68E0,5.21E0,5.956E0,-4.056956E-2,4.03E0,1.0107492E0,4.88E0,6.142878E-2,5.47E0,5.8E0,6.21E0,-2.8861715E-2,-2.3461921E-2,-5.0290253E-2,1.3568218E-1,1.0228051E0,3.9E2,-1.7259072E-4,3.32E1,1.476E2,5.7E0,1.9332727E-2,2.5372619E-2,2.9966203E-2,3.8322862E-2,-6.4717764E-3,-1.3132839E-2,-4.6860365E-5,-9.202113E-3,1.0107554E-2,2.8510999E-2,4.95E0,1.108466E4,8.1199594E-4,4.2524986E0,3.5948069E-3,1.0779872E-2,1.6337411E-2,7.045248E-3,-5.681481E-3,-2.9741044E-3,-9.113563E-3,-3.087528E-3,-3.6460792E-3,-0E0,5.177675E-3,-9.9408026E-5,-0E0,5.403045E-3],"split_indices":[0,0,0,0,0,0,14,0,0,17,0,32,0,1,0,0,0,26,32,21,4,0,34,44,10,0,0,0,0,0,0,0,0,28,28,3,44,0,31,0,0,0,0,0,0,0,0,0,0,0,0,0,0],"split_type":[0,0,0,0,0,0,0,0,0,0,0,0,0,0,0,0,0,0,0,0,0,0,0,0,0,0,0,0,0,0,0,0,0,0,0,0,0,0,0,0,0,0,0,0,0,0,0,0,0,0,0,0,0],"sum_hessian":[8.55E2,4.46E2,4.09E2,2.26E2,2.2E2,1.86E2,2.23E2,8.5E1,1.41E2,8.6E1,1.34E2,5.7E1,1.29E2,1.04E2,1.19E2,7.8E1,6.3E1,7.4E1,1.2E1,9.8E1,3.6E1,9E0,4.8E1,5.8E1,7.1E1,4.1E1,6.3E1,8.1E1,3.8E1,9E0,6.5E1,5E0,7E0,7.4E1,2.4E1,2.1E1,1.5E1,9E0,3.9E1,5E0,5.3E1,6.6E1,5E0,2.9E1,4.5E1,1.6E1,8E0,1.6E1,5E0,8E0,7E0,6E0,3.3E1],"tree_param":{"num_deleted":"0","num_feature":"45","num_nodes":"53","size_leaf_vector":"1"}},{"base_weights":[-3.3488085E-3,-3.6587065E-1,3.8071787E-1,-6.001965E-1,-1.3756505E-1,2.0108259E-1,5.500961E-1,-7.0790595E-1,-2.385849E-2,-2.3244455E-1,-7.8100376E-2,1.02741934E-1,2.9215E-1,4.4252595E-1,6.354023E-1,-3.628166E-2,-1.8047607E-2,-3.5643731E-3,-2.4624664E-1,-1.0426807E-1,-1.0669218E-2,3.6735192E-2,1.4886796E-1,7.6819956E-3,3.0357888E-1,1.8673267E-2,2.4991265E-2,2.9333482E-2,3.935269E-2,-1.640759E-2,-2.14241E-1,-1.141581E-1,8.499304E-5,-4.7459334E-2,4.250739E-2,-3.0341824E-3,5.5842802E-2,1.6992615E-1,5.197099E-2,1.090021E-2,1.60609E-2,-1.2470818E-2,-7.952446E-3,-4.5564664E-3,-7.813939E-3,-3.1286988E-3,-0E0,-0E0,6.2974887E-3,3.249182E-3,-0E0,5.564077E-3,1.1224207E-2,4.2583193E-3,-0E0],"categories":[],"categories_nodes":[],"categories_segments":[],"categories_sizes":[],"default_left":[0,0,0,0,0,0,0,0,0,0,0,0,0,0,0,0,0,0,0,0,0,0,0,0,0,0,0,0,0,0,0,0,0,0,0,0,0,0,0,0,0,0,0,0,0,0,0,0,0,0,0,0,0,0,0],"id":12,"left_children":[1,3,5,7,9,11,13,15,-1,17,19,21,23,25,27,-1,-1,-1,29,31,33,35,37,-1,39,-1,-1,-1,-1,-1,41,43,-1,45,47,-1,49,51,53,-1,-1,-1,-1,-1,-1,-1,-1,-1,-1,-1,-1,-1,-1,-1,-1],"loss_changes":[1.24194016E2,2.4399185E1,1.2988857E1,2.5384674E0,1.2710137E0,1.8290873E0,1.6481781E0,3.5518646E-1,0E0,1.4865589E-1,2.4501342E-1,2.9261243E-1,8.018589E-2,1.2963104E-1,2.9512787E-1,0E0,0E0,0E0,8.779287E-2,1.2043452E-1,8.663663E-2,8.66695E-2,9.140742E-2,0E0,2.5486946E-2,0E0,0E0,0E0,0E0,0E0,3.985119E-2,5.4136395E-2,0E0,1.3580076E-2,6.446312E-2,0E0,1.7736502E-2,9.5020056E-2,2.2913713E-2,0E0,0E0,0E0,0E0,0E0,0E0,0E0,0E0,0E0,0E0,0E0,0E0,0E0,0E0,0E0,0E0],"parents":[2147483647,0,0,1,1,2,2,3,3,4,4,5,5,6,6,7,7,9,9,10,10,11,11,12,12,13,13,14,14,18,18,19,19,20,20,21,21,22,22,24,24,30,30,31,31,33,33,34,34,36,36,37,37,38,38],"right_children":[2,4,6,8,10,12,14,16,-1,18,20,22,24,26,28,-1,-1,-1,30,32,34,36,38,-1,40,-1,-1,-1,-1,-1,42,44,-1,46,48,-1,50,52,54,-1,-1,-1,-1,-1,-1,-1,-1,-1,-1,-1,-1,-1,-1,-1,-1],"split_conditions":[5.01E0,4.26E0,5.64E0,3.94E0,4.68E0,5.36E0,5.956E0,8.285624E3,-2.385849E-2,4.37E0,4.88E0,5.15E0,1.100667E3,5.78E0,6.26E0,-3.628166E-2,-1.8047607E-2,-3.5643731E-3,4.478E0,4.9653645E0,9.420082E-2,3.2045E2,2.4360526E-2,7.6819956E-3,-6.6E-1,1.8673267E-2,2.4991265E-2,2.9333482E-2,3.935269E-2,-1.640759E-2,4.4865084E-1,3.3258483E-2,8.499304E-5,1.2E3,6.5926653E-1,-3.0341824E-3,2.162651E-1,5.838567E3,7.614E2,1.090021E-2,1.60609E-2,-1.2470818E-2,-7.952446E-3,-4.5564664E-3,-7.813939E-3,-3.1286988E-3,-0E0,-0E0,6.2974887E-3,3.249182E-3,-0E0,5.564077E-3,1.1224207E-2,4.2583193E-3,-0E0],"split_indices":[0,0,0,0,0,9,14,44,0,11,8,0,44,2,0,0,0,0,14,23,32,35,27,0,37,0,0,0,0,0,36,25,0,4,36,0,32,44,35,0,0,0,0,0,0,0,0,0,0,0,0,0,0,0,0],"split_type":[0,0,0,0,0,0,0,0,0,0,0,0,0,0,0,0,0,0,0,0,0,0,0,0,0,0,0,0,0,0,0,0,0,0,0,0,0,0,0,0,0,0,0,0,0,0,0,0,0,0,0,0,0,0,0],"sum_hessian":[8.9E2,4.58E2,4.32E2,2.25E2,2.33E2,2.11E2,2.21E2,1.17E2,1.08E2,8.8E1,1.45E2,1.03E2,1.08E2,1.01E2,1.2E2,1.1E2,7E0,8E0,8E1,1.03E2,4.2E1,4.4E1,5.9E1,1E1,9.8E1,5E1,5.1E1,9.5E1,2.5E1,1.9E1,6.1E1,9.5E1,8E0,2.6E1,1.6E1,6E0,3.8E1,4.7E1,1.2E1,2E1,7.8E1,3.4E1,2.7E1,6.5E1,3E1,1.8E1,8E0,1.1E1,5E0,3.2E1,6E0,2.5E1,2.2E1,7E0,5E0],"tree_param":{"num_deleted":"0","num_feature":"45","num_nodes":"55","size_leaf_vector":"1"}},{"base_weights":[-1.6464689E-3,-3.6085397E-1,3.5569626E-1,-5.7152504E-1,-1.4514668E-1,1.7704909E-1,5.175313E-1,-3.524206E-2,-4.5783797E-1,-2.1863402E-1,-7.9613626E-2,5.264059E-2,2.4222559E-1,4.1580984E-1,5.9238654E-1,-2.3859927E-2,-1.7470386E-2,-2.6536953E-1,-1.7768583E-1,-9.403378E-2,-2.168026E-2,-2.7574444E-2,6.716754E-2,1.8212901E-1,2.7352098E-1,1.7909234E-2,2.3380619E-2,2.8026247E-2,4.1294016E-2,-3.1539034E-3,-2.8712285E-1,-2.5376868E-3,-1.8681614E-1,-1.01008676E-1,-0E0,-6.110227E-2,1.8752593E-3,3.2019287E-3,-6.56292E-3,2.545199E-2,8.1992954E-2,1.12670995E-1,1.0014718E-2,4.489334E-3,2.8240982E-1,-1.5343401E-2,-5.5356533E-3,-7.1241767E-3,-1.1338467E-2,-6.9366954E-3,-3.587557E-3,-5.780411E-4,-3.6223903E-3,2.9414361E-3,-1.532588E-3,3.0980853E-3,6.4591966E-3,1.3023091E-3,7.339538E-3,7.845881E-3,1.4625234E-2],"categories":[],"categories_nodes":[],"categories_segments":[],"categories_sizes":[],"default_left":[0,0,0,0,0,0,0,0,0,0,0,0,0,0,0,0,0,0,0,0,0,0,0,0,0,0,0,0,0,0,0,0,0,0,0,0,0,0,0,0,0,0,0,0,0,0,0,0,0,0,0,0,0,0,0,0,0,0,0,0,0],"id":13,"left_children":[1,3,5,7,9,11,13,-1,15,17,19,21,23,25,27,-1,-1,29,31,33,35,37,39,41,43,-1,-1,-1,-1,-1,45,-1,47,49,-1,51,-1,-1,-1,53,55,57,-1,-1,59,-1,-1,-1,-1,-1,-1,-1,-1,-1,-1,-1,-1,-1,-1,-1,-1],"loss_changes":[1.12187325E2,1.965865E1,1.2502087E1,2.895424E0,9.9780893E-1,1.6605492E0,1.396553E0,0E0,6.71196E-3,1.0182905E-1,8.413267E-2,9.204213E-2,1.6228104E-1,5.1425934E-2,3.581314E-1,0E0,0E0,1.4049125E-1,3.3979177E-2,6.394029E-2,6.531481E-2,1.19614385E-1,2.6749432E-2,1.0484219E-2,7.951069E-2,0E0,0E0,0E0,0E0,0E0,6.0114145E-2,0E0,2.463901E-2,6.3919485E-2,0E0,3.168434E-4,0E0,0E0,0E0,4.2072095E-2,1.5419215E-2,2.0271614E-2,0E0,0E0,1.3038158E-2,0E0,0E0,0E0,0E0,0E0,0E0,0E0,0E0,0E0,0E0,0E0,0E0,0E0,0E0,0E0,0E0],"parents":[2147483647,0,0,1,1,2,2,3,3,4,4,5,5,6,6,8,8,9,9,10,10,11,11,12,12,13,13,14,14,17,17,18,18,19,19,20,20,21,21,22,22,23,23,24,24,30,30,32,32,33,33,35,35,39,39,40,40,41,41,44,44],"right_children":[2,4,6,8,10,12,14,-1,16,18,20,22,24,26,28,-1,-1,30,32,34,36,38,40,42,44,-1,-1,-1,-1,-1,46,-1,48,50,-1,52,-1,-1,-1,54,56,58,-1,-1,60,-1,-1,-1,-1,-1,-1,-1,-1,-1,-1,-1,-1,-1,-1,-1,-1],"split_conditions":[4.98E0,4.26E0,5.64E0,3.89E0,4.71E0,5.21E0,5.9420595E0,-3.524206E-2,4.2E0,-4.2903934E-2,4.88E0,3.6055E2,5.43E0,5.78E0,4.1867957E-2,-2.3859927E-2,-1.7470386E-2,-9.0243906E-2,-4.6149E-2,7.938561E-1,5.311159E-1,3.1613934E-1,1.524614E-2,6.821E2,8.71747E2,1.7909234E-2,2.3380619E-2,2.8026247E-2,4.1294016E-2,-3.1539034E-3,1.610306E-3,-2.5376868E-3,4.861674E0,4.804134E0,-0E0,-4.7059435E-2,1.8752593E-3,3.2019287E-3,-6.56292E-3,1.4594159E-2,5.4714046E0,2.6603391E-2,1.0014718E-2,4.489334E-3,-6.9E-1,-1.5343401E-2,-5.5356533E-3,-7.1241767E-3,-1.1338467E-2,-6.9366954E-3,-3.587557E-3,-5.780411E-4,-3.6223903E-3,2.9414361E-3,-1.532588E-3,3.0980853E-3,6.4591966E-3,1.3023091E-3,7.339538E-3,7.845881E-3,1.4625234E-2],"split_indices":[0,0,0,0,0,0,22,0,2,24,0,35,14,2,6,0,0,7,26,33,36,33,28,35,44,0,0,0,0,0,7,0,30,22,0,25,0,0,0,28,30,28,0,0,37,0,0,0,0,0,0,0,0,0,0,0,0,0,0,0,0],"split_type":[0,0,0,0,0,0,0,0,0,0,0,0,0,0,0,0,0,0,0,0,0,0,0,0,0,0,0,0,0,0,0,0,0,0,0,0,0,0,0,0,0,0,0,0,0,0,0,0,0,0,0,0,0,0,0,0,0,0,0,0,0],"sum_hessian":[8.72E2,4.35E2,4.37E2,2.19E2,2.16E2,2.09E2,2.28E2,9.8E1,1.21E2,1E2,1.16E2,7.3E1,1.36E2,1E2,1.28E2,9.9E1,2.2E1,4.3E1,5.7E1,9.1E1,2.5E1,1E1,6.3E1,5E1,8.6E1,5.2E1,4.8E1,1.16E2,1.2E1,5E0,3.8E1,5E0,5.2E1,8.5E1,6E0,1.6E1,9E0,5E0,5E0,1.9E1,4.4E1,1.3E1,3.7E1,5E0,8.1E1,3.3E1,5E0,2.8E1,2.4E1,3.4E1,5.1E1,5E0,1.1E1,1.3E1,6E0,3.4E1,1E1,5E0,8E0,8E0,7.3E1],"tree_param":{"num_deleted":"0","num_feature":"45","num_nodes":"61","size_leaf_vector":"1"}},{"base_weights":[7.7981147E-4,-3.5336578E-1,3.4468752E-1,-5.38646E-1,-1.3987955E-1,1.7997769E-1,4.966108E-1,-3.458789E-2,-4.5374942E-1,-2.2444466E-1,-9.769859E-2,4.352165E-2,2.4161491E-1,4.248033E-1,6.0488635E-1,-2.4842205E-2,-3.771654E-1,-2.6346248E-1,-1.4264491E-1,-1.0585042E-1,2.6681859E-3,7.0805885E-2,-2.0500822E-2,1.702618E-1,2.817705E-1,3.44621E-1,2.4193281E-2,2.7846659E-2,4.155029E-2,-6.979645E-3,-1.9976988E-2,-7.1471655E-3,-1.4031256E-2,-1.7783022E-1,-8.752441E-4,-1.5114577E-1,-7.4401505E-2,-0E0,8.5986696E-2,-3.9695995E-3,3.262996E-3,1.30551E-1,1.0360731E-2,1.8265477E-1,1.4880684E-2,1.7936286E-2,9.427374E-3,-1.0804143E-2,-2.4322222E-3,-9.431093E-3,-9.699305E-4,-4.1018133E-3,8.383306E-4,2.868057E-3,6.1602606E-3,7.438358E-3,1.6278703E-3,4.0832753E-3,1.0602197E-2],"categories":[],"categories_nodes":[],"categories_segments":[],"categories_sizes":[],"default_left":[0,0,0,0,0,0,0,0,0,0,0,0,0,0,0,0,0,0,0,0,0,0,0,0,0,0,0,0,0,0,0,0,0,0,0,0,0,0,0,0,0,0,0,0,0,0,0,0,0,0,0,0,0,0,0,0,0,0,0],"id":14,"left_children":[1,3,5,7,9,11,13,-1,15,17,19,21,23,25,27,-1,29,31,33,35,-1,37,39,41,43,45,-1,-1,-1,-1,-1,-1,-1,47,-1,49,51,-1,53,-1,-1,55,-1,57,-1,-1,-1,-1,-1,-1,-1,-1,-1,-1,-1,-1,-1,-1,-1],"loss_changes":[1.05594025E2,1.6746689E1,1.0853195E1,2.535263E0,6.592655E-1,1.7524648E0,1.4127693E0,0E0,2.2026062E-1,1.2926483E-1,1.7837226E-1,1.252648E-1,3.2514477E-1,4.1814232E-1,3.5258865E-1,0E0,2.0393085E-1,4.4033527E-3,8.302775E-2,1.5138352E-1,0E0,5.0088257E-2,1.0760532E-1,2.1347284E-2,4.051113E-2,1.8523693E-2,0E0,0E0,0E0,0E0,0E0,0E0,0E0,5.1966608E-2,0E0,2.2734475E-1,6.3586146E-2,0E0,1.7492205E-2,0E0,0E0,3.236109E-2,0E0,8.0025196E-4,0E0,0E0,0E0,0E0,0E0,0E0,0E0,0E0,0E0,0E0,0E0,0E0,0E0,0E0,0E0],"parents":[2147483647,0,0,1,1,2,2,3,3,4,4,5,5,6,6,8,8,9,9,10,10,11,11,12,12,13,13,14,14,16,16,17,17,18,18,19,19,21,21,22,22,23,23,24,24,25,25,33,33,35,35,36,36,38,38,41,41,43,43],"right_children":[2,4,6,8,10,12,14,-1,16,18,20,22,24,26,28,-1,30,32,34,36,-1,38,40,42,44,46,-1,-1,-1,-1,-1,-1,-1,48,-1,50,52,-1,54,-1,-1,56,-1,58,-1,-1,-1,-1,-1,-1,-1,-1,-1,-1,-1,-1,-1,-1,-1],"split_conditions":[4.98E0,4.26E0,5.64E0,3.718E0,4.604E0,5.21E0,6.01E0,-3.458789E-2,4.02E0,9.981401E-1,4.375E-2,2.4673853E-2,5.43E0,5.8E0,6.32E0,-2.4842205E-2,3.9972E0,9.063173E-1,4.19E0,6E0,2.6681859E-3,1.1958E2,5.16E0,5.838567E3,-6.6E-1,5.75E-2,2.4193281E-2,2.7846659E-2,4.155029E-2,-6.979645E-3,-1.9976988E-2,-7.1471655E-3,-1.4031256E-2,1.1465977E0,-8.752441E-4,4.4083696E-2,5.24E0,-0E0,9.89829E-2,-3.9695995E-3,3.262996E-3,-2.8658777E-2,1.0360731E-2,5.48E0,1.4880684E-2,1.7936286E-2,9.427374E-3,-1.0804143E-2,-2.4322222E-3,-9.431093E-3,-9.699305E-4,-4.1018133E-3,8.383306E-4,2.868057E-3,6.1602606E-3,7.438358E-3,1.6278703E-3,4.0832753E-3,1.0602197E-2],"split_indices":[8,1,8,14,14,8,8,0,2,19,5,27,14,2,2,0,20,21,13,42,0,44,1,44,37,7,0,0,0,0,0,0,0,21,0,26,13,0,32,0,0,25,0,2,0,0,0,0,0,0,0,0,0,0,0,0,0,0,0],"split_type":[0,0,0,0,0,0,0,0,0,0,0,0,0,0,0,0,0,0,0,0,0,0,0,0,0,0,0,0,0,0,0,0,0,0,0,0,0,0,0,0,0,0,0,0,0,0,0,0,0,0,0,0,0,0,0,0,0,0,0],"sum_hessian":[8.65E2,4.26E2,4.39E2,2.27E2,1.99E2,2.12E2,2.27E2,7.8E1,1.49E2,6.4E1,1.35E2,6.7E1,1.45E2,1.4E2,8.7E1,9.1E1,5.8E1,4.1E1,2.3E1,1.29E2,6E0,4.8E1,1.9E1,5.5E1,9E1,6.3E1,7.7E1,7.5E1,1.2E1,6E0,5.2E1,7E0,3.4E1,1.7E1,6E0,5E1,7.9E1,9E0,3.9E1,1.2E1,7E0,3E1,2.5E1,1.5E1,7.5E1,5.6E1,7E0,1.2E1,5E0,3.8E1,1.2E1,7.4E1,5E0,2.5E1,1.4E1,2.4E1,6E0,5E0,1E1],"tree_param":{"num_deleted":"0","num_feature":"45","num_nodes":"59","size_leaf_vector":"1"}},{"base_weights":[8.661901E-3,-3.118045E-1,3.5611558E-1,-5.067098E-1,-1.1073778E-1,2.1318713E-1,4.928765E-1,-6.159414E-1,-4.0061462E-1,-2.000683E-1,-6.673865E-2,1.19492434E-1,2.7796605E-1,4.4611466E-1,3.2320794E-2,-6.363692E-1,-1.8164558E-2,-2.0558095E-2,-1.0686784E-2,-2.1186857E-1,-4.726984E-3,-8.088478E-2,1.2386608E-2,6.2749594E-2,1.5115474E-1,1.0550568E-2,1.4650836E-2,1.6077617E-2,2.3304693E-2,-3.6820557E-2,-2.9005814E-2,-4.223244E-3,-2.2186784E-1,-5.5142283E-3,-8.972136E-2,-1.7776777E-3,4.6991598E-2,7.972802E-2,-6.5522117E-4,3.6379525E-3,1.6299479E-1,-5.3006303E-3,-1.1563699E-2,2.5726033E-3,-2.2588184E-3,-3.672948E-3,-8.711124E-3,4.959499E-3,4.8670285E-5,2.046082E-3,4.780703E-3,4.928689E-3,9.148019E-3],"categories":[],"categories_nodes":[],"categories_segments":[],"categories_sizes":[],"default_left":[0,0,0,0,0,0,0,0,0,0,0,0,0,0,0,0,0,0,0,0,0,0,0,0,0,0,0,0,0,0,0,0,0,0,0,0,0,0,0,0,0,0,0,0,0,0,0,0,0,0,0,0,0],"id":15,"left_children":[1,3,5,7,9,11,13,15,17,19,21,23,25,27,-1,29,-1,-1,-1,31,-1,33,35,37,39,-1,-1,-1,-1,-1,-1,-1,41,43,45,-1,47,49,-1,-1,51,-1,-1,-1,-1,-1,-1,-1,-1,-1,-1,-1,-1],"loss_changes":[9.721026E1,1.7673935E1,8.014526E0,2.317047E0,8.443215E-1,1.1834145E0,1.1316643E0,2.4172974E-1,8.616066E-2,4.0233612E-2,1.7910701E-1,1.2542975E-1,9.6998215E-3,1.8696976E-1,0E0,9.536743E-3,0E0,0E0,0E0,3.215909E-2,0E0,7.7230096E-2,4.09708E-2,5.149515E-2,1.4688492E-2,0E0,0E0,0E0,0E0,0E0,0E0,0E0,4.958868E-3,3.7847325E-2,1.2183976E-1,0E0,2.5918238E-2,3.1164289E-4,0E0,0E0,1.1690736E-2,0E0,0E0,0E0,0E0,0E0,0E0,0E0,0E0,0E0,0E0,0E0,0E0],"parents":[2147483647,0,0,1,1,2,2,3,3,4,4,5,5,6,6,7,7,8,8,9,9,10,10,11,11,12,12,13,13,15,15,19,19,21,21,22,22,23,23,24,24,32,32,33,33,34,34,36,36,37,37,40,40],"right_children":[2,4,6,8,10,12,14,16,18,20,22,24,26,28,-1,30,-1,-1,-1,32,-1,34,36,38,40,-1,-1,-1,-1,-1,-1,-1,42,44,46,-1,48,50,-1,-1,52,-1,-1,-1,-1,-1,-1,-1,-1,-1,-1,-1,-1],"split_conditions":[5.09E0,4.4E0,5.718E0,3.94E0,4.68E0,5.412E0,6.17E0,8.285624E3,2.0474623E-1,1.0107492E0,5.024E0,5.19E0,-6.1E-1,9.721574E-1,3.2320794E-2,3.54E0,-1.8164558E-2,-2.0558095E-2,-1.0686784E-2,-5.4375246E-2,-4.726984E-3,9.4377816E-1,1.8518518E0,1.1963E4,2.08669E2,1.0550568E-2,1.4650836E-2,1.6077617E-2,2.3304693E-2,-3.6820557E-2,-2.9005814E-2,-4.223244E-3,-1.2993395E-1,4.97E0,5.2161255E0,-1.7776777E-3,-2.5120504E-2,3.24E0,-6.5522117E-4,3.6379525E-3,9.9784946E-1,-5.3006303E-3,-1.1563699E-2,2.5726033E-3,-2.2588184E-3,-3.672948E-3,-8.711124E-3,4.959499E-3,4.8670285E-5,2.046082E-3,4.780703E-3,4.928689E-3,9.148019E-3],"split_indices":[0,1,14,1,0,14,1,44,32,17,14,8,37,21,0,0,0,0,0,26,0,21,29,44,44,0,0,0,0,0,0,0,24,16,30,0,26,3,0,0,15,0,0,0,0,0,0,0,0,0,0,0,0],"split_type":[0,0,0,0,0,0,0,0,0,0,0,0,0,0,0,0,0,0,0,0,0,0,0,0,0,0,0,0,0,0,0,0,0,0,0,0,0,0,0,0,0,0,0,0,0,0,0,0,0,0,0,0,0],"sum_hessian":[8.71E2,4.53E2,4.18E2,2.29E2,2.24E2,2.06E2,2.12E2,1.1E2,1.19E2,7.2E1,1.52E2,8.6E1,1.2E2,1.66E2,4.6E1,1E2,1E1,1.11E2,8E0,6.3E1,9E0,1.3E2,2.2E1,3.3E1,5.3E1,2.6E1,9.4E1,2.6E1,1.4E2,3.1E1,6.9E1,6E0,5.7E1,1.5E1,1.15E2,8E0,1.4E1,2.8E1,5E0,9E0,4.4E1,6E0,5.1E1,5E0,1E1,9.9E1,1.6E1,5E0,9E0,1.1E1,1.7E1,1.3E1,3.1E1],"tree_param":{"num_deleted":"0","num_feature":"45","num_nodes":"53","size_leaf_vector":"1"}},{"base_weights":[-9.988033E-3,-3.1864676E-1,3.020583E-1,-4.9260518E-1,-1.267852E-1,1.4788444E-1,4.2827892E-1,-6.079301E-1,-3.9454368E-1,-1.9774933E-1,-7.22636E-2,4.5208603E-2,2.0680682E-1,3.5243568E-1,5.021833E-1,-3.7117954E-2,-5.533446E-1,-4.0171596E-1,-1.0047067E-2,-2.3449819E-1,-1.4866138E-1,1.2348079E-2,-8.097692E-2,1.8158322E-2,9.8876245E-2,7.950154E-2,2.2416554E-1,3.102581E-1,2.0072756E-2,2.365039E-2,3.191909E-2,-2.8366312E-2,-1.3833697E-2,-2.1110153E-2,-1.5590424E-2,-3.1970334E-3,-1.2525894E-2,-8.843456E-3,-1.535482E-3,-1.3427329E-3,3.3079737E-3,-7.857122E-3,-6.2248487E-2,-4.3701017E-3,5.5311788E-2,1.2440843E-3,6.8762028E-3,7.177591E-3,5.1555823E-4,6.909507E-3,2.4238989E-1,7.443793E-3,3.1884328E-1,-3.459227E-3,-0E0,1.6150115E-3,-2.917419E-3,-0E0,3.8738574E-3,1.2586518E-2,6.8114633E-3,1.6618257E-2,9.333329E-3],"categories":[],"categories_nodes":[],"categories_segments":[],"categories_sizes":[],"default_left":[0,0,0,0,0,0,0,0,0,0,0,0,0,0,0,0,0,0,0,0,0,0,0,0,0,0,0,0,0,0,0,0,0,0,0,0,0,0,0,0,0,0,0,0,0,0,0,0,0,0,0,0,0,0,0,0,0,0,0,0,0,0,0],"id":16,"left_children":[1,3,5,7,9,11,13,15,17,19,21,23,25,27,29,-1,31,33,-1,35,37,39,41,43,45,47,49,51,-1,-1,-1,-1,-1,-1,-1,-1,-1,-1,-1,-1,-1,-1,53,55,57,-1,-1,-1,-1,-1,59,-1,61,-1,-1,-1,-1,-1,-1,-1,-1,-1,-1],"loss_changes":[8.312216E1,1.436076E1,8.227352E0,2.227028E0,7.6347685E-1,1.1451802E0,1.05476E0,2.0811081E-1,3.3971786E-2,8.737254E-2,9.633261E-2,9.247704E-2,2.2362423E-1,5.23777E-2,4.784584E-2,0E0,5.6495667E-2,1.5987396E-2,0E0,8.368516E-2,1.135509E-1,2.8912263E-2,1.2518972E-1,4.8023347E-2,4.6111315E-2,5.8471777E-2,9.609842E-2,2.7441978E-3,0E0,0E0,0E0,0E0,0E0,0E0,0E0,0E0,0E0,0E0,0E0,0E0,0E0,0E0,4.466608E-2,6.585092E-2,3.1796068E-2,0E0,0E0,0E0,0E0,0E0,1.2187481E-2,0E0,2.22826E-3,0E0,0E0,0E0,0E0,0E0,0E0,0E0,0E0,0E0,0E0],"parents":[2147483647,0,0,1,1,2,2,3,3,4,4,5,5,6,6,7,7,8,8,9,9,10,10,11,11,12,12,13,13,14,14,16,16,17,17,19,19,20,20,21,21,22,22,23,23,24,24,25,25,26,26,27,27,42,42,43,43,44,44,50,50,52,52],"right_children":[2,4,6,8,10,12,14,16,18,20,22,24,26,28,30,-1,32,34,-1,36,38,40,42,44,46,48,50,52,-1,-1,-1,-1,-1,-1,-1,-1,-1,-1,-1,-1,-1,-1,54,56,58,-1,-1,-1,-1,-1,60,-1,62,-1,-1,-1,-1,-1,-1,-1,-1,-1,-1],"split_conditions":[4.96E0,4.26E0,5.6E0,3.89E0,4.7E0,5.21E0,5.956E0,3.5E0,3.2691E3,4.564E0,4.69E0,5.14E0,1.107641E3,5.78E0,6.3E0,-3.7117954E-2,8.285624E3,4.24706E0,-1.0047067E-2,4.01E0,6E0,4.622E0,4.778E0,-1.9267823E-3,1.0239498E-1,5.2270646E0,8.5E2,9.765625E-1,2.0072756E-2,2.365039E-2,3.191909E-2,-2.8366312E-2,-1.3833697E-2,-2.1110153E-2,-1.5590424E-2,-3.1970334E-3,-1.2525894E-2,-8.843456E-3,-1.535482E-3,-1.3427329E-3,3.3079737E-3,-7.857122E-3,5.371598E0,3E-2,-5.8177333E-2,1.2440843E-3,6.8762028E-3,7.177591E-3,5.1555823E-4,6.909507E-3,1.1E1,7.443793E-3,4.8648648E-2,-3.459227E-3,-0E0,1.6150115E-3,-2.917419E-3,-0E0,3.8738574E-3,1.2586518E-2,6.8114633E-3,1.6618257E-2,9.333329E-3],"split_indices":[0,0,8,0,0,0,14,0,35,14,9,0,44,2,0,0,44,23,0,11,42,16,14,6,32,31,35,15,0,0,0,0,0,0,0,0,0,0,0,0,0,0,30,40,25,0,0,0,0,0,42,0,7,0,0,0,0,0,0,0,0,0,0],"split_type":[0,0,0,0,0,0,0,0,0,0,0,0,0,0,0,0,0,0,0,0,0,0,0,0,0,0,0,0,0,0,0,0,0,0,0,0,0,0,0,0,0,0,0,0,0,0,0,0,0,0,0,0,0,0,0,0,0,0,0,0,0,0,0],"sum_hessian":[8.61E2,4.33E2,4.28E2,2.26E2,2.07E2,1.94E2,2.34E2,1.01E2,1.25E2,8.8E1,1.19E2,7.2E1,1.22E2,1.19E2,1.15E2,2.5E1,7.6E1,1.19E2,6E0,4.7E1,4.1E1,1E1,1.09E2,5E1,2.2E1,1.6E1,1.06E2,6.9E1,5E1,9.9E1,1.6E1,7.1E1,5E0,9.3E1,2.6E1,5E0,4.2E1,3.2E1,9E0,5E0,5E0,1.9E1,9E1,3E1,2E1,9E0,1.3E1,7E0,9E0,2.1E1,8.5E1,5E0,6.4E1,8.2E1,8E0,1.7E1,1.3E1,5E0,1.5E1,7.6E1,9E0,5.6E1,8E0],"tree_param":{"num_deleted":"0","num_feature":"45","num_nodes":"63","size_leaf_vector":"1"}},{"base_weights":[1.2400604E-2,-2.8632465E-1,3.1202012E-1,-4.705472E-1,-1.08660206E-1,1.5770878E-1,4.3789777E-1,-2.944927E-2,-3.992951E-1,-2.1274444E-1,-7.4983E-2,5.3697348E-2,2.0138015E-1,4.1743073E-1,3.5315733E-2,-4.2411327E-1,-1.620645E-2,-2.2413369E-1,-3.4753196E-3,-9.360661E-2,2.7917234E-2,2.8452253E-2,1.09996565E-1,1.4576232E-1,2.3460425E-1,7.7665034E-3,4.2599574E-1,-2.1612857E-2,-1.0526591E-2,-4.4516237E-3,-1.1772352E-2,-1.2668115E-1,-7.024869E-2,-4.4366315E-2,1.00186445E-1,4.9482252E-2,-1.7810227E-2,2.2308433E-3,7.065033E-3,1.0377686E-1,8.948529E-3,2.428204E-1,4.8213033E-3,1.5607846E-2,2.2292066E-2,-7.3382864E-3,-3.8035345E-4,-4.292692E-3,-1.9067655E-3,-5.900958E-3,1.0669429E-3,7.875268E-3,1.2504542E-3,-0E0,2.8389152E-3,9.413791E-4,-2.7781154E-3,-0E0,6.181608E-3,6.1315536E-3,1.2676443E-2],"categories":[],"categories_nodes":[],"categories_segments":[],"categories_sizes":[],"default_left":[0,0,0,0,0,0,0,0,0,0,0,0,0,0,0,0,0,0,0,0,0,0,0,0,0,0,0,0,0,0,0,0,0,0,0,0,0,0,0,0,0,0,0,0,0,0,0,0,0,0,0,0,0,0,0,0,0,0,0,0,0],"id":17,"left_children":[1,3,5,7,9,11,13,-1,15,17,19,21,23,25,-1,27,-1,29,-1,31,33,35,37,39,41,-1,43,-1,-1,-1,-1,45,47,49,51,53,55,-1,-1,57,-1,59,-1,-1,-1,-1,-1,-1,-1,-1,-1,-1,-1,-1,-1,-1,-1,-1,-1,-1,-1],"loss_changes":[7.7423294E1,1.406295E1,8.262699E0,1.4550552E0,7.33444E-1,8.539734E-1,8.947983E-1,0E0,4.141426E-2,4.1520357E-2,3.349657E-1,6.8302214E-2,1.8092251E-1,3.7630844E-1,0E0,1.5174866E-2,0E0,1.995492E-2,0E0,8.3428025E-2,1.4584766E-1,4.6856094E-2,9.896934E-3,2.9836774E-2,3.6890507E-2,0E0,2.7075577E-1,0E0,0E0,0E0,0E0,1.19764626E-1,2.8927952E-2,7.509827E-2,3.813669E-2,8.690156E-3,2.270057E-2,0E0,0E0,5.000308E-2,0E0,3.0395508E-2,0E0,0E0,0E0,0E0,0E0,0E0,0E0,0E0,0E0,0E0,0E0,0E0,0E0,0E0,0E0,0E0,0E0,0E0,0E0],"parents":[2147483647,0,0,1,1,2,2,3,3,4,4,5,5,6,6,8,8,9,9,10,10,11,11,12,12,13,13,15,15,17,17,19,19,20,20,21,21,22,22,23,23,24,24,26,26,31,31,32,32,33,33,34,34,35,35,36,36,39,39,41,41],"right_children":[2,4,6,8,10,12,14,-1,16,18,20,22,24,26,-1,28,-1,30,-1,32,34,36,38,40,42,-1,44,-1,-1,-1,-1,46,48,50,52,54,56,-1,-1,58,-1,60,-1,-1,-1,-1,-1,-1,-1,-1,-1,-1,-1,-1,-1,-1,-1,-1,-1,-1,-1],"split_conditions":[5.036E0,4.26E0,5.64E0,3.73E0,4.564E0,5.21E0,6.25E0,-2.944927E-2,4.11E0,1.1465977E0,1.022864E0,5.15E0,5.43E0,5.5E0,3.5315733E-2,4.2986427E-2,-1.620645E-2,-1.3982014E-1,-3.4753196E-3,6E0,2.065463E-1,2.4514731E-2,9.536368E-2,5.838567E3,5.638E0,7.7665034E-3,-4.5017947E-2,-2.1612857E-2,-1.0526591E-2,-4.4516237E-3,-1.1772352E-2,4.2892914E-2,4.828E0,3E0,1.4733545E-1,5.08E0,1.98E2,2.2308433E-3,7.065033E-3,5.4266E0,8.948529E-3,-1.1038961E-1,4.8213033E-3,1.5607846E-2,2.2292066E-2,-7.3382864E-3,-3.8035345E-4,-4.292692E-3,-1.9067655E-3,-5.900958E-3,1.0669429E-3,7.875268E-3,1.2504542E-3,-0E0,2.8389152E-3,9.413791E-4,-2.7781154E-3,-0E0,6.181608E-3,6.1315536E-3,1.2676443E-2],"split_indices":[14,1,8,1,14,8,3,0,2,21,15,2,14,12,0,5,0,24,0,42,36,27,32,44,14,0,24,0,0,0,0,26,14,41,32,8,34,0,0,20,0,38,0,0,0,0,0,0,0,0,0,0,0,0,0,0,0,0,0,0,0],"split_type":[0,0,0,0,0,0,0,0,0,0,0,0,0,0,0,0,0,0,0,0,0,0,0,0,0,0,0,0,0,0,0,0,0,0,0,0,0,0,0,0,0,0,0,0,0,0,0,0,0,0,0,0,0,0,0,0,0,0,0,0,0],"sum_hessian":[8.63E2,4.32E2,4.31E2,2.11E2,2.21E2,1.95E2,2.36E2,7.6E1,1.35E2,5.2E1,1.69E2,5.9E1,1.36E2,2.22E2,1.4E1,9.7E1,3.8E1,4.7E1,5E0,1.44E2,2.5E1,4.3E1,1.6E1,5.4E1,8.2E1,8E0,2.14E2,9.2E1,5E0,5E0,4.2E1,5.6E1,8.8E1,1.2E1,1.3E1,3.1E1,1.2E1,7E0,9E0,2.7E1,2.7E1,7.6E1,6E0,3.5E1,1.79E2,4.7E1,9E0,5.6E1,3.2E1,6E0,6E0,6E0,7E0,5E0,2.6E1,5E0,7E0,5E0,2.2E1,8E0,6.8E1],"tree_param":{"num_deleted":"0","num_feature":"45","num_nodes":"61","size_leaf_vector":"1"}},{"base_weights":[-2.004516E-3,-2.7675992E-1,2.8394628E-1,-4.6510944E-1,-1.2030804E-1,1.5155394E-1,4.1098267E-1,-2.8825969E-2,-3.9921525E-1,-1.907632E-1,-5.5162873E-2,8.164311E-2,2.172328E-1,3.734874E-1,2.8156653E-2,-2.0587059E-2,-1.3369854E-2,-2.4885269E-1,-1.4445542E-1,-6.9223754E-2,1.702381E-2,4.475452E-2,1.3440777E-1,2.2588626E-1,2.22922E-3,7.3482655E-3,3.812255E-1,-2.6376916E-3,-1.3362347E-2,-1.6157618E-1,-6.538229E-2,-8.062312E-3,-8.147833E-2,-5.7970225E-3,4.585436E-3,-3.5622786E-4,5.5005167E-2,1.1062775E-2,1.1100938E-1,5.110706E-3,1.157257E-2,1.4210264E-2,3.9653605E-1,-4.1306606E-3,-8.968278E-3,-6.2116357E-3,1.3466072E-3,5.282918E-4,-1.7524216E-3,-7.460993E-3,-3.1274126E-3,-1.7582866E-3,1.1350353E-3,3.0887253E-3,-0E0,6.534401E-3,-0E0,2.0310601E-2,1.2930212E-2],"categories":[],"categories_nodes":[],"categories_segments":[],"categories_sizes":[],"default_left":[0,0,0,0,0,0,0,0,0,0,0,0,0,0,0,0,0,0,0,0,0,0,0,0,0,0,0,0,0,0,0,0,0,0,0,0,0,0,0,0,0,0,0,0,0,0,0,0,0,0,0,0,0,0,0,0,0,0,0],"id":18,"left_children":[1,3,5,7,9,11,13,-1,15,17,19,21,23,25,-1,-1,-1,27,29,31,33,35,37,39,-1,-1,41,-1,-1,43,45,47,49,51,-1,-1,53,-1,55,-1,-1,-1,57,-1,-1,-1,-1,-1,-1,-1,-1,-1,-1,-1,-1,-1,-1,-1,-1],"loss_changes":[6.945211E1,1.3175407E1,7.163933E0,1.1698875E0,1.1031582E0,9.349923E-1,9.510956E-1,0E0,3.9937973E-2,2.421403E-1,1.3936451E-1,1.8238825E-1,1.2572908E-1,2.0666695E-1,0E0,0E0,0E0,1.3425612E-1,6.0151577E-2,7.358438E-2,4.4914618E-2,3.9746568E-2,2.7560174E-2,1.3865948E-2,0E0,0E0,7.6208115E-2,0E0,0E0,3.6242843E-2,9.4567075E-2,1.33753065E-2,8.618379E-2,1.5435852E-2,0E0,0E0,1.7556563E-2,0E0,8.582914E-2,0E0,0E0,0E0,2.3326874E-2,0E0,0E0,0E0,0E0,0E0,0E0,0E0,0E0,0E0,0E0,0E0,0E0,0E0,0E0,0E0,0E0],"parents":[2147483647,0,0,1,1,2,2,3,3,4,4,5,5,6,6,8,8,9,9,10,10,11,11,12,12,13,13,17,17,18,18,19,19,20,20,21,21,22,22,23,23,26,26,29,29,30,30,31,31,32,32,33,33,36,36,38,38,42,42],"right_children":[2,4,6,8,10,12,14,-1,16,18,20,22,24,26,-1,-1,-1,28,30,32,34,36,38,40,-1,-1,42,-1,-1,44,46,48,50,52,-1,-1,54,-1,56,-1,-1,-1,58,-1,-1,-1,-1,-1,-1,-1,-1,-1,-1,-1,-1,-1,-1,-1,-1],"split_conditions":[5.024E0,4.2E0,5.66E0,3.68E0,4.7E0,5.36E0,6.168E0,-2.8825969E-2,1.718005E-1,4.48E0,1.0433191E0,5.21E0,5.668E0,5.5E0,2.8156653E-2,-2.0587059E-2,-1.3369854E-2,4.0052E0,9.973707E-1,9.548348E-1,2.6452975E0,1.8518518E0,8E0,4.466E2,2.22922E-3,7.3482655E-3,9.708394E-1,-2.6376916E-3,-1.3362347E-2,-4.2116746E-2,4.58E0,4.947562E0,6E0,4.58E0,4.585436E-3,-3.5622786E-4,2.7819425E-2,1.1062775E-2,5.2270646E0,5.110706E-3,1.157257E-2,1.4210264E-2,1.41082E4,-4.1306606E-3,-8.968278E-3,-6.2116357E-3,1.3466072E-3,5.282918E-4,-1.7524216E-3,-7.460993E-3,-3.1274126E-3,-1.7582866E-3,1.1350353E-3,3.0887253E-3,-0E0,6.534401E-3,-0E0,2.0310601E-2,1.2930212E-2],"split_indices":[14,0,0,14,0,9,14,0,32,10,17,0,14,12,0,0,0,20,17,21,36,29,42,35,0,0,21,0,0,26,1,22,42,13,0,0,27,0,31,0,0,0,35,0,0,0,0,0,0,0,0,0,0,0,0,0,0,0,0],"split_type":[0,0,0,0,0,0,0,0,0,0,0,0,0,0,0,0,0,0,0,0,0,0,0,0,0,0,0,0,0,0,0,0,0,0,0,0,0,0,0,0,0,0,0,0,0,0,0,0,0,0,0,0,0,0,0,0,0,0,0],"sum_hessian":[8.82E2,4.5E2,4.32E2,2.03E2,2.47E2,2.13E2,2.19E2,7.2E1,1.31E2,1.17E2,1.3E2,1.05E2,1.08E2,1.79E2,4E1,1.17E2,1.4E1,4.9E1,6.8E1,1.1E2,2E1,6.4E1,4.1E1,1.02E2,6E0,7E0,1.72E2,5E0,4.4E1,5.4E1,1.4E1,2E1,9E1,1.5E1,5E0,9E0,5.5E1,6E0,3.5E1,6E0,9.6E1,2.7E1,1.45E2,1.2E1,4.2E1,9E0,5E0,1E1,1E1,1.7E1,7.3E1,9E0,6E0,4.8E1,7E0,3E1,5E0,1.33E2,1.2E1],"tree_param":{"num_deleted":"0","num_feature":"45","num_nodes":"59","size_leaf_vector":"1"}},{"base_weights":[-6.324151E-3,-2.7473423E-1,2.7062687E-1,-4.445519E-1,-1.2073234E-1,1.3771926E-1,3.900732E-1,-3.0837644E-2,-4.023403E-1,-2.433386E-1,-8.7246105E-2,4.196565E-2,1.8116225E-1,3.481633E-1,2.6573032E-2,-4.530183E-1,-3.3857837E-1,-3.077693E-3,-1.3016214E-2,-1.329968E-1,-5.952935E-2,-1.2837943E-3,6.9091134E-2,1.4594875E-1,2.1913534E-1,1.214585E-2,3.6482152E-1,-2.3647768E-2,-1.4389435E-2,-1.7389294E-2,-8.863634E-3,-1.4663209E-1,-0E0,4.0825526E-3,-6.697206E-2,-3.10924E-3,3.0609572E-2,5.904453E-3,4.6964E-2,2.5786157E-3,1.5322107E-1,7.2777322E-3,2.4052507E-1,7.3751244E-3,1.853042E-2,-7.956929E-3,-3.977928E-3,-7.5982575E-4,2.128052E-3,3.6090327E-4,-3.7399817E-3,2.9440213E-3,-0E0,-0E0,2.8936472E-3,5.9101353E-3,8.701489E-3,1.3025935E-2,7.115847E-3],"categories":[],"categories_nodes":[],"categories_segments":[],"categories_sizes":[],"default_left":[0,0,0,0,0,0,0,0,0,0,0,0,0,0,0,0,0,0,0,0,0,0,0,0,0,0,0,0,0,0,0,0,0,0,0,0,0,0,0,0,0,0,0,0,0,0,0,0,0,0,0,0,0,0,0,0,0,0,0],"id":19,"left_children":[1,3,5,7,9,11,13,-1,15,17,19,21,23,25,-1,27,29,-1,-1,31,33,35,37,39,41,-1,43,-1,-1,-1,-1,45,-1,47,49,-1,51,-1,53,-1,55,-1,57,-1,-1,-1,-1,-1,-1,-1,-1,-1,-1,-1,-1,-1,-1,-1,-1],"loss_changes":[6.48218E1,1.1475246E1,6.7040176E0,1.1764069E0,9.064264E-1,8.228483E-1,1.0602493E0,0E0,3.232441E-1,1.0308719E-1,2.0868957E-1,8.429813E-2,1.18712425E-1,1.6092491E-1,0E0,9.088135E-2,6.1445236E-3,0E0,0E0,1.3026595E-1,6.290236E-2,5.3619426E-2,2.3484468E-2,2.4466634E-2,2.71101E-2,0E0,8.216286E-2,0E0,0E0,0E0,0E0,1.5478373E-2,0E0,1.2285182E-2,7.001671E-2,0E0,1.6211007E-2,0E0,1.9850738E-2,0E0,1.2140274E-3,0E0,1.4926672E-2,0E0,0E0,0E0,0E0,0E0,0E0,0E0,0E0,0E0,0E0,0E0,0E0,0E0,0E0,0E0,0E0],"parents":[2147483647,0,0,1,1,2,2,3,3,4,4,5,5,6,6,8,8,9,9,10,10,11,11,12,12,13,13,15,15,16,16,19,19,20,20,21,21,22,22,23,23,24,24,26,26,31,31,33,33,34,34,36,36,38,38,40,40,42,42],"right_children":[2,4,6,8,10,12,14,-1,16,18,20,22,24,26,-1,28,30,-1,-1,32,34,36,38,40,42,-1,44,-1,-1,-1,-1,46,-1,48,50,-1,52,-1,54,-1,56,-1,58,-1,-1,-1,-1,-1,-1,-1,-1,-1,-1,-1,-1,-1,-1,-1,-1],"split_conditions":[4.96E0,4.2E0,5.64E0,3.54E0,4.48E0,5.21E0,6.13E0,-3.0837644E-2,3.96E0,4.0258E0,4.68E0,1.5739746E-2,5.49E0,-5.407229E-2,2.6573032E-2,8.285624E3,1.3559766E4,-3.077693E-3,-1.3016214E-2,1.6129032E-2,9.6337765E-1,4.84E0,5.01E0,1.5248E2,4.8E2,1.214585E-2,5.3265E0,-2.3647768E-2,-1.4389435E-2,-1.7389294E-2,-8.863634E-3,4.69E0,-0E0,9.360314E-1,4.51E0,-3.10924E-3,2.5E1,5.904453E-3,4.907E0,2.5786157E-3,5.36E0,7.2777322E-3,1.8547446E-1,7.3751244E-3,1.853042E-2,-7.956929E-3,-3.977928E-3,-7.5982575E-4,2.128052E-3,3.6090327E-4,-3.7399817E-3,2.9440213E-3,-0E0,-0E0,2.8936472E-3,5.9101353E-3,8.701489E-3,1.3025935E-2,7.115847E-3],"split_indices":[0,0,0,0,10,8,0,0,0,20,0,28,2,25,0,44,44,0,0,6,19,3,8,44,34,0,18,0,0,0,0,9,0,21,11,0,29,0,16,0,0,0,25,0,0,0,0,0,0,0,0,0,0,0,0,0,0,0,0],"split_type":[0,0,0,0,0,0,0,0,0,0,0,0,0,0,0,0,0,0,0,0,0,0,0,0,0,0,0,0,0,0,0,0,0,0,0,0,0,0,0,0,0,0,0,0,0,0,0,0,0,0,0,0,0,0,0,0,0,0,0],"sum_hessian":[8.7E2,4.42E2,4.28E2,2.09E2,2.33E2,2.04E2,2.24E2,3.8E1,1.71E2,4.8E1,1.85E2,6.5E1,1.39E2,1.76E2,4.8E1,9.1E1,8E1,5E0,4.3E1,6.7E1,1.18E2,2.4E1,4.1E1,7.6E1,6.3E1,2.7E1,1.49E2,7.9E1,1.2E1,7.4E1,6E0,6.1E1,6E0,1.1E1,1.07E2,9E0,1.5E1,1E1,3.1E1,7E0,6.9E1,1.7E1,4.6E1,5E0,1.44E2,4.9E1,1.2E1,6E0,5E0,9E0,9.8E1,8E0,7E0,5E0,2.6E1,3E1,3.9E1,3.6E1,1E1],"tree_param":{"num_deleted":"0","num_feature":"45","num_nodes":"59","size_leaf_vector":"1"}},{"base_weights":[-1.965946E-3,-2.5781038E-1,2.5884372E-1,-4.0653E-1,-1.0350984E-1,1.3733914E-1,3.6396655E-1,-5.224592E-1,-3.380931E-1,-1.5597966E-1,-5.913112E-2,5.2372962E-2,1.8120085E-1,3.4614518E-1,3.079839E-2,-2.7812442E-2,-1.9572472E-2,-1.8652951E-2,-2.9120374E-1,-1.776204E-1,-1.00641206E-1,8.662122E-3,-6.8747185E-2,2.9440837E-2,8.4605284E-2,6.401657E-2,1.9437231E-1,2.776675E-1,1.9114612E-2,-4.2677354E-3,-1.5219475E-2,-1.2045826E-2,-1.4735484E-1,-1.515654E-1,1.2654737E-3,2.8467306E-3,-2.017712E-3,-7.583062E-2,2.5002074E-3,3.833739E-2,-1.4124438E-5,4.5442637E-2,1.13379166E-1,6.312909E-3,-0E0,1.6625655E-1,2.3593989E-1,2.85223E-1,7.084185E-3,-2.9275084E-3,-7.893972E-3,-8.575774E-3,-2.6556326E-3,-2.8440077E-4,1.2337359E-3,-2.816042E-3,-6.078467E-3,-0E0,2.2578523E-3,3.2142844E-4,2.981331E-3,7.4169985E-3,2.1470608E-3,6.1948025E-3,9.570206E-3,6.0217376E-3,1.2747814E-2,1.0091586E-2,1.5206761E-2],"categories":[],"categories_nodes":[],"categories_segments":[],"categories_sizes":[],"default_left":[0,0,0,0,0,0,0,0,0,0,0,0,0,0,0,0,0,0,0,0,0,0,0,0,0,0,0,0,0,0,0,0,0,0,0,0,0,0,0,0,0,0,0,0,0,0,0,0,0,0,0,0,0,0,0,0,0,0,0,0,0,0,0,0,0,0,0,0,0],"id":20,"left_children":[1,3,5,7,9,11,13,15,17,19,21,23,25,27,-1,-1,-1,-1,29,31,33,35,37,39,41,43,45,47,-1,-1,-1,-1,49,51,53,-1,-1,55,-1,57,-1,59,61,-1,-1,63,65,67,-1,-1,-1,-1,-1,-1,-1,-1,-1,-1,-1,-1,-1,-1,-1,-1,-1,-1,-1,-1,-1],"loss_changes":[5.9853752E1,1.0302141E1,5.5710526E0,1.562088E0,4.908595E-1,7.4231863E-1,7.5494194E-1,5.4908752E-2,6.7588806E-2,7.5252056E-2,8.744022E-2,4.0062904E-2,1.7163277E-1,3.8231468E-1,0E0,0E0,0E0,0E0,1.2232971E-1,5.977106E-2,1.812863E-1,3.9447717E-2,9.890288E-2,1.598034E-2,1.0517687E-2,6.1959073E-2,6.1966896E-2,1.1467934E-3,0E0,0E0,0E0,0E0,1.6779423E-2,1.1638582E-2,3.8295556E-3,0E0,0E0,6.90611E-2,0E0,7.3632076E-3,0E0,1.3117883E-3,8.977935E-3,0E0,0E0,2.6781082E-2,3.0597448E-2,7.879734E-3,0E0,0E0,0E0,0E0,0E0,0E0,0E0,0E0,0E0,0E0,0E0,0E0,0E0,0E0,0E0,0E0,0E0,0E0,0E0,0E0,0E0],"parents":[2147483647,0,0,1,1,2,2,3,3,4,4,5,5,6,6,7,7,8,8,9,9,10,10,11,11,12,12,13,13,18,18,19,19,20,20,21,21,22,22,23,23,24,24,25,25,26,26,27,27,32,32,33,33,34,34,37,37,39,39,41,41,42,42,45,45,46,46,47,47],"right_children":[2,4,6,8,10,12,14,16,18,20,22,24,26,28,-1,-1,-1,-1,30,32,34,36,38,40,42,44,46,48,-1,-1,-1,-1,50,52,54,-1,-1,56,-1,58,-1,60,62,-1,-1,64,66,68,-1,-1,-1,-1,-1,-1,-1,-1,-1,-1,-1,-1,-1,-1,-1,-1,-1,-1,-1,-1,-1],"split_conditions":[4.98E0,4.26E0,5.64E0,4.026704E0,4.7E0,5.21E0,6.32E0,2.8735632E-2,4.03E0,9.960861E-1,4.69E0,5.13E0,1.092826E3,5.87E0,3.079839E-2,-2.7812442E-2,-1.9572472E-2,-1.8652951E-2,3.89E0,4.525E0,4.19E0,5.9183674E1,5.24E0,2.5013503E-2,1.0239498E-1,5.2270646E0,5.52E0,1.6108121E-1,1.9114612E-2,-4.2677354E-3,-1.5219475E-2,-1.2045826E-2,9.063173E-1,1.8518519E-2,4.2443466E0,2.8467306E-3,-2.017712E-3,1.0172566E0,2.5002074E-3,1.8518518E0,-1.4124438E-5,5.16E0,2.9E3,6.312909E-3,-0E0,1.0469825E-2,3.2692307E1,7.0853685E-3,7.084185E-3,-2.9275084E-3,-7.893972E-3,-8.575774E-3,-2.6556326E-3,-2.8440077E-4,1.2337359E-3,-2.816042E-3,-6.078467E-3,-0E0,2.2578523E-3,3.2142844E-4,2.981331E-3,7.4169985E-3,2.1470608E-3,6.1948025E-3,9.570206E-3,6.0217376E-3,1.2747814E-2,1.0091586E-2,1.5206761E-2],"split_indices":[0,1,0,30,0,0,2,7,0,19,9,0,44,0,0,0,0,0,13,16,13,29,13,27,32,31,0,32,0,0,0,0,21,5,31,0,0,21,0,29,0,2,4,0,0,27,29,27,0,0,0,0,0,0,0,0,0,0,0,0,0,0,0,0,0,0,0,0,0],"split_type":[0,0,0,0,0,0,0,0,0,0,0,0,0,0,0,0,0,0,0,0,0,0,0,0,0,0,0,0,0,0,0,0,0,0,0,0,0,0,0,0,0,0,0,0,0,0,0,0,0,0,0,0,0,0,0,0,0,0,0,0,0,0,0,0,0,0,0,0,0],"sum_hessian":[8.95E2,4.52E2,4.43E2,2.29E2,2.23E2,2.07E2,2.36E2,8.2E1,1.47E2,1E2,1.23E2,7.2E1,1.35E2,2.23E2,1.3E1,6.2E1,2E1,7.9E1,6.8E1,6.9E1,3.1E1,1.4E1,1.09E2,4.5E1,2.7E1,1.5E1,1.2E2,8.1E1,1.42E2,5E0,6.3E1,1.9E1,5E1,2.1E1,1E1,8E0,6E0,1.04E2,5E0,3.7E1,8E0,1.4E1,1.3E1,7E0,8E0,7.6E1,4.4E1,7.5E1,6E0,7E0,4.3E1,1.6E1,5E0,5E0,5E0,7.6E1,2.8E1,7E0,3E1,6E0,8E0,7E0,6E0,3.2E1,4.4E1,8E0,3.6E1,1.7E1,5.8E1],"tree_param":{"num_deleted":"0","num_feature":"45","num_nodes":"69","size_leaf_vector":"1"}},{"base_weights":[9.201887E-3,-2.4584587E-1,2.4615012E-1,-3.853713E-1,-8.949578E-2,1.2572528E-1,3.527611E-1,-4.942256E-1,-3.1879595E-1,-1.5687107E-1,-5.8743916E-2,3.6487434E-2,1.744686E-1,3.0206245E-1,4.3904757E-1,-2.8311847E-2,-2.1533096E-2,-3.30953E-1,-1.0167022E-2,-1.8187177E-1,-7.411207E-2,-7.8013375E-2,-1.972784E-2,1.0810558E-2,7.267064E-2,1.2699921E-1,2.0527625E-1,2.6467374E-1,1.7603017E-2,4.0828767E-1,3.3963293E-2,-3.744325E-1,-1.4178951E-2,-1.9315186E-1,-2.890622E-3,-6.455821E-3,-0E0,-5.4890323E-2,-1.380384E-1,-4.7458064E-2,2.2750849E-2,3.7313543E-2,-3.9933942E-2,2.382512E-2,9.334442E-2,9.596659E-2,8.352587E-3,1.2557836E-1,1.0851127E-2,1.7606552E-1,2.818021E-1,1.5086131E-2,2.1970438E-2,-1.9394403E-2,-9.950605E-3,-4.956558E-3,-1.0332613E-2,-3.8016771E-3,-6.1694917E-4,-3.437588E-3,-8.773758E-3,-1.1009081E-3,-3.4077705E-3,-5.3792755E-4,4.1335546E-3,2.313061E-3,-0E0,-6.0339803E-3,-0E0,2.471133E-3,-0E0,5.361393E-3,1.3205878E-3,5.267405E-3,6.6354196E-4,7.7531943E-3,2.1876844E-3,3.286947E-3,1.0711816E-2,6.5706125E-3,1.4676759E-2],"categories":[],"categories_nodes":[],"categories_segments":[],"categories_sizes":[],"default_left":[0,0,0,0,0,0,0,0,0,0,0,0,0,0,0,0,0,0,0,0,0,0,0,0,0,0,0,0,0,0,0,0,0,0,0,0,0,0,0,0,0,0,0,0,0,0,0,0,0,0,0,0,0,0,0,0,0,0,0,0,0,0,0,0,0,0,0,0,0,0,0,0,0,0,0,0,0,0,0,0,0],"id":21,"left_children":[1,3,5,7,9,11,13,15,17,19,21,23,25,27,29,-1,-1,31,-1,33,35,37,39,41,43,45,47,49,-1,51,-1,53,-1,55,-1,-1,-1,57,59,61,63,65,67,69,71,73,-1,75,-1,77,79,-1,-1,-1,-1,-1,-1,-1,-1,-1,-1,-1,-1,-1,-1,-1,-1,-1,-1,-1,-1,-1,-1,-1,-1,-1,-1,-1,-1,-1,-1],"loss_changes":[5.360429E1,9.23295E0,5.8135605E0,1.3917198E0,3.8982224E-1,9.207845E-1,8.5629654E-1,3.6369324E-2,7.998943E-2,8.920276E-2,9.544513E-2,6.4262934E-2,1.4544106E-1,1.3863468E-1,2.5676155E-1,0E0,0E0,8.961201E-2,0E0,2.8109431E-2,5.6665257E-2,1.0221058E-1,6.2447615E-2,6.71272E-2,1.7363578E-2,3.0999899E-2,1.525116E-2,4.878044E-2,0E0,5.8621407E-2,0E0,1.0458946E-2,0E0,9.781122E-4,0E0,0E0,0E0,5.320163E-2,2.5765896E-2,6.331213E-3,4.6230614E-2,1.0444488E-2,6.1865874E-2,1.0286557E-2,2.3890585E-3,1.5445054E-2,0E0,7.1106255E-3,0E0,3.7932694E-2,5.480051E-2,0E0,0E0,0E0,0E0,0E0,0E0,0E0,0E0,0E0,0E0,0E0,0E0,0E0,0E0,0E0,0E0,0E0,0E0,0E0,0E0,0E0,0E0,0E0,0E0,0E0,0E0,0E0,0E0,0E0,0E0],"parents":[2147483647,0,0,1,1,2,2,3,3,4,4,5,5,6,6,7,7,8,8,9,9,10,10,11,11,12,12,13,13,14,14,17,17,19,19,20,20,21,21,22,22,23,23,24,24,25,25,26,26,27,27,29,29,31,31,33,33,37,37,38,38,39,39,40,40,41,41,42,42,43,43,44,44,45,45,47,47,49,49,50,50],"right_children":[2,4,6,8,10,12,14,16,18,20,22,24,26,28,30,-1,-1,32,-1,34,36,38,40,42,44,46,48,50,-1,52,-1,54,-1,56,-1,-1,-1,58,60,62,64,66,68,70,72,74,-1,76,-1,78,80,-1,-1,-1,-1,-1,-1,-1,-1,-1,-1,-1,-1,-1,-1,-1,-1,-1,-1,-1,-1,-1,-1,-1,-1,-1,-1,-1,-1,-1,-1],"split_conditions":[4.96E0,4.26E0,5.64E0,4.04317E0,4.6E0,5.21E0,6.03E0,3.54E0,1.7090422E-1,7.370199E-2,4.85E0,2.065463E-1,5.47E0,5.931E0,1.0552121E0,-2.8311847E-2,-2.1533096E-2,4.024E0,-1.0167022E-2,4.8332E0,1.6666667E-3,3.4292385E-2,6.968379E-1,1.9813558E-2,-1.9646366E-3,5.7024446E0,2.477524E3,7.0853685E-3,1.7603017E-2,6.01E0,3.3963293E-2,8.477676E3,-1.4178951E-2,-1.1251403E-1,-2.890622E-3,-6.455821E-3,-0E0,1.7224895E-2,4.684E0,2.1107074E-2,9.536368E-2,5.9759684E-2,-2.4994407E-2,2.177E3,3E0,5.6443286E0,8.352587E-3,2.01E2,1.0851127E-2,5.8752E0,5.5265E0,1.5086131E-2,2.1970438E-2,-1.9394403E-2,-9.950605E-3,-4.956558E-3,-1.0332613E-2,-3.8016771E-3,-6.1694917E-4,-3.437588E-3,-8.773758E-3,-1.1009081E-3,-3.4077705E-3,-5.3792755E-4,4.1335546E-3,2.313061E-3,-0E0,-6.0339803E-3,-0E0,2.471133E-3,-0E0,5.361393E-3,1.3205878E-3,5.267405E-3,6.6354196E-4,7.7531943E-3,2.1876844E-3,3.286947E-3,1.0711816E-2,6.5706125E-3,1.4676759E-2],"split_indices":[0,0,0,30,14,0,0,1,32,25,2,36,0,16,17,0,0,14,0,20,6,25,36,27,5,30,44,27,0,12,0,44,0,25,0,0,0,28,16,27,32,25,25,4,41,30,0,4,0,20,18,0,0,0,0,0,0,0,0,0,0,0,0,0,0,0,0,0,0,0,0,0,0,0,0,0,0,0,0,0,0],"split_type":[0,0,0,0,0,0,0,0,0,0,0,0,0,0,0,0,0,0,0,0,0,0,0,0,0,0,0,0,0,0,0,0,0,0,0,0,0,0,0,0,0,0,0,0,0,0,0,0,0,0,0,0,0,0,0,0,0,0,0,0,0,0,0,0,0,0,0,0,0,0,0,0,0,0,0,0,0,0,0,0,0],"sum_hessian":[8.85E2,4.26E2,4.59E2,2.24E2,2.02E2,2.17E2,2.42E2,8.2E1,1.42E2,6.1E1,1.41E2,7.8E1,1.39E2,1.56E2,8.6E1,3.4E1,4.8E1,1.26E2,1.6E1,4.5E1,1.6E1,9.2E1,4.9E1,4.8E1,3E1,5.8E1,8.1E1,9.4E1,6.2E1,7.9E1,7E0,6.1E1,6.5E1,4E1,5E0,8E0,8E0,6.9E1,2.3E1,3.1E1,1.8E1,3.3E1,1.5E1,1.1E1,1.9E1,3.6E1,2.2E1,1.3E1,6.8E1,1.8E1,7.6E1,2.1E1,5.8E1,5.5E1,6E0,7E0,3.3E1,4.4E1,2.5E1,1E1,1.3E1,1.7E1,1.4E1,1.1E1,7E0,2.6E1,7E0,5E0,1E1,6E0,5E0,1.4E1,5E0,3.1E1,5E0,8E0,5E0,6E0,1.2E1,7E0,6.9E1],"tree_param":{"num_deleted":"0","num_feature":"45","num_nodes":"81","size_leaf_vector":"1"}},{"base_weights":[1.1266021E-3,-2.4539559E-1,2.1892418E-1,-3.759583E-1,-1.163252E-1,9.610933E-2,3.2874867E-1,-4.4295886E-1,-1.4450102E-2,-1.6842654E-1,-5.1391393E-2,2.6424369E-2,1.5468355E-1,3.122431E-1,3.053759E-2,-2.5666703E-2,-1.9648861E-2,-2.1780881E-1,-1.3916875E-1,-3.3046019E-3,-6.1421096E-2,4.1014254E-2,-1.1918435E-2,7.388389E-2,1.6565326E-1,2.5462356E-1,3.663088E-1,-1.1779188E-2,-4.4305692E-3,-1.7330906E-1,-8.996107E-2,-1.0460578E-3,1.0842396E-3,-7.2242774E-2,-1.1934824E-3,-5.5229934E-3,5.229215E-2,-3.4932182E-3,1.5380324E-2,5.198698E-3,7.267916E-4,5.6224144E-3,9.09872E-3,1.0845625E-1,2.6795104E-1,1.6394444E-2,2.1190662E-2,-9.53355E-3,-4.8977695E-3,-0E0,-5.6261173E-3,-3.8455569E-3,-0E0,1.4872266E-3,-1.6398663E-3,7.2043895E-4,-1.7386461E-3,3.4136977E-3,-6.8900925E-5,-1.710459E-3,2.9569059E-3,7.0898393E-3,1.7408126E-3,1.3796811E-2,6.206926E-3],"categories":[],"categories_nodes":[],"categories_segments":[],"categories_sizes":[],"default_left":[0,0,0,0,0,0,0,0,0,0,0,0,0,0,0,0,0,0,0,0,0,0,0,0,0,0,0,0,0,0,0,0,0,0,0,0,0,0,0,0,0,0,0,0,0,0,0,0,0,0,0,0,0,0,0,0,0,0,0,0,0,0,0,0,0],"id":22,"left_children":[1,3,5,7,9,11,13,15,-1,17,19,21,23,25,-1,-1,-1,27,29,31,33,35,37,39,41,43,45,-1,-1,47,49,-1,-1,51,53,55,57,-1,59,-1,-1,-1,-1,61,63,-1,-1,-1,-1,-1,-1,-1,-1,-1,-1,-1,-1,-1,-1,-1,-1,-1,-1,-1,-1],"loss_changes":[4.64946E1,6.7488613E0,6.130434E0,9.698391E-1,6.662891E-1,8.7170315E-1,8.434162E-1,9.807968E-2,0E0,9.725428E-2,3.8660318E-2,6.045895E-2,6.839633E-2,5.6425476E-1,0E0,0E0,0E0,3.6267877E-2,8.4079385E-2,8.741619E-3,4.2104185E-2,4.4853732E-2,4.923294E-2,1.6996041E-2,3.8668394E-2,1.5927076E-1,4.2147636E-2,0E0,0E0,7.408023E-3,7.935402E-2,0E0,0E0,1.4290571E-2,1.49694625E-2,1.069949E-2,6.0821682E-2,0E0,4.3574646E-2,0E0,0E0,0E0,0E0,6.864235E-3,4.63171E-2,0E0,0E0,0E0,0E0,0E0,0E0,0E0,0E0,0E0,0E0,0E0,0E0,0E0,0E0,0E0,0E0,0E0,0E0,0E0,0E0],"parents":[2147483647,0,0,1,1,2,2,3,3,4,4,5,5,6,6,7,7,9,9,10,10,11,11,12,12,13,13,17,17,18,18,19,19,20,20,21,21,22,22,23,23,24,24,25,25,26,26,29,29,30,30,33,33,34,34,35,35,36,36,38,38,43,43,44,44],"right_children":[2,4,6,8,10,12,14,16,-1,18,20,22,24,26,-1,-1,-1,28,30,32,34,36,38,40,42,44,46,-1,-1,48,50,-1,-1,52,54,56,58,-1,60,-1,-1,-1,-1,62,64,-1,-1,-1,-1,-1,-1,-1,-1,-1,-1,-1,-1,-1,-1,-1,-1,-1,-1,-1,-1],"split_conditions":[4.88E0,4.22E0,5.59E0,3.94E0,4.7E0,5.24E0,8.571429E1,3.56E0,-1.4450102E-2,4.48E0,8.72E1,2.5013503E-2,7.394E2,5.952E0,3.053759E-2,-2.5666703E-2,-1.9648861E-2,1.0351737E0,6.05228E3,5.1991396E0,4.88E0,4.496E2,1.0239498E-1,-6.949297E-2,5.36E0,9.36E1,6.13E0,-1.1779188E-2,-4.4305692E-3,-5.7498817E-3,4.335855E3,-1.0460578E-3,1.0842396E-3,4.4083696E-2,4.81E0,4.980051E0,1.65595E3,-3.4932182E-3,4.51E0,5.198698E-3,7.267916E-4,5.6224144E-3,9.09872E-3,5.78E0,1.5038969E-1,1.6394444E-2,2.1190662E-2,-9.53355E-3,-4.8977695E-3,-0E0,-5.6261173E-3,-3.8455569E-3,-0E0,1.4872266E-3,-1.6398663E-3,7.2043895E-4,-1.7386461E-3,3.4136977E-3,-6.8900925E-5,-1.710459E-3,2.9569059E-3,7.0898393E-3,1.7408126E-3,1.3796811E-2,6.206926E-3],"split_indices":[0,0,8,0,0,0,29,1,0,10,34,27,35,16,0,0,0,15,43,30,10,35,32,24,0,34,8,0,0,26,44,0,0,26,0,23,35,0,12,0,0,0,0,14,24,0,0,0,0,0,0,0,0,0,0,0,0,0,0,0,0,0,0,0,0],"split_type":[0,0,0,0,0,0,0,0,0,0,0,0,0,0,0,0,0,0,0,0,0,0,0,0,0,0,0,0,0,0,0,0,0,0,0,0,0,0,0,0,0,0,0,0,0,0,0,0,0,0,0,0,0,0,0,0,0,0,0,0,0,0,0,0,0],"sum_hessian":[8.64E2,4.05E2,4.59E2,2E2,2.05E2,2.18E2,2.41E2,1.1E2,9E1,1.12E2,9.3E1,1.01E2,1.17E2,2.3E2,1.1E1,4.1E1,6.9E1,3.8E1,7.4E1,1.8E1,7.5E1,7.5E1,2.6E1,1.6E1,1.01E2,1.15E2,1.15E2,3.2E1,6E0,4.1E1,3.3E1,1.3E1,5E0,6.2E1,1.3E1,1.3E1,6.2E1,9E0,1.7E1,9E0,7E0,2.7E1,7.4E1,1.1E1,1.04E2,7.4E1,4.1E1,3.1E1,1E1,6E0,2.7E1,5.7E1,5E0,5E0,8E0,6E0,7E0,4.9E1,1.3E1,7E0,1E1,6E0,5E0,9.7E1,7E0],"tree_param":{"num_deleted":"0","num_feature":"45","num_nodes":"65","size_leaf_vector":"1"}},{"base_weights":[-0E0,-2.2591354E-1,2.15495E-1,-3.483812E-1,-9.0813495E-2,1.07140064E-1,3.1523997E-1,-4.4857106E-1,-2.8655693E-1,-1.2988073E-1,-5.389876E-2,1.34282615E-2,1.4438137E-1,2.9845873E-1,2.8751696E-2,-2.7138142E-2,-1.993059E-2,-2.6561403E-1,-1.8050535E-2,-1.642928E-1,-9.812315E-2,1.2328974E-3,-5.8780283E-2,-2.7715282E-3,2.5819508E-2,9.9291705E-2,1.7375273E-1,2.4779017E-1,1.6903047E-2,-7.506902E-3,-2.728539E-1,-8.060999E-2,-1.9264488E-1,-1.1054426E-1,-3.5033733E-2,-8.620706E-2,-3.6312778E-2,4.2144895E-2,-1.6034564E-2,5.889189E-2,1.1224287E-1,9.076816E-3,6.9840666E-4,2.0113643E-1,2.9401097E-1,-7.3835487E-3,-1.3950837E-2,-6.02827E-3,-4.572623E-4,-3.6968363E-3,-1.066746E-2,-6.001215E-3,-6.1266345E-4,1.9441227E-6,-4.338975E-3,-8.917287E-3,-3.386554E-3,-2.0291868E-3,-0E0,-0E0,2.426258E-3,-3.8637153E-3,1.7354751E-3,-0E0,3.5959927E-3,6.07535E-3,1.3830554E-3,1.0661735E-2,2.4055832E-3,7.0050196E-3,1.5495158E-2],"categories":[],"categories_nodes":[],"categories_segments":[],"categories_sizes":[],"default_left":[0,0,0,0,0,0,0,0,0,0,0,0,0,0,0,0,0,0,0,0,0,0,0,0,0,0,0,0,0,0,0,0,0,0,0,0,0,0,0,0,0,0,0,0,0,0,0,0,0,0,0,0,0,0,0,0,0,0,0,0,0,0,0,0,0,0,0,0,0,0,0],"id":23,"left_children":[1,3,5,7,9,11,13,15,17,19,21,23,25,27,-1,-1,-1,29,-1,31,33,-1,35,-1,37,39,41,43,-1,-1,45,47,49,51,53,55,57,59,61,63,65,-1,-1,67,69,-1,-1,-1,-1,-1,-1,-1,-1,-1,-1,-1,-1,-1,-1,-1,-1,-1,-1,-1,-1,-1,-1,-1,-1,-1,-1],"loss_changes":[4.366926E1,7.171322E0,4.884796E0,1.2164116E0,2.7747452E-1,7.570493E-1,7.786274E-1,8.950043E-2,6.754303E-2,6.692195E-2,4.7427475E-2,5.393112E-2,1.6468978E-1,3.1113434E-1,0E0,0E0,0E0,1.5386581E-2,0E0,6.391168E-2,2.545327E-2,0E0,4.9935967E-2,0E0,4.2233992E-2,1.0809183E-2,9.357762E-2,1.1561203E-1,0E0,0E0,2.2029877E-4,2.5901988E-2,3.4145594E-2,2.7232707E-2,3.045575E-2,3.991863E-2,1.0479912E-2,8.39261E-3,5.355194E-2,8.22188E-3,1.8550277E-2,0E0,0E0,6.728101E-2,3.1434536E-2,0E0,0E0,0E0,0E0,0E0,0E0,0E0,0E0,0E0,0E0,0E0,0E0,0E0,0E0,0E0,0E0,0E0,0E0,0E0,0E0,0E0,0E0,0E0,0E0,0E0,0E0],"parents":[2147483647,0,0,1,1,2,2,3,3,4,4,5,5,6,6,7,7,8,8,9,9,10,10,11,11,12,12,13,13,17,17,19,19,20,20,22,22,24,24,25,25,26,26,27,27,30,30,31,31,32,32,33,33,34,34,35,35,36,36,37,37,38,38,39,39,40,40,43,43,44,44],"right_children":[2,4,6,8,10,12,14,16,18,20,22,24,26,28,-1,-1,-1,30,-1,32,34,-1,36,-1,38,40,42,44,-1,-1,46,48,50,52,54,56,58,60,62,64,66,-1,-1,68,70,-1,-1,-1,-1,-1,-1,-1,-1,-1,-1,-1,-1,-1,-1,-1,-1,-1,-1,-1,-1,-1,-1,-1,-1,-1,-1],"split_conditions":[4.92E0,4.26E0,5.64E0,3.73E0,4.71E0,5.16E0,6.32E0,3.5E0,1E1,9.784508E-1,4.62E0,3.6055E2,5.44E0,5.939E0,2.8751696E-2,-2.7138142E-2,-1.993059E-2,3.9932E0,-1.8050535E-2,-4.2116746E-2,3.4031413E-2,1.2328974E-3,4.804134E0,-2.7715282E-3,2.4673853E-2,9.9784946E-1,5.71E0,1.0008186E0,1.6903047E-2,-7.506902E-3,3.82E0,3E2,-1.1938697E-1,2.275715E4,1.405E3,-1.7437363E-2,1.0002089E0,-8.8954695E-2,1.0347034E0,8E0,1.2E1,9.076816E-3,6.9840666E-4,5.111111E-2,5.5761313E0,-7.3835487E-3,-1.3950837E-2,-6.02827E-3,-4.572623E-4,-3.6968363E-3,-1.066746E-2,-6.001215E-3,-6.1266345E-4,1.9441227E-6,-4.338975E-3,-8.917287E-3,-3.386554E-3,-2.0291868E-3,-0E0,-0E0,2.426258E-3,-3.8637153E-3,1.7354751E-3,-0E0,3.5959927E-3,6.07535E-3,1.3830554E-3,1.0661735E-2,2.4055832E-3,7.0050196E-3,1.5495158E-2],"split_indices":[0,0,8,1,0,0,2,0,42,19,1,35,8,16,0,0,0,20,0,26,6,0,22,0,27,15,9,15,0,0,9,4,24,43,4,26,17,24,17,4,42,0,0,7,22,0,0,0,0,0,0,0,0,0,0,0,0,0,0,0,0,0,0,0,0,0,0,0,0,0,0],"split_type":[0,0,0,0,0,0,0,0,0,0,0,0,0,0,0,0,0,0,0,0,0,0,0,0,0,0,0,0,0,0,0,0,0,0,0,0,0,0,0,0,0,0,0,0,0,0,0,0,0,0,0,0,0,0,0,0,0,0,0,0,0,0,0,0,0,0,0,0,0,0,0],"sum_hessian":[8.95E2,4.37E2,4.58E2,2.28E2,2.09E2,2.21E2,2.37E2,8.4E1,1.44E2,9.9E1,1.1E2,6.4E1,1.57E2,2.25E2,1.2E1,2.5E1,5.9E1,1.17E2,2.7E1,4.4E1,5.5E1,5E0,1.05E2,8E0,5.6E1,6.5E1,9.2E1,1.03E2,1.22E2,9E0,1.08E2,1.3E1,3.1E1,4.4E1,1.1E1,4.4E1,6.1E1,4.2E1,1.4E1,1.9E1,4.6E1,8.7E1,5E0,5.5E1,4.8E1,7E0,1.01E2,7E0,6E0,6E0,2.5E1,3.9E1,5E0,6E0,5E0,5E0,3.9E1,5.5E1,6E0,7E0,3.5E1,7E0,7E0,5E0,1.4E1,4E1,6E0,5E1,5E0,6E0,4.2E1],"tree_param":{"num_deleted":"0","num_feature":"45","num_nodes":"71","size_leaf_vector":"1"}},{"base_weights":[8.2961516E-4,-2.1597946E-1,2.1102571E-1,-3.4763873E-1,-9.403373E-2,1.0248073E-1,3.049765E-1,-2.412009E-2,-3.1062242E-1,-1.4113311E-1,-4.6058603E-2,3.981617E-2,1.5194151E-1,2.5882143E-1,3.8329116E-1,-1.737577E-2,-2.668382E-1,-1.9299875E-1,-1.0824944E-1,-5.2029904E-2,1.9182062E-3,1.4541986E-2,7.565635E-2,1.0158886E-1,1.6734138E-1,6.692198E-3,2.6779935E-1,1.7617023E-2,2.9719636E-2,-5.084013E-3,-1.3752508E-2,-1.0279997E-2,-3.427922E-3,-1.295518E-1,-3.6745418E-2,-1.08161576E-1,-3.925628E-2,3.4979363E-3,8.9485594E-4,8.469172E-2,-0E0,5.7780393E-3,3.7228584E-4,1.03435166E-1,1.8032625E-1,1.0065976E-2,2.8610772E-1,-1.838417E-3,-6.8114153E-3,-4.3104882E-3,-0E0,-1.2171499E-3,-6.5417322E-3,-2.2038154E-3,-0E0,7.9945783E-4,-3.8834703E-3,2.4391313E-3,5.5650948E-3,1.7757023E-3,6.716912E-3,3.6568434E-3,9.304257E-3,1.4574818E-2,6.507471E-3],"categories":[],"categories_nodes":[],"categories_segments":[],"categories_sizes":[],"default_left":[0,0,0,0,0,0,0,0,0,0,0,0,0,0,0,0,0,0,0,0,0,0,0,0,0,0,0,0,0,0,0,0,0,0,0,0,0,0,0,0,0,0,0,0,0,0,0,0,0,0,0,0,0,0,0,0,0,0,0,0,0,0,0,0,0],"id":24,"left_children":[1,3,5,7,9,11,13,-1,15,17,19,21,23,25,27,-1,29,31,33,35,-1,37,39,41,43,-1,45,-1,-1,-1,-1,-1,-1,47,49,51,53,-1,55,57,-1,-1,-1,59,61,-1,63,-1,-1,-1,-1,-1,-1,-1,-1,-1,-1,-1,-1,-1,-1,-1,-1,-1,-1],"loss_changes":[3.9829803E1,6.826914E0,4.455862E0,7.9846764E-1,4.8319006E-1,6.1945724E-1,6.9324875E-1,0E0,1.12363815E-1,1.4000273E-1,6.0831606E-2,7.502811E-2,4.5280933E-2,9.5664024E-2,2.5126648E-1,0E0,4.4218063E-2,2.2780538E-2,8.828062E-2,5.8448732E-2,0E0,3.6716245E-2,1.7742306E-2,2.76151E-2,2.3505926E-2,0E0,6.527424E-2,0E0,0E0,0E0,0E0,0E0,0E0,1.1142731E-2,4.1234817E-2,1.5504971E-2,2.1009818E-2,0E0,5.31816E-2,9.139463E-3,0E0,0E0,0E0,1.602538E-2,2.4440289E-3,0E0,9.820938E-3,0E0,0E0,0E0,0E0,0E0,0E0,0E0,0E0,0E0,0E0,0E0,0E0,0E0,0E0,0E0,0E0,0E0,0E0],"parents":[2147483647,0,0,1,1,2,2,3,3,4,4,5,5,6,6,8,8,9,9,10,10,11,11,12,12,13,13,14,14,16,16,17,17,18,18,19,19,21,21,22,22,23,23,24,24,26,26,33,33,34,34,35,35,36,36,38,38,39,39,43,43,44,44,46,46],"right_children":[2,4,6,8,10,12,14,-1,16,18,20,22,24,26,28,-1,30,32,34,36,-1,38,40,42,44,-1,46,-1,-1,-1,-1,-1,-1,48,50,52,54,-1,56,58,-1,-1,-1,60,62,-1,64,-1,-1,-1,-1,-1,-1,-1,-1,-1,-1,-1,-1,-1,-1,-1,-1,-1,-1],"split_conditions":[4.96E0,4.188E0,5.64E0,3.56E0,4.7E0,5.35E0,6.03E0,-2.412009E-2,3.982E0,4.48E0,8.944909E-1,5.14E0,2.424E2,5.5E0,8.3950615E1,-1.737577E-2,3.9E0,1.0351737E0,1.6666667E-3,4.768E0,1.9182062E-3,4.9291563E0,5.529E3,5.638E0,2.5925926E1,6.692198E-3,-4.5017947E-2,1.7617023E-2,2.9719636E-2,-5.084013E-3,-1.3752508E-2,-1.0279997E-2,-3.427922E-3,-8.4337346E-2,3.409361E-1,4.72E0,4.96E0,3.4979363E-3,1.0030395E0,1.0239498E-1,-0E0,5.7780393E-3,3.7228584E-4,-1.5167477E-2,5.36E0,1.0065976E-2,3.1646825E-2,-1.838417E-3,-6.8114153E-3,-4.3104882E-3,-0E0,-1.2171499E-3,-6.5417322E-3,-2.2038154E-3,-0E0,7.9945783E-4,-3.8834703E-3,2.4391313E-3,5.5650948E-3,1.7757023E-3,6.716912E-3,3.6568434E-3,9.304257E-3,1.4574818E-2,6.507471E-3],"split_indices":[0,14,0,1,0,0,0,0,14,10,33,0,34,12,29,0,13,15,6,14,0,22,4,14,29,0,24,0,0,0,0,0,0,7,36,9,2,0,15,32,0,0,0,26,0,0,28,0,0,0,0,0,0,0,0,0,0,0,0,0,0,0,0,0,0],"split_type":[0,0,0,0,0,0,0,0,0,0,0,0,0,0,0,0,0,0,0,0,0,0,0,0,0,0,0,0,0,0,0,0,0,0,0,0,0,0,0,0,0,0,0,0,0,0,0,0,0,0,0,0,0,0,0,0,0,0,0,0,0,0,0,0,0],"sum_hessian":[8.72E2,4.29E2,4.43E2,2.05E2,2.24E2,2.07E2,2.36E2,4.1E1,1.64E2,1.11E2,1.13E2,9.3E1,1.14E2,1.52E2,8.4E1,8.4E1,8E1,4E1,7.1E1,1.07E2,6E0,5.7E1,3.6E1,3E1,8.4E1,1.2E1,1.4E2,7.6E1,8E0,5E0,7.5E1,3.5E1,5E0,5.3E1,1.8E1,1.7E1,9E1,9E0,4.8E1,3.1E1,5E0,2.5E1,5E0,1.7E1,6.7E1,3.4E1,1.06E2,5E0,4.8E1,8E0,1E1,5E0,1.2E1,8.2E1,8E0,4.2E1,6E0,1.6E1,1.5E1,7E0,1E1,5E0,6.2E1,1.01E2,5E0],"tree_param":{"num_deleted":"0","num_feature":"45","num_nodes":"65","size_leaf_vector":"1"}},{"base_weights":[-2.5074217E-3,-1.9933721E-1,2.1198873E-1,-3.327705E-1,-8.8103E-2,1.1976183E-1,2.850794E-1,-2.4331113E-2,-3.0714554E-1,-1.3624473E-1,-4.5534875E-2,4.3257404E-2,1.471545E-1,2.632854E-1,4.419405E-1,-3.4293222E-1,-2.6079884E-1,-1.7024916E-1,-1.02799535E-1,2.7173035E-2,-5.277675E-2,1.1507636E-2,6.7623E-2,1.0370013E-1,1.6692498E-1,2.2847931E-1,1.494917E-2,1.5840966E-2,2.6417583E-2,-1.761186E-2,-9.929999E-3,-1.36228325E-2,-7.893551E-3,-9.159525E-3,-2.8601165E-3,-6.831521E-2,-1.3009344E-1,-0E0,3.1231635E-3,-0E0,-5.740306E-2,-1.1930282E-3,1.5528501E-3,4.7127545E-4,4.0905713E-3,3.204775E-4,5.6269174E-3,1.731762E-1,1.5376441E-3,1.8613528E-1,2.6646993E-1,-4.0263515E-3,-0E0,-2.2714369E-3,-7.176079E-3,1.1449126E-3,-1.662945E-3,-5.3030453E-3,-2.353531E-3,5.9802146E-3,9.385309E-3,9.937637E-3,4.7848127E-3,1.3864304E-2,5.6727123E-3],"categories":[],"categories_nodes":[],"categories_segments":[],"categories_sizes":[],"default_left":[0,0,0,0,0,0,0,0,0,0,0,0,0,0,0,0,0,0,0,0,0,0,0,0,0,0,0,0,0,0,0,0,0,0,0,0,0,0,0,0,0,0,0,0,0,0,0,0,0,0,0,0,0,0,0,0,0,0,0,0,0,0,0,0,0],"id":25,"left_children":[1,3,5,7,9,11,13,-1,15,17,19,21,23,25,27,29,31,33,35,37,39,41,43,45,47,49,-1,-1,-1,-1,-1,-1,-1,-1,-1,51,53,-1,-1,55,57,-1,-1,-1,-1,-1,-1,59,-1,61,63,-1,-1,-1,-1,-1,-1,-1,-1,-1,-1,-1,-1,-1,-1],"loss_changes":[3.7869423E1,6.874813E0,2.8172321E0,6.069584E-1,5.022893E-1,3.7696028E-1,6.2675667E-1,0E0,1.570301E-1,9.0530634E-2,7.718378E-2,3.230965E-2,7.590318E-2,1.4235401E-1,4.0011406E-2,9.263992E-3,1.7146587E-2,4.7408342E-2,3.150934E-2,1.4549471E-2,2.8998703E-2,1.943775E-2,1.322566E-2,2.8657854E-2,5.3447008E-2,8.6919785E-2,0E0,0E0,0E0,0E0,0E0,0E0,0E0,0E0,0E0,1.9256711E-2,1.2102306E-2,0E0,0E0,1.0307236E-2,3.851676E-2,0E0,0E0,0E0,0E0,0E0,0E0,1.531744E-2,0E0,1.7719507E-2,2.2149324E-2,0E0,0E0,0E0,0E0,0E0,0E0,0E0,0E0,0E0,0E0,0E0,0E0,0E0,0E0],"parents":[2147483647,0,0,1,1,2,2,3,3,4,4,5,5,6,6,8,8,9,9,10,10,11,11,12,12,13,13,14,14,15,15,16,16,17,17,18,18,19,19,20,20,21,21,22,22,23,23,24,24,25,25,35,35,36,36,39,39,40,40,47,47,49,49,50,50],"right_children":[2,4,6,8,10,12,14,-1,16,18,20,22,24,26,28,30,32,34,36,38,40,42,44,46,48,50,-1,-1,-1,-1,-1,-1,-1,-1,-1,52,54,-1,-1,56,58,-1,-1,-1,-1,-1,-1,60,-1,62,64,-1,-1,-1,-1,-1,-1,-1,-1,-1,-1,-1,-1,-1,-1],"split_conditions":[5.06E0,4.18E0,5.64E0,3.5E0,4.71E0,5.21E0,6.3E0,-2.4331113E-2,3.95E0,-4.7059435E-2,-9.241119E-2,5.19E0,5.44E0,6E0,1.35056935E-2,8.285624E3,1.6718285E-1,3.234447E-2,2.5811171E-2,1.8407366E-1,4.66E0,5.1E0,1.21485945E-2,1.5248E2,5.71E0,5.8E0,1.494917E-2,1.5840966E-2,2.6417583E-2,-1.761186E-2,-9.929999E-3,-1.36228325E-2,-7.893551E-3,-9.159525E-3,-2.8601165E-3,9.945561E-1,-4.2116746E-2,-0E0,3.1231635E-3,1.1186137E0,4.778E0,-1.1930282E-3,1.5528501E-3,4.7127545E-4,4.0905713E-3,3.204775E-4,5.6269174E-3,-6.1E-1,1.5376441E-3,5.75E-2,1.09862E4,-4.0263515E-3,-0E0,-2.2714369E-3,-7.176079E-3,1.1449126E-3,-1.662945E-3,-5.3030453E-3,-2.353531E-3,5.9802146E-3,9.385309E-3,9.937637E-3,4.7848127E-3,1.3864304E-2,5.6727123E-3],"split_indices":[14,0,8,0,0,8,0,0,0,25,25,13,9,11,27,44,32,28,28,32,9,10,27,44,9,2,0,0,0,0,0,0,0,0,0,19,26,0,0,21,14,0,0,0,0,0,0,37,0,7,34,0,0,0,0,0,0,0,0,0,0,0,0,0,0],"split_type":[0,0,0,0,0,0,0,0,0,0,0,0,0,0,0,0,0,0,0,0,0,0,0,0,0,0,0,0,0,0,0,0,0,0,0,0,0,0,0,0,0,0,0,0,0,0,0,0,0,0,0,0,0,0,0,0,0,0,0,0,0,0,0,0,0],"sum_hessian":[8.95E2,4.67E2,4.28E2,2.11E2,2.56E2,1.91E2,2.37E2,2.7E1,1.84E2,1.18E2,1.38E2,5.2E1,1.39E2,2.11E2,2.6E1,9.9E1,8.5E1,5.5E1,6.3E1,1.1E1,1.27E2,2.5E1,2.7E1,4.7E1,9.2E1,1.12E2,9.9E1,1.3E1,1.3E1,9.1E1,8E0,7.4E1,1.1E1,4.8E1,7E0,3.1E1,3.2E1,6E0,5E0,1.1E1,1.16E2,7E0,1.8E1,7E0,2E1,5E0,4.2E1,8.7E1,5E0,5.7E1,5.5E1,2.5E1,6E0,6E0,2.6E1,6E0,5E0,1.7E1,9.9E1,2.2E1,6.5E1,4.8E1,9E0,5E1,5E0],"tree_param":{"num_deleted":"0","num_feature":"45","num_nodes":"65","size_leaf_vector":"1"}},{"base_weights":[4.4046813E-3,-1.8903258E-1,1.902152E-1,-2.9615682E-1,-8.0048464E-2,1.0185279E-1,2.7379578E-1,-1.924234E-2,-2.4581464E-1,-1.393017E-1,-5.413454E-2,4.810772E-2,1.4451036E-1,2.4476029E-1,3.8054934E-1,-2.553639E-1,-1.4959735E-1,-2.3132868E-3,-1.5209907E-1,-6.527798E-2,9.628248E-3,1.7104344E-2,7.9917744E-2,9.1783196E-2,1.5775606E-1,2.3150927E-1,1.6775904E-2,1.535158E-2,2.4100946E-2,-2.678338E-1,-1.6643555E-1,-3.0150134E-3,-9.357278E-3,-3.2094799E-3,-1.6169858E-1,-1.03421696E-1,-4.4087153E-2,4.8566267E-2,-2.045035E-3,-2.7321132E-3,2.7799664E-2,4.5173544E-2,5.493033E-3,7.0418225E-4,5.389418E-3,9.1252714E-2,1.6909114E-1,1.1787865E-2,4.4436655E-3,-1.15502775E-2,-1.5233559E-2,-4.012709E-3,-1.0084341E-2,-9.562113E-3,-5.1415996E-3,-5.950275E-3,-0E0,-3.8040918E-3,-1.2959399E-3,4.867543E-3,-0E0,3.0034191E-3,6.298541E-4,-0E0,3.3156406E-3,5.6896186E-3,7.1489735E-4,8.735522E-3,3.682691E-3],"categories":[],"categories_nodes":[],"categories_segments":[],"categories_sizes":[],"default_left":[0,0,0,0,0,0,0,0,0,0,0,0,0,0,0,0,0,0,0,0,0,0,0,0,0,0,0,0,0,0,0,0,0,0,0,0,0,0,0,0,0,0,0,0,0,0,0,0,0,0,0,0,0,0,0,0,0,0,0,0,0,0,0,0,0,0,0,0,0],"id":26,"left_children":[1,3,5,7,9,11,13,-1,15,17,19,21,23,25,27,29,31,-1,33,35,37,39,41,43,45,47,-1,-1,-1,49,51,-1,-1,-1,53,55,57,59,-1,-1,61,63,-1,-1,-1,65,67,-1,-1,-1,-1,-1,-1,-1,-1,-1,-1,-1,-1,-1,-1,-1,-1,-1,-1,-1,-1,-1,-1],"loss_changes":[3.1270266E1,4.912154E0,3.2136574E0,7.978096E-1,3.0017364E-1,4.735806E-1,5.47945E-1,0E0,4.9934387E-2,4.81354E-2,1.134845E-1,8.656645E-2,4.4375658E-2,8.450031E-2,1.1625099E-1,5.0611496E-2,1.7617613E-2,0E0,1.2601733E-2,8.576816E-2,4.6037883E-2,3.9504483E-2,2.8429925E-2,2.1115378E-2,2.8640985E-2,4.5350075E-2,0E0,0E0,0E0,2.1214008E-2,1.33417845E-2,0E0,0E0,0E0,3.2666087E-2,8.170393E-2,3.8400277E-2,3.331877E-2,0E0,0E0,1.5524019E-2,2.3739379E-2,0E0,0E0,0E0,1.5051052E-2,3.5896301E-3,0E0,0E0,0E0,0E0,0E0,0E0,0E0,0E0,0E0,0E0,0E0,0E0,0E0,0E0,0E0,0E0,0E0,0E0,0E0,0E0,0E0,0E0],"parents":[2147483647,0,0,1,1,2,2,3,3,4,4,5,5,6,6,8,8,9,9,10,10,11,11,12,12,13,13,14,14,15,15,16,16,18,18,19,19,20,20,21,21,22,22,23,23,24,24,25,25,29,29,30,30,34,34,35,35,36,36,37,37,40,40,41,41,45,45,46,46],"right_children":[2,4,6,8,10,12,14,-1,16,18,20,22,24,26,28,30,32,-1,34,36,38,40,42,44,46,48,-1,-1,-1,50,52,-1,-1,-1,54,56,58,60,-1,-1,62,64,-1,-1,-1,66,68,-1,-1,-1,-1,-1,-1,-1,-1,-1,-1,-1,-1,-1,-1,-1,-1,-1,-1,-1,-1,-1,-1],"split_conditions":[4.96E0,4.26E0,5.64E0,4.026704E0,4.582E0,5.36E0,6.04E0,-1.924234E-2,1.7090422E-1,4.0258E0,1.0256411E0,5.15E0,-6.6E-1,6.15E0,1.0088174E0,4.24706E0,3.9541428E0,-2.3132868E-3,9.053145E-1,6E0,4.64E0,3.6055E2,1.2839888E-2,3E0,1.443088E3,1.597706E-1,1.6775904E-2,1.535158E-2,2.4100946E-2,2.2809198E-2,4.14E0,-3.0150134E-3,-9.357278E-3,-3.2094799E-3,9.9527204E-1,5.0948E0,4.79E0,1.0530293E0,-2.045035E-3,-2.7321132E-3,5.03E0,5.4714046E0,5.493033E-3,7.0418225E-4,5.389418E-3,-2.1E-1,3.6770525E0,1.1787865E-2,4.4436655E-3,-1.15502775E-2,-1.5233559E-2,-4.012709E-3,-1.0084341E-2,-9.562113E-3,-5.1415996E-3,-5.950275E-3,-0E0,-3.8040918E-3,-1.2959399E-3,4.867543E-3,-0E0,3.0034191E-3,6.298541E-4,-0E0,3.3156406E-3,5.6896186E-3,7.1489735E-4,8.735522E-3,3.682691E-3],"split_indices":[0,0,0,30,14,1,3,0,32,20,17,0,37,9,17,23,23,0,21,42,12,35,26,4,44,32,0,0,0,28,12,0,0,0,19,20,9,19,0,0,11,30,0,0,0,39,36,0,0,0,0,0,0,0,0,0,0,0,0,0,0,0,0,0,0,0,0,0,0],"split_type":[0,0,0,0,0,0,0,0,0,0,0,0,0,0,0,0,0,0,0,0,0,0,0,0,0,0,0,0,0,0,0,0,0,0,0,0,0,0,0,0,0,0,0,0,0,0,0,0,0,0,0,0,0,0,0,0,0,0,0,0,0,0,0,0,0,0,0,0,0],"sum_hessian":[8.68E2,4.25E2,4.43E2,2.13E2,2.12E2,2.17E2,2.26E2,7.4E1,1.39E2,6.2E1,1.5E2,9.8E1,1.19E2,1.81E2,4.5E1,1.24E2,1.5E1,9E0,5.3E1,1.29E2,2.1E1,5.2E1,4.6E1,2.7E1,9.2E1,1.62E2,1.9E1,2.9E1,1.6E1,1.06E2,1.8E1,6E0,9E0,7E0,4.6E1,4.3E1,8.6E1,1.3E1,8E0,5E0,4.7E1,2.4E1,2.2E1,6E0,2.1E1,1.6E1,7.6E1,1.56E2,6E0,5.8E1,4.8E1,7E0,1.1E1,2.8E1,1.8E1,3.8E1,5E0,2.8E1,5.8E1,6E0,7E0,1.2E1,3.5E1,8E0,1.6E1,1.1E1,5E0,7E1,6E0],"tree_param":{"num_deleted":"0","num_feature":"45","num_nodes":"69","size_leaf_vector":"1"}},{"base_weights":[6.8307905E-3,-1.6143212E-1,2.0363836E-1,-2.803522E-1,-5.0058726E-2,1.3374858E-1,2.8492442E-1,-3.6998573E-1,-2.3424643E-1,-9.5294684E-2,-1.8388322E-2,8.819561E-2,1.6204832E-1,2.702581E-1,2.6774073E-2,-1.9746497E-2,-1.3769771E-2,-2.444606E-1,-9.5393635E-2,-1.0233351E-1,-0E0,-4.0803112E-2,2.9383139E-3,7.6446193E-3,7.3801525E-2,1.7344296E-1,4.5546084E-3,2.3439357E-1,1.6577791E-2,-2.639028E-1,-1.8857944E-1,-8.543925E-3,-0E0,-2.3454787E-2,-1.1025413E-1,-1.9616865E-2,-7.839094E-2,2.8256152E-2,-4.482761E-2,7.885828E-2,-0E0,1.4494236E-1,2.1321793E-1,4.456273E-3,1.1957385E-2,-1.355462E-2,-4.2911363E-3,-4.0021813E-3,-1.0441094E-2,-1.7490061E-3,-0E0,-7.916359E-3,-4.394668E-3,-1.9557409E-3,9.6147927E-4,-5.585144E-3,-1.5678311E-3,5.179954E-5,3.4391477E-3,-0E0,-3.3939686E-3,4.468306E-3,2.519509E-3,7.57332E-3,1.6177129E-3,1.2175886E-2,7.518363E-3],"categories":[],"categories_nodes":[],"categories_segments":[],"categories_sizes":[],"default_left":[0,0,0,0,0,0,0,0,0,0,0,0,0,0,0,0,0,0,0,0,0,0,0,0,0,0,0,0,0,0,0,0,0,0,0,0,0,0,0,0,0,0,0,0,0,0,0,0,0,0,0,0,0,0,0,0,0,0,0,0,0,0,0,0,0,0,0],"id":27,"left_children":[1,3,5,7,9,11,13,15,17,19,21,23,25,27,-1,-1,-1,29,31,33,-1,35,37,-1,39,41,-1,43,-1,45,47,-1,-1,49,51,53,55,57,59,61,-1,63,65,-1,-1,-1,-1,-1,-1,-1,-1,-1,-1,-1,-1,-1,-1,-1,-1,-1,-1,-1,-1,-1,-1,-1,-1],"loss_changes":[2.944358E1,6.297056E0,2.2492619E0,8.075447E-1,3.4360707E-1,2.4816132E-1,4.6556187E-1,3.525734E-3,1.6394424E-1,6.719303E-2,7.513316E-2,4.892826E-2,6.6897154E-2,2.6140404E-1,0E0,0E0,0E0,6.1433792E-2,8.609695E-2,4.277146E-2,0E0,4.8387296E-2,9.0309255E-2,0E0,2.7576089E-2,6.2511206E-2,0E0,2.735138E-2,0E0,7.2915554E-2,4.6673894E-2,0E0,0E0,1.2902562E-3,5.175793E-2,4.1369423E-2,2.1361545E-2,4.9207292E-2,2.3483887E-2,2.759993E-3,0E0,2.8868794E-2,7.7865124E-3,0E0,0E0,0E0,0E0,0E0,0E0,0E0,0E0,0E0,0E0,0E0,0E0,0E0,0E0,0E0,0E0,0E0,0E0,0E0,0E0,0E0,0E0,0E0,0E0],"parents":[2147483647,0,0,1,1,2,2,3,3,4,4,5,5,6,6,7,7,8,8,9,9,10,10,11,11,12,12,13,13,17,17,18,18,19,19,21,21,22,22,24,24,25,25,27,27,29,29,30,30,33,33,34,34,35,35,36,36,37,37,38,38,39,39,41,41,42,42],"right_children":[2,4,6,8,10,12,14,16,18,20,22,24,26,28,-1,-1,-1,30,32,34,-1,36,38,-1,40,42,-1,44,-1,46,48,-1,-1,50,52,54,56,58,60,62,-1,64,66,-1,-1,-1,-1,-1,-1,-1,-1,-1,-1,-1,-1,-1,-1,-1,-1,-1,-1,-1,-1,-1,-1,-1,-1],"split_conditions":[5.14E0,4.4E0,5.788E0,4.026704E0,4.77E0,5.484E0,1.0497556E0,2.8888889E-2,3.98475E-3,2.1E-1,4.87E0,7E0,1.6478777E-1,6.066E0,2.6774073E-2,-1.9746497E-2,-1.3769771E-2,4.24706E0,4.234238E0,-1.0573698E-1,-0E0,1.7852522E-2,2.4624566E-2,7.6446193E-3,5.485E0,1.6666667E-3,4.5546084E-3,-4.9597062E-2,1.6577791E-2,1.7090422E-1,4.14E0,-8.543925E-3,-0E0,-6.1023623E-2,4.51E0,5.1855262E-2,1.3206E3,1.0393489E-1,1.123876E-1,-2.8658777E-2,-0E0,3.6770525E0,5.81E0,4.456273E-3,1.1957385E-2,-1.355462E-2,-4.2911363E-3,-4.0021813E-3,-1.0441094E-2,-1.7490061E-3,-0E0,-7.916359E-3,-4.394668E-3,-1.9557409E-3,9.6147927E-4,-5.585144E-3,-1.5678311E-3,5.179954E-5,3.4391477E-3,-0E0,-3.3939686E-3,4.468306E-3,2.519509E-3,7.57332E-3,1.6177129E-3,1.2175886E-2,7.518363E-3],"split_indices":[1,1,14,30,8,14,17,7,25,37,1,42,25,16,0,0,0,23,30,25,0,25,27,0,16,6,0,25,0,32,12,0,0,7,10,32,34,32,32,25,0,36,1,0,0,0,0,0,0,0,0,0,0,0,0,0,0,0,0,0,0,0,0,0,0,0,0],"split_type":[0,0,0,0,0,0,0,0,0,0,0,0,0,0,0,0,0,0,0,0,0,0,0,0,0,0,0,0,0,0,0,0,0,0,0,0,0,0,0,0,0,0,0,0,0,0,0,0,0,0,0,0,0,0,0,0,0,0,0,0,0,0,0,0,0,0,0],"sum_hessian":[8.87E2,4.78E2,4.09E2,2.3E2,2.48E2,2.22E2,1.87E2,7.5E1,1.55E2,1E2,1.48E2,8.8E1,1.34E2,1.79E2,8E0,5.6E1,1.9E1,1.43E2,1.2E1,9.3E1,7E0,7.4E1,7.4E1,1.3E1,7.5E1,1.13E2,2.1E1,1.17E2,6.2E1,1.02E2,4.1E1,6E0,6E0,1E1,8.3E1,5E1,2.4E1,5E1,2.4E1,7E1,5E0,7E1,4.3E1,5E0,1.12E2,9.7E1,5E0,8E0,3.3E1,5E0,5E0,2.3E1,6E1,3.5E1,1.5E1,1.2E1,1.2E1,3.2E1,1.8E1,9E0,1.5E1,4.7E1,2.3E1,6.5E1,5E0,2.6E1,1.7E1],"tree_param":{"num_deleted":"0","num_feature":"45","num_nodes":"67","size_leaf_vector":"1"}},{"base_weights":[-5.62361E-4,-1.5729304E-1,1.7748891E-1,-2.71773E-1,-6.488927E-2,1.01792045E-1,2.448146E-1,-3.187384E-1,-2.146806E-1,-1.09574586E-1,-2.7487967E-2,2.9557081E-2,1.24653146E-1,2.3219228E-1,2.3454545E-2,-6.006607E-3,-1.6504936E-2,-5.110516E-3,-1.1194269E-2,-1.5320773E-1,-8.507116E-2,-3.227309E-2,3.524227E-3,4.2408977E-2,-5.270354E-3,1.0356775E-1,1.5583867E-1,1.850795E-1,2.788099E-1,-8.51311E-3,-1.8317829E-3,-9.8642625E-2,-2.4688687E-2,-4.2543497E-2,-0E0,2.0371653E-2,7.552909E-2,-2.4844122E-3,9.634658E-4,4.6357713E-3,7.7346116E-3,6.4047806E-2,1.7259113E-1,1.9425172E-1,1.7969186E-3,6.0735526E-3,2.8649676E-1,-5.363149E-3,-7.273698E-4,-4.199275E-3,7.608814E-4,-1.6687148E-3,-4.6308297E-3,-2.6523245E-3,1.8000748E-3,1.6603541E-3,-0E0,7.0175645E-4,4.9854214E-3,-0E0,5.5445745E-3,9.626997E-3,3.6758182E-3,5.478954E-3,1.0230704E-2,1.4690637E-2,6.9655413E-3],"categories":[],"categories_nodes":[],"categories_segments":[],"categories_sizes":[],"default_left":[0,0,0,0,0,0,0,0,0,0,0,0,0,0,0,0,0,0,0,0,0,0,0,0,0,0,0,0,0,0,0,0,0,0,0,0,0,0,0,0,0,0,0,0,0,0,0,0,0,0,0,0,0,0,0,0,0,0,0,0,0,0,0,0,0,0,0],"id":28,"left_children":[1,3,5,7,9,11,13,15,17,19,21,23,25,27,-1,-1,-1,-1,-1,29,31,33,-1,35,37,39,41,43,45,-1,-1,47,49,51,53,55,57,-1,-1,-1,-1,59,61,63,-1,-1,65,-1,-1,-1,-1,-1,-1,-1,-1,-1,-1,-1,-1,-1,-1,-1,-1,-1,-1,-1,-1],"loss_changes":[2.4276295E1,4.84649E0,2.0146303E0,4.305935E-1,4.1447437E-1,3.012607E-1,4.2676258E-1,1.6350651E-1,4.4927597E-2,8.71613E-2,6.549355E-2,2.5869705E-2,5.392313E-2,3.5224724E-1,0E0,0E0,0E0,0E0,0E0,5.0607383E-2,4.9150884E-2,4.631041E-2,0E0,1.6606659E-2,1.7079353E-2,1.1960328E-2,4.9856782E-2,1.1500287E-1,4.534626E-2,0E0,0E0,3.1204164E-2,4.8382238E-2,3.251858E-2,6.661329E-2,6.8532554E-3,6.555699E-3,0E0,0E0,0E0,0E0,2.8658193E-2,4.8178434E-2,3.302288E-2,0E0,0E0,1.697588E-2,0E0,0E0,0E0,0E0,0E0,0E0,0E0,0E0,0E0,0E0,0E0,0E0,0E0,0E0,0E0,0E0,0E0,0E0,0E0,0E0],"parents":[2147483647,0,0,1,1,2,2,3,3,4,4,5,5,6,6,7,7,8,