{"learner":{"attributes":{"best_iteration":"0","best_score":"44878.38529932867","scikit_learn":"{\"_estimator_type\": \"regressor\"}"},"feature_names":[],"feature_types":[],"gradient_booster":{"model":{"cats":{"enc":[],"feature_segments":[],"sorted_idx":[]},"gbtree_model_param":{"num_parallel_tree":"1","num_trees":"21"},"iteration_indptr":[0,1,2,3,4,5,6,7,8,9,10,11,12,13,14,15,16,17,18,19,20,21],"tree_info":[0,0,0,0,0,0,0,0,0,0,0,0,0,0,0,0,0,0,0,0,0],"trees":[{"base_weights":[-3.6321148E1,-8.651605E2,1.0739167E4,-9.60573E2,1.881528E4,7.6406294E3,3.1086535E4,-1.429381E3,8.293054E2,-1.6073975E1,1.265068E3,2.8589463E4,4.55498E3,1.8674183E3,4.1003473E2,-1.7370397E3,-7.380736E2,3.111479E2,2.9569693E4,4.620153E4,3.8300308E3,1.6770638E3,1.7479146E4,6.6304755E0,-8.966743E1,2.9742004E2,-5.5964718E1,1.001151E3,3.6607206E0,-2.5239747E0,2.220251E3,6.8926025E1,3.0341514E3,-8.65653E1,5.12851E2,-1.0296496E2,1.1188173E2,1.1563817E3,4.1674167E2],"categories":[],"categories_nodes":[],"categories_segments":[],"categories_sizes":[],"default_left":[0,0,0,0,0,0,0,0,0,0,0,0,0,0,0,0,0,0,0,0,0,0,0,0,0,0,0,0,0,0,0,0,0,0,0,0,0,0,0],"id":0,"left_children":[1,3,5,7,9,11,13,15,17,-1,-1,19,21,-1,-1,23,25,27,29,31,33,35,37,-1,-1,-1,-1,-1,-1,-1,-1,-1,-1,-1,-1,-1,-1,-1,-1],"loss_changes":[7.8776335E9,1.5559588E9,3.7344456E9,6.858987E8,5.04624E8,3.4896579E9,8.401761E8,1.3632614E8,2.522448E9,0E0,0E0,2.8755005E9,1.83042E9,0E0,0E0,4.7297024E7,5.1901146E8,7.864732E8,1.3205164E9,2.5127644E9,1.6072866E8,9.257676E7,2.720988E8,0E0,0E0,0E0,0E0,0E0,0E0,0E0,0E0,0E0,0E0,0E0,0E0,0E0,0E0,0E0,0E0],"parents":[2147483647,0,0,1,1,2,2,3,3,4,4,5,5,6,6,7,7,8,8,11,11,12,12,15,15,16,16,17,17,18,18,19,19,20,20,21,21,22,22],"right_children":[2,4,6,8,10,12,14,16,18,-1,-1,20,22,-1,-1,24,26,28,30,32,34,36,38,-1,-1,-1,-1,-1,-1,-1,-1,-1,-1,-1,-1,-1,-1,-1,-1],"split_conditions":[9.43505E3,6.7E0,2.51505E5,8.46807E3,6.26E0,4.536E0,1E-2,1.5194E3,1.12600535E-1,-1.6073975E1,1.265068E3,4.51E0,2.9137721E-2,1.8674183E3,4.1003473E2,-6.1E-1,4.2647367E0,3.4968E0,4.7E0,4.51E0,4.58E0,1.5394856E-2,3E0,6.6304755E0,-8.966743E1,2.9742004E2,-5.5964718E1,1.001151E3,3.6607206E0,-2.5239747E0,2.220251E3,6.8926025E1,3.0341514E3,-8.65653E1,5.12851E2,-1.0296496E2,1.1188173E2,1.1563817E3,4.1674167E2],"split_indices":[35,13,43,43,1,14,40,35,6,0,0,0,28,0,0,37,30,20,0,1,0,28,41,0,0,0,0,0,0,0,0,0,0,0,0,0,0,0,0],"split_type":[0,0,0,0,0,0,0,0,0,0,0,0,0,0,0,0,0,0,0,0,0,0,0,0,0,0,0,0,0,0,0,0,0,0,0,0,0,0,0],"sum_hessian":[8.8E2,8.18E2,6.2E1,8.15E2,3E0,5.5E1,7E0,6.46E2,1.69E2,1E0,2E0,6E0,4.9E1,5E0,2E0,4.46E2,2E2,1.67E2,2E0,3E0,3E0,4.1E1,8E0,1.3E1,4.33E2,1E1,1.9E2,1E0,1.66E2,1E0,1E0,1E0,2E0,2E0,1E0,5E0,3.6E1,4E0,4E0],"tree_param":{"num_deleted":"0","num_feature":"45","num_nodes":"39","size_leaf_vector":"1"}},{"base_weights":[2.5331886E2,-2.057813E2,3.5873156E4,-7.8258936E2,9.084944E3,2.6617603E3,1.2532251E4,-8.730106E2,1.1404012E4,2.6561695E4,5.1236177E3,2.3393204E2,7.644698E2,-1.2692607E3,9.7207275E2,1.2228992E3,-6.1873432E1,2.9330132E3,9.01064E3,2.5023015E3,1.5951424E4,4.233583E2,-6.7082344E1,7.724974E2,5.346205E0,9.3256355E1,6.951747E2,6.1518866E2,7.677156E1,1.2068097E2,1.1795692E3],"categories":[],"categories_nodes":[],"categories_segments":[],"categories_sizes":[],"default_left":[0,0,0,0,0,0,0,0,0,0,0,0,0,0,0,0,0,0,0,0,0,0,0,0,0,0,0,0,0,0,0],"id":1,"left_children":[1,3,5,7,9,-1,11,13,15,17,19,-1,-1,21,23,-1,-1,-1,25,27,29,-1,-1,-1,-1,-1,-1,-1,-1,-1,-1],"loss_changes":[1.4136437E10,4.5836657E9,3.790549E9,8.970079E8,3.3254638E9,0E0,5.838765E7,5.8612544E8,1.02039494E9,4.541707E9,1.152175E9,0E0,0E0,4.7581107E8,1.776971E9,0E0,0E0,0E0,2.1880186E8,3.127947E8,7.704855E8,0E0,0E0,0E0,0E0,0E0,0E0,0E0,0E0,0E0,0E0],"parents":[2147483647,0,0,1,1,2,2,3,3,4,4,6,6,7,7,8,8,9,9,10,10,13,13,14,14,18,18,19,19,20,20],"right_children":[2,4,6,8,10,-1,12,14,16,18,20,-1,-1,22,24,-1,-1,-1,26,28,30,-1,-1,-1,-1,-1,-1,-1,-1,-1,-1],"split_conditions":[2.0402695E5,9.43505E3,2E0,6.3975E0,4.51E0,2.6617603E3,5.55E0,2.596E3,1.0128661E0,-1.4669927E-2,3.4915E4,2.3393204E2,7.644698E2,-5.822785E-2,3E3,1.2228992E3,-6.1873432E1,2.9330132E3,3E3,8.418E2,2.4953471E-2,4.233583E2,-6.7082344E1,7.724974E2,5.346205E0,9.3256355E1,6.951747E2,6.1518866E2,7.677156E1,1.2068097E2,1.1795692E3],"split_indices":[44,35,41,18,9,0,0,4,17,5,4,0,0,5,4,0,0,0,4,34,28,0,0,0,0,0,0,0,0,0,0],"split_type":[0,0,0,0,0,0,0,0,0,0,0,0,0,0,0,0,0,0,0,0,0,0,0,0,0,0,0,0,0,0,0],"sum_hessian":[8.63E2,8.53E2,1E1,8.04E2,4.9E1,5E0,5E0,7.99E2,5E0,8E0,4.1E1,2E0,3E0,6.58E2,1.41E2,2E0,3E0,2E0,6E0,3.4E1,7E0,4E0,6.54E2,7E0,1.34E2,3E0,3E0,2E0,3.2E1,3E0,4E0],"tree_param":{"num_deleted":"0","num_feature":"45","num_nodes":"31","size_leaf_vector":"1"}},{"base_weights":[5.7293797E1,-4.7069656E2,2.5045654E4,-8.1270276E2,5.274838E3,4.2926344E4,9.764639E3,-9.1189813E2,6.430301E3,1.7641578E4,3.4265757E3,1.21331154E2,2.418268E3,4.252822E3,1.3649017E4,-9.5620337E2,1.1103424E4,2.1454324E3,-1.5083982E3,1.2702467E3,7.049552E1,1.7713206E3,9.561242E2,2.637745E2,-2.1513044E1,1.9539226E2,7.407841E2,-7.118914E1,-8.526817E0,-5.147007E1,8.8422687E2,-9.670806E1,6.488444E0,2.0225676E2,-4.260033E0],"categories":[],"categories_nodes":[],"categories_segments":[],"categories_sizes":[],"default_left":[0,0,0,0,0,0,0,0,0,0,0,0,0,0,0,0,0,0,0,0,0,0,0,0,0,0,0,0,0,0,0,0,0,0,0],"id":2,"left_children":[1,3,5,7,9,11,13,15,17,19,21,-1,-1,23,25,27,29,-1,31,-1,-1,33,-1,-1,-1,-1,-1,-1,-1,-1,-1,-1,-1,-1,-1],"loss_changes":[1.147704E10,1.678474E9,4.499071E9,5.8423424E8,1.0366847E9,1.6448635E9,1.7746291E8,4.3382886E8,3.2502198E9,7.2025446E8,1.0832997E9,0E0,0E0,3.1005304E7,1.0290688E7,2.91075E8,2.57747E8,0E0,7.225702E6,0E0,0E0,1.6920008E8,0E0,0E0,0E0,0E0,0E0,0E0,0E0,0E0,0E0,0E0,0E0,0E0,0E0],"parents":[2147483647,0,0,1,1,2,2,3,3,4,4,5,5,6,6,7,7,8,8,9,9,10,10,13,13,14,14,15,15,16,16,18,18,21,21],"right_children":[2,4,6,8,10,12,14,16,18,20,22,-1,-1,24,26,28,30,-1,32,-1,-1,34,-1,-1,-1,-1,-1,-1,-1,-1,-1,-1,-1,-1,-1],"split_conditions":[1.779548E5,9.43505E3,2E0,1.1965812E-1,1.35056935E-2,1.5855136E-3,4.72953E-1,6.7E0,1.2090164E-1,-2.1505377E-3,4.2689E4,1.21331154E2,2.418268E3,5.71E0,-4.945055E-2,1.5194E3,1.1E1,2.1454324E3,4.4444446E-2,1.2702467E3,7.049552E1,1.3022779E-1,9.561242E2,2.637745E2,-2.1513044E1,1.9539226E2,7.407841E2,-7.118914E1,-8.526817E0,-5.147007E1,8.8422687E2,-9.670806E1,6.488444E0,2.0225676E2,-4.260033E0],"split_indices":[44,35,41,6,27,27,36,13,6,6,4,0,0,0,6,35,4,0,5,0,0,24,0,0,0,0,0,0,0,0,0,0,0,0,0],"split_type":[0,0,0,0,0,0,0,0,0,0,0,0,0,0,0,0,0,0,0,0,0,0,0,0,0,0,0,0,0,0,0,0,0,0,0],"sum_hessian":[8.68E2,8.51E2,1.7E1,8.04E2,4.7E1,7E0,1E1,7.94E2,1E1,5E0,4.2E1,1E0,6E0,5E0,5E0,7.92E2,2E0,1E0,9E0,3E0,2E0,3.9E1,3E0,4E0,1E0,1E0,4E0,4.96E2,2.96E2,1E0,1E0,7E0,2E0,1.7E1,2.2E1],"tree_param":{"num_deleted":"0","num_feature":"45","num_nodes":"35","size_leaf_vector":"1"}},{"base_weights":[6.688896E1,-4.5553613E2,2.4012436E4,-8.541862E2,5.8396294E3,4.1097477E4,1.062137E4,-9.415127E2,4.6391963E3,2.3357146E4,3.479103E3,1.18297874E2,4.629256E4,1.1663223E4,-2.097522E1,7.3489043E3,-9.91899E2,-2.0439304E3,2.7597596E4,5.7366533E3,2.7864905E3,2.53048E3,8.2743744E2,1.00872424E3,2.6352446E3,2.2964124E2,1.374052E4,9.5858954E2,-1.998825E1,-5.1717873E1,3.8791855E2,-1.24875725E2,-9.341227E-2,-2.1976831E1,2.0917966E3,5.993831E2,5.884927E1,5.271782E2,8.535399E1,7.8083673E2,2.7039584E2],"categories":[],"categories_nodes":[],"categories_segments":[],"categories_sizes":[],"default_left":[0,0,0,0,0,0,0,0,0,0,0,0,0,0,0,0,0,0,0,0,0,0,0,0,0,0,0,0,0,0,0,0,0,0,0,0,0,0,0,0,0],"id":3,"left_children":[1,3,5,7,9,11,13,15,17,19,21,-1,23,25,-1,27,29,31,33,35,-1,37,-1,-1,-1,-1,39,-1,-1,-1,-1,-1,-1,-1,-1,-1,-1,-1,-1,-1,-1],"loss_changes":[1.1132111E10,2.1908221E9,3.910439E9,3.9773632E8,2.0689672E9,1.5001815E9,1.4292838E8,3.4480986E8,2.051048E9,3.102831E9,5.4083744E8,0E0,1.0905088E8,9.845261E7,0E0,4.657224E8,3.0672902E8,1.0184048E7,1.2159946E9,1.2840333E8,0E0,2.7891027E8,0E0,0E0,0E0,0E0,4.0616064E7,0E0,0E0,0E0,0E0,0E0,0E0,0E0,0E0,0E0,0E0,0E0,0E0,0E0,0E0],"parents":[2147483647,0,0,1,1,2,2,3,3,4,4,5,5,6,6,7,7,8,8,9,9,10,10,12,12,13,13,15,15,16,16,17,17,18,18,19,19,21,21,26,26],"right_children":[2,4,6,8,10,12,14,16,18,20,22,-1,24,26,-1,28,30,32,34,36,-1,38,-1,-1,-1,-1,40,-1,-1,-1,-1,-1,-1,-1,-1,-1,-1,-1,-1,-1,-1],"split_conditions":[1.779548E5,9.43505E3,2E0,1.1965812E-1,4.54E0,1.5855136E-3,5.5885E0,3.4968E0,2.596E3,4.31E0,4.2689E4,1.18297874E2,-3.4662045E-3,9.9412173E-1,-2.097522E1,3.46E0,6.7E0,4E0,4.11E0,4.29E0,2.7864905E3,1.2042276E-2,8.2743744E2,1.00872424E3,2.6352446E3,2.2964124E2,1E-2,9.5858954E2,-1.998825E1,-5.1717873E1,3.8791855E2,-1.24875725E2,-9.341227E-2,-2.1976831E1,2.0917966E3,5.993831E2,5.884927E1,5.271782E2,8.535399E1,7.8083673E2,2.7039584E2],"split_indices":[44,35,41,6,2,27,18,20,4,3,4,0,6,15,0,1,13,41,1,1,0,27,0,0,0,0,40,0,0,0,0,0,0,0,0,0,0,0,0,0,0],"split_type":[0,0,0,0,0,0,0,0,0,0,0,0,0,0,0,0,0,0,0,0,0,0,0,0,0,0,0,0,0,0,0,0,0,0,0,0,0,0,0,0,0],"sum_hessian":[8.88E2,8.7E2,1.8E1,8.19E2,5.1E1,7E0,1.1E1,8.07E2,1.2E1,5E0,4.6E1,1E0,6E0,1E1,1E0,4E0,8.03E2,1E1,2E0,4E0,1E0,4.4E1,2E0,2E0,4E0,3E0,7E0,1E0,3E0,8E2,3E0,8E0,2E0,1E0,1E0,1E0,3E0,3E0,4.1E1,5E0,2E0],"tree_param":{"num_deleted":"0","num_feature":"45","num_nodes":"41","size_leaf_vector":"1"}},{"base_weights":[-1.08294846E2,-8.621751E2,1.1486436E4,-1.0950979E3,1.6719618E3,4.058268E4,8.283015E3,-1.1412678E3,7.7662793E3,1.0650068E4,3.1991394E2,2.5057239E3,6.138735E1,2.6392097E3,2.3708996E4,4.426457E3,-1.2001559E3,8.524233E2,-5.0530224E1,-7.818624E1,2.6308242E4,2.3243313E3,-7.1454156E2,5.644272E3,9.710088E2,1.338766E4,4.358509E4,1.2008815E3,-9.016858E1,-6.179439E1,3.9771057E2,1.7797571E3,5.673781E2,5.7340008E1,3.521069E2,-1.04142944E2,2.234373E1,9.706881E1,5.5903156E2,8.6508465E0,3.3826385E2,2.2473607E2,8.278408E2,2.455713E3,6.7493945E2],"categories":[],"categories_nodes":[],"categories_segments":[],"categories_sizes":[],"default_left":[0,0,0,0,0,0,0,0,0,0,0,0,0,0,0,0,0,0,0,0,0,0,0,0,0,0,0,0,0,0,0,0,0,0,0,0,0,0,0,0,0,0,0,0,0],"id":4,"left_children":[1,3,5,7,9,11,13,15,17,19,21,-1,-1,23,25,27,29,-1,-1,-1,31,33,35,37,39,41,43,-1,-1,-1,-1,-1,-1,-1,-1,-1,-1,-1,-1,-1,-1,-1,-1,-1,-1],"loss_changes":[7.5883843E9,4.8289126E8,4.603853E9,3.1448275E8,8.341722E8,1.8140877E9,4.2034276E9,2.4924973E8,3.4310387E8,1.7623501E9,1.2814314E8,0E0,0E0,1.8000216E8,2.0834191E9,1.01970995E9,2.5090534E8,0E0,0E0,0E0,1.5183514E8,1.0858673E8,6.60874E7,2.4480144E8,1.14423944E8,2.07413E8,2.425344E6,0E0,0E0,0E0,0E0,0E0,0E0,0E0,0E0,0E0,0E0,0E0,0E0,0E0,0E0,0E0,0E0,0E0,0E0],"parents":[2147483647,0,0,1,1,2,2,3,3,4,4,5,5,6,6,7,7,8,8,9,9,10,10,13,13,14,14,15,15,16,16,20,20,21,21,22,22,23,23,24,24,25,25,26,26],"right_children":[2,4,6,8,10,12,14,16,18,20,22,-1,-1,24,26,28,30,-1,-1,-1,32,34,36,38,40,42,44,-1,-1,-1,-1,-1,-1,-1,-1,-1,-1,-1,-1,-1,-1,-1,-1,-1,-1],"split_conditions":[1.27552E4,1E-2,4.54E0,6.3700995E0,3.89E0,4.58E0,3.2419633E-2,-2E-1,6.26E0,1.0050356E0,1.3704585E-2,2.5057239E3,6.138735E1,1.346915E-1,1.0147442E0,-5.9813086E-2,1.0735198E0,8.524233E2,-5.0530224E1,-7.818624E1,4.09E0,1.2727899E-2,2.0876827E-3,-1.6038312E-2,1.779548E5,-2.8037382E-2,5.66E0,1.2008815E3,-9.016858E1,-6.179439E1,3.9771057E2,1.7797571E3,5.673781E2,5.7340008E1,3.521069E2,-1.04142944E2,2.234373E1,9.706881E1,5.5903156E2,8.6508465E0,3.3826385E2,2.2473607E2,8.278408E2,2.455713E3,6.7493945E2],"split_indices":[35,39,10,22,13,9,28,40,0,15,28,0,0,24,15,7,15,0,0,0,0,28,7,26,44,6,0,0,0,0,0,0,0,0,0,0,0,0,0,0,0,0,0,0,0],"split_type":[0,0,0,0,0,0,0,0,0,0,0,0,0,0,0,0,0,0,0,0,0,0,0,0,0,0,0,0,0,0,0,0,0,0,0,0,0,0,0,0,0,0,0,0,0],"sum_hessian":[8.66E2,8.14E2,5.2E1,7.46E2,6.8E1,4E0,4.8E1,7.43E2,3E0,8E0,6E1,3E0,1E0,3.6E1,1.2E1,7E0,7.36E2,1E0,2E0,5E0,3E0,2E1,4E1,1.2E1,2.4E1,9E0,3E0,1E0,6E0,7.34E2,2E0,1E0,2E0,1.7E1,3E0,1.8E1,2.2E1,8E0,4E0,2.2E1,2E0,3E0,6E0,2E0,1E0],"tree_param":{"num_deleted":"0","num_feature":"45","num_nodes":"45","size_leaf_vector":"1"}},{"base_weights":[-1.5527129E2,-5.8618097E2,2.092005E4,-1.0995325E3,1.4881749E3,3.240332E4,8.493104E3,-1.1485625E3,7.7923867E3,8.778911E2,1.2646978E4,9.464441E1,3.5980516E4,3.1374084E3,1.1540666E4,-1.420239E3,-6.083873E2,-6.839351E1,8.818289E2,3.5651703E2,7.0267446E3,2.0410465E3,4.0226177E3,5.0566153E2,1.9115547E3,2.0752681E2,-2.2877563E1,1.6536815E2,6.262927E2,7.102051E1,-7.270283E1,3.6568756E2,-3.364731E1,2.8287506E2,-1.2592814E1,1.638868E2,7.32129E2,6.904877E2,-7.7069305E1],"categories":[],"categories_nodes":[],"categories_segments":[],"categories_sizes":[],"default_left":[0,0,0,0,0,0,0,0,0,0,0,0,0,0,0,0,0,0,0,0,0,0,0,0,0,0,0,0,0,0,0,0,0,0,0,0,0,0,0],"id":5,"left_children":[1,3,5,7,9,11,13,15,17,19,21,-1,23,25,27,29,31,-1,-1,33,35,-1,37,-1,-1,-1,-1,-1,-1,-1,-1,-1,-1,-1,-1,-1,-1,-1,-1],"loss_changes":[8.158423E9,9.387251E8,2.2934313E9,3.1674592E8,1.1806537E9,9.141678E8,1.2701037E8,1.023033E8,3.8482582E8,5.328723E8,2.0226337E9,0E0,7.909171E7,2.0109852E7,7.240576E6,4.692704E7,1.2613404E8,0E0,0E0,5.0129635E8,3.2317933E8,0E0,4.5693142E8,0E0,0E0,0E0,0E0,0E0,0E0,0E0,0E0,0E0,0E0,0E0,0E0,0E0,0E0,0E0,0E0],"parents":[2147483647,0,0,1,1,2,2,3,3,4,4,5,5,6,6,7,7,8,8,9,9,10,10,12,12,13,13,14,14,15,15,16,16,19,19,20,20,22,22],"right_children":[2,4,6,8,10,12,14,16,18,20,22,-1,24,26,28,30,32,-1,-1,34,36,-1,38,-1,-1,-1,-1,-1,-1,-1,-1,-1,-1,-1,-1,-1,-1,-1,-1],"split_conditions":[1.779548E5,2.596E3,3E0,6.7E0,1.1965812E-1,5.524E0,4E0,1.5194E3,6.26E0,1.41082E4,3E3,9.464441E1,5.52E0,5.71E0,5.53E0,7.105E1,1.0585644E-2,-6.839351E1,8.818289E2,3.89E0,7.671727E-1,2.0410465E3,2E0,5.0566153E2,1.9115547E3,2.0752681E2,-2.2877563E1,1.6536815E2,6.262927E2,7.102051E1,-7.270283E1,3.6568756E2,-3.364731E1,2.8287506E2,-1.2592814E1,1.638868E2,7.32129E2,6.904877E2,-7.7069305E1],"split_indices":[44,4,41,13,6,14,41,35,0,35,4,0,8,0,0,35,32,0,0,13,36,0,41,0,0,0,0,0,0,0,0,0,0,0,0,0,0,0,0],"split_type":[0,0,0,0,0,0,0,0,0,0,0,0,0,0,0,0,0,0,0,0,0,0,0,0,0,0,0,0,0,0,0,0,0,0,0,0,0,0,0],"sum_hessian":[8.96E2,8.79E2,1.7E1,7.05E2,1.74E2,8E0,9E0,7.02E2,3E0,1.66E2,8E0,1E0,7E0,4E0,5E0,4.66E2,2.36E2,2E0,1E0,1.54E2,1.2E1,1E0,7E0,1E0,6E0,3E0,1E0,1E0,4E0,5E0,4.61E2,1E0,2.35E2,1.5E1,1.39E2,9E0,3E0,2E0,5E0],"tree_param":{"num_deleted":"0","num_feature":"45","num_nodes":"39","size_leaf_vector":"1"}},{"base_weights":[-1.1452003E2,-7.890169E2,9.1588955E3,-8.724055E2,4.835975E3,2.297608E4,3.4832896E3,5.794629E3,-9.2162537E2,-1.9608284E3,1.9900204E3,9.02979E3,4.7039312E4,-2.8950192E2,5.7297397E3,9.290978E2,-4.7922754E2,3.88259E3,-9.7539453E2,-2.1691743E3,3.065741E0,1.36563E3,4.8847534E3,8.831302E2,2.8656008E3,-1.5475271E3,2.2747988E3,3.6807346E3,1.0136036E4,-6.914504E1,7.838664E1,-7.477355E1,1.172677E3,-6.948334E1,-1.4730516E1,-2.005927E1,-1.1605206E2,8.709661E1,6.342482E2,-9.231454E1,4.347182E1,-7.251911E1,1.6549557E2,2.9922958E2,-2.6156256E1,6.842565E2,-1.7041418E1],"categories":[],"categories_nodes":[],"categories_segments":[],"categories_sizes":[],"default_left":[0,0,0,0,0,0,0,0,0,0,0,0,0,0,0,0,0,0,0,0,0,0,0,0,0,0,0,0,0,0,0,0,0,0,0,0,0,0,0,0,0,0,0,0,0,0,0],"id":6,"left_children":[1,3,5,7,9,11,13,15,17,19,-1,21,23,25,27,-1,29,31,33,35,-1,-1,37,-1,-1,39,41,43,45,-1,-1,-1,-1,-1,-1,-1,-1,-1,-1,-1,-1,-1,-1,-1,-1,-1,-1],"loss_changes":[5.4427254E9,3.8462675E8,4.5468006E9,2.6786093E8,2.9297981E9,5.2803226E9,3.661005E8,4.902601E8,2.0915027E8,4.76736E6,0E0,7.7597984E8,7.983913E8,5.8361544E7,2.0646202E8,0E0,1.1416935E7,9.823579E8,2.2154822E8,1.753824E6,0E0,0E0,2.4756502E8,0E0,0E0,1.0270444E7,2.7936528E7,1.9683254E8,3.0213133E8,0E0,0E0,0E0,0E0,0E0,0E0,0E0,0E0,0E0,0E0,0E0,0E0,0E0,0E0,0E0,0E0,0E0,0E0],"parents":[2147483647,0,0,1,1,2,2,3,3,4,4,5,5,6,6,7,7,8,8,9,9,11,11,12,12,13,13,14,14,16,16,17,17,18,18,19,19,22,22,25,25,26,26,27,27,28,28],"right_children":[2,4,6,8,10,12,14,16,18,20,-1,22,24,26,28,-1,30,32,34,36,-1,-1,38,-1,-1,40,42,44,46,-1,-1,-1,-1,-1,-1,-1,-1,-1,-1,-1,-1,-1,-1,-1,-1,-1,-1],"split_conditions":[9.43505E3,1.1965812E-1,1.6732482E-2,3.4968E0,9.8300225E-1,3.3092386E-1,1.920599E4,3.46E0,-2E-1,2.4050634E-1,1.9900204E3,4.41E0,-8.695652E-3,2.162651E-1,1.0418744E0,9.290978E2,3.6E0,6.07E0,1.5194E3,6.044905E-2,3.065741E0,1.36563E3,5.56E0,8.831302E2,2.8656008E3,5.81E0,4.52E0,3E-2,1.2055808E0,-6.914504E1,7.838664E1,-7.477355E1,1.172677E3,-6.948334E1,-1.4730516E1,-2.005927E1,-1.1605206E2,8.709661E1,6.342482E2,-9.231454E1,4.347182E1,-7.251911E1,1.6549557E2,2.9922958E2,-2.6156256E1,6.842565E2,-1.7041418E1],"split_indices":[35,6,27,20,36,36,43,1,40,7,0,12,6,32,17,0,0,1,35,7,0,0,12,0,0,10,0,37,21,0,0,0,0,0,0,0,0,0,0,0,0,0,0,0,0,0,0],"split_type":[0,0,0,0,0,0,0,0,0,0,0,0,0,0,0,0,0,0,0,0,0,0,0,0,0,0,0,0,0,0,0,0,0,0,0,0,0,0,0,0,0,0,0,0,0,0,0],"sum_hessian":[8.68E2,8.1E2,5.8E1,7.99E2,1.1E1,1.6E1,4.2E1,5E0,7.94E2,1E1,1E0,1.1E1,5E0,1.6E1,2.6E1,1E0,4E0,8E0,7.86E2,9E0,1E0,1E0,1E1,2E0,3E0,1.1E1,5E0,1.9E1,7E0,3E0,1E0,7E0,1E0,4.88E2,2.98E2,1E0,8E0,8E0,2E0,1E1,1E0,1E0,4E0,1.2E1,7E0,5E0,2E0],"tree_param":{"num_deleted":"0","num_feature":"45","num_nodes":"47","size_leaf_vector":"1"}},{"base_weights":[1.7153384E2,-2.1037572E2,2.2336312E4,-5.349503E2,6.0520127E3,1.1453045E4,3.6752375E4,-6.170517E2,1.655273E4,3.5736977E4,2.932216E3,1.570968E4,4.0544734E3,4.7802106E2,2.3979124E3,-9.740119E2,4.6902786E2,-4.0806915E1,1.13072E3,2.2465032E3,2.0394263E2,1.8533408E4,1.6233794E3,1.1848981E2,8.951849E2,2.4308545E2,2.063828E1,2.7495224E2,-5.3365376E1,9.058703E2,1.4685271E1,5.8516426E1,1.3314893E3,3.494153E1,2.8089886E2],"categories":[],"categories_nodes":[],"categories_segments":[],"categories_sizes":[],"default_left":[0,0,0,0,0,0,0,0,0,0,0,0,0,0,0,0,0,0,0,0,0,0,0,0,0,0,0,0,0,0,0,0,0,0,0],"id":7,"left_children":[1,3,5,7,9,11,13,15,17,19,21,23,25,-1,-1,27,29,-1,-1,-1,-1,31,33,-1,-1,-1,-1,-1,-1,-1,-1,-1,-1,-1,-1],"loss_changes":[7.496171E9,1.7736428E9,1.932481E9,1.1732367E9,3.877486E9,2.5123584E8,1.3697562E9,3.2068646E8,4.3959386E8,9.808804E8,7.866898E8,1.3317952E8,1.2691832E7,0E0,0E0,3.8149978E8,6.289811E8,0E0,0E0,0E0,0E0,3.905685E8,1.3641562E8,0E0,0E0,0E0,0E0,0E0,0E0,0E0,0E0,0E0,0E0,0E0,0E0],"parents":[2147483647,0,0,1,1,2,2,3,3,4,4,5,5,6,6,7,7,8,8,9,9,10,10,11,11,12,12,15,15,16,16,21,21,22,22],"right_children":[2,4,6,8,10,12,14,16,18,20,22,24,26,-1,-1,28,30,-1,-1,-1,-1,32,34,-1,-1,-1,-1,-1,-1,-1,-1,-1,-1,-1,-1],"split_conditions":[1.779548E5,1.27552E4,1.0792779E0,6.7E0,4.813067E0,1.6393442E-2,5.52E0,1.53E3,6.26E0,4.58E0,4.524E0,-2.8037382E-2,1.425E-1,4.7802106E2,2.3979124E3,-1.7216259E-1,3.4968E0,-4.0806915E1,1.13072E3,2.2465032E3,2.0394263E2,4.51E0,5.61E0,1.1848981E2,8.951849E2,2.4308545E2,2.063828E1,2.7495224E2,-5.3365376E1,9.058703E2,1.4685271E1,5.8516426E1,1.3314893E3,3.494153E1,2.8089886E2],"split_indices":[44,35,19,13,30,7,1,4,1,1,14,6,7,0,0,33,20,0,0,0,0,1,12,0,0,0,0,0,0,0,0,0,0,0,0],"split_type":[0,0,0,0,0,0,0,0,0,0,0,0,0,0,0,0,0,0,0,0,0,0,0,0,0,0,0,0,0,0,0,0,0,0,0],"sum_hessian":[8.84E2,8.7E2,1.4E1,8.28E2,4.2E1,9E0,5E0,8.25E2,3E0,3E0,3.9E1,5E0,4E0,2E0,3E0,6.21E2,2.04E2,1E0,2E0,2E0,1E0,2E0,3.7E1,1E0,4E0,3E0,1E0,8E0,6.13E2,1E0,2.03E2,1E0,1E0,3.1E1,6E0],"tree_param":{"num_deleted":"0","num_feature":"45","num_nodes":"35","size_leaf_vector":"1"}},{"base_weights":[1.2855948E2,-4.3243198E2,9.5712E3,-5.0985614E2,1.2367102E4,4.0237434E4,6.696502E3,-6.496251E2,3.624448E3,-6.2437378E1,1.0930292E3,2.5499329E3,1.9884407E2,3.502453E3,2.1430428E4,-1.3054917E3,-1.2018689E2,1.4282191E4,-1.00725876E2,1.4380245E3,1.1322359E4,2.6061613E4,2.51229E2,-2.7785688E1,-7.454897E1,7.384749E2,-1.1083247E1,7.9043784E0,1.6530817E3,-4.7942104E1,4.2653995E2,2.52741E1,5.1420544E2,1.3781548E2,6.859162E2,1.4507616E3,2.8233795E2],"categories":[],"categories_nodes":[],"categories_segments":[],"categories_sizes":[],"default_left":[0,0,0,0,0,0,0,0,0,0,0,0,0,0,0,0,0,0,0,0,0,0,0,0,0,0,0,0,0,0,0,0,0,0,0,0,0],"id":8,"left_children":[1,3,5,7,9,11,13,15,17,-1,-1,-1,-1,19,21,23,25,27,29,31,33,35,-1,-1,-1,-1,-1,-1,-1,-1,-1,-1,-1,-1,-1,-1,-1],"loss_changes":[4.62863E9,8.2387475E8,4.0502026E9,4.7676742E8,6.7360755E8,1.358016E9,2.0897416E9,2.7589955E8,1.07339117E9,0E0,0E0,0E0,0E0,6.1331994E8,4.768796E8,4.8542976E7,6.6961446E8,1.8514729E9,1.6372357E8,2.5878078E8,1.2637958E8,1.9794406E8,0E0,0E0,0E0,0E0,0E0,0E0,0E0,0E0,0E0,0E0,0E0,0E0,0E0,0E0,0E0],"parents":[2147483647,0,0,1,1,2,2,3,3,4,4,5,5,6,6,7,7,8,8,13,13,14,14,15,15,16,16,17,17,18,18,19,19,20,20,21,21],"right_children":[2,4,6,8,10,12,14,16,18,-1,-1,-1,-1,20,22,24,26,28,30,32,34,36,-1,-1,-1,-1,-1,-1,-1,-1,-1,-1,-1,-1,-1,-1,-1],"split_conditions":[1.27552E4,6.7E0,4.51E0,1.0615634E0,6.26E0,4.51E0,2.1753131E5,7.268E2,7.1818184E1,-6.2437378E1,1.0930292E3,2.5499329E3,1.9884407E2,2.9137721E-2,7.65625E1,1.8620385E-1,7.33E2,1.609E3,1.686E4,5.87E0,9.89011E-1,3.4E-2,2.51229E2,-2.7785688E1,-7.454897E1,7.384749E2,-1.1083247E1,7.9043784E0,1.6530817E3,-4.7942104E1,4.2653995E2,2.52741E1,5.1420544E2,1.3781548E2,6.859162E2,1.4507616E3,2.8233795E2],"split_indices":[35,13,9,33,1,0,43,34,29,0,0,0,0,28,29,33,34,4,4,10,15,5,0,0,0,0,0,0,0,0,0,0,0,0,0,0,0],"split_type":[0,0,0,0,0,0,0,0,0,0,0,0,0,0,0,0,0,0,0,0,0,0,0,0,0,0,0,0,0,0,0,0,0,0,0,0,0],"sum_hessian":[8.72E2,8.24E2,4.8E1,8.2E2,4E0,3E0,4.5E1,7.94E2,2.6E1,2E0,2E0,2E0,1E0,3.8E1,7E0,3.54E2,4.4E2,6E0,2E1,3.1E1,7E0,5E0,2E0,7.1E1,2.83E2,2E0,4.38E2,4E0,2E0,1.9E1,1E0,2.9E1,2E0,2E0,5E0,4E0,1E0],"tree_param":{"num_deleted":"0","num_feature":"45","num_nodes":"37","size_leaf_vector":"1"}},{"base_weights":[-7.41943E1,-4.5261618E2,2.3041871E4,-5.6175275E2,8.825601E3,3.5198242E4,9.524812E3,-6.3687976E2,1.2201987E4,1.408903E3,7.980258E2,1.3841601E1,4.097234E4,1.1481295E2,1.0229425E4,-7.542917E2,3.0770596E3,1.056595E3,-7.9525336E2,2.1777812E2,-5.7665874E1,6.0685706E2,2.2155974E3,1.1162797E4,1.15729836E2,2.0704771E2,-4.039091E1,5.458144E2,-1.9280943E1,-5.0947002E1,-8.6970005E0,1.4139534E2,6.132097E2],"categories":[],"categories_nodes":[],"categories_segments":[],"categories_sizes":[],"default_left":[0,0,0,0,0,0,0,0,0,0,0,0,0,0,0,0,0,0,0,0,0,0,0,0,0,0,0,0,0,0,0,0,0],"id":9,"left_children":[1,3,5,7,9,11,13,15,17,19,-1,-1,21,-1,23,25,27,-1,29,-1,-1,-1,-1,31,-1,-1,-1,-1,-1,-1,-1,-1,-1],"loss_changes":[7.6033684E9,8.7072474E8,1.9652004E9,8.19002E8,5.0668832E8,1.4001347E9,1.725728E7,3.6948416E8,5.9712634E8,5.0323292E7,0E0,0E0,3.996979E7,0E0,2.5874944E7,2.1741974E8,7.099724E8,0E0,2.3970412E5,0E0,0E0,0E0,0E0,2.0398144E7,0E0,0E0,0E0,0E0,0E0,0E0,0E0,0E0,0E0],"parents":[2147483647,0,0,1,1,2,2,3,3,4,4,5,5,6,6,7,7,8,8,9,9,12,12,14,14,15,15,16,16,18,18,23,23],"right_children":[2,4,6,8,10,12,14,16,18,20,-1,-1,22,-1,24,26,28,-1,30,-1,-1,-1,-1,32,-1,-1,-1,-1,-1,-1,-1,-1,-1],"split_conditions":[2.0402695E5,2.1753131E5,2E0,6.3700995E0,2.4953471E-2,1.5855136E-3,5.52E0,1.0615634E0,1.0128661E0,-1.5189873E-2,7.980258E2,1.3841601E1,-8.695652E-3,1.1481295E2,5.582E0,-2E-1,1.1002256E0,1.056595E3,3.24E0,2.1777812E2,-5.7665874E1,6.0685706E2,2.2155974E3,-4.945055E-2,1.15729836E2,2.0704771E2,-4.039091E1,5.458144E2,-1.9280943E1,-5.0947002E1,-8.6970005E0,1.4139534E2,6.132097E2],"split_indices":[44,43,41,22,28,27,2,33,17,6,0,0,6,0,16,40,33,0,2,0,0,0,0,6,0,0,0,0,0,0,0,0,0],"split_type":[0,0,0,0,0,0,0,0,0,0,0,0,0,0,0,0,0,0,0,0,0,0,0,0,0,0,0,0,0,0,0,0,0],"sum_hessian":[8.67E2,8.54E2,1.3E1,8.45E2,9E0,6E0,7E0,8.41E2,4E0,5E0,4E0,1E0,5E0,1E0,6E0,8.16E2,2.5E1,2E0,2E0,2E0,3E0,1E0,4E0,5E0,1E0,8E0,8.08E2,7E0,1.8E1,1E0,1E0,1E0,4E0],"tree_param":{"num_deleted":"0","num_feature":"45","num_nodes":"33","size_leaf_vector":"1"}},{"base_weights":[1.1745927E2,-2.2214723E2,2.3175543E4,-5.816821E2,5.909155E3,1.1672284E4,3.92463E4,-6.54966E2,9.652868E3,2.8367229E4,2.7123909E3,2.8702803E3,9.069915E2,2.195057E3,5.1567377E2,-9.3677264E2,6.7169507E2,1.0213751E3,-8.413247E2,2.4662815E3,5.5566216E3,1.4616913E3,7.426982E2,1.3495557E1,1.7264476E2,-6.423733E1,-2.128986E1,1.3230536E3,6.487594E0,-5.043527E1,-8.479575E0,1.9576216E1,3.5739062E2,3.8493137E1,4.9841162E2],"categories":[],"categories_nodes":[],"categories_segments":[],"categories_sizes":[],"default_left":[0,0,0,0,0,0,0,0,0,0,0,0,0,0,0,0,0,0,0,0,0,0,0,0,0,0,0,0,0,0,0,0,0,0,0],"id":10,"left_children":[1,3,5,7,9,11,13,15,17,19,21,23,-1,-1,-1,25,27,-1,29,-1,31,33,-1,-1,-1,-1,-1,-1,-1,-1,-1,-1,-1,-1,-1],"loss_changes":[7.0136023E9,1.9499374E9,1.9451653E9,6.325953E8,3.440922E9,4.602798E8,2.2061466E8,3.1093453E8,6.956128E8,2.5943593E9,6.464483E8,6.643088E6,0E0,0E0,0E0,1.2125024E8,2.0371177E9,0E0,2.786725E5,0E0,3.0076072E7,2.3361363E8,0E0,0E0,0E0,0E0,0E0,0E0,0E0,0E0,0E0,0E0,0E0,0E0,0E0],"parents":[2147483647,0,0,1,1,2,2,3,3,4,4,5,5,6,6,7,7,8,8,9,9,10,10,11,11,15,15,16,16,18,18,20,20,21,21],"right_children":[2,4,6,8,10,12,14,16,18,20,22,24,-1,-1,-1,26,28,-1,30,-1,32,34,-1,-1,-1,-1,-1,-1,-1,-1,-1,-1,-1,-1,-1],"split_conditions":[2.0402695E5,1.008665E4,2.3952097E-2,6.3975E0,4.51E0,5.55E0,5.66E0,1.7689041E0,1.0128661E0,4.51E0,4.2689E4,1.5855136E-3,9.069915E2,2.195057E3,5.1567377E2,1.5194E3,1.8064077E0,1.0213751E3,2.9E2,2.4662815E3,4.48E0,5.87E0,7.426982E2,1.3495557E1,1.7264476E2,-6.423733E1,-2.128986E1,1.3230536E3,6.487594E0,-5.043527E1,-8.479575E0,1.9576216E1,3.5739062E2,3.8493137E1,4.9841162E2],"split_indices":[44,35,6,18,9,10,0,36,17,0,4,27,0,0,0,35,36,0,4,0,1,10,0,0,0,0,0,0,0,0,0,0,0,0,0],"split_type":[0,0,0,0,0,0,0,0,0,0,0,0,0,0,0,0,0,0,0,0,0,0,0,0,0,0,0,0,0,0,0,0,0,0,0],"sum_hessian":[8.94E2,8.82E2,1.2E1,8.34E2,4.8E1,8E0,4E0,8.29E2,5E0,5E0,4.3E1,4E0,4E0,3E0,1E0,6.84E2,1.45E2,2E0,3E0,2E0,3E0,4E1,3E0,1E0,3E0,4.06E2,2.78E2,2E0,1.43E2,2E0,1E0,1E0,2E0,3.8E1,2E0],"tree_param":{"num_deleted":"0","num_feature":"45","num_nodes":"35","size_leaf_vector":"1"}},{"base_weights":[1.7092296E2,-9.985578E1,1.5359241E4,-4.9395325E2,2.5271743E3,7.288159E3,3.0043773E4,1.2403284E3,-7.6355945E2,2.1737354E4,1.2098817E3,3.0196604E3,7.001558E2,2.0386835E3,4.6496436E2,-6.000411E2,2.5513762E4,4.7746665E3,-8.328942E2,2.384072E3,1.8234286E3,9.873293E2,6.5282294E2,3.6128306E3,-2.8313269E1,3.5484738E2,-5.1285706E1,2.4083489E3,3.40954E2,-4.5577362E1,1.1144541E3,-5.7717785E1,-2.3651983E1,-4.5874737E1,1.9782713E2,3.9369675E2,-6.5330186E0,2.0636241E2,1.3158179E1],"categories":[],"categories_nodes":[],"categories_segments":[],"categories_sizes":[],"default_left":[0,0,0,0,0,0,0,0,0,0,0,0,0,0,0,0,0,0,0,0,0,0,0,0,0,0,0,0,0,0,0,0,0,0,0,0,0,0,0],"id":11,"left_children":[1,3,5,7,9,11,13,15,17,19,21,23,-1,-1,-1,25,27,29,31,-1,33,-1,35,37,-1,-1,-1,-1,-1,-1,-1,-1,-1,-1,-1,-1,-1,-1,-1],"loss_changes":[3.5219822E9,8.7297594E8,1.5588372E9,3.436781E8,2.7572972E9,2.73006E8,7.337651E8,4.437846E9,2.4781155E8,3.5295974E9,1.0610164E9,1.9062336E7,0E0,0E0,0E0,3.1198467E8,2.636008E9,8.1704326E8,7.210061E7,0E0,3.2863612E7,0E0,5.781062E8,1.0975744E7,0E0,0E0,0E0,0E0,0E0,0E0,0E0,0E0,0E0,0E0,0E0,0E0,0E0,0E0,0E0],"parents":[2147483647,0,0,1,1,2,2,3,3,4,4,5,5,6,6,7,7,8,8,9,9,10,10,11,11,15,15,16,16,17,17,18,18,20,20,22,22,23,23],"right_children":[2,4,6,8,10,12,14,16,18,20,22,24,-1,-1,-1,26,28,30,32,-1,34,-1,36,38,-1,-1,-1,-1,-1,-1,-1,-1,-1,-1,-1,-1,-1,-1,-1],"split_conditions":[1.779548E5,1.1011037E-1,1.0838381E0,3.9E0,4.51E0,5.55E0,5.66E0,3.99E0,-2E-1,-1.4669927E-2,1.670452E3,1.8214936E-3,7.001558E2,2.0386835E3,4.6496436E2,3.4968E0,4.01E0,6.01E0,2.6E2,2.384072E3,4.52E0,9.873293E2,1.21421605E-1,1.425E-1,-2.8313269E1,3.5484738E2,-5.1285706E1,2.4083489E3,3.40954E2,-4.5577362E1,1.1144541E3,-5.7717785E1,-2.3651983E1,-4.5874737E1,1.9782713E2,3.9369675E2,-6.5330186E0,2.0636241E2,1.3158179E1],"split_indices":[44,25,19,13,9,10,0,10,40,5,44,5,0,0,0,20,1,1,4,0,0,0,25,7,0,0,0,0,0,0,0,0,0,0,0,0,0,0,0],"split_type":[0,0,0,0,0,0,0,0,0,0,0,0,0,0,0,0,0,0,0,0,0,0,0,0,0,0,0,0,0,0,0,0,0,0,0,0,0,0,0],"sum_hessian":[8.55E2,8.41E2,1.4E1,7.32E2,1.09E2,1E1,4E0,9.8E1,6.34E2,6E0,1.03E2,7E0,3E0,2E0,2E0,9.2E1,6E0,7E0,6.27E2,2E0,4E0,2E0,1.01E2,6E0,1E0,4E0,8.8E1,2E0,4E0,6E0,1E0,3.3E2,2.97E2,2E0,2E0,9E0,9.2E1,5E0,1E0],"tree_param":{"num_deleted":"0","num_feature":"45","num_nodes":"39","size_leaf_vector":"1"}},{"base_weights":[1.5784229E2,-1.2028292E2,2.2418793E4,-4.3773996E2,5.9285645E3,5.1288594E3,3.1566062E4,-5.0611087E2,1.3944125E4,1.9925352E3,3.3643982E3,1.4163219E2,3.5784305E2,1.2829224E1,3.6741543E4,-9.442575E2,2.1282985E2,-3.72149E1,9.544183E2,1.2863089E4,1.0971431E3,5.515069E2,1.9838899E3,2.6615155E2,-5.0778973E1,3.5690784E2,-8.950432E0,1.752291E2,1.0672726E3,-6.2871365E1,1.2728179E2],"categories":[],"categories_nodes":[],"categories_segments":[],"categories_sizes":[],"default_left":[0,0,0,0,0,0,0,0,0,0,0,0,0,0,0,0,0,0,0,0,0,0,0,0,0,0,0,0,0,0,0],"id":12,"left_children":[1,3,5,7,9,11,13,15,17,-1,19,-1,-1,-1,21,23,25,-1,-1,27,29,-1,-1,-1,-1,-1,-1,-1,-1,-1,-1],"loss_changes":[5.519173E9,1.6943347E9,1.5778145E9,8.310638E8,3.6931346E9,3.010808E6,1.1248645E9,2.6322718E8,3.1645056E8,0E0,8.903974E8,0E0,0E0,0E0,1.5319552E7,2.3739642E8,8.6149203E8,0E0,0E0,5.6025114E8,1.2257118E8,0E0,0E0,0E0,0E0,0E0,0E0,0E0,0E0,0E0,0E0],"parents":[2147483647,0,0,1,1,2,2,3,3,4,4,5,5,6,6,7,7,8,8,10,10,14,14,15,15,16,16,19,19,20,20],"right_children":[2,4,6,8,10,12,14,16,18,-1,20,-1,-1,-1,22,24,26,-1,-1,28,30,-1,-1,-1,-1,-1,-1,-1,-1,-1,-1],"split_conditions":[2.0402695E5,1.27552E4,2.6058E4,6.7E0,4.813067E0,2.212E4,1.5855136E-3,1.5194E3,6.26E0,1.9925352E3,1.35056935E-2,1.4163219E2,3.5784305E2,1.2829224E1,-8.695652E-3,3.4968E0,4.2818475E0,-3.72149E1,9.544183E2,1.7060933E-1,1.9444069E-2,5.515069E2,1.9838899E3,2.6615155E2,-5.0778973E1,3.5690784E2,-8.950432E0,1.752291E2,1.0672726E3,-6.2871365E1,1.2728179E2],"split_indices":[44,35,4,13,30,4,27,35,1,0,27,0,0,0,6,20,30,0,0,36,27,0,0,0,0,0,0,0,0,0,0],"split_type":[0,0,0,0,0,0,0,0,0,0,0,0,0,0,0,0,0,0,0,0,0,0,0,0,0,0,0,0,0,0,0],"sum_hessian":[8.9E2,8.8E2,1E1,8.37E2,4.3E1,4E0,6E0,8.34E2,3E0,2E0,4.1E1,3E0,1E0,1E0,5E0,5.18E2,3.16E2,1E0,2E0,7E0,3.4E1,1E0,4E0,5E0,5.13E2,1.6E1,3E2,4E0,3E0,1.3E1,2.1E1],"tree_param":{"num_deleted":"0","num_feature":"45","num_nodes":"31","size_leaf_vector":"1"}},{"base_weights":[1.94884E2,-1.2710807E2,2.3308408E4,-4.400057E2,5.188281E3,3.4903406E4,1.0040066E4,-5.0741003E2,1.3353075E4,2.2284287E4,2.215416E3,4.7417502E2,1.9045344E3,6.646579E2,4.2769585E3,-5.840734E2,4.652158E3,-4.8598988E1,9.226043E2,2.2536062E3,4.1547275E3,4.1509842E2,1.1157704E4,6.3182323E1,2.4300902E2,-3.7744503E1,6.973907E1,1.8422352E3,-8.119778E1,1.02769325E2,3.138023E2,2.6018463E2,-1.7304562E1,7.326965E2,2.4360262E2],"categories":[],"categories_nodes":[],"categories_segments":[],"categories_sizes":[],"default_left":[0,0,0,0,0,0,0,0,0,0,0,0,0,0,0,0,0,0,0,0,0,0,0,0,0,0,0,0,0,0,0,0,0,0,0],"id":13,"left_children":[1,3,5,7,9,11,13,15,17,19,21,-1,-1,-1,23,25,27,-1,-1,-1,29,31,33,-1,-1,-1,-1,-1,-1,-1,-1,-1,-1,-1,-1],"loss_changes":[6.5001533E9,1.4359375E9,1.495724E9,7.6449184E8,2.3901885E9,1.248896E8,7.438112E7,3.2390397E8,3.101095E8,2.7046723E9,6.7152474E8,0E0,0E0,0E0,8.88168E5,2.7180794E8,2.484363E9,0E0,0E0,0E0,9.367152E6,1.3302197E8,8.24377E7,0E0,0E0,0E0,0E0,0E0,0E0,0E0,0E0,0E0,0E0,0E0,0E0],"parents":[2147483647,0,0,1,1,2,2,3,3,4,4,5,5,6,6,7,7,8,8,9,9,10,10,14,14,15,15,16,16,20,20,21,21,22,22],"right_children":[2,4,6,8,10,12,14,16,18,20,22,-1,-1,-1,24,26,28,-1,-1,-1,30,32,34,-1,-1,-1,-1,-1,-1,-1,-1,-1,-1,-1,-1],"split_conditions":[1.779548E5,9.43505E3,2E0,6.7E0,2.1881383E4,-3.4662045E-3,5.586E0,1.0804124E0,6.08E0,-1.4669927E-2,2.8218694E-2,4.7417502E2,1.9045344E3,6.646579E2,5.55E0,1E-2,1.0838351E0,-4.8598988E1,9.226043E2,2.2536062E3,5.65E0,-3.8659792E-2,4.7E0,6.3182323E1,2.4300902E2,-3.7744503E1,6.973907E1,1.8422352E3,-8.119778E1,1.02769325E2,3.138023E2,2.6018463E2,-1.7304562E1,7.326965E2,2.4360262E2],"split_indices":[44,35,41,13,44,6,14,17,1,5,5,0,0,0,0,39,17,0,0,0,0,6,0,0,0,0,0,0,0,0,0,0,0,0,0],"split_type":[0,0,0,0,0,0,0,0,0,0,0,0,0,0,0,0,0,0,0,0,0,0,0,0,0,0,0,0,0,0,0,0,0,0,0],"sum_hessian":[8.72E2,8.61E2,1.1E1,8.14E2,4.7E1,5E0,6E0,8.11E2,3E0,6E0,4.1E1,1E0,4E0,3E0,3E0,8E2,1.1E1,1E0,2E0,2E0,4E0,3.5E1,6E0,1E0,2E0,7.37E2,6.3E1,1E0,1E1,3E0,1E0,4E0,3.1E1,3E0,3E0],"tree_param":{"num_deleted":"0","num_feature":"45","num_nodes":"35","size_leaf_vector":"1"}},{"base_weights":[-2.4201387E1,-4.228123E2,6.6306543E3,6.4803438E3,-4.6469556E2,2.9461398E4,4.5012275E3,8.697669E2,-5.972395E2,-6.183549E2,1.4422532E3,2.2365466E3,9.461246E3,1.2051467E3,3.5300132E3,6.607253E1,-8.386432E1,-6.516445E2,5.7863403E3,1.2580122E4,2.2315553E2,5.779719E2,1.3162154E2,9.138751E3,9.658773E2,1.6205925E2,-3.4896072E1,-5.1182507E1,6.5540784E2,9.1430504E1,1.658442E3,9.3627945E1,-4.4959034E1,6.647917E2,1.5411317E2,-8.961186E1,1.1505155E2],"categories":[],"categories_nodes":[],"categories_segments":[],"categories_sizes":[],"default_left":[0,0,0,0,0,0,0,0,0,0,0,0,0,0,0,0,0,0,0,0,0,0,0,0,0,0,0,0,0,0,0,0,0,0,0,0,0],"id":14,"left_children":[1,3,5,7,9,11,13,-1,15,17,19,-1,21,-1,23,-1,-1,25,27,29,31,-1,-1,33,35,-1,-1,-1,-1,-1,-1,-1,-1,-1,-1,-1,-1],"loss_changes":[2.3000402E9,2.3951696E8,2.2495913E9,3.9664806E8,2.3941054E8,7.9836134E8,7.9063936E8,0E0,1.0505552E7,1.6453037E8,8.254597E8,0E0,1.2555072E7,0E0,6.3834355E8,0E0,0E0,1.3755363E8,2.1286416E8,1.2675062E9,1.0535013E8,0E0,0E0,3.115012E8,1.2196421E8,0E0,0E0,0E0,0E0,0E0,0E0,0E0,0E0,0E0,0E0,0E0,0E0],"parents":[2147483647,0,0,1,1,2,2,3,3,4,4,5,5,6,6,8,8,9,9,10,10,12,12,14,14,17,17,18,18,19,19,20,20,23,23,24,24],"right_children":[2,4,6,8,10,12,14,-1,16,18,20,-1,22,-1,24,-1,-1,26,28,30,32,-1,-1,34,36,-1,-1,-1,-1,-1,-1,-1,-1,-1,-1,-1,-1],"split_conditions":[1.27552E4,3.4968E0,4.813067E0,3.46E0,1E-2,4.51E0,-4.5901638E-2,8.697669E2,3.24E0,6.3700995E0,3.9972E0,2.2365466E3,4.51E0,1.2051467E3,1.35056935E-2,6.607253E1,-8.386432E1,-5.822785E-2,3.1E2,4.41E3,-5.8873523E-2,5.779719E2,1.3162154E2,1.073E4,2.0229459E-2,1.6205925E2,-3.4896072E1,-5.1182507E1,6.5540784E2,9.1430504E1,1.658442E3,9.3627945E1,-4.4959034E1,6.647917E2,1.5411317E2,-8.961186E1,1.1505155E2],"split_indices":[35,20,30,1,39,2,5,0,2,22,20,0,1,0,27,0,0,5,4,4,24,0,0,4,27,0,0,0,0,0,0,0,0,0,0,0,0],"split_type":[0,0,0,0,0,0,0,0,0,0,0,0,0,0,0,0,0,0,0,0,0,0,0,0,0,0,0,0,0,0,0,0,0,0,0,0,0],"sum_hessian":[8.65E2,8.17E2,4.8E1,4E0,8.13E2,3E0,4.5E1,1E0,3E0,7.53E2,6E1,1E0,2E0,1E0,4.4E1,1E0,2E0,7.5E2,3E0,5E0,5.5E1,1E0,1E0,1.3E1,3.1E1,8E0,7.42E2,2E0,1E0,4E0,1E0,2.2E1,3.3E1,7E0,6E0,1E1,2.1E1],"tree_param":{"num_deleted":"0","num_feature":"45","num_nodes":"37","size_leaf_vector":"1"}},{"base_weights":[3.3173477E1,-3.1054095E2,1.5480486E4,-5.775986E2,5.138521E3,2.7388934E4,6.251481E3,-6.1190265E2,6.836481E2,2.2828547E4,1.3453239E3,-3.895769E1,3.1524254E4,1.9961661E3,8.1296177E3,1.2325598E3,-8.0905023E2,2.1301306E3,6.3984004E3,5.4341473E2,4.10504E2,1.8145059E3,6.536532E2,1.4462988E2,-3.9738995E1,9.445787E3,1.3937027E2,5.9653546E2,-1.566776E1,-2.7544025E1,-6.14978E1,1.1813871E2,5.6352264E2,-7.067614E1,9.538603E1,7.9433914E1,5.349737E2],"categories":[],"categories_nodes":[],"categories_segments":[],"categories_sizes":[],"default_left":[0,0,0,0,0,0,0,0,0,0,0,0,0,0,0,0,0,0,0,0,0,0,0,0,0,0,0,0,0,0,0,0,0,0,0,0,0],"id":15,"left_children":[1,3,5,7,9,11,13,15,-1,17,19,-1,21,23,25,27,29,-1,31,-1,33,-1,-1,-1,-1,35,-1,-1,-1,-1,-1,-1,-1,-1,-1,-1,-1],"loss_changes":[4.6346604E9,1.2457202E9,1.9169377E9,4.067812E8,2.6533586E9,9.5643494E8,7.967674E7,2.9699302E8,0E0,2.0016466E9,2.982155E8,0E0,1.4112768E8,1.480844E7,2.9920864E7,1.3102743E9,7.93E7,0E0,7.167936E7,0E0,9.008743E7,0E0,0E0,0E0,0E0,4.210403E7,0E0,0E0,0E0,0E0,0E0,0E0,0E0,0E0,0E0,0E0,0E0],"parents":[2147483647,0,0,1,1,2,2,3,3,4,4,5,5,6,6,7,7,9,9,10,10,12,12,13,13,14,14,15,15,16,16,18,18,20,20,25,25],"right_children":[2,4,6,8,10,12,14,16,-1,18,20,-1,22,24,26,28,30,-1,32,-1,34,-1,-1,-1,-1,36,-1,-1,-1,-1,-1,-1,-1,-1,-1,-1,-1],"split_conditions":[1.779548E5,1.27552E4,2E0,6.7E0,4.8939486E0,1.5855136E-3,3.4848E4,-3E-2,6.836481E2,-1.4669927E-2,1.2042276E-2,-3.895769E1,5.54E0,1.610306E-3,7.3782E4,9.933775E-3,1.970397E-2,2.1301306E3,4.61E0,5.4341473E2,1.407385E-1,1.8145059E3,6.536532E2,1.4462988E2,-3.9738995E1,9.89011E-1,1.3937027E2,5.9653546E2,-1.566776E1,-2.7544025E1,-6.14978E1,1.1813871E2,5.6352264E2,-7.067614E1,9.538603E1,7.9433914E1,5.349737E2],"split_indices":[44,35,41,13,30,27,34,40,0,5,27,0,11,5,4,5,27,0,0,0,25,0,0,0,0,15,0,0,0,0,0,0,0,0,0,0,0],"split_type":[0,0,0,0,0,0,0,0,0,0,0,0,0,0,0,0,0,0,0,0,0,0,0,0,0,0,0,0,0,0,0,0,0,0,0,0,0],"sum_hessian":[8.71E2,8.53E2,1.8E1,8.14E2,3.9E1,7E0,1.1E1,8.13E2,1E0,6E0,3.3E1,1E0,6E0,4E0,7E0,7.8E1,7.35E2,2E0,4E0,2E0,3.1E1,4E0,2E0,3E0,1E0,5E0,2E0,9E0,6.9E1,4.57E2,2.78E2,3E0,1E0,1.4E1,1.7E1,1E0,4E0],"tree_param":{"num_deleted":"0","num_feature":"45","num_nodes":"37","size_leaf_vector":"1"}},{"base_weights":[-3.552886E1,-2.6937595E2,1.808022E4,-4.3570105E2,3.3049492E3,1.6454706E3,4.905053E3,-5.1842065E2,4.3340703E3,2.1273796E3,1.0944021E3,5.8564517E3,8.42186E1,-5.4736755E2,7.373559E3,-1.9504277E3,1.6036252E4,3.0615005E2,7.5209443E3,1.1271244E2,3.7532516E2,1.0791834E1,-3.960249E1,6.2193134E2,-6.891442E1,-1.4754362E2,-5.5005627E1,1.4908071E3,-1.544528E2,2.4135973E2,-2.2878119E1,7.951223E1,4.4838815E2],"categories":[],"categories_nodes":[],"categories_segments":[],"categories_sizes":[],"default_left":[0,0,0,0,0,0,0,0,0,0,0,0,0,0,0,0,0,0,0,0,0,0,0,0,0,0,0,0,0,0,0,0,0],"id":16,"left_children":[1,3,5,7,9,-1,11,13,15,-1,17,19,-1,21,23,25,27,29,31,-1,-1,-1,-1,-1,-1,-1,-1,-1,-1,-1,-1,-1,-1],"loss_changes":[3.6565737E9,5.0795405E8,1.9877256E9,3.2380794E8,3.2498486E9,0E0,1.1584608E7,1.8725162E8,1.0608703E9,0E0,1.8512968E8,1.2797568E7,0E0,1.4956494E8,1.5013013E8,5.26064E6,1.4098271E9,1.1960319E8,2.0061632E7,0E0,0E0,0E0,0E0,0E0,0E0,0E0,0E0,0E0,0E0,0E0,0E0,0E0,0E0],"parents":[2147483647,0,0,1,1,2,2,3,3,4,4,6,6,7,7,8,8,10,10,11,11,13,13,14,14,15,15,16,16,17,17,18,18],"right_children":[2,4,6,8,10,-1,12,14,16,-1,18,20,-1,22,24,26,28,30,32,-1,-1,-1,-1,-1,-1,-1,-1,-1,-1,-1,-1,-1,-1],"split_conditions":[2.0402695E5,1.318705E4,2E0,1.1965812E-1,4.813067E0,1.6454706E3,5.582E0,6.3975E0,1.349588E4,2.1273796E3,5.71E0,5.52E0,8.42186E1,-3.5369776E-2,6.26E0,3.7957486E-2,1.425E-1,-3.8659792E-2,5.65E0,1.1271244E2,3.7532516E2,1.0791834E1,-3.960249E1,6.2193134E2,-6.891442E1,-1.4754362E2,-5.5005627E1,1.4908071E3,-1.544528E2,2.4135973E2,-2.2878119E1,7.951223E1,4.4838815E2],"split_indices":[44,35,41,6,30,0,16,18,43,0,12,9,0,7,0,26,7,6,0,0,0,0,0,0,0,0,0,0,0,0,0,0,0],"split_type":[0,0,0,0,0,0,0,0,0,0,0,0,0,0,0,0,0,0,0,0,0,0,0,0,0,0,0,0,0,0,0,0,0],"sum_hessian":[8.61E2,8.51E2,1E1,8.14E2,3.7E1,4E0,6E0,8.01E2,1.3E1,1E0,3.6E1,4E0,2E0,7.99E2,2E0,9E0,4E0,3.3E1,3E0,2E0,2E0,1.94E2,6.05E2,1E0,1E0,3E0,6E0,2E0,2E0,4E0,2.9E1,1E0,2E0],"tree_param":{"num_deleted":"0","num_feature":"45","num_nodes":"33","size_leaf_vector":"1"}},{"base_weights":[1.6897089E2,-3.35669E1,1.9413791E4,-4.6375598E2,1.7844489E3,6.206873E3,2.873795E4,-5.3714417E2,1.2311649E4,6.866879E3,-7.845493E1,5.1078458E2,1.29097E2,1.0764846E2,1.7422977E3,5.752785E3,-5.914543E2,8.497752E2,-4.3497814E1,3.165333E3,3.510587E4,-4.401323E2,3.5783306E3,8.880279E1,-7.912051E1,-8.266137E1,1.0695712E3,-1.2791209E1,-5.5796978E1,1.3089904E3,6.3255135E1,3.7944693E2,2.5460422E3,2.0536974E1,-5.985074E1,-4.306258E1,3.1191354E2],"categories":[],"categories_nodes":[],"categories_segments":[],"categories_sizes":[],"default_left":[0,0,0,0,0,0,0,0,0,0,0,0,0,0,0,0,0,0,0,0,0,0,0,0,0,0,0,0,0,0,0,0,0,0,0,0,0],"id":17,"left_children":[1,3,5,7,9,11,13,15,17,19,21,-1,23,-1,-1,25,27,-1,-1,29,31,33,35,-1,-1,-1,-1,-1,-1,-1,-1,-1,-1,-1,-1,-1,-1],"loss_changes":[3.3683538E9,6.702971E8,9.2991795E8,6.563451E8,1.5533036E9,1.2050466E8,7.36884E8,2.3911123E8,2.6174829E8,4.4881065E9,1.6160669E8,0E0,1.1266794E7,0E0,0E0,7.302846E8,1.2029715E8,0E0,0E0,1.716192E9,1.7894625E9,7.197677E7,1.3527195E8,0E0,0E0,0E0,0E0,0E0,0E0,0E0,0E0,0E0,0E0,0E0,0E0,0E0,0E0],"parents":[2147483647,0,0,1,1,2,2,3,3,4,4,5,5,6,6,7,7,8,8,9,9,10,10,12,12,15,15,16,16,19,19,20,20,21,21,22,22],"right_children":[2,4,6,8,10,12,14,16,18,20,22,-1,24,-1,-1,26,28,-1,-1,30,32,34,36,-1,-1,-1,-1,-1,-1,-1,-1,-1,-1,-1,-1,-1,-1],"split_conditions":[4.31842E4,2.596E3,2.074689E-3,6.3975E0,4.485E0,1.4E-1,5.51E0,-5.822785E-2,6.25E0,4.6E0,7E-2,5.1078458E2,5.52E0,1.0764846E2,1.7422977E3,6.13E0,3.5057594E-3,8.497752E2,-4.3497814E1,8.026847E-3,4.51E0,2.8426E3,4.816E0,8.880279E1,-7.912051E1,-8.266137E1,1.0695712E3,-1.2791209E1,-5.5796978E1,1.3089904E3,6.3255135E1,3.7944693E2,2.5460422E3,2.0536974E1,-5.985074E1,-4.306258E1,3.1191354E2],"split_indices":[34,4,6,18,20,7,1,5,2,12,39,0,1,0,0,1,26,0,0,27,1,34,14,0,0,0,0,0,0,0,0,0,0,0,0,0,0],"split_type":[0,0,0,0,0,0,0,0,0,0,0,0,0,0,0,0,0,0,0,0,0,0,0,0,0,0,0,0,0,0,0,0,0,0,0,0,0],"sum_hessian":[8.63E2,8.55E2,8E0,6.92E2,1.63E2,4E0,4E0,6.89E2,3E0,4.3E1,1.2E2,2E0,2E0,1E0,3E0,5E0,6.84E2,2E0,1E0,3.9E1,4E0,1.1E2,1E1,1E0,1E0,4E0,1E0,4.18E2,2.66E2,2E0,3.7E1,2E0,2E0,5.2E1,5.8E1,4E0,6E0],"tree_param":{"num_deleted":"0","num_feature":"45","num_nodes":"37","size_leaf_vector":"1"}},{"base_weights":[2.1498161E2,-8.5378975E1,1.2548135E4,-4.6422342E2,1.4066737E3,-1.9926863E2,1.6544152E4,-5.3124536E2,8.810622E3,4.7566733E3,-1.2767893E2,1.0495725E2,-1.0787804E3,9.435395E3,3.029634E4,5.2171846E3,-6.0687994E2,-8.723088E1,8.214494E2,1.5008634E4,1.6590436E2,3.85107E2,-2.571119E2,-6.521258E1,-4.4223876E0,2.7380378E3,7.8382056E2,1.6769615E3,4.3311954E2,-5.0801468E1,9.0111444E2,-4.735448E1,2.061982E0,3.6816933E1,1.2462803E3,-4.564898E1,3.8424554E2,-3.0011377E1,1.1918186E2,1.8543303E2,-7.714251E1],"categories":[],"categories_nodes":[],"categories_segments":[],"categories_sizes":[],"default_left":[0,0,0,0,0,0,0,0,0,0,0,0,0,0,0,0,0,0,0,0,0,0,0,0,0,0,0,0,0,0,0,0,0,0,0,0,0,0,0,0,0],"id":18,"left_children":[1,3,5,7,9,11,13,15,17,19,21,-1,23,25,27,29,31,-1,-1,33,35,-1,37,-1,-1,39,-1,-1,-1,-1,-1,-1,-1,-1,-1,-1,-1,-1,-1,-1,-1],"loss_changes":[3.2720504E9,4.884688E8,1.0730122E9,4.3297526E8,9.001215E8,1.4393408E7,1.2783181E9,3.0099066E8,4.307307E8,2.586051E9,1.2460617E8,0E0,1.0010995E6,4.5865715E8,6.025267E7,7.366638E8,1.4931522E8,0E0,0E0,2.3877916E9,3.2338944E8,0E0,1.1016061E8,0E0,0E0,3.4807804E7,0E0,0E0,0E0,0E0,0E0,0E0,0E0,0E0,0E0,0E0,0E0,0E0,0E0,0E0,0E0],"parents":[2147483647,0,0,1,1,2,2,3,3,4,4,5,5,6,6,7,7,8,8,9,9,10,10,12,12,13,13,14,14,15,15,16,16,19,19,20,20,22,22,25,25],"right_children":[2,4,6,8,10,12,14,16,18,20,22,-1,24,26,28,30,32,-1,-1,34,36,-1,38,-1,-1,40,-1,-1,-1,-1,-1,-1,-1,-1,-1,-1,-1,-1,-1,-1,-1],"split_conditions":[3.171715E4,2.596E3,3.2419633E-2,6.3700995E0,4.485E0,5.51E0,2.3952097E-2,-1.7216259E-1,6.7E0,1.8703582E-2,1.6908264E-1,1.0495725E2,4.485981E-2,5.52E0,5.66E0,9.71913E-1,1.5194E3,-8.723088E1,8.214494E2,-1.4736842E-2,1.1895571E0,3.85107E2,7E-2,-6.521258E1,-4.4223876E0,1.425E-1,7.8382056E2,1.6769615E3,4.3311954E2,-5.0801468E1,9.0111444E2,-4.735448E1,2.061982E0,3.6816933E1,1.2462803E3,-4.564898E1,3.8424554E2,-3.0011377E1,1.1918186E2,1.8543303E2,-7.714251E1],"split_indices":[35,4,28,22,20,1,6,33,13,27,36,0,7,12,0,21,35,0,0,6,33,0,39,0,0,7,0,0,0,0,0,0,0,0,0,0,0,0,0,0,0],"split_type":[0,0,0,0,0,0,0,0,0,0,0,0,0,0,0,0,0,0,0,0,0,0,0,0,0,0,0,0,0,0,0,0,0,0,0,0,0,0,0,0,0],"sum_hessian":[8.82E2,8.62E2,2E1,6.88E2,1.74E2,5E0,1.5E1,6.84E2,4E0,5.4E1,1.2E2,1E0,4E0,1.1E1,4E0,8E0,6.76E2,2E0,2E0,1.6E1,3.8E1,1E0,1.19E2,3E0,1E0,6E0,5E0,3E0,1E0,6E0,2E0,4.43E2,2.33E2,7E0,9E0,3.4E1,4E0,1.06E2,1.3E1,5E0,1E0],"tree_param":{"num_deleted":"0","num_feature":"45","num_nodes":"41","size_leaf_vector":"1"}},{"base_weights":[-9.239836E1,-3.1586475E2,1.9179645E4,-5.7827527E2,3.868316E3,1.5662894E3,5.861251E3,4.9257803E3,-6.184811E2,1.5248532E4,1.3964493E3,1.18710304E2,4.278447E2,-6.2239264E2,8.1666614E2,-6.5002374E2,4.5709673E3,1.9613033E3,2.7940842E3,1.0582602E2,1.1184021E4,-7.366305E1,6.952701E1,-4.362808E1,-8.1398535E0,-2.7564112E1,6.2649915E2,-6.1602516E1,3.060849E2,-3.1069818E1,4.5198135E2,6.732181E2,5.1566578E1],"categories":[],"categories_nodes":[],"categories_segments":[],"categories_sizes":[],"default_left":[0,0,0,0,0,0,0,0,0,0,0,0,0,0,0,0,0,0,0,0,0,0,0,0,0,0,0,0,0,0,0,0,0],"id":19,"left_children":[1,3,5,7,9,-1,11,13,15,17,19,-1,-1,21,-1,23,25,-1,27,29,31,-1,-1,-1,-1,-1,-1,-1,-1,-1,-1,-1,-1],"loss_changes":[3.7571538E9,9.486898E8,1.4340631E9,1.8273789E8,1.4133553E9,0E0,3.608315E7,3.8991187E8,1.3506826E8,2.5780413E9,5.419954E8,0E0,0E0,1.0612331E7,0E0,8.692429E7,2.1074787E8,0E0,1.0132416E8,2.5899475E8,1.0187168E8,0E0,0E0,0E0,0E0,0E0,0E0,0E0,0E0,0E0,0E0,0E0,0E0],"parents":[2147483647,0,0,1,1,2,2,3,3,4,4,6,6,7,7,8,8,9,9,10,10,13,13,15,15,16,16,18,18,19,19,20,20],"right_children":[2,4,6,8,10,-1,12,14,16,18,20,-1,-1,22,-1,24,26,-1,28,30,32,-1,-1,-1,-1,-1,-1,-1,-1,-1,-1,-1,-1],"split_conditions":[2.0402695E5,1.008665E4,2E0,3.4968E0,4.51E0,1.5662894E3,5.55E0,1.3E3,6.0633707E0,1.0793548E0,2.9137721E-2,1.18710304E2,4.278447E2,3.6E0,8.1666614E2,1.8299E3,6.26E0,1.9613033E3,8.888889E-3,4.2689E4,5.56E0,-7.366305E1,6.952701E1,-4.362808E1,-8.1398535E0,-2.7564112E1,6.2649915E2,-6.1602516E1,3.060849E2,-3.1069818E1,4.5198135E2,6.732181E2,5.1566578E1],"split_indices":[44,35,41,20,9,0,3,4,31,21,28,0,0,0,0,35,0,0,6,4,2,0,0,0,0,0,0,0,0,0,0,0,0],"split_type":[0,0,0,0,0,0,0,0,0,0,0,0,0,0,0,0,0,0,0,0,0,0,0,0,0,0,0,0,0,0,0,0,0],"sum_hessian":[8.7E2,8.61E2,9E0,8.11E2,5E1,4E0,5E0,5E0,8.06E2,8E0,4.2E1,3E0,2E0,4E0,1E0,8.02E2,4E0,2E0,6E0,3.8E1,4E0,3E0,1E0,5.5E2,2.52E2,3E0,1E0,3E0,3E0,3.6E1,2E0,3E0,1E0],"tree_param":{"num_deleted":"0","num_feature":"45","num_nodes":"33","size_leaf_vector":"1"}},{"base_weights":[2.0960513E2,-5.1756912E1,1.37266045E4,-4.98894E2,1.6898812E3,6.7508623E3,2.5390322E4,-5.616782E2,8.353006E3,5.798517E3,6.503274E1,1.6298E3,1.1600291E4,4.65246E2,1.5553397E3,-7.618558E2,1.4321262E2,-8.826936E1,7.843532E2,1.5751449E4,3.587732E2,-8.263104E1,4.7784152E2,1.331954E2,-1.1437117E2,5.0277416E1,6.759065E2,-2.0278654E1,-4.7317303E1,8.69241E2,-1.5572804E1,4.47626E1,1.3773441E3,-3.6091667E1,5.882826E2,-1.8683922E1,1.2715759E2],"categories":[],"categories_nodes":[],"categories_segments":[],"categories_sizes":[],"default_left":[0,0,0,0,0,0,0,0,0,0,0,0,0,0,0,0,0,0,0,0,0,0,0,0,0,0,0,0,0,0,0,0,0,0,0,0,0],"id":20,"left_children":[1,3,5,7,9,11,13,15,17,19,21,23,25,-1,-1,27,29,-1,-1,31,33,35,-1,-1,-1,-1,-1,-1,-1,-1,-1,-1,-1,-1,-1,-1,-1],"loss_changes":[3.1661266E9,6.86144E8,1.2117658E9,3.9427923E8,1.2012868E9,2.791045E8,2.6226406E8,9.845814E7,3.9873818E8,2.7555604E9,1.82997E8,3.4449304E7,1.0832096E8,0E0,0E0,3.530797E7,1.2204936E9,0E0,0E0,3.1295734E9,4.275886E8,9.953563E7,0E0,0E0,0E0,0E0,0E0,0E0,0E0,0E0,0E0,0E0,0E0,0E0,0E0,0E0,0E0],"parents":[2147483647,0,0,1,1,2,2,3,3,4,4,5,5,6,6,7,7,8,8,9,9,10,10,11,11,12,12,15,15,16,16,19,19,20,20,21,21],"right_children":[2,4,6,8,10,12,14,16,18,20,22,24,26,-1,-1,28,30,-1,-1,32,34,36,-1,-1,-1,-1,-1,-1,-1,-1,-1,-1,-1,-1,-1,-1,-1],"split_conditions":[1.779548E5,2.461E3,1.0838381E0,6.7E0,4.485E0,5.55E0,2.6058E4,1.7454E3,6.26E0,1.8703582E-2,3.3269864E-2,1.425E-1,-2.8037382E-2,4.65246E2,1.5553397E3,1.6546257E-2,4.578453E3,-8.826936E1,7.843532E2,-1.4736842E-2,5.9485E4,7E-2,4.7784152E2,1.331954E2,-1.1437117E2,5.0277416E1,6.759065E2,-2.0278654E1,-4.7317303E1,8.69241E2,-1.5572804E1,4.47626E1,1.3773441E3,-3.6091667E1,5.882826E2,-1.8683922E1,1.2715759E2],"split_indices":[44,4,19,13,20,10,4,34,1,27,28,7,6,0,0,28,44,0,0,6,4,39,0,0,0,0,0,0,0,0,0,0,0,0,0,0,0],"split_type":[0,0,0,0,0,0,0,0,0,0,0,0,0,0,0,0,0,0,0,0,0,0,0,0,0,0,0,0,0,0,0,0,0,0,0,0,0],"sum_hessian":[8.95E2,8.79E2,1.6E1,7E2,1.79E2,1.1E1,5E0,6.96E2,4E0,5E1,1.29E2,6E0,5E0,2E0,3E0,5.42E2,1.54E2,2E0,2E0,1.7E1,3.3E1,1.28E2,1E0,5E0,1E0,1E0,4E0,1.86E2,3.56E2,3E0,1.51E2,8E0,9E0,3.1E1,2E0,1.16E2,1.2E1],"tree_param":{"num_deleted":"0","num_feature":"45","num_nodes":"37","size_leaf_vector":"1"}}]},"name":"gbtree"},"learner_model_param":{"base_score":"[2.642959E3]","boost_from_average":"1","num_class":"0","num_feature":"45","num_target":"1"},"objective":{"name":"reg:squarederror","reg_loss_param":{"scale_pos_weight":"1"}}},"version":[3,1,3]}