{"learner":{"attributes":{"best_iteration":"104","best_score":"0.12183476827726004","scikit_learn":"{\"_estimator_type\": \"regressor\"}"},"feature_names":[],"feature_types":[],"gradient_booster":{"model":{"cats":{"enc":[],"feature_segments":[],"sorted_idx":[]},"gbtree_model_param":{"num_parallel_tree":"1","num_trees":"135"},"iteration_indptr":[0,1,2,3,4,5,6,7,8,9,10,11,12,13,14,15,16,17,18,19,20,21,22,23,24,25,26,27,28,29,30,31,32,33,34,35,36,37,38,39,40,41,42,43,44,45,46,47,48,49,50,51,52,53,54,55,56,57,58,59,60,61,62,63,64,65,66,67,68,69,70,71,72,73,74,75,76,77,78,79,80,81,82,83,84,85,86,87,88,89,90,91,92,93,94,95,96,97,98,99,100,101,102,103,104,105,106,107,108,109,110,111,112,113,114,115,116,117,118,119,120,121,122,123,124,125,126,127,128,129,130,131,132,133,134,135],"tree_info":[0,0,0,0,0,0,0,0,0,0,0,0,0,0,0,0,0,0,0,0,0,0,0,0,0,0,0,0,0,0,0,0,0,0,0,0,0,0,0,0,0,0,0,0,0,0,0,0,0,0,0,0,0,0,0,0,0,0,0,0,0,0,0,0,0,0,0,0,0,0,0,0,0,0,0,0,0,0,0,0,0,0,0,0,0,0,0,0,0,0,0,0,0,0,0,0,0,0,0,0,0,0,0,0,0,0,0,0,0,0,0,0,0,0,0,0,0,0,0,0,0,0,0,0,0,0,0,0,0,0,0,0,0,0,0],"trees":[{"base_weights":[-2.2527205E-2,-7.1724206E-1,6.944193E-1,-1.1189071E0,-2.6836798E-1,3.7301114E-1,1.0166136E0,-6.884784E-2,-4.6728443E-2,-4.3781796E-1,-1.538593E-1,1.16463475E-1,4.9719462E-1,9.2698795E-1,6.505567E-2,-2.4044221E-2,-1.5207695E-2,-1.6919795E-1,-3.6969516E-2,7.203582E-2,9.086046E-3,1.8913362E-2,2.9034823E-2,3.665826E-2,4.858648E-2,-1.3336353E-2,-1.572317E-1,-5.2095884E-3,-0E0,-1.0791138E-3,9.4944425E-2,-8.399892E-3,-2.0922786E-3,-2.344148E-3,2.7070793E-3,-0E0,5.413695E-3],"categories":[],"categories_nodes":[],"categories_segments":[],"categories_sizes":[],"default_left":[0,0,0,0,0,0,0,0,0,0,0,0,0,0,0,0,0,0,0,0,0,0,0,0,0,0,0,0,0,0,0,0,0,0,0,0,0],"id":0,"left_children":[1,3,5,7,9,11,13,-1,-1,15,17,19,21,23,-1,-1,-1,25,27,29,-1,-1,-1,-1,-1,-1,31,-1,33,-1,35,-1,-1,-1,-1,-1,-1],"loss_changes":[4.3930298E2,8.0334045E1,4.4425095E1,9.70813E0,4.0064125E0,6.857847E0,4.0787354E0,0E0,0E0,2.645321E-1,2.0441628E-1,1.7317808E-1,1.1442528E0,5.7395935E-1,0E0,0E0,0E0,4.7543287E-2,4.190088E-2,1.0803969E-1,0E0,0E0,0E0,0E0,0E0,0E0,1.0118103E-1,0E0,3.297395E-2,0E0,4.431793E-2,0E0,0E0,0E0,0E0,0E0,0E0],"parents":[2147483647,0,0,1,1,2,2,3,3,4,4,5,5,6,6,9,9,10,10,11,11,12,12,13,13,17,17,18,18,19,19,26,26,28,28,30,30],"right_children":[2,4,6,8,10,12,14,-1,-1,16,18,20,22,24,-1,-1,-1,26,28,30,-1,-1,-1,-1,-1,-1,32,-1,34,-1,36,-1,-1,-1,-1,-1,-1],"split_conditions":[4.97E0,4.26E0,5.66E0,3.75E0,4.68E0,5.21E0,6.1E0,-6.884784E-2,-4.6728443E-2,4.63E0,5.1502E0,5.12E0,5.49E0,5.79E0,6.505567E-2,-2.4044221E-2,-1.5207695E-2,4.58E0,-9.430256E-2,3.6055E2,9.086046E-3,1.8913362E-2,2.9034823E-2,3.665826E-2,4.858648E-2,-1.3336353E-2,1.0221674E0,-5.2095884E-3,5.042E0,-1.0791138E-3,1.8518518E0,-8.399892E-3,-2.0922786E-3,-2.344148E-3,2.7070793E-3,-0E0,5.413695E-3],"split_indices":[0,0,0,0,0,0,14,0,0,0,20,0,0,0,0,0,0,14,7,35,0,0,0,0,0,0,15,0,18,0,29,0,0,0,0,0,0],"split_type":[0,0,0,0,0,0,0,0,0,0,0,0,0,0,0,0,0,0,0,0,0,0,0,0,0,0,0,0,0,0,0,0,0,0,0,0,0],"sum_hessian":[8.8E2,4.47E2,4.33E2,2.35E2,2.12E2,2.18E2,2.15E2,9.5E1,1.4E2,8.4E1,1.28E2,7.2E1,1.46E2,1.67E2,4.8E1,6.1E1,2.3E1,1.12E2,1.6E1,4.5E1,2.7E1,6.3E1,8.3E1,3.5E1,1.32E2,9E0,1.03E2,5E0,1.1E1,8E0,3.7E1,9.3E1,1E1,6E0,5E0,5E0,3.2E1],"tree_param":{"num_deleted":"0","num_feature":"45","num_nodes":"37","size_leaf_vector":"1"}},{"base_weights":[-1.3788898E-2,-6.7301995E-1,6.653572E-1,-1.0608228E0,-2.5230268E-1,3.591135E-1,9.752305E-1,-6.428387E-2,-4.3222856E-2,-4.1103506E-1,-1.4824814E-1,1.4815664E-1,4.9409962E-1,4.0463116E-2,1.1058712E0,-2.2905566E-2,-1.4931564E-2,-1.6367057E-1,-3.7637945E-2,8.070128E-2,1.163028E-2,1.8557116E-2,2.7647967E-2,4.9855284E-2,6.2534094E-2,-1.7213042E-1,-2.4660488E-3,-5.2637435E-3,-0E0,-8.6709646E-5,9.882551E-2,-1.0481548E-2,-7.140528E-3,-1.7797634E-3,2.571733E-3,1.9329308E-4,5.4425355E-3],"categories":[],"categories_nodes":[],"categories_segments":[],"categories_sizes":[],"default_left":[0,0,0,0,0,0,0,0,0,0,0,0,0,0,0,0,0,0,0,0,0,0,0,0,0,0,0,0,0,0,0,0,0,0,0,0,0],"id":1,"left_children":[1,3,5,7,9,11,13,-1,-1,15,17,19,21,-1,23,-1,-1,25,27,29,-1,-1,-1,-1,-1,31,-1,-1,33,-1,35,-1,-1,-1,-1,-1,-1],"loss_changes":[3.8727362E2,7.122623E1,3.9942352E1,8.740662E0,3.3847046E0,6.013439E0,3.4884796E0,0E0,0E0,2.26717E-1,1.954732E-1,4.397998E-1,6.504402E-1,0E0,3.3946228E-1,0E0,0E0,7.867932E-2,5.2080512E-2,8.4584504E-2,0E0,0E0,0E0,0E0,0E0,4.9167395E-2,0E0,0E0,2.4742305E-2,0E0,2.8291076E-2,0E0,0E0,0E0,0E0,0E0,0E0],"parents":[2147483647,0,0,1,1,2,2,3,3,4,4,5,5,6,6,9,9,10,10,11,11,12,12,14,14,17,17,18,18,19,19,25,25,28,28,30,30],"right_children":[2,4,6,8,10,12,14,-1,-1,16,18,20,22,-1,24,-1,-1,26,28,30,-1,-1,-1,-1,-1,32,-1,-1,34,-1,36,-1,-1,-1,-1,-1,-1],"split_conditions":[4.98E0,4.26E0,5.66E0,3.89E0,4.68E0,5.35E0,6E0,-6.428387E-2,-4.3222856E-2,4.56E0,5.1502E0,5.15E0,5.49E0,4.0463116E-2,6.17E0,-2.2905566E-2,-1.4931564E-2,4.91E0,-9.430256E-2,3.6055E2,1.163028E-2,1.8557116E-2,2.7647967E-2,4.9855284E-2,6.2534094E-2,4.79E0,-2.4660488E-3,-5.2637435E-3,5.0685E0,-8.6709646E-5,-3.8369305E-2,-1.0481548E-2,-7.140528E-3,-1.7797634E-3,2.571733E-3,1.9329308E-4,5.4425355E-3],"split_indices":[0,0,0,1,0,0,0,0,0,0,20,0,0,0,0,0,0,0,7,35,0,0,0,0,0,10,0,0,18,0,6,0,0,0,0,0,0],"split_type":[0,0,0,0,0,0,0,0,0,0,0,0,0,0,0,0,0,0,0,0,0,0,0,0,0,0,0,0,0,0,0,0,0,0,0,0,0],"sum_hessian":[8.63E2,4.38E2,4.25E2,2.27E2,2.11E2,2.15E2,2.1E2,1.03E2,1.24E2,8.2E1,1.29E2,8.5E1,1.3E2,9.6E1,1.14E2,5.5E1,2.7E1,1.12E2,1.7E1,4.9E1,3.6E1,4.5E1,8.5E1,7E1,4.4E1,1.03E2,9E0,6E0,1.1E1,8E0,4.1E1,4.1E1,6.2E1,6E0,5E0,5E0,3.6E1],"tree_param":{"num_deleted":"0","num_feature":"45","num_nodes":"37","size_leaf_vector":"1"}},{"base_weights":[8.331715E-3,-6.465015E-1,6.339402E-1,-1.0162177E0,-2.4428794E-1,3.6388916E-1,9.4783473E-1,-6.0882457E-2,-4.095463E-2,-3.8504907E-1,-1.425608E-1,1.9835994E-1,5.2831143E-1,8.701052E-1,6.013242E-2,-2.1475803E-2,-2.8092265E-1,-1.5527639E-1,-1.7286917E-2,1.0748634E-1,1.5834983E-2,2.2515098E-2,2.909035E-2,3.7598312E-2,4.6592575E-2,-1.5460709E-2,-5.2134744E-3,-1.9654866E-1,-5.89692E-3,9.2940574E-4,-3.9452906E-3,-0E0,1.2399128E-1,-1.0467292E-2,-2.6638936E-3,2.0880285E-3,6.853936E-3],"categories":[],"categories_nodes":[],"categories_segments":[],"categories_sizes":[],"default_left":[0,0,0,0,0,0,0,0,0,0,0,0,0,0,0,0,0,0,0,0,0,0,0,0,0,0,0,0,0,0,0,0,0,0,0,0,0],"id":2,"left_children":[1,3,5,7,9,11,13,-1,-1,15,17,19,21,23,-1,-1,25,27,29,31,-1,-1,-1,-1,-1,-1,-1,33,-1,-1,-1,-1,35,-1,-1,-1,-1],"loss_changes":[3.5641113E2,6.282527E1,3.72455E1,7.5742493E0,2.8277884E0,6.3817596E0,2.8066254E0,0E0,0E0,2.0186138E-1,1.7280388E-1,1.2355232E0,1.3557816E-1,3.05336E-1,0E0,0E0,7.134557E-2,1.13342285E-1,3.623601E-2,1.3289279E-1,0E0,0E0,0E0,0E0,0E0,0E0,0E0,5.2423716E-2,0E0,0E0,0E0,0E0,4.3115318E-2,0E0,0E0,0E0,0E0],"parents":[2147483647,0,0,1,1,2,2,3,3,4,4,5,5,6,6,9,9,10,10,11,11,12,12,13,13,16,16,17,17,18,18,19,19,27,27,32,32],"right_children":[2,4,6,8,10,12,14,-1,-1,16,18,20,22,24,-1,-1,26,28,30,32,-1,-1,-1,-1,-1,-1,-1,34,-1,-1,-1,-1,36,-1,-1,-1,-1],"split_conditions":[4.98E0,4.26E0,5.72E0,3.89E0,4.68E0,5.43E0,6.2E0,-6.0882457E-2,-4.095463E-2,4.6E0,4.91E0,5.21E0,5.53E0,5.9E0,6.013242E-2,-2.1475803E-2,2.8358841E-2,4.8E0,-1.6610265E-2,1.8518518E0,1.5834983E-2,2.2515098E-2,2.909035E-2,3.7598312E-2,4.6592575E-2,-1.5460709E-2,-5.2134744E-3,4.83E0,-5.89692E-3,9.2940574E-4,-3.9452906E-3,-0E0,4.496E2,-1.0467292E-2,-2.6638936E-3,2.0880285E-3,6.853936E-3],"split_indices":[0,0,0,0,0,14,0,0,0,0,0,0,0,0,0,0,28,10,25,29,0,0,0,0,0,0,0,3,0,0,0,0,35,0,0,0,0],"split_type":[0,0,0,0,0,0,0,0,0,0,0,0,0,0,0,0,0,0,0,0,0,0,0,0,0,0,0,0,0,0,0,0,0,0,0,0,0],"sum_hessian":[8.68E2,4.24E2,4.44E2,2.2E2,2.04E2,2.4E2,2.04E2,1.06E2,1.14E2,8.4E1,1.2E2,1.21E2,1.19E2,1.6E2,4.4E1,5.6E1,2.8E1,1.08E2,1.2E1,7E1,5.1E1,5.3E1,6.6E1,6E1,1E2,2.3E1,5E0,4.8E1,6E1,7E0,5E0,9E0,6.1E1,4.3E1,5E0,1E1,5.1E1],"tree_param":{"num_deleted":"0","num_feature":"45","num_nodes":"37","size_leaf_vector":"1"}},{"base_weights":[1.0056803E-2,-5.99548E-1,5.8784413E-1,-9.502927E-1,-2.2895896E-1,3.0787715E-1,8.576058E-1,-5.9563328E-2,-8.02703E-1,-3.4558734E-1,-1.247908E-1,8.7617636E-2,4.182245E-1,3.346896E-2,9.672902E-1,-4.2684708E-2,-3.4021474E-2,-4.1477424E-1,-2.5468126E-1,-1.452153E-1,7.0567295E-2,-0E0,1.284678E-1,3.0093825E-1,4.838319E-1,4.417941E-2,5.67584E-2,-2.2918744E-2,-1.4351661E-2,-1.5041758E-2,-1.4309052E-1,-1.615891E-1,-5.8196265E-2,-0E0,5.6481473E-3,-5.342933E-3,4.4035245E-2,9.9004626E-2,1.9632915E-1,8.364468E-3,3.143033E-1,1.1728867E-2,2.4703784E-2,-1.0629492E-2,-1.7258729E-3,-1.1597074E-2,-7.2847456E-3,-3.6978882E-3,-3.1627176E-4,-1.6682418E-3,4.203167E-3,3.5827362E-3,6.8768123E-3,1.260171E-2,5.527305E-3,1.0268341E-2,1.6859954E-2],"categories":[],"categories_nodes":[],"categories_segments":[],"categories_sizes":[],"default_left":[0,0,0,0,0,0,0,0,0,0,0,0,0,0,0,0,0,0,0,0,0,0,0,0,0,0,0,0,0,0,0,0,0,0,0,0,0,0,0,0,0,0,0,0,0,0,0,0,0,0,0,0,0,0,0,0,0],"id":3,"left_children":[1,3,5,7,9,11,13,-1,15,17,19,21,23,-1,25,-1,-1,27,29,31,33,35,37,39,41,-1,-1,-1,-1,-1,43,45,47,-1,-1,-1,49,51,53,-1,55,-1,-1,-1,-1,-1,-1,-1,-1,-1,-1,-1,-1,-1,-1,-1,-1],"loss_changes":[3.134766E2,5.5946762E1,3.413405E1,6.739868E0,2.4854174E0,5.405716E0,3.9786072E0,0E0,1.4482117E-1,4.5007992E-1,4.725827E-1,2.8359312E-1,9.3014526E-1,0E0,8.1855774E-1,0E0,0E0,9.4649315E-2,1.4947677E-1,1.1680007E-1,2.1786582E-2,1.2625402E-1,5.6997895E-2,1.0762215E-3,5.1246643E-2,0E0,0E0,0E0,0E0,0E0,8.868328E-2,2.4608374E-2,7.0375428E-3,0E0,0E0,0E0,6.364181E-2,1.1379242E-2,2.7802587E-3,0E0,1.2030602E-3,0E0,0E0,0E0,0E0,0E0,0E0,0E0,0E0,0E0,0E0,0E0,0E0,0E0,0E0,0E0,0E0],"parents":[2147483647,0,0,1,1,2,2,3,3,4,4,5,5,6,6,8,8,9,9,10,10,11,11,12,12,14,14,17,17,18,18,19,19,20,20,21,21,22,22,23,23,24,24,30,30,31,31,32,32,36,36,37,37,38,38,40,40],"right_children":[2,4,6,8,10,12,14,-1,16,18,20,22,24,-1,26,-1,-1,28,30,32,34,36,38,40,42,-1,-1,-1,-1,-1,44,46,48,-1,-1,-1,50,52,54,-1,56,-1,-1,-1,-1,-1,-1,-1,-1,-1,-1,-1,-1,-1,-1,-1,-1],"split_conditions":[4.98E0,4.26E0,5.64E0,4.026704E0,4.7E0,5.254E0,5.914E0,-5.9563328E-2,4.08E0,9.708394E-1,1.0271071E0,9.949257E-1,5.466E0,3.346896E-2,6.146E0,-4.2684708E-2,-3.4021474E-2,4.8264E0,1.8518519E-2,5.079E0,4.81E0,3.6055E2,5.15E0,1.5248E2,1.201642E3,4.417941E-2,5.67584E-2,-2.2918744E-2,-1.4351661E-2,-1.5041758E-2,4.5E0,9.830867E-1,2.8915663E1,-0E0,5.6481473E-3,-5.342933E-3,9.771229E-1,5.12E0,2.425846E-2,8.364468E-3,-2.1857923E-2,1.1728867E-2,2.4703784E-2,-1.0629492E-2,-1.7258729E-3,-1.1597074E-2,-7.2847456E-3,-3.6978882E-3,-3.1627176E-4,-1.6682418E-3,4.203167E-3,3.5827362E-3,6.8768123E-3,1.260171E-2,5.527305E-3,1.0268341E-2,1.6859954E-2],"split_indices":[1,1,8,30,8,14,14,0,2,21,15,15,14,0,14,0,0,20,5,20,9,35,1,44,44,0,0,0,0,0,13,19,29,0,0,0,15,2,27,0,6,0,0,0,0,0,0,0,0,0,0,0,0,0,0,0,0],"split_type":[0,0,0,0,0,0,0,0,0,0,0,0,0,0,0,0,0,0,0,0,0,0,0,0,0,0,0,0,0,0,0,0,0,0,0,0,0,0,0,0,0,0,0,0,0,0,0,0,0,0,0,0,0,0,0,0,0],"sum_hessian":[8.88E2,4.32E2,4.56E2,2.21E2,2.11E2,2.25E2,2.31E2,8.1E1,1.4E2,9.8E1,1.13E2,7.6E1,1.49E2,8.8E1,1.43E2,9.4E1,4.6E1,5.3E1,4.5E1,1.03E2,1E1,2.4E1,5.2E1,5.6E1,9.3E1,1E2,4.3E1,3.7E1,1.6E1,3E1,1.5E1,8.5E1,1.8E1,5E0,5E0,7E0,1.7E1,3.9E1,1.3E1,7E0,4.9E1,5E0,8.8E1,8E0,7E0,1.2E1,7.3E1,1.2E1,6E0,5E0,1.2E1,2.6E1,1.3E1,6E0,7E0,1.1E1,3.8E1],"tree_param":{"num_deleted":"0","num_feature":"45","num_nodes":"57","size_leaf_vector":"1"}},{"base_weights":[-1.2688793E-3,-5.7051903E-1,5.837109E-1,-9.026657E-1,-2.2142872E-1,3.022317E-1,8.2655865E-1,-5.6420334E-2,-7.568343E-1,-3.5583037E-1,-1.2546642E-1,1.1729879E-1,4.1382524E-1,3.4497213E-2,9.551159E-1,-4.154938E-2,-3.3469062E-2,-2.0325696E-2,-2.870532E-1,-1.3850492E-1,-1.1342773E-2,8.420681E-2,1.2089925E-2,1.5237582E-2,2.260858E-2,4.45169E-2,5.7973422E-2,-7.8183515E-3,-1.5513134E-2,-1.4521115E-1,-9.4979646E-4,-2.206685E-3,1.4266284E-3,1.5586403E-2,9.973639E-2,-8.775581E-3,-5.983786E-3,-5.564512E-4,2.4757052E-3,-0E0,5.5203917E-3],"categories":[],"categories_nodes":[],"categories_segments":[],"categories_sizes":[],"default_left":[0,0,0,0,0,0,0,0,0,0,0,0,0,0,0,0,0,0,0,0,0,0,0,0,0,0,0,0,0,0,0,0,0,0,0,0,0,0,0,0,0],"id":4,"left_children":[1,3,5,7,9,11,13,-1,15,17,19,21,23,-1,25,-1,-1,-1,27,29,31,33,-1,-1,-1,-1,-1,-1,-1,35,-1,-1,-1,37,39,-1,-1,-1,-1,-1,-1],"loss_changes":[2.8904254E2,5.0705338E1,2.889392E1,6.3644867E0,2.6930838E0,4.0258102E0,3.1983948E0,0E0,2.0160675E-1,1.241951E-1,1.7390823E-1,2.6427388E-1,3.0514526E-1,0E0,2.8501892E-1,0E0,0E0,0E0,3.221464E-2,7.218671E-2,2.2432603E-2,5.4048926E-2,0E0,0E0,0E0,0E0,0E0,0E0,0E0,3.2266617E-2,0E0,0E0,0E0,1.7079053E-2,5.117759E-2,0E0,0E0,0E0,0E0,0E0,0E0],"parents":[2147483647,0,0,1,1,2,2,3,3,4,4,5,5,6,6,8,8,9,9,10,10,11,11,12,12,14,14,18,18,19,19,20,20,21,21,29,29,33,33,34,34],"right_children":[2,4,6,8,10,12,14,-1,16,18,20,22,24,-1,26,-1,-1,-1,28,30,32,34,-1,-1,-1,-1,-1,-1,-1,36,-1,-1,-1,38,40,-1,-1,-1,-1,-1,-1],"split_conditions":[4.98E0,4.26E0,5.64E0,3.78E0,4.68E0,5.3E0,6E0,-5.6420334E-2,4.03E0,9.721574E-1,5.1502E0,5.4596E0,5.43E0,3.4497213E-2,6.3E0,-4.154938E-2,-3.3469062E-2,-2.0325696E-2,9.7822994E-1,4.89E0,4.97E0,4.496E2,1.2089925E-2,1.5237582E-2,2.260858E-2,4.45169E-2,5.7973422E-2,-7.8183515E-3,-1.5513134E-2,4.76E0,-9.4979646E-4,-2.206685E-3,1.4266284E-3,5.01E0,4.206891E0,-8.775581E-3,-5.983786E-3,-5.564512E-4,2.4757052E-3,-0E0,5.5203917E-3],"split_indices":[0,0,0,0,0,0,0,0,0,21,20,20,14,0,0,0,0,0,21,3,8,35,0,0,0,0,0,0,0,1,0,0,0,1,31,0,0,0,0,0,0],"split_type":[0,0,0,0,0,0,0,0,0,0,0,0,0,0,0,0,0,0,0,0,0,0,0,0,0,0,0,0,0,0,0,0,0,0,0,0,0,0,0,0,0],"sum_hessian":[8.66E2,4.39E2,4.27E2,2.24E2,2.15E2,1.99E2,2.28E2,8.5E1,1.39E2,8.8E1,1.27E2,7.6E1,1.23E2,1.14E2,1.14E2,7E1,6.9E1,4.7E1,4.1E1,1.13E2,1.4E1,6.2E1,1.4E1,3.5E1,8.8E1,9.1E1,2.3E1,8E0,3.3E1,1.06E2,7E0,9E0,5E0,1.3E1,4.9E1,4.4E1,6.2E1,6E0,7E0,5E0,4.4E1],"tree_param":{"num_deleted":"0","num_feature":"45","num_nodes":"41","size_leaf_vector":"1"}},{"base_weights":[-4.7938465E-3,-5.4895157E-1,5.5140525E-1,-8.53927E-1,-2.1441884E-1,3.164052E-1,8.1127954E-1,-5.4291952E-2,-7.2123516E-1,-3.3059573E-1,-1.1595277E-1,1.5415151E-1,4.4327724E-1,7.426882E-1,5.1260967E-2,-3.878444E-2,-2.9704494E-2,-1.8945977E-2,-2.4734512E-1,-1.2883693E-1,-5.488121E-2,9.028619E-2,1.3319137E-2,1.8664775E-2,2.4965001E-2,3.251661E-2,3.988965E-2,-1.34818E-2,-6.4747357E-3,-2.4654884E-3,-1.352737E-1,-4.0908763E-3,-0E0,2.9795548E-2,1.1966352E-1,-7.194961E-3,-3.0160225E-3,-0E0,3.49793E-3,4.0477337E-3,7.4410895E-3],"categories":[],"categories_nodes":[],"categories_segments":[],"categories_sizes":[],"default_left":[0,0,0,0,0,0,0,0,0,0,0,0,0,0,0,0,0,0,0,0,0,0,0,0,0,0,0,0,0,0,0,0,0,0,0,0,0,0,0,0,0],"id":5,"left_children":[1,3,5,7,9,11,13,-1,15,17,19,21,23,25,-1,-1,-1,-1,27,29,31,33,-1,-1,-1,-1,-1,-1,-1,-1,35,-1,-1,37,39,-1,-1,-1,-1,-1,-1],"loss_changes":[2.7178848E2,4.6029083E1,2.6745834E1,6.3293E0,2.410819E0,4.709507E0,2.143402E0,0E0,4.6842194E-1,2.419262E-1,6.898022E-2,6.9288945E-1,2.3994827E-1,1.6590881E-1,0E0,0E0,0E0,0E0,3.025031E-2,2.4525404E-2,2.8124884E-2,1.0410535E-1,0E0,0E0,0E0,0E0,0E0,0E0,0E0,0E0,2.7790904E-2,0E0,0E0,3.65361E-2,1.576525E-2,0E0,0E0,0E0,0E0,0E0,0E0],"parents":[2147483647,0,0,1,1,2,2,3,3,4,4,5,5,6,6,8,8,9,9,10,10,11,11,12,12,13,13,18,18,19,19,20,20,21,21,30,30,33,33,34,34],"right_children":[2,4,6,8,10,12,14,-1,16,18,20,22,24,26,-1,-1,-1,-1,28,30,32,34,-1,-1,-1,-1,-1,-1,-1,-1,36,-1,-1,38,40,-1,-1,-1,-1,-1,-1],"split_conditions":[4.98E0,4.26E0,5.72E0,3.72E0,4.7E0,5.352E0,6.2E0,-5.4291952E-2,4.12E0,4.6E0,4.89E0,5.21E0,5.53E0,5.92E0,5.1260967E-2,-3.878444E-2,-2.9704494E-2,-1.8945977E-2,1.0293884E0,3E0,5.12314E0,5.09E0,1.3319137E-2,1.8664775E-2,2.4965001E-2,3.251661E-2,3.988965E-2,-1.34818E-2,-6.4747357E-3,-2.4654884E-3,1.0134103E0,-4.0908763E-3,-0E0,9.932568E-1,8E0,-7.194961E-3,-3.0160225E-3,-0E0,3.49793E-3,4.0477337E-3,7.4410895E-3],"split_indices":[0,0,0,0,0,14,0,0,0,0,0,0,0,0,0,0,0,0,17,34,30,0,0,0,0,0,0,0,0,0,17,0,0,19,4,0,0,0,0,0,0],"split_type":[0,0,0,0,0,0,0,0,0,0,0,0,0,0,0,0,0,0,0,0,0,0,0,0,0,0,0,0,0,0,0,0,0,0,0,0,0,0,0,0,0],"sum_hessian":[8.96E2,4.53E2,4.43E2,2.36E2,2.17E2,2.34E2,2.09E2,8.3E1,1.53E2,9.8E1,1.19E2,1.04E2,1.3E2,1.62E2,4.7E1,1.03E2,5E1,5.9E1,3.9E1,9.6E1,2.3E1,6.8E1,3.6E1,6.2E1,6.8E1,6.6E1,9.6E1,3.1E1,8E0,9E0,8.7E1,1.4E1,9E0,2.4E1,4.4E1,7.6E1,1.1E1,1.3E1,1.1E1,2.2E1,2.2E1],"tree_param":{"num_deleted":"0","num_feature":"45","num_nodes":"41","size_leaf_vector":"1"}},{"base_weights":[6.4061913E-3,-5.2773046E-1,5.214625E-1,-8.209337E-1,-2.0270467E-1,2.9209113E-1,7.7639455E-1,-4.9988482E-2,-6.624006E-1,-3.245503E-1,-1.1210444E-1,1.12869866E-1,4.0387076E-1,7.149312E-1,4.9418043E-2,-3.4780003E-2,-2.6126549E-2,-3.8182202E-1,-2.560734E-1,-1.2512669E-1,-3.638794E-2,5.8046278E-2,9.330898E-3,1.6692646E-2,2.3487518E-2,3.1313844E-2,3.8379677E-2,-1.0689627E-2,-2.0256525E-2,-7.8983195E-3,-1.3899281E-2,-1.308741E-1,-7.893147E-4,-4.4411505E-3,-0E0,5.380721E-3,4.1457373E-3,-8.635027E-3,-5.449886E-3,-2.1715339E-3,2.7522556E-3,-3.224161E-3,2.3535606E-3],"categories":[],"categories_nodes":[],"categories_segments":[],"categories_sizes":[],"default_left":[0,0,0,0,0,0,0,0,0,0,0,0,0,0,0,0,0,0,0,0,0,0,0,0,0,0,0,0,0,0,0,0,0,0,0,0,0,0,0,0,0,0,0],"id":6,"left_children":[1,3,5,7,9,11,13,-1,15,17,19,21,23,25,-1,-1,-1,27,29,31,33,35,-1,-1,-1,-1,-1,-1,-1,-1,-1,37,-1,-1,39,41,-1,-1,-1,-1,-1,-1,-1],"loss_changes":[2.3934554E2,4.0423737E1,2.5570404E1,5.5222473E0,2.171956E0,4.610565E0,1.8459396E0,0E0,8.123016E-2,1.7571068E-1,9.662938E-2,3.3666956E-1,4.2704582E-1,1.5489197E-1,0E0,0E0,0E0,2.3820877E-2,4.93145E-3,4.611039E-2,3.663457E-2,6.2758446E-2,0E0,0E0,0E0,0E0,0E0,0E0,0E0,0E0,0E0,3.90172E-2,0E0,0E0,3.3269573E-2,5.9547342E-2,0E0,0E0,0E0,0E0,0E0,0E0,0E0],"parents":[2147483647,0,0,1,1,2,2,3,3,4,4,5,5,6,6,8,8,9,9,10,10,11,11,12,12,13,13,17,17,18,18,19,19,20,20,21,21,31,31,34,34,35,35],"right_children":[2,4,6,8,10,12,14,-1,16,18,20,22,24,26,-1,-1,-1,28,30,32,34,36,-1,-1,-1,-1,-1,-1,-1,-1,-1,38,-1,-1,40,42,-1,-1,-1,-1,-1,-1,-1],"split_conditions":[4.97E0,4.26E0,5.75E0,3.89E0,4.68E0,5.35E0,6.18E0,-4.9988482E-2,4.17E0,9.721574E-1,5.1502E0,5.15E0,5.52E0,5.92E0,4.9418043E-2,-3.4780003E-2,-2.6126549E-2,-5.227656E-2,9.7822994E-1,4.89E0,-9.430256E-2,-7.797271E-3,9.330898E-3,1.6692646E-2,2.3487518E-2,3.1313844E-2,3.8379677E-2,-1.0689627E-2,-2.0256525E-2,-7.8983195E-3,-1.3899281E-2,4.79E0,-7.893147E-4,-4.4411505E-3,5.042E0,5.12E0,4.1457373E-3,-8.635027E-3,-5.449886E-3,-2.1715339E-3,2.7522556E-3,-3.224161E-3,2.3535606E-3],"split_indices":[0,0,0,0,0,0,0,0,0,21,20,0,0,0,0,0,0,6,21,3,7,6,0,0,0,0,0,0,0,0,0,10,0,0,18,12,0,0,0,0,0,0,0],"split_type":[0,0,0,0,0,0,0,0,0,0,0,0,0,0,0,0,0,0,0,0,0,0,0,0,0,0,0,0,0,0,0,0,0,0,0,0,0,0,0,0,0,0,0],"sum_hessian":[8.68E2,4.26E2,4.42E2,2.23E2,2.03E2,2.34E2,2.08E2,1.02E2,1.21E2,8.5E1,1.18E2,9.1E1,1.43E2,1.65E2,4.3E1,9.4E1,2.7E1,4.3E1,4.2E1,9.9E1,1.9E1,5.4E1,3.7E1,7.3E1,7E1,6.7E1,9.8E1,7E0,3.6E1,1E1,3.2E1,9.3E1,6E0,7E0,1.2E1,1.9E1,3.5E1,2.8E1,6.5E1,7E0,5E0,6E0,1.3E1],"tree_param":{"num_deleted":"0","num_feature":"45","num_nodes":"43","size_leaf_vector":"1"}},{"base_weights":[-4.9592764E-3,-4.8841703E-1,4.9606234E-1,-7.768514E-1,-1.869381E-1,2.846819E-1,7.42511E-1,-4.833701E-2,-6.471605E-1,-3.061527E-1,-1.0856599E-1,1.0027668E-1,3.834097E-1,6.7502105E-1,4.6733674E-2,-3.473776E-2,-2.6968999E-2,-1.6775453E-2,-2.3907325E-1,-1.1809894E-1,-4.2369958E-2,6.631919E-2,9.711459E-3,3.2229698E-1,2.2679519E-2,2.9524563E-2,3.606114E-2,-5.4464294E-3,-1.2803267E-2,-1.2522328E-1,-9.6730667E-4,-5.9780847E-2,-0E0,1.1701525E-2,8.3697885E-2,1.1588863E-2,1.7321877E-2,-7.082318E-3,-4.7921604E-3,-3.9370055E-3,-3.9358457E-4,-1.3639084E-3,1.8242173E-3,4.7397595E-3,2.6245654E-4],"categories":[],"categories_nodes":[],"categories_segments":[],"categories_sizes":[],"default_left":[0,0,0,0,0,0,0,0,0,0,0,0,0,0,0,0,0,0,0,0,0,0,0,0,0,0,0,0,0,0,0,0,0,0,0,0,0,0,0,0,0,0,0,0,0],"id":7,"left_children":[1,3,5,7,9,11,13,-1,15,17,19,21,23,25,-1,-1,-1,-1,27,29,31,33,-1,35,-1,-1,-1,-1,-1,37,-1,39,-1,41,43,-1,-1,-1,-1,-1,-1,-1,-1,-1,-1],"loss_changes":[2.146087E2,3.8975952E1,2.234697E1,4.8771515E0,1.9994588E0,4.2097836E0,1.8019104E0,0E0,2.2001648E-1,3.3651352E-2,6.4771175E-2,2.290569E-1,4.3242645E-1,3.6582947E-2,0E0,0E0,0E0,0E0,4.1621923E-3,6.543565E-2,1.0554478E-2,5.0228417E-2,0E0,4.9809456E-2,0E0,0E0,0E0,0E0,0E0,1.4786482E-2,0E0,3.5130717E-3,0E0,1.9304322E-2,3.041476E-2,0E0,0E0,0E0,0E0,0E0,0E0,0E0,0E0,0E0,0E0],"parents":[2147483647,0,0,1,1,2,2,3,3,4,4,5,5,6,6,8,8,9,9,10,10,11,11,12,12,13,13,18,18,19,19,20,20,21,21,23,23,29,29,31,31,33,33,34,34],"right_children":[2,4,6,8,10,12,14,-1,16,18,20,22,24,26,-1,-1,-1,-1,28,30,32,34,-1,36,-1,-1,-1,-1,-1,38,-1,40,-1,42,44,-1,-1,-1,-1,-1,-1,-1,-1,-1,-1],"split_conditions":[4.98E0,4.26E0,5.74E0,3.75E0,4.68E0,5.35E0,6.2E0,-4.833701E-2,4.12E0,4.6E0,5.0948E0,5.25E0,5.53E0,5.92E0,4.6733674E-2,-3.473776E-2,-2.6968999E-2,-1.6775453E-2,9.6068734E-1,5.8376245E-2,-7.797271E-3,2.7272728E1,9.711459E-3,9.305E2,2.2679519E-2,2.9524563E-2,3.606114E-2,-5.4464294E-3,-1.2803267E-2,4.822E0,-9.6730667E-4,4.9E0,-0E0,5.01E0,2.9093469E-2,1.1588863E-2,1.7321877E-2,-7.082318E-3,-4.7921604E-3,-3.9370055E-3,-3.9358457E-4,-1.3639084E-3,1.8242173E-3,4.7397595E-3,2.6245654E-4],"split_indices":[0,0,14,0,0,0,0,0,0,0,20,14,0,0,0,0,0,0,17,26,6,29,0,35,0,0,0,0,0,14,0,0,0,8,27,0,0,0,0,0,0,0,0,0,0],"split_type":[0,0,0,0,0,0,0,0,0,0,0,0,0,0,0,0,0,0,0,0,0,0,0,0,0,0,0,0,0,0,0,0,0,0,0,0,0,0,0,0,0,0,0,0,0],"sum_hessian":[8.84E2,4.5E2,4.34E2,2.29E2,2.21E2,2.35E2,1.99E2,9E1,1.39E2,8.6E1,1.35E2,8.3E1,1.52E2,1.51E2,4.8E1,9.2E1,4.7E1,5.6E1,3E1,1.16E2,1.9E1,6.3E1,2E1,8.5E1,6.7E1,5.9E1,9.2E1,5E0,2.5E1,1.07E2,9E0,1.2E1,7E0,1.7E1,4.6E1,2.1E1,6.4E1,6.4E1,4.3E1,7E0,5E0,5E0,1.2E1,3.9E1,7E0],"tree_param":{"num_deleted":"0","num_feature":"45","num_nodes":"45","size_leaf_vector":"1"}},{"base_weights":[-1.1530238E-2,-4.6582466E-1,4.7262654E-1,-7.3256075E-1,-1.7945327E-1,2.6046428E-1,6.922719E-1,-4.6266783E-2,-6.2108475E-1,-2.8062552E-1,-9.436645E-2,6.957517E-2,3.4644336E-1,6.349203E-1,4.4401534E-2,-3.3261433E-2,-2.5520846E-2,-3.3989197E-1,-2.2088687E-1,-9.9869266E-2,5.5411574E-4,1.995943E-2,9.6785635E-2,2.580186E-1,2.0101642E-2,2.624881E-2,3.4160566E-2,-1.0903746E-2,-1.8210944E-2,-1.2288682E-2,-1.347888E-1,-5.555814E-2,-1.1351781E-1,5.2832562E-2,-7.196522E-3,6.361687E-2,6.187129E-3,2.746864E-1,1.5873471E-1,-8.8206185E-3,-2.3865763E-3,9.3603454E-4,-3.7204355E-3,-5.9442963E-3,-1.0832711E-3,1.6208307E-4,3.8560263E-3,-2.7622068E-3,1.7228698E-3,8.290315E-4,3.845447E-3,7.057869E-3,1.4540768E-2,3.2651417E-3,1.0092854E-2],"categories":[],"categories_nodes":[],"categories_segments":[],"categories_sizes":[],"default_left":[0,0,0,0,0,0,0,0,0,0,0,0,0,0,0,0,0,0,0,0,0,0,0,0,0,0,0,0,0,0,0,0,0,0,0,0,0,0,0,0,0,0,0,0,0,0,0,0,0,0,0,0,0,0,0],"id":8,"left_children":[1,3,5,7,9,11,13,-1,15,17,19,21,23,25,-1,-1,-1,27,29,31,-1,33,35,37,-1,-1,-1,-1,-1,-1,39,41,43,45,47,49,-1,51,53,-1,-1,-1,-1,-1,-1,-1,-1,-1,-1,-1,-1,-1,-1,-1,-1],"loss_changes":[1.922356E2,3.422724E1,1.9436409E1,4.2777557E0,1.8212633E0,3.4958E0,1.607872E0,0E0,2.8057098E-1,2.1935368E-1,8.019757E-2,7.954833E-2,5.6267166E-1,3.9124298E-1,0E0,0E0,0E0,1.6245842E-3,4.2379618E-2,4.6940446E-2,0E0,2.9046748E-2,1.1839479E-2,1.4000416E-2,0E0,0E0,0E0,0E0,0E0,0E0,2.3519695E-2,5.036795E-2,2.5773406E-2,8.576255E-3,3.200144E-2,3.755644E-3,0E0,2.3436546E-2,8.45021E-3,0E0,0E0,0E0,0E0,0E0,0E0,0E0,0E0,0E0,0E0,0E0,0E0,0E0,0E0,0E0,0E0],"parents":[2147483647,0,0,1,1,2,2,3,3,4,4,5,5,6,6,8,8,9,9,10,10,11,11,12,12,13,13,17,17,18,18,19,19,21,21,22,22,23,23,30,30,31,31,32,32,33,33,34,34,35,35,37,37,38,38],"right_children":[2,4,6,8,10,12,14,-1,16,18,20,22,24,26,-1,-1,-1,28,30,32,-1,34,36,38,-1,-1,-1,-1,-1,-1,40,42,44,46,48,50,-1,52,54,-1,-1,-1,-1,-1,-1,-1,-1,-1,-1,-1,-1,-1,-1,-1,-1],"split_conditions":[4.98E0,4.26E0,5.704E0,3.72E0,4.7E0,5.21E0,6.18E0,-4.6266783E-2,4.12E0,9.700619E-1,4.898047E0,5.09E0,5.5E0,5.914E0,4.4401534E-2,-3.3261433E-2,-2.5520846E-2,-3.958871E-2,4.63E0,-5.755979E-2,5.5411574E-4,1.8096134E-2,5.12E0,2.4106745E-2,2.0101642E-2,2.624881E-2,3.4160566E-2,-1.0903746E-2,-1.8210944E-2,-1.2288682E-2,1.0003216E0,3.404718E3,9.27745E-1,1.292611E-2,3.090207E-2,1.524354E3,6.187129E-3,1.107641E3,5.24E0,-8.8206185E-3,-2.3865763E-3,9.3603454E-4,-3.7204355E-3,-5.9442963E-3,-1.0832711E-3,1.6208307E-4,3.8560263E-3,-2.7622068E-3,1.7228698E-3,8.290315E-4,3.845447E-3,7.057869E-3,1.4540768E-2,3.2651417E-3,1.0092854E-2],"split_indices":[0,0,14,0,0,0,0,0,0,21,31,0,0,14,0,0,0,26,3,25,0,27,2,28,0,0,0,0,0,0,15,44,33,28,27,44,0,44,9,0,0,0,0,0,0,0,0,0,0,0,0,0,0,0,0],"split_type":[0,0,0,0,0,0,0,0,0,0,0,0,0,0,0,0,0,0,0,0,0,0,0,0,0,0,0,0,0,0,0,0,0,0,0,0,0,0,0,0,0,0,0,0,0,0,0,0,0,0,0,0,0,0,0],"sum_hessian":[8.72E2,4.5E2,4.22E2,2.32E2,2.18E2,2.16E2,2.06E2,8.2E1,1.5E2,9.8E1,1.2E2,6.8E1,1.48E2,1.63E2,4.3E1,1.03E2,4.7E1,4.6E1,5.2E1,1.15E2,5E0,2.6E1,4.2E1,6E1,8.8E1,5.4E1,1.09E2,1E1,3.6E1,3.8E1,1.4E1,3E1,8.5E1,1.3E1,1.3E1,2.2E1,2E1,4.9E1,1.1E1,8E0,6E0,5E0,2.5E1,7.9E1,6E0,6E0,7E0,7E0,6E0,7E0,1.5E1,7E0,4.2E1,5E0,6E0],"tree_param":{"num_deleted":"0","num_feature":"45","num_nodes":"55","size_leaf_vector":"1"}},{"base_weights":[3.2583098E-3,-4.3975702E-1,4.414262E-1,-6.9624805E-1,-1.6481769E-1,2.3168837E-1,6.339956E-1,-8.5616505E-1,-5.6783706E-1,-2.7355057E-1,-1.01643495E-1,7.063352E-2,3.0874577E-1,5.248374E-1,7.2612137E-1,-4.959533E-2,-3.911089E-2,-3.065586E-2,-2.4440767E-2,-2.8566438E-1,-6.118762E-3,-1.3764395E-1,-7.7670954E-2,1.5780054E-2,5.1191924E-3,1.1473546E-2,3.536477E-1,2.6918685E-2,1.5250347E-2,3.4145143E-2,4.8822876E-2,-1.6554674E-2,-1.160231E-2,-1.5002686E-1,-1.2045172E-3,-8.4139764E-2,2.4291594E-4,5.333728E-2,-1.8444123E-2,8.318253E-3,1.808603E-2,-8.238893E-3,-4.3698386E-3,-1.9629835E-3,-4.887685E-3,-0E0,4.2075342E-3,-3.0678778E-3,4.455322E-4],"categories":[],"categories_nodes":[],"categories_segments":[],"categories_sizes":[],"default_left":[0,0,0,0,0,0,0,0,0,0,0,0,0,0,0,0,0,0,0,0,0,0,0,0,0,0,0,0,0,0,0,0,0,0,0,0,0,0,0,0,0,0,0,0,0,0,0,0,0],"id":9,"left_children":[1,3,5,7,9,11,13,15,17,19,21,23,25,27,29,-1,-1,-1,-1,31,-1,33,35,37,-1,-1,39,-1,-1,-1,-1,-1,-1,41,-1,43,-1,45,47,-1,-1,-1,-1,-1,-1,-1,-1,-1,-1],"loss_changes":[1.6868619E2,3.026355E1,1.7416565E1,3.95076E0,1.3771896E0,2.5588627E0,1.7765884E0,2.0355225E-2,4.4525146E-2,6.341696E-2,8.42855E-2,1.0848108E-1,3.6599922E-1,7.28302E-2,4.6553802E-1,0E0,0E0,0E0,0E0,3.4929276E-2,0E0,5.068654E-2,5.3715587E-2,4.04633E-2,0E0,0E0,2.0062447E-2,0E0,0E0,0E0,0E0,0E0,0E0,1.9550323E-3,0E0,3.134048E-2,0E0,2.8140396E-2,2.2225842E-2,0E0,0E0,0E0,0E0,0E0,0E0,0E0,0E0,0E0,0E0],"parents":[2147483647,0,0,1,1,2,2,3,3,4,4,5,5,6,6,7,7,8,8,9,9,10,10,11,11,12,12,13,13,14,14,19,19,21,21,22,22,23,23,26,26,33,33,35,35,37,37,38,38],"right_children":[2,4,6,8,10,12,14,16,18,20,22,24,26,28,30,-1,-1,-1,-1,32,-1,34,36,38,-1,-1,40,-1,-1,-1,-1,-1,-1,42,-1,44,-1,46,48,-1,-1,-1,-1,-1,-1,-1,-1,-1,-1],"split_conditions":[4.98E0,4.3E0,5.63E0,3.89E0,4.68E0,5.21E0,5.99E0,3.51E0,4.12E0,1.2419006E-2,4.8E0,5.09E0,5.47E0,1.5572123E-1,6.32E0,-4.959533E-2,-3.911089E-2,-3.065586E-2,-2.4440767E-2,4.544E0,-6.118762E-3,4.86E0,4.91E0,4E-2,5.1191924E-3,1.1473546E-2,5.4E2,2.6918685E-2,1.5250347E-2,3.4145143E-2,4.8822876E-2,-1.6554674E-2,-1.160231E-2,9.465102E-2,-1.2045172E-3,-5.4244347E-2,2.4291594E-4,1.21485945E-2,-7.797271E-3,8.318253E-3,1.808603E-2,-8.238893E-3,-4.3698386E-3,-1.9629835E-3,-4.887685E-3,-0E0,4.2075342E-3,-3.0678778E-3,4.455322E-4],"split_indices":[0,0,0,0,0,0,0,0,0,26,8,0,0,32,0,0,0,0,0,14,0,0,3,40,0,0,35,0,0,0,0,0,0,25,0,24,0,27,6,0,0,0,0,0,0,0,0,0,0],"split_type":[0,0,0,0,0,0,0,0,0,0,0,0,0,0,0,0,0,0,0,0,0,0,0,0,0,0,0,0,0,0,0,0,0,0,0,0,0,0,0,0,0,0,0,0,0,0,0,0,0],"sum_hessian":[8.67E2,4.31E2,4.36E2,2.22E2,2.09E2,2.1E2,2.26E2,9.6E1,1.26E2,7.5E1,1.34E2,6.9E1,1.41E2,1.07E2,1.19E2,2.9E1,6.7E1,7.5E1,5.1E1,6.8E1,7E0,5E1,8.4E1,2.7E1,4.2E1,5.4E1,8.7E1,9.9E1,8E0,1.05E2,1.4E1,3.3E1,3.5E1,4.4E1,6E0,7.9E1,5E0,1.4E1,1.3E1,5E0,8.2E1,3.3E1,1.1E1,2.1E1,5.8E1,5E0,9E0,6E0,7E0],"tree_param":{"num_deleted":"0","num_feature":"45","num_nodes":"49","size_leaf_vector":"1"}},{"base_weights":[7.556562E-3,-4.1981465E-1,4.128311E-1,-6.647046E-1,-1.6914362E-1,2.3288333E-1,6.2546945E-1,-4.2928375E-2,-5.6784487E-1,-2.7214018E-1,-9.868678E-2,1.1768879E-1,3.418774E-1,5.7420915E-1,4.0176895E-2,-3.1180799E-2,-2.4397751E-2,-1.5331372E-2,-1.9672365E-1,-9.376927E-3,-8.896731E-2,6.3902885E-2,9.833461E-3,1.4824084E-2,1.9053904E-2,2.5262004E-2,3.1324554E-2,-1.0613013E-2,-3.9972216E-3,-1.657073E-2,-9.888897E-2,-9.89544E-4,7.693326E-2,-0E0,-2.3786272E-3,-5.2867946E-3,-1.4977931E-4,2.611314E-4,4.243665E-3],"categories":[],"categories_nodes":[],"categories_segments":[],"categories_sizes":[],"default_left":[0,0,0,0,0,0,0,0,0,0,0,0,0,0,0,0,0,0,0,0,0,0,0,0,0,0,0,0,0,0,0,0,0,0,0,0,0,0,0],"id":10,"left_children":[1,3,5,7,9,11,13,-1,15,17,19,21,23,25,-1,-1,-1,-1,27,-1,29,31,-1,-1,-1,-1,-1,-1,-1,33,35,-1,37,-1,-1,-1,-1,-1,-1],"loss_changes":[1.5518901E2,2.6568848E1,1.7369843E1,3.5008774E0,1.5107889E0,3.0652447E0,1.3176804E0,0E0,2.528801E-1,1.15623E-1,6.8795204E-2,4.881314E-1,4.7042847E-2,1.724701E-1,0E0,0E0,0E0,0E0,1.0055304E-2,0E0,7.372886E-2,9.011945E-2,0E0,0E0,0E0,0E0,0E0,0E0,0E0,1.3437158E-2,5.7750463E-2,0E0,2.8695941E-2,0E0,0E0,0E0,0E0,0E0,0E0],"parents":[2147483647,0,0,1,1,2,2,3,3,4,4,5,5,6,6,8,8,9,9,10,10,11,11,12,12,13,13,18,18,20,20,21,21,29,29,30,30,32,32],"right_children":[2,4,6,8,10,12,14,-1,16,18,20,22,24,26,-1,-1,-1,-1,28,-1,30,32,-1,-1,-1,-1,-1,-1,-1,34,36,-1,38,-1,-1,-1,-1,-1,-1],"split_conditions":[4.98E0,4.26E0,5.7E0,3.7E0,4.68E0,5.37E0,6.168E0,-4.2928375E-2,4.03E0,4.56E0,4.58E0,5.21E0,5.53E0,5.95E0,4.0176895E-2,-3.1180799E-2,-2.4397751E-2,-1.5331372E-2,2.8358841E-2,-9.376927E-3,4.696E0,3.6055E2,9.833461E-3,1.4824084E-2,1.9053904E-2,2.5262004E-2,3.1324554E-2,-1.0613013E-2,-3.9972216E-3,1.1186137E0,4.966E0,-9.89544E-4,-3.8369305E-2,-0E0,-2.3786272E-3,-5.2867946E-3,-1.4977931E-4,2.611314E-4,4.243665E-3],"split_indices":[0,0,0,14,0,0,14,0,0,0,14,0,0,0,0,0,0,0,28,0,16,35,0,0,0,0,0,0,0,21,14,0,6,0,0,0,0,0,0],"split_type":[0,0,0,0,0,0,0,0,0,0,0,0,0,0,0,0,0,0,0,0,0,0,0,0,0,0,0,0,0,0,0,0,0,0,0,0,0,0,0],"sum_hessian":[8.94E2,4.35E2,4.59E2,2.19E2,2.16E2,2.5E2,2.09E2,7E1,1.49E2,8.6E1,1.3E2,1.23E2,1.27E2,1.66E2,4.3E1,8.3E1,6.6E1,5.6E1,3E1,1E1,1.2E2,7.5E1,4.8E1,6.4E1,6.3E1,7.7E1,8.9E1,2.5E1,5E0,1.6E1,1.04E2,9E0,6.6E1,9E0,7E0,9.6E1,8E0,8E0,5.8E1],"tree_param":{"num_deleted":"0","num_feature":"45","num_nodes":"39","size_leaf_vector":"1"}},{"base_weights":[-1.1234203E-2,-4.194267E-1,3.8826895E-1,-6.600234E-1,-1.7977566E-1,1.9935724E-1,5.7493055E-1,-7.921628E-1,-2.6409253E-2,-2.6899523E-1,-9.522752E-2,8.0400385E-2,2.905089E-1,4.6843243E-1,6.5627956E-1,-4.490852E-2,-3.5741635E-2,-1.7995602E-2,-2.1956429E-1,-1.02673255E-1,-2.2935126E-2,3.5191473E-2,1.3530728E-1,1.0227133E-2,1.6147679E-2,2.387561E-2,1.1647868E-2,3.0752255E-2,4.133499E-2,-2.3152643E-1,-5.7319375E-3,-1.3416353E-1,-8.2114436E-2,-0E0,-2.738185E-3,5.676897E-2,-6.760539E-3,1.4660956E-1,1.3195983E-3,-1.2127433E-2,-4.878115E-3,-7.2249803E-3,-2.0866585E-3,-5.008571E-4,-4.3144464E-3,3.644239E-3,-0E0,-2.8714223E-3,1.9588599E-3,5.0156526E-3,9.742709E-3],"categories":[],"categories_nodes":[],"categories_segments":[],"categories_sizes":[],"default_left":[0,0,0,0,0,0,0,0,0,0,0,0,0,0,0,0,0,0,0,0,0,0,0,0,0,0,0,0,0,0,0,0,0,0,0,0,0,0,0,0,0,0,0,0,0,0,0,0,0,0,0],"id":11,"left_children":[1,3,5,7,9,11,13,15,-1,17,19,21,23,25,27,-1,-1,-1,29,31,33,35,37,-1,-1,-1,-1,-1,-1,39,-1,41,43,-1,-1,45,47,49,-1,-1,-1,-1,-1,-1,-1,-1,-1,-1,-1,-1,-1],"loss_changes":[1.3975748E2,2.424488E1,1.5076645E1,3.1253967E0,1.552238E0,2.292509E0,1.460083E0,4.1015625E-2,0E0,3.2592154E-1,4.537058E-2,2.1648735E-1,2.2146797E-1,2.724266E-2,1.9063187E-1,0E0,0E0,0E0,2.6700974E-2,3.209567E-2,1.1156116E-2,5.5171683E-2,3.053224E-2,0E0,0E0,0E0,0E0,0E0,0E0,3.239703E-2,0E0,9.739518E-3,9.068042E-3,0E0,0E0,3.690254E-2,4.597125E-2,3.3578455E-2,0E0,0E0,0E0,0E0,0E0,0E0,0E0,0E0,0E0,0E0,0E0,0E0,0E0],"parents":[2147483647,0,0,1,1,2,2,3,3,4,4,5,5,6,6,7,7,9,9,10,10,11,11,12,12,13,13,14,14,18,18,19,19,20,20,21,21,22,22,29,29,31,31,32,32,35,35,36,36,37,37],"right_children":[2,4,6,8,10,12,14,16,-1,18,20,22,24,26,28,-1,-1,-1,30,32,34,36,38,-1,-1,-1,-1,-1,-1,40,-1,42,44,-1,-1,46,48,50,-1,-1,-1,-1,-1,-1,-1,-1,-1,-1,-1,-1,-1],"split_conditions":[4.92E0,4.22E0,5.66E0,3.89E0,4.68E0,5.35E0,5.956E0,3.51E0,-2.6409253E-2,4.42E0,4.86E0,5.13E0,5.43E0,1.5572123E-1,6.3E0,-4.490852E-2,-3.5741635E-2,-1.7995602E-2,6E0,4.79E0,2.5540732E-3,1.9813558E-2,1.7090422E-1,1.0227133E-2,1.6147679E-2,2.387561E-2,1.1647868E-2,3.0752255E-2,4.133499E-2,2.5636587E-2,-5.7319375E-3,3.234447E-2,4.766E0,-0E0,-2.738185E-3,1.108466E4,1.1E1,1.11867756E-1,1.3195983E-3,-1.2127433E-2,-4.878115E-3,-7.2249803E-3,-2.0866585E-3,-5.008571E-4,-4.3144464E-3,3.644239E-3,-0E0,-2.8714223E-3,1.9588599E-3,5.0156526E-3,9.742709E-3],"split_indices":[0,0,0,0,0,0,14,0,0,0,3,0,0,32,0,0,0,0,42,10,26,27,32,0,0,0,0,0,0,26,0,28,16,0,0,44,4,32,0,0,0,0,0,0,0,0,0,0,0,0,0],"split_type":[0,0,0,0,0,0,0,0,0,0,0,0,0,0,0,0,0,0,0,0,0,0,0,0,0,0,0,0,0,0,0,0,0,0,0,0,0,0,0,0,0,0,0,0,0,0,0,0,0,0,0],"sum_hessian":[8.55E2,4.23E2,4.32E2,2.1E2,2.13E2,2.16E2,2.16E2,1.02E2,1.08E2,1.02E2,1.11E2,9.5E1,1.21E2,9.7E1,1.19E2,3.8E1,6.4E1,3.3E1,6.9E1,9.9E1,1.2E1,5.4E1,4.1E1,3.6E1,8.5E1,9.2E1,5E0,1E2,1.9E1,6E1,9E0,3.5E1,6.4E1,7E0,5E0,3.7E1,1.7E1,3.6E1,5E0,5.4E1,6E0,3E1,5E0,5E0,5.9E1,2.9E1,8E0,9E0,8E0,2.1E1,1.5E1],"tree_param":{"num_deleted":"0","num_feature":"45","num_nodes":"51","size_leaf_vector":"1"}},{"base_weights":[-2.5950598E-3,-3.7661344E-1,3.712049E-1,-5.990928E-1,-1.4694396E-1,2.1874176E-1,5.826118E-1,-7.0717674E-1,-2.378354E-2,-2.607769E-1,-9.614556E-2,9.8383315E-2,3.1366035E-1,5.4343545E-1,3.994747E-2,-3.760321E-2,-2.9294042E-2,-2.735662E-1,-4.8893956E-3,-1.3279885E-1,-6.4821176E-2,4.0723387E-2,1.5081486E-1,2.5942177E-1,1.7661823E-2,1.4050916E-2,2.7470192E-2,-1.4781638E-2,-9.338847E-3,-1.4183088E-1,-2.7663393E-3,-4.5880303E-2,-1.17402956E-1,-0E0,6.127763E-2,1.6907638E-1,7.159297E-2,1.6506715E-1,1.3878204E-2,-8.230138E-3,-5.093762E-3,-2.9205065E-3,-0E0,-1.7347364E-3,-7.07533E-3,-3.112714E-3,1.4568173E-3,5.188974E-4,3.2758235E-3,3.885004E-3,9.302091E-3,8.5202896E-4,4.8938594E-3,3.6093467E-3,9.87677E-3],"categories":[],"categories_nodes":[],"categories_segments":[],"categories_sizes":[],"default_left":[0,0,0,0,0,0,0,0,0,0,0,0,0,0,0,0,0,0,0,0,0,0,0,0,0,0,0,0,0,0,0,0,0,0,0,0,0,0,0,0,0,0,0,0,0,0,0,0,0,0,0,0,0,0,0],"id":12,"left_children":[1,3,5,7,9,11,13,15,-1,17,19,21,23,25,-1,-1,-1,27,-1,29,31,33,35,37,-1,-1,-1,-1,-1,39,-1,41,43,45,47,49,51,53,-1,-1,-1,-1,-1,-1,-1,-1,-1,-1,-1,-1,-1,-1,-1,-1,-1],"loss_changes":[1.2470933E2,2.2626495E1,1.4167786E1,2.5601578E0,1.2171745E0,2.909667E0,1.0079956E0,6.8058014E-2,0E0,7.577562E-2,1.4959168E-1,3.2841885E-1,1.5834618E-1,1.4724731E-2,0E0,0E0,0E0,1.3364792E-2,0E0,2.0718694E-2,6.4932406E-2,5.025611E-2,5.0631046E-2,2.2899628E-2,0E0,0E0,0E0,0E0,0E0,1.1175036E-2,0E0,4.3199003E-2,1.933527E-2,3.901414E-2,1.450777E-4,3.2031655E-2,6.914474E-3,9.874701E-4,0E0,0E0,0E0,0E0,0E0,0E0,0E0,0E0,0E0,0E0,0E0,0E0,0E0,0E0,0E0,0E0,0E0],"parents":[2147483647,0,0,1,1,2,2,3,3,4,4,5,5,6,6,7,7,9,9,10,10,11,11,12,12,13,13,17,17,19,19,20,20,21,21,22,22,23,23,29,29,31,31,32,32,33,33,34,34,35,35,36,36,37,37],"right_children":[2,4,6,8,10,12,14,16,-1,18,20,22,24,26,-1,-1,-1,28,-1,30,32,34,36,38,-1,-1,-1,-1,-1,40,-1,42,44,46,48,50,52,54,-1,-1,-1,-1,-1,-1,-1,-1,-1,-1,-1,-1,-1,-1,-1,-1,-1],"split_conditions":[4.98E0,4.26E0,5.76E0,3.94E0,4.63E0,5.36E0,6.26E0,3.929E0,-2.378354E-2,4.68E0,4.8E0,5.15E0,5.53E0,5.5E0,3.994747E-2,-3.760321E-2,-2.9294042E-2,2.0474623E-1,-4.8893956E-3,4.2713568E-2,1.0146403E0,-7.797271E-3,1.2E1,9.305E2,1.7661823E-2,1.4050916E-2,2.7470192E-2,-1.4781638E-2,-9.338847E-3,4.77E0,-2.7663393E-3,1.0040798E-1,4.656041E0,5.0930595E0,2.628E2,9.8463964E-1,9.71808E-2,3.45679E1,1.3878204E-2,-8.230138E-3,-5.093762E-3,-2.9205065E-3,-0E0,-1.7347364E-3,-7.07533E-3,-3.112714E-3,1.4568173E-3,5.188974E-4,3.2758235E-3,3.885004E-3,9.302091E-3,8.5202896E-4,4.8938594E-3,3.6093467E-3,9.87677E-3],"split_indices":[0,0,0,0,0,9,0,20,0,9,8,0,0,12,0,0,0,32,0,6,21,6,42,35,0,0,0,0,0,2,0,32,22,22,35,17,32,29,0,0,0,0,0,0,0,0,0,0,0,0,0,0,0,0,0],"split_type":[0,0,0,0,0,0,0,0,0,0,0,0,0,0,0,0,0,0,0,0,0,0,0,0,0,0,0,0,0,0,0,0,0,0,0,0,0,0,0,0,0,0,0,0,0,0,0,0,0,0,0,0,0,0,0],"sum_hessian":[8.9E2,4.45E2,4.45E2,2.25E2,2.2E2,2.6E2,1.85E2,1.17E2,1.08E2,6.6E1,1.54E2,1.16E2,1.44E2,1.6E2,2.5E1,8.1E1,3.6E1,6E1,6E0,6.8E1,8.6E1,5.7E1,5.9E1,6.5E1,7.9E1,5E0,1.55E2,4.5E1,1.5E1,5.9E1,9E0,6.6E1,2E1,1.9E1,3.8E1,4.6E1,1.3E1,1.3E1,5.2E1,3.4E1,2.5E1,5.3E1,1.3E1,6E0,1.4E1,6E0,1.3E1,5E0,3.3E1,9E0,3.7E1,6E0,7E0,5E0,8E0],"tree_param":{"num_deleted":"0","num_feature":"45","num_nodes":"55","size_leaf_vector":"1"}},{"base_weights":[-8.189956E-4,-3.6200723E-1,3.5849354E-1,-5.7908577E-1,-1.4969237E-1,2.033097E-1,5.4164577E-1,-7.0536524E-1,-2.3321489E-2,-2.278776E-1,-7.672378E-2,9.764591E-2,2.933959E-1,2.4337774E-2,3.361572E-2,-3.8445E-2,-2.9922573E-2,-2.7260098E-1,-1.8289432E-1,-8.516944E-2,-1.3614313E-3,3.78758E-2,1.4900082E-1,1.0917181E-2,3.0852175E-1,-1.531969E-2,-9.497372E-3,-1.9548409E-1,-4.7087E-3,-9.014725E-2,-0E0,9.966776E-4,-1.6162181E-3,-3.034767E-2,6.0471736E-2,8.43128E-2,8.87241E-3,8.863918E-3,1.5832756E-2,-1.0308473E-2,-3.4829134E-3,-4.7022384E-3,-0E0,-3.4629784E-3,4.963072E-4,3.36179E-3,1.3803004E-4,4.9454034E-3,1.3353409E-3],"categories":[],"categories_nodes":[],"categories_segments":[],"categories_sizes":[],"default_left":[0,0,0,0,0,0,0,0,0,0,0,0,0,0,0,0,0,0,0,0,0,0,0,0,0,0,0,0,0,0,0,0,0,0,0,0,0,0,0,0,0,0,0,0,0,0,0,0,0],"id":13,"left_children":[1,3,5,7,9,11,13,15,-1,17,19,21,23,-1,-1,-1,-1,25,27,29,31,33,35,-1,37,-1,-1,39,-1,41,-1,-1,-1,43,45,47,-1,-1,-1,-1,-1,-1,-1,-1,-1,-1,-1,-1,-1],"loss_changes":[1.1342759E2,1.9935238E1,1.2264332E1,2.612442E0,1.2185807E0,2.2072525E0,9.913292E-1,7.559204E-2,0E0,1.1784458E-1,6.56997E-2,3.1945157E-1,2.5259018E-2,0E0,0E0,0E0,0E0,3.1821728E-2,1.6291857E-2,5.0127447E-2,1.1114391E-2,8.8092536E-2,6.743479E-2,0E0,4.4174194E-3,0E0,0E0,2.259159E-2,0E0,2.684915E-2,0E0,0E0,0E0,2.699352E-2,9.209946E-3,2.4532676E-3,0E0,0E0,0E0,0E0,0E0,0E0,0E0,0E0,0E0,0E0,0E0,0E0,0E0],"parents":[2147483647,0,0,1,1,2,2,3,3,4,4,5,5,6,6,7,7,9,9,10,10,11,11,12,12,17,17,18,18,19,19,20,20,21,21,22,22,24,24,27,27,29,29,33,33,34,34,35,35],"right_children":[2,4,6,8,10,12,14,16,-1,18,20,22,24,-1,-1,-1,-1,26,28,30,32,34,36,-1,38,-1,-1,40,-1,42,-1,-1,-1,44,46,48,-1,-1,-1,-1,-1,-1,-1,-1,-1,-1,-1,-1,-1],"split_conditions":[4.98E0,4.25E0,5.72E0,3.89E0,4.71E0,5.368E0,6.082E0,3.69E0,-2.3321489E-2,4.51E0,4.87E0,5.16E0,-6.6E-1,2.4337774E-2,3.361572E-2,-3.8445E-2,-2.9922573E-2,-3.4338236E-2,1.0293884E0,5.24E0,1.40805E3,-7.797271E-3,5.21E0,1.0917181E-2,1.201642E3,-1.531969E-2,-9.497372E-3,4.88E0,-4.7087E-3,9.27745E-1,-0E0,9.966776E-4,-1.6162181E-3,-2E-2,5.1E0,-1.7793594E-3,8.87241E-3,8.863918E-3,1.5832756E-2,-1.0308473E-2,-3.4829134E-3,-4.7022384E-3,-0E0,-3.4629784E-3,4.963072E-4,3.36179E-3,1.3803004E-4,4.9454034E-3,1.3353409E-3],"split_indices":[0,0,0,0,0,14,14,0,0,0,3,1,37,0,0,0,0,25,17,13,35,6,0,0,44,0,0,11,0,33,0,0,0,39,3,6,0,0,0,0,0,0,0,0,0,0,0,0,0],"split_type":[0,0,0,0,0,0,0,0,0,0,0,0,0,0,0,0,0,0,0,0,0,0,0,0,0,0,0,0,0,0,0,0,0,0,0,0,0,0,0,0,0,0,0,0,0,0,0,0,0],"sum_hessian":[8.72E2,4.35E2,4.37E2,2.14E2,2.21E2,2.38E2,1.99E2,9.8E1,1.16E2,1.05E2,1.16E2,1.11E2,1.27E2,1.44E2,5.5E1,5.7E1,4.1E1,4.9E1,5.6E1,1.03E2,1.3E1,5.3E1,5.8E1,2.5E1,1.02E2,3.2E1,1.7E1,4.7E1,9E0,9.8E1,5E0,6E0,7E0,1.2E1,4.1E1,2E1,3.8E1,8E0,9.4E1,4.2E1,5E0,9.3E1,5E0,7E0,5E0,3.5E1,6E0,1.4E1,6E0],"tree_param":{"num_deleted":"0","num_feature":"45","num_nodes":"49","size_leaf_vector":"1"}},{"base_weights":[-3.604739E-4,-3.5483056E-1,3.4341016E-1,-5.4174536E-1,-1.3947351E-1,1.7958494E-1,4.9451265E-1,-3.3344824E-2,-4.465856E-1,-2.054199E-1,-7.5663194E-2,8.097933E-2,2.6047945E-1,4.2358693E-1,6.013992E-1,-2.3596792E-2,-1.6554795E-2,-2.2063993E-1,-8.24104E-2,-8.968025E-2,-1.1230055E-2,2.4816025E-2,1.302903E-1,1.7626077E-1,1.3972335E-2,3.6988816E-1,2.3957208E-2,2.7718067E-2,4.11218E-2,-2.2915567E-1,-2.6828402E-3,-0E0,-6.2459554E-3,-9.808703E-2,-0E0,-3.508123E-2,1.8789045E-3,-3.2624265E-3,4.9837295E-2,1.00247504E-4,1.4512824E-1,9.753793E-3,3.3750206E-3,8.576527E-3,1.8994587E-2,-1.4425509E-2,-1.0214959E-2,-6.9431956E-3,-3.8716644E-3,-0E0,-2.5021501E-3,-4.4708184E-4,3.1912816E-3,1.9705289E-3,7.742884E-3],"categories":[],"categories_nodes":[],"categories_segments":[],"categories_sizes":[],"default_left":[0,0,0,0,0,0,0,0,0,0,0,0,0,0,0,0,0,0,0,0,0,0,0,0,0,0,0,0,0,0,0,0,0,0,0,0,0,0,0,0,0,0,0,0,0,0,0,0,0,0,0,0,0,0,0],"id":14,"left_children":[1,3,5,7,9,11,13,-1,15,17,19,21,23,25,27,-1,-1,29,31,33,35,37,39,41,-1,43,-1,-1,-1,45,-1,-1,-1,47,-1,49,-1,-1,51,-1,53,-1,-1,-1,-1,-1,-1,-1,-1,-1,-1,-1,-1,-1,-1],"loss_changes":[1.0565064E2,1.7044533E1,1.0735722E1,2.30616E0,7.97961E-1,1.6437874E0,1.3712234E0,0E0,1.528244E-1,1.3311672E-1,8.283085E-2,2.526639E-1,9.047127E-2,1.5851974E-1,3.2134056E-1,0E0,0E0,8.029175E-2,3.654909E-2,6.524795E-2,2.5515364E-2,1.098801E-1,8.207369E-2,1.1733055E-2,0E0,3.248501E-2,0E0,0E0,0E0,9.803772E-3,0E0,0E0,0E0,3.246665E-2,0E0,5.3519346E-3,0E0,0E0,3.812567E-2,0E0,2.0755947E-2,0E0,0E0,0E0,0E0,0E0,0E0,0E0,0E0,0E0,0E0,0E0,0E0,0E0,0E0],"parents":[2147483647,0,0,1,1,2,2,3,3,4,4,5,5,6,6,8,8,9,9,10,10,11,11,12,12,13,13,14,14,17,17,18,18,19,19,20,20,21,21,22,22,23,23,25,25,29,29,33,33,35,35,38,38,40,40],"right_children":[2,4,6,8,10,12,14,-1,16,18,20,22,24,26,28,-1,-1,30,32,34,36,38,40,42,-1,44,-1,-1,-1,46,-1,-1,-1,48,-1,50,-1,-1,52,-1,54,-1,-1,-1,-1,-1,-1,-1,-1,-1,-1,-1,-1,-1,-1],"split_conditions":[4.98E0,4.26E0,5.64E0,4.0815454E0,4.7E0,5.5973153E0,6.01E0,-3.3344824E-2,4.17E0,1.0336788E0,5.079E0,5.14E0,5.43E0,5.87E0,6.32E0,-2.3596792E-2,-1.6554795E-2,7E0,2.6064793E-2,1.0502167E0,1.6546257E-2,-5.882353E-3,2.7777779E1,5.5922E0,1.3972335E-2,9.48334E-10,2.3957208E-2,2.7718067E-2,4.11218E-2,-1.0752688E-2,-2.6828402E-3,-0E0,-6.2459554E-3,4.7244E0,-0E0,4.937613E0,1.8789045E-3,-3.2624265E-3,-1.3513514E-2,1.00247504E-4,5.128E0,9.753793E-3,3.3750206E-3,8.576527E-3,1.8994587E-2,-1.4425509E-2,-1.0214959E-2,-6.9431956E-3,-3.8716644E-3,-0E0,-2.5021501E-3,-4.4708184E-4,3.1912816E-3,1.9705289E-3,7.742884E-3],"split_indices":[8,1,8,30,8,30,8,0,2,17,20,1,14,2,2,0,0,42,28,17,28,38,29,20,0,27,0,0,0,38,0,0,0,20,0,22,0,0,6,0,14,0,0,0,0,0,0,0,0,0,0,0,0,0,0],"split_type":[0,0,0,0,0,0,0,0,0,0,0,0,0,0,0,0,0,0,0,0,0,0,0,0,0,0,0,0,0,0,0,0,0,0,0,0,0,0,0,0,0,0,0,0,0,0,0,0,0,0,0,0,0,0,0],"sum_hessian":[8.65E2,4.26E2,4.39E2,2.27E2,1.99E2,2.12E2,2.27E2,9.5E1,1.32E2,9.6E1,1.03E2,9.7E1,1.15E2,1.4E2,8.7E1,1.05E2,2.7E1,8.4E1,1.2E1,8.3E1,2E1,4.7E1,5E1,2.4E1,9.1E1,7.6E1,6.4E1,7.5E1,1.2E1,7.9E1,5E0,5E0,7E0,7.6E1,7E0,1.5E1,5E0,9E0,3.8E1,6E0,4.4E1,1.9E1,5E0,5E0,7.1E1,1.9E1,6E1,2.2E1,5.4E1,6E0,9E0,6E0,3.2E1,5E0,3.9E1],"tree_param":{"num_deleted":"0","num_feature":"45","num_nodes":"55","size_leaf_vector":"1"}},{"base_weights":[9.113317E-3,-3.1251425E-1,3.5782406E-1,-5.078253E-1,-1.0747083E-1,2.2370206E-1,5.0732344E-1,-6.2056893E-1,-4.002649E-1,-1.990082E-1,-6.363669E-2,1.2123187E-1,2.8521463E-1,4.727897E-1,3.5177186E-2,-3.718805E-2,-2.8226275E-2,-2.1323968E-2,-1.584655E-2,-1.4615339E-1,-2.2407646E-1,-8.29931E-2,-0E0,7.027414E-2,1.4974754E-1,1.1813101E-2,1.5634052E-2,1.252552E-2,2.4006998E-2,-2.2809857E-3,-8.70296E-3,-5.1995716E-3,-2.3732053E-1,-1.1321182E-1,-6.476283E-2,3.6892605E-3,-1.2449677E-2,3.891005E-3,2.711487E-4,3.340983E-3,8.257679E-3,-6.7711E-3,-1.2801133E-2,-7.186813E-3,-2.7890527E-3,-0E0,-3.4810014E-3,1.1623497E-3,-1.6327499E-3],"categories":[],"categories_nodes":[],"categories_segments":[],"categories_sizes":[],"default_left":[0,0,0,0,0,0,0,0,0,0,0,0,0,0,0,0,0,0,0,0,0,0,0,0,0,0,0,0,0,0,0,0,0,0,0,0,0,0,0,0,0,0,0,0,0,0,0,0,0],"id":15,"left_children":[1,3,5,7,9,11,13,15,17,19,21,23,25,27,-1,-1,-1,-1,-1,29,31,33,35,37,39,-1,-1,-1,-1,-1,-1,-1,41,43,45,-1,47,-1,-1,-1,-1,-1,-1,-1,-1,-1,-1,-1,-1],"loss_changes":[9.7915504E1,1.8065342E1,8.214848E0,2.4629326E0,8.5585046E-1,1.3303919E0,8.84655E-1,2.1565247E-1,5.7008743E-2,2.4300814E-2,1.9317365E-1,9.2440605E-2,5.677986E-2,8.603668E-2,0E0,0E0,0E0,0E0,0E0,4.583937E-2,1.2758255E-2,3.9876223E-2,3.747037E-2,7.892057E-3,3.3479333E-2,0E0,0E0,0E0,0E0,0E0,0E0,0E0,5.0759315E-4,4.390526E-2,2.1830767E-2,0E0,2.4059072E-2,0E0,0E0,0E0,0E0,0E0,0E0,0E0,0E0,0E0,0E0,0E0,0E0],"parents":[2147483647,0,0,1,1,2,2,3,3,4,4,5,5,6,6,7,7,8,8,9,9,10,10,11,11,12,12,13,13,19,19,20,20,21,21,22,22,23,23,24,24,32,32,33,33,34,34,36,36],"right_children":[2,4,6,8,10,12,14,16,18,20,22,24,26,28,-1,-1,-1,-1,-1,30,32,34,36,38,40,-1,-1,-1,-1,-1,-1,-1,42,44,46,-1,48,-1,-1,-1,-1,-1,-1,-1,-1,-1,-1,-1,-1],"split_conditions":[5.09E0,4.4E0,5.79E0,3.94E0,4.68E0,5.412E0,6.3E0,3.51E0,4.19E0,1.3489562E-1,4.91E0,5.19E0,5.53E0,-6.176704E-2,3.5177186E-2,-3.718805E-2,-2.8226275E-2,-2.1323968E-2,-1.584655E-2,4.393336E0,-1.3436481E-1,4.79E0,-1.5317286E-2,7.5E1,4.2295E2,1.1813101E-2,1.5634052E-2,1.252552E-2,2.4006998E-2,-2.2809857E-3,-8.70296E-3,-5.1995716E-3,-4.2116746E-2,1.0293884E0,4.778E0,3.6892605E-3,1.808E2,3.891005E-3,2.711487E-4,3.340983E-3,8.257679E-3,-6.7711E-3,-1.2801133E-2,-7.186813E-3,-2.7890527E-3,-0E0,-3.4810014E-3,1.1623497E-3,-1.6327499E-3],"split_indices":[0,0,0,0,0,14,0,0,0,32,0,8,0,25,0,0,0,0,0,31,24,10,5,29,44,0,0,0,0,0,0,0,26,17,16,0,34,0,0,0,0,0,0,0,0,0,0,0,0],"split_type":[0,0,0,0,0,0,0,0,0,0,0,0,0,0,0,0,0,0,0,0,0,0,0,0,0,0,0,0,0,0,0,0,0,0,0,0,0,0,0,0,0,0,0,0,0,0,0,0,0],"sum_hessian":[8.71E2,4.53E2,4.18E2,2.31E2,2.22E2,2.22E2,1.96E2,1.1E2,1.21E2,7E1,1.52E2,8.5E1,1.37E2,1.7E2,2.6E1,3E1,8E1,8.8E1,3.3E1,2.6E1,4.4E1,1.17E2,3.5E1,3.3E1,5.2E1,5.4E1,8.3E1,7E0,1.63E2,7E0,1.9E1,6E0,3.8E1,4E1,7.7E1,5E0,3E1,2.8E1,5E0,1E1,4.2E1,8E0,3E1,2.4E1,1.6E1,6E0,7.1E1,9E0,2.1E1],"tree_param":{"num_deleted":"0","num_feature":"45","num_nodes":"49","size_leaf_vector":"1"}},{"base_weights":[-1.021599E-2,-3.19845E-1,3.0426726E-1,-5.009798E-1,-1.2997693E-1,1.6233972E-1,4.4235197E-1,-6.1351115E-1,-2.0057593E-2,-2.1113816E-1,-7.408668E-2,4.8305664E-2,2.1831235E-1,1.8295677E-2,5.091706E-1,-3.7487295E-2,-2.7912173E-2,-1.3221665E-2,-1.7607945E-1,-7.970434E-2,4.1716933E-4,1.7730743E-2,8.958121E-2,1.6360864E-1,1.2543407E-2,2.4241107E-2,3.397841E-2,-1.8891473E-1,-3.8474582E-3,-1.0143673E-1,-6.1814666E-2,-1.8594498E-2,4.0609125E-2,3.0842654E-2,5.910398E-3,2.9031786E-3,8.535876E-3,-4.4530565E-3,-1.0067583E-2,-3.876878E-3,-7.5958776E-3,-3.5369353E-4,-3.4458414E-3,-3.1383813E-3,2.0930718E-4,-0E0,2.5265105E-3,3.0846691E-3,-0E0],"categories":[],"categories_nodes":[],"categories_segments":[],"categories_sizes":[],"default_left":[0,0,0,0,0,0,0,0,0,0,0,0,0,0,0,0,0,0,0,0,0,0,0,0,0,0,0,0,0,0,0,0,0,0,0,0,0,0,0,0,0,0,0,0,0,0,0,0,0],"id":16,"left_children":[1,3,5,7,9,11,13,15,-1,17,19,21,23,-1,25,-1,-1,-1,27,29,-1,31,33,35,-1,-1,-1,37,-1,39,41,43,45,47,-1,-1,-1,-1,-1,-1,-1,-1,-1,-1,-1,-1,-1,-1,-1],"loss_changes":[8.4034515E1,1.483218E1,8.255676E0,2.1463242E0,9.2656493E-1,1.3223252E0,8.293991E-1,2.1865463E-1,0E0,7.00748E-2,6.7536354E-2,7.85442E-2,1.7039919E-1,0E0,1.8770218E-2,0E0,0E0,0E0,3.0129313E-2,2.4836302E-2,0E0,3.9523333E-2,3.0212432E-2,9.976983E-3,0E0,0E0,0E0,1.2635946E-2,0E0,2.680415E-2,1.9905418E-2,2.2221578E-2,1.3455316E-2,1.5227282E-2,0E0,0E0,0E0,0E0,0E0,0E0,0E0,0E0,0E0,0E0,0E0,0E0,0E0,0E0,0E0],"parents":[2147483647,0,0,1,1,2,2,3,3,4,4,5,5,6,6,7,7,9,9,10,10,11,11,12,12,14,14,18,18,19,19,21,21,22,22,23,23,27,27,29,29,30,30,31,31,32,32,33,33],"right_children":[2,4,6,8,10,12,14,16,-1,18,20,22,24,-1,26,-1,-1,-1,28,30,-1,32,34,36,-1,-1,-1,38,-1,40,42,44,46,48,-1,-1,-1,-1,-1,-1,-1,-1,-1,-1,-1,-1,-1,-1,-1],"split_conditions":[4.98E0,4.25E0,5.64E0,3.89E0,4.68E0,5.21E0,5.952E0,3.5E0,-2.0057593E-2,4.48E0,5E0,5.12E0,5.47E0,1.8295677E-2,6.32E0,-3.7487295E-2,-2.7912173E-2,-1.3221665E-2,6E0,4.8E0,4.1716933E-4,-1.8737638E-2,9.71808E-2,1.476E2,1.2543407E-2,2.4241107E-2,3.397841E-2,-7.75E-2,-3.8474582E-3,1E-2,-7.773837E-2,6.0485E2,-1.3513514E-2,5.15E0,5.910398E-3,2.9031786E-3,8.535876E-3,-4.4530565E-3,-1.0067583E-2,-3.876878E-3,-7.5958776E-3,-3.5369353E-4,-3.4458414E-3,-3.1383813E-3,2.0930718E-4,-0E0,2.5265105E-3,3.0846691E-3,-0E0],"split_indices":[0,0,0,0,0,0,16,0,0,0,2,0,0,0,0,0,0,0,42,8,0,24,32,44,0,0,0,7,0,40,24,35,6,8,0,0,0,0,0,0,0,0,0,0,0,0,0,0,0],"split_type":[0,0,0,0,0,0,0,0,0,0,0,0,0,0,0,0,0,0,0,0,0,0,0,0,0,0,0,0,0,0,0,0,0,0,0,0,0,0,0,0,0,0,0,0,0,0,0,0,0],"sum_hessian":[8.61E2,4.34E2,4.27E2,2.21E2,2.13E2,2.12E2,2.15E2,1.01E2,1.2E2,8.5E1,1.28E2,7.1E1,1.41E2,1.04E2,1.11E2,2.5E1,7.6E1,3E1,5.5E1,1.21E2,7E0,4.3E1,2.8E1,5.6E1,8.5E1,1.01E2,1E1,4.7E1,8E0,5E1,7.1E1,1.5E1,2.8E1,1.1E1,1.7E1,5E0,5.1E1,7E0,4E1,3.7E1,1.3E1,1E1,6.1E1,6E0,9E0,5E0,2.3E1,6E0,5E0],"tree_param":{"num_deleted":"0","num_feature":"45","num_nodes":"49","size_leaf_vector":"1"}},{"base_weights":[1.2909739E-2,-2.9129946E-1,3.042391E-1,-4.677875E-1,-1.12965636E-1,1.5005352E-1,4.365513E-1,-2.9241536E-2,-3.973455E-1,-1.7161715E-1,-6.1132465E-2,5.4056242E-2,1.9727802E-1,3.762155E-1,5.3153425E-1,-4.172696E-1,-1.4887658E-2,-2.1340877E-1,-1.2342944E-1,-7.593181E-2,2.276563E-2,-1.142237E-2,6.9524616E-2,1.4394575E-1,2.2903702E-1,1.5605919E-2,2.062699E-2,2.4406793E-2,3.610081E-2,-2.1542056E-2,-1.431454E-2,-5.3041773E-3,-1.1447246E-2,-1.4749956E-1,-5.8316104E-2,-8.35572E-3,-8.400718E-2,3.1023428E-3,-0E0,-2.2124972E-3,8.7923923E-4,4.4468243E-2,1.0137265E-1,2.31744E-3,1.5512972E-1,5.3273584E-3,1.18800625E-2,-9.136343E-3,-5.023968E-3,1.5233176E-4,-5.2719205E-3,-1.3549859E-3,6.811141E-5,-4.529543E-3,-7.126875E-4,1.989352E-3,-2.3836207E-3,3.9441573E-5,2.413103E-3,2.7184635E-3,7.3520057E-3,3.291712E-3,8.196889E-3],"categories":[],"categories_nodes":[],"categories_segments":[],"categories_sizes":[],"default_left":[0,0,0,0,0,0,0,0,0,0,0,0,0,0,0,0,0,0,0,0,0,0,0,0,0,0,0,0,0,0,0,0,0,0,0,0,0,0,0,0,0,0,0,0,0,0,0,0,0,0,0,0,0,0,0,0,0,0,0,0,0,0,0],"id":17,"left_children":[1,3,5,7,9,11,13,-1,15,17,19,21,23,25,27,29,-1,31,33,35,37,39,41,43,45,-1,-1,-1,-1,-1,-1,-1,-1,47,49,51,53,-1,55,-1,-1,57,59,-1,61,-1,-1,-1,-1,-1,-1,-1,-1,-1,-1,-1,-1,-1,-1,-1,-1,-1,-1],"loss_changes":[7.666198E1,1.3202496E1,8.89291E0,1.4172897E0,6.1073375E-1,8.980875E-1,1.0674744E0,0E0,7.411766E-2,1.3733149E-1,1.498335E-1,7.750368E-2,1.6178036E-1,1.456871E-1,2.622738E-1,4.749298E-4,0E0,2.5581121E-2,4.761386E-2,4.4086277E-2,1.8138029E-2,1.5823686E-2,2.7191848E-2,3.269565E-2,2.7339458E-2,0E0,0E0,0E0,0E0,0E0,0E0,0E0,0E0,9.636581E-3,5.682528E-2,4.9786563E-3,2.8177679E-2,0E0,2.3134004E-2,0E0,0E0,1.0224506E-3,2.1234661E-2,0E0,3.983021E-3,0E0,0E0,0E0,0E0,0E0,0E0,0E0,0E0,0E0,0E0,0E0,0E0,0E0,0E0,0E0,0E0,0E0,0E0],"parents":[2147483647,0,0,1,1,2,2,3,3,4,4,5,5,6,6,8,8,9,9,10,10,11,11,12,12,13,13,14,14,15,15,17,17,18,18,19,19,20,20,21,21,22,22,23,23,24,24,33,33,34,34,35,35,36,36,38,38,41,41,42,42,44,44],"right_children":[2,4,6,8,10,12,14,-1,16,18,20,22,24,26,28,30,-1,32,34,36,38,40,42,44,46,-1,-1,-1,-1,-1,-1,-1,-1,48,50,52,54,-1,56,-1,-1,58,60,-1,62,-1,-1,-1,-1,-1,-1,-1,-1,-1,-1,-1,-1,-1,-1,-1,-1,-1,-1],"split_conditions":[4.986E0,4.26E0,5.64E0,3.73E0,4.71E0,5.21E0,6.03E0,-2.9241536E-2,4.4216E0,9.87984E-1,1.0215054E0,5.01E0,5.43E0,5.8E0,6.32E0,1.022864E0,-1.4887658E-2,-4.2116746E-2,1.02555E0,-7.1233235E-2,2.4374908E-2,4.83E0,5.14E0,4.2295E2,1.343059E3,1.5605919E-2,2.062699E-2,2.4406793E-2,3.610081E-2,-2.1542056E-2,-1.431454E-2,-5.3041773E-3,-1.1447246E-2,4.2524986E0,1.0732138E0,-1.010101E-2,2.9741215E-2,3.1023428E-3,4.54E0,-2.2124972E-3,8.7923923E-4,4.901E0,9.71808E-2,2.31744E-3,9.492025E-1,5.3273584E-3,1.18800625E-2,-9.136343E-3,-5.023968E-3,1.5233176E-4,-5.2719205E-3,-1.3549859E-3,6.811141E-5,-4.529543E-3,-7.126875E-4,1.989352E-3,-2.3836207E-3,3.9441573E-5,2.413103E-3,2.7184635E-3,7.3520057E-3,3.291712E-3,8.196889E-3],"split_indices":[14,1,8,1,8,8,8,0,20,19,15,8,14,2,2,15,0,26,15,24,28,3,1,44,44,0,0,0,0,0,0,0,0,31,19,6,28,0,12,0,0,20,32,0,21,0,0,0,0,0,0,0,0,0,0,0,0,0,0,0,0,0,0],"split_type":[0,0,0,0,0,0,0,0,0,0,0,0,0,0,0,0,0,0,0,0,0,0,0,0,0,0,0,0,0,0,0,0,0,0,0,0,0,0,0,0,0,0,0,0,0,0,0,0,0,0,0,0,0,0,0,0,0,0,0,0,0,0,0],"sum_hessian":[8.63E2,4.22E2,4.41E2,2.11E2,2.11E2,2.05E2,2.36E2,7.6E1,1.35E2,9.7E1,1.14E2,6.9E1,1.36E2,1.48E2,8.8E1,1.09E2,2.6E1,4.9E1,4.8E1,9.8E1,1.6E1,1.2E1,5.7E1,5.4E1,8.2E1,5.8E1,9E1,7.5E1,1.3E1,9.6E1,1.3E1,8E0,4.1E1,3.3E1,1.5E1,1.2E1,8.6E1,6E0,1E1,7E0,5E0,3.5E1,2.2E1,7E0,4.7E1,7E0,7.5E1,1.6E1,1.7E1,6E0,9E0,7E0,5E0,7.7E1,9E0,5E0,5E0,5E0,3E1,1.3E1,9E0,6E0,4.1E1],"tree_param":{"num_deleted":"0","num_feature":"45","num_nodes":"63","size_leaf_vector":"1"}},{"base_weights":[-1.8393276E-3,-2.8407192E-1,2.801712E-1,-4.6719998E-1,-1.2615478E-1,1.4867198E-1,4.117355E-1,-2.8514767E-2,-1.9620609E-2,-2.1899049E-1,-7.188772E-2,8.016762E-2,2.1866584E-1,3.759428E-1,2.7819643E-2,-1.3018178E-2,-1.682747E-1,-1.190728E-1,-5.0830677E-2,4.2409096E-2,1.24758534E-1,1.1254363E-2,6.1292574E-3,1.4086266E-2,3.976513E-1,-3.48712E-3,-1.7966528E-1,-7.4982166E-4,-1.2920745E-1,-5.589575E-2,2.7369915E-5,-2.9002508E-4,5.1031504E-2,1.376942E-1,1.8990804E-3,1.4725702E-2,4.1217074E-1,-4.20024E-3,-9.792629E-3,-5.4428834E-3,-9.765263E-3,-3.0774304E-3,-0E0,1.6010946E-3,4.244223E-3,1.0146094E-3,7.498813E-3,2.0955695E-2,1.1197308E-2],"categories":[],"categories_nodes":[],"categories_segments":[],"categories_sizes":[],"default_left":[0,0,0,0,0,0,0,0,0,0,0,0,0,0,0,0,0,0,0,0,0,0,0,0,0,0,0,0,0,0,0,0,0,0,0,0,0,0,0,0,0,0,0,0,0,0,0,0,0],"id":18,"left_children":[1,3,5,7,9,11,13,-1,-1,15,17,19,21,23,-1,-1,25,27,29,31,33,-1,-1,-1,35,-1,37,-1,39,41,-1,-1,43,45,-1,-1,47,-1,-1,-1,-1,-1,-1,-1,-1,-1,-1,-1,-1],"loss_changes":[7.03602E1,1.2663948E1,7.5296135E0,1.2528381E0,1.1592326E0,1.0218463E0,8.366852E-1,0E0,0E0,9.58724E-2,1.2897456E-1,1.7161632E-1,4.8909187E-3,1.8819237E-1,0E0,0E0,1.0789514E-2,3.110683E-2,3.3930868E-2,3.18385E-2,3.4451008E-2,0E0,0E0,0E0,2.2083282E-2,0E0,1.2855649E-2,0E0,2.1262765E-3,3.6747664E-2,0E0,0E0,2.2272497E-2,4.193312E-2,0E0,0E0,1.2702942E-3,0E0,0E0,0E0,0E0,0E0,0E0,0E0,0E0,0E0,0E0,0E0,0E0],"parents":[2147483647,0,0,1,1,2,2,3,3,4,4,5,5,6,6,9,9,10,10,11,11,12,12,13,13,16,16,17,17,18,18,19,19,20,20,24,24,26,26,28,28,29,29,32,32,33,33,36,36],"right_children":[2,4,6,8,10,12,14,-1,-1,16,18,20,22,24,-1,-1,26,28,30,32,34,-1,-1,-1,36,-1,38,-1,40,42,-1,-1,44,46,-1,-1,48,-1,-1,-1,-1,-1,-1,-1,-1,-1,-1,-1,-1],"split_conditions":[4.98E0,4.2E0,5.66E0,3.72E0,4.63E0,5.36E0,6.168E0,-2.8514767E-2,-1.9620609E-2,4.48E0,4.7E0,5.19E0,5.71E0,5.741659E0,2.7819643E-2,-1.3018178E-2,-2E-2,-3.5643116E-2,1.0239162E0,3.2045E2,2.4624566E-2,1.1254363E-2,6.1292574E-3,1.4086266E-2,-4.408286E-2,-3.48712E-3,-7.004831E-2,-7.4982166E-4,5.12314E0,4.8704524E0,2.7369915E-5,-2.9002508E-4,1.002004E0,6.821E2,1.8990804E-3,1.4725702E-2,6.14E0,-4.20024E-3,-9.792629E-3,-5.4428834E-3,-9.765263E-3,-3.0774304E-3,-0E0,1.6010946E-3,4.244223E-3,1.0146094E-3,7.498813E-3,2.0955695E-2,1.1197308E-2],"split_indices":[0,0,0,0,0,9,14,0,0,0,1,0,10,22,0,0,40,26,15,35,27,0,0,0,24,0,7,0,30,31,0,0,15,35,0,0,0,0,0,0,0,0,0,0,0,0,0,0,0],"split_type":[0,0,0,0,0,0,0,0,0,0,0,0,0,0,0,0,0,0,0,0,0,0,0,0,0,0,0,0,0,0,0,0,0,0,0,0,0,0,0,0,0,0,0,0,0,0,0,0,0],"sum_hessian":[8.82E2,4.41E2,4.41E2,2.03E2,2.38E2,2.22E2,2.19E2,8.2E1,1.21E2,8.6E1,1.52E2,1.14E2,1.08E2,1.79E2,4E1,4.4E1,4.2E1,4.4E1,1.08E2,6.4E1,5E1,9.9E1,9E0,3.7E1,1.42E2,6E0,3.6E1,5E0,3.9E1,1E2,8E0,8E0,5.6E1,4.2E1,8E0,2.1E1,1.21E2,7E0,2.9E1,3.3E1,6E0,9.2E1,8E0,3.9E1,1.7E1,5E0,3.7E1,1.15E2,6E0],"tree_param":{"num_deleted":"0","num_feature":"45","num_nodes":"49","size_leaf_vector":"1"}},{"base_weights":[-7.145383E-3,-2.786709E-1,2.6666874E-1,-4.470476E-1,-1.2261079E-1,1.5277119E-1,4.116068E-1,-5.111319E-1,-1.6872128E-2,-2.0023166E-1,-7.557365E-2,7.064746E-2,2.1842277E-1,3.713255E-1,2.654641E-2,-3.2179974E-2,-4.7086498E-1,-2.1978234E-1,-1.1548812E-1,-9.4705015E-2,-3.6494177E-2,2.5474029E-2,1.00685984E-1,2.0191702E-3,2.2419058E-1,1.396118E-2,1.9451791E-2,-2.4136165E-2,-1.4047339E-2,-1.2703757E-2,-1.5937184E-1,-1.7663682E-3,-7.548564E-3,-1.03628166E-1,-0E0,-0E0,-4.1723188E-2,-2.1891614E-2,5.907655E-2,5.2152842E-2,5.8712303E-3,8.223838E-3,1.2088951E-2,-3.573693E-3,-8.777487E-3,-8.765501E-3,-4.6442156E-3,-2.4105182E-3,-0E0,-1.9241637E-3,1.9020954E-4,3.6487167E-3,4.8654667E-5,3.1753026E-3,3.8551536E-4],"categories":[],"categories_nodes":[],"categories_segments":[],"categories_sizes":[],"default_left":[0,0,0,0,0,0,0,0,0,0,0,0,0,0,0,0,0,0,0,0,0,0,0,0,0,0,0,0,0,0,0,0,0,0,0,0,0,0,0,0,0,0,0,0,0,0,0,0,0,0,0,0,0,0,0],"id":19,"left_children":[1,3,5,7,9,11,13,15,-1,17,19,21,23,25,-1,-1,27,29,31,33,35,37,39,-1,41,-1,-1,-1,-1,-1,43,-1,-1,45,-1,-1,47,49,51,53,-1,-1,-1,-1,-1,-1,-1,-1,-1,-1,-1,-1,-1,-1,-1],"loss_changes":[6.483221E1,1.1397499E1,7.045191E0,1.2176933E0,7.9338074E-1,1.2765923E0,6.2584686E-1,2.7893066E-1,0E0,8.191824E-2,9.183222E-2,1.3543981E-1,1.0311937E-1,6.269455E-2,0E0,0E0,2.223587E-2,5.6962967E-2,3.0079514E-2,8.221656E-2,1.215484E-2,7.981722E-2,2.972269E-2,0E0,5.6143284E-2,0E0,0E0,0E0,0E0,0E0,2.566576E-3,0E0,0E0,2.3899078E-2,0E0,0E0,1.5215881E-2,1.171469E-2,1.5952006E-2,2.480019E-3,0E0,0E0,0E0,0E0,0E0,0E0,0E0,0E0,0E0,0E0,0E0,0E0,0E0,0E0,0E0],"parents":[2147483647,0,0,1,1,2,2,3,3,4,4,5,5,6,6,7,7,9,9,10,10,11,11,12,12,13,13,16,16,17,17,18,18,19,19,20,20,21,21,22,22,24,24,30,30,33,33,36,36,37,37,38,38,39,39],"right_children":[2,4,6,8,10,12,14,16,-1,18,20,22,24,26,-1,-1,28,30,32,34,36,38,40,-1,42,-1,-1,-1,-1,-1,44,-1,-1,46,-1,-1,48,50,52,54,-1,-1,-1,-1,-1,-1,-1,-1,-1,-1,-1,-1,-1,-1,-1],"split_conditions":[4.92E0,4.2E0,5.76E0,3.96E0,4.582E0,5.37E0,6.2E0,3.5E0,-1.6872128E-2,8.794051E-2,4.828E0,5.13E0,8.71747E2,5.8E0,2.654641E-2,-3.2179974E-2,9.69641E3,4.6736E0,4.51E0,1.0215054E0,4.8E0,1.6204268E-2,5.19E0,2.0191702E-3,-6.1E-1,1.396118E-2,1.9451791E-2,-2.4136165E-2,-1.4047339E-2,-1.2703757E-2,4.589098E0,-1.7663682E-3,-7.548564E-3,9.654471E-1,-0E0,-0E0,5.01E0,9.9153566E-1,2.4953471E-2,5.18E0,5.8712303E-3,8.223838E-3,1.2088951E-2,-3.573693E-3,-8.777487E-3,-8.765501E-3,-4.6442156E-3,-2.4105182E-3,-0E0,-1.9241637E-3,1.9020954E-4,3.6487167E-3,4.8654667E-5,3.1753026E-3,3.8551536E-4],"split_indices":[0,0,0,0,14,0,0,0,0,25,14,9,44,10,0,0,44,20,11,15,11,28,0,0,37,0,0,0,0,0,23,0,0,15,0,0,9,19,28,2,0,0,0,0,0,0,0,0,0,0,0,0,0,0,0],"split_type":[0,0,0,0,0,0,0,0,0,0,0,0,0,0,0,0,0,0,0,0,0,0,0,0,0,0,0,0,0,0,0,0,0,0,0,0,0,0,0,0,0,0,0,0,0,0,0,0,0,0,0,0,0,0,0],"sum_hessian":[8.7E2,4.37E2,4.33E2,2.09E2,2.28E2,2.44E2,1.89E2,1.29E2,8E1,8.4E1,1.44E2,1.1E2,1.34E2,1.45E2,4.4E1,2.6E1,1.03E2,6.6E1,1.8E1,9.4E1,5E1,4.6E1,6.4E1,5E0,1.29E2,2.7E1,1.18E2,9.5E1,8E0,3.9E1,2.7E1,7E0,1.1E1,8.6E1,8E0,5E0,4.5E1,1.8E1,2.8E1,1.9E1,4.5E1,3.3E1,9.6E1,6E0,2.1E1,8E0,7.8E1,4E1,5E0,1.3E1,5E0,2.1E1,7E0,1.3E1,6E0],"tree_param":{"num_deleted":"0","num_feature":"45","num_nodes":"55","size_leaf_vector":"1"}},{"base_weights":[-2.0507874E-3,-2.5842E-1,2.535293E-1,-4.2040512E-1,-1.1586454E-1,1.5587278E-1,3.927853E-1,-2.7321247E-2,-3.6409682E-1,-1.9938551E-1,-6.727889E-2,4.3350954E-2,2.0095652E-1,3.7220523E-1,3.0447861E-2,-2.050266E-2,-1.5692398E-2,-1.1946488E-2,-1.5677151E-1,-9.1630585E-2,-4.2358194E-2,-1.6856622E-3,5.046101E-2,1.5351719E-1,2.442726E-1,1.5720956E-2,2.0024141E-2,-3.1029414E-3,-1.6436918E-1,-1.03784405E-1,-3.817729E-2,-4.802138E-2,9.41232E-4,1.700291E-2,7.819866E-2,1.6631539E-3,8.083052E-3,6.99095E-3,1.261608E-2,-4.281139E-3,-8.891715E-3,-5.9081335E-3,-2.0992754E-3,-4.242606E-3,6.219202E-4,-1.6058863E-3,-4.9204375E-3,-1.0838624E-3,1.9444636E-3,1.8696781E-3,4.5873704E-3],"categories":[],"categories_nodes":[],"categories_segments":[],"categories_sizes":[],"default_left":[0,0,0,0,0,0,0,0,0,0,0,0,0,0,0,0,0,0,0,0,0,0,0,0,0,0,0,0,0,0,0,0,0,0,0,0,0,0,0,0,0,0,0,0,0,0,0,0,0,0,0],"id":20,"left_children":[1,3,5,7,9,11,13,-1,15,17,19,21,23,25,-1,-1,-1,-1,27,29,31,-1,33,35,37,-1,-1,-1,39,41,43,45,-1,47,49,-1,-1,-1,-1,-1,-1,-1,-1,-1,-1,-1,-1,-1,-1,-1,-1],"loss_changes":[5.8774494E1,1.0242817E1,5.989975E0,1.1930542E0,9.3382E-1,1.3162503E0,4.9381256E-1,0E0,1.4068413E-1,6.957936E-2,7.6176465E-2,4.6114594E-2,3.1109476E-1,8.201218E-2,0E0,0E0,0E0,0E0,2.580881E-4,3.0566216E-2,3.1542838E-2,0E0,5.689782E-2,6.718755E-2,6.2184334E-3,0E0,0E0,0E0,1.9011497E-3,3.144914E-2,4.8458934E-2,4.3887436E-2,0E0,3.3040658E-2,4.6637505E-3,0E0,0E0,0E0,0E0,0E0,0E0,0E0,0E0,0E0,0E0,0E0,0E0,0E0,0E0,0E0,0E0],"parents":[2147483647,0,0,1,1,2,2,3,3,4,4,5,5,6,6,8,8,9,9,10,10,11,11,12,12,13,13,18,18,19,19,20,20,22,22,23,23,24,24,28,28,29,29,30,30,31,31,33,33,34,34],"right_children":[2,4,6,8,10,12,14,-1,16,18,20,22,24,26,-1,-1,-1,-1,28,30,32,-1,34,36,38,-1,-1,-1,40,42,44,46,-1,48,50,-1,-1,-1,-1,-1,-1,-1,-1,-1,-1,-1,-1,-1,-1,-1,-1],"split_conditions":[4.95E0,4.2E0,5.79E0,3.69E0,4.63E0,5.21E0,6.32E0,-2.7321247E-2,4E0,4.48E0,4.8E0,4.2048883E0,5.53E0,5.99E0,3.0447861E-2,-2.050266E-2,-1.5692398E-2,-1.1946488E-2,4.31E0,1.0293884E0,5.24E0,-1.6856622E-3,1.9494042E-2,1.80631E2,1.443088E3,1.5720956E-2,2.0024141E-2,-3.1029414E-3,-7.004831E-2,4.8E0,4.52E0,5.2387543E0,9.41232E-4,5.09E0,1.3714878E-2,1.6631539E-3,8.083052E-3,6.99095E-3,1.261608E-2,-4.281139E-3,-8.891715E-3,-5.9081335E-3,-2.0992754E-3,-4.242606E-3,6.219202E-4,-1.6058863E-3,-4.9204375E-3,-1.0838624E-3,1.9444636E-3,1.8696781E-3,4.5873704E-3],"split_indices":[0,0,0,0,0,0,2,0,0,0,1,31,0,0,0,0,0,0,9,17,13,0,28,44,44,0,0,0,7,2,9,30,0,9,27,0,0,0,0,0,0,0,0,0,0,0,0,0,0,0,0],"split_type":[0,0,0,0,0,0,0,0,0,0,0,0,0,0,0,0,0,0,0,0,0,0,0,0,0,0,0,0,0,0,0,0,0,0,0,0,0,0,0,0,0,0,0,0,0,0,0,0,0,0,0],"sum_hessian":[8.95E2,4.47E2,4.48E2,2.08E2,2.39E2,2.65E2,1.83E2,6.1E1,1.47E2,8.6E1,1.53E2,7.7E1,1.88E2,1.7E2,1.3E1,7.2E1,7.5E1,4.1E1,4.5E1,7.4E1,7.9E1,5E0,7.2E1,9.3E1,9.5E1,6.1E1,1.09E2,5E0,4E1,5.8E1,1.6E1,7.4E1,5E0,3.5E1,3.7E1,7E0,8.6E1,9E0,8.6E1,8E0,3.2E1,4.5E1,1.3E1,9E0,7E0,5.9E1,1.5E1,1.1E1,2.4E1,1.2E1,2.5E1],"tree_param":{"num_deleted":"0","num_feature":"45","num_nodes":"51","size_leaf_vector":"1"}},{"base_weights":[7.340491E-3,-2.536033E-1,2.4116124E-1,-4.0752795E-1,-1.1071539E-1,1.4149542E-1,3.7703913E-1,-4.9553087E-1,-3.3790913E-1,-1.865939E-1,-6.410123E-2,6.439426E-2,1.0598125E-2,3.5087743E-1,2.776773E-2,-2.963875E-2,-2.2335712E-2,-1.7511567E-2,-1.0798696E-2,-2.053772E-1,-8.233667E-2,-9.190238E-2,-4.3944504E-2,2.5296817E-2,1.0045452E-1,3.175282E-1,2.0391902E-2,-1.074891E-2,-3.835732E-3,-0E0,-6.630783E-3,-1.15395755E-1,-3.164402E-2,-5.5356067E-2,-0E0,3.7869304E-2,-4.778115E-3,1.4541979E-3,1.0930367E-1,3.2682616E-1,8.8143535E-3,-6.2579312E-3,-1.9997351E-3,-0E0,-3.2042977E-3,-4.020586E-3,-1.6073164E-3,8.825403E-4,-8.940692E-4,1.1698239E-3,4.4241133E-3,-3.3324144E-3,1.5780922E-3,5.7537574E-3,1.171918E-3,9.049066E-3,1.6711274E-2],"categories":[],"categories_nodes":[],"categories_segments":[],"categories_sizes":[],"default_left":[0,0,0,0,0,0,0,0,0,0,0,0,0,0,0,0,0,0,0,0,0,0,0,0,0,0,0,0,0,0,0,0,0,0,0,0,0,0,0,0,0,0,0,0,0,0,0,0,0,0,0,0,0,0,0,0,0],"id":21,"left_children":[1,3,5,7,9,11,13,15,17,19,21,23,-1,25,-1,-1,-1,-1,-1,27,29,31,33,35,37,39,-1,-1,-1,-1,-1,41,43,45,47,49,51,-1,53,55,-1,-1,-1,-1,-1,-1,-1,-1,-1,-1,-1,-1,-1,-1,-1,-1,-1],"loss_changes":[5.4118385E1,9.11853E0,6.2326317E0,9.806671E-1,7.3757553E-1,1.4365163E0,6.3352966E-1,3.9503098E-2,4.202938E-2,1.1489892E-1,5.970913E-2,1.709857E-1,0E0,1.3039207E-1,0E0,0E0,0E0,0E0,0E0,3.8338184E-2,5.65923E-2,5.9506446E-2,4.0029377E-2,2.8445762E-2,2.5297463E-2,4.4410706E-2,0E0,0E0,0E0,0E0,0E0,6.451905E-3,1.893889E-2,2.4540573E-2,6.3211415E-3,2.2635072E-2,4.6082657E-2,0E0,1.2194455E-2,3.4599304E-3,0E0,0E0,0E0,0E0,0E0,0E0,0E0,0E0,0E0,0E0,0E0,0E0,0E0,0E0,0E0,0E0,0E0],"parents":[2147483647,0,0,1,1,2,2,3,3,4,4,5,5,6,6,7,7,8,8,9,9,10,10,11,11,13,13,19,19,20,20,21,21,22,22,23,23,24,24,25,25,31,31,32,32,33,33,34,34,35,35,36,36,38,38,39,39],"right_children":[2,4,6,8,10,12,14,16,18,20,22,24,-1,26,-1,-1,-1,-1,-1,28,30,32,34,36,38,40,-1,-1,-1,-1,-1,42,44,46,48,50,52,-1,54,56,-1,-1,-1,-1,-1,-1,-1,-1,-1,-1,-1,-1,-1,-1,-1,-1,-1],"split_conditions":[4.92E0,4.19E0,5.79E0,4.0502152E0,4.582E0,5.37E0,1.4797565E-1,3.5E0,1.7090422E-1,1.0836791E-1,4.7584E0,5.15E0,1.0598125E-2,5.8411646E0,2.776773E-2,-2.963875E-2,-2.2335712E-2,-1.7511567E-2,-1.0798696E-2,4.4444446E-2,0E0,4.85E0,2.5E-3,2.5013503E-2,6.36098E2,1.2256511E-1,2.0391902E-2,-1.074891E-2,-3.835732E-3,-0E0,-6.630783E-3,8.8495575E-3,4.7994504E0,4.83E0,4.829E0,5.15E0,3.090207E-2,1.4541979E-3,5.529E3,6.0487237E-2,8.8143535E-3,-6.2579312E-3,-1.9997351E-3,-0E0,-3.2042977E-3,-4.020586E-3,-1.6073164E-3,8.825403E-4,-8.940692E-4,1.1698239E-3,4.4241133E-3,-3.3324144E-3,1.5780922E-3,5.7537574E-3,1.171918E-3,9.049066E-3,1.6711274E-2],"split_indices":[0,0,0,30,14,0,25,0,32,25,20,0,0,31,0,0,0,0,0,5,39,2,7,27,44,32,0,0,0,0,0,5,22,11,16,11,27,0,4,32,0,0,0,0,0,0,0,0,0,0,0,0,0,0,0,0,0],"split_type":[0,0,0,0,0,0,0,0,0,0,0,0,0,0,0,0,0,0,0,0,0,0,0,0,0,0,0,0,0,0,0,0,0,0,0,0,0,0,0,0,0,0,0,0,0,0,0,0,0,0,0,0,0,0,0,0,0],"sum_hessian":[8.85E2,4.18E2,4.67E2,2E2,2.18E2,2.71E2,1.96E2,8.5E1,1.15E2,8.1E1,1.37E2,1.31E2,1.4E2,1.74E2,2.2E1,2.4E1,6.1E1,1.02E2,1.3E1,6.7E1,1.4E1,5.4E1,8.3E1,6.5E1,6.6E1,1.15E2,5.9E1,6.1E1,6E0,6E0,8E0,3.7E1,1.7E1,6.5E1,1.8E1,4.8E1,1.7E1,9E0,5.7E1,1.06E2,9E0,3.1E1,6E0,9E0,8E0,2.8E1,3.7E1,8E0,1E1,4E1,8E0,7E0,1E1,5.2E1,5E0,7E0,9.9E1],"tree_param":{"num_deleted":"0","num_feature":"45","num_nodes":"57","size_leaf_vector":"1"}},{"base_weights":[2.253531E-3,-2.2614089E-1,2.4057446E-1,-3.588778E-1,-7.996931E-2,1.4515981E-1,3.6609748E-1,-4.4767344E-1,-2.736283E-1,-1.4451125E-1,-4.358804E-2,7.401647E-2,1.9802962E-1,3.4119773E-1,2.6356598E-2,-2.6760245E-2,-1.9950246E-2,-6.5413774E-3,-1.3953579E-2,-1.5758756E-1,-4.009656E-3,-5.373593E-2,-0E0,4.6582546E-2,1.09341934E-1,1.6196246E-1,1.1082494E-2,1.4697522E-2,1.8377556E-2,-9.190795E-3,-1.15019E-1,-7.4674554E-2,-3.4677725E-2,-4.240703E-2,4.264095E-2,3.0764785E-2,6.539495E-2,1.1836362E-1,7.905317E-4,2.5747174E-3,8.462529E-3,-8.124013E-3,-1.6909536E-3,-4.101147E-3,-1.3539381E-3,4.1066256E-4,-2.2406061E-3,-3.0921164E-3,-0E0,-0E0,3.6773756E-3,-0E0,2.1282276E-3,3.669928E-3,5.575212E-4,3.0626988E-3,6.624806E-3],"categories":[],"categories_nodes":[],"categories_segments":[],"categories_sizes":[],"default_left":[0,0,0,0,0,0,0,0,0,0,0,0,0,0,0,0,0,0,0,0,0,0,0,0,0,0,0,0,0,0,0,0,0,0,0,0,0,0,0,0,0,0,0,0,0,0,0,0,0,0,0,0,0,0,0,0,0],"id":22,"left_children":[1,3,5,7,9,11,13,15,17,19,21,23,25,27,-1,-1,-1,-1,-1,29,-1,31,33,35,37,39,-1,-1,-1,-1,41,43,45,47,49,51,53,55,-1,-1,-1,-1,-1,-1,-1,-1,-1,-1,-1,-1,-1,-1,-1,-1,-1,-1,-1],"loss_changes":[4.71388E1,8.503263E0,4.9738674E0,1.5539951E0,4.726919E-1,8.721423E-1,4.6307945E-1,1.6589355E-1,1.6553879E-2,2.6662827E-2,6.12171E-2,8.204043E-2,4.3303967E-2,2.627182E-2,0E0,0E0,0E0,0E0,0E0,1.5964389E-2,0E0,3.1169116E-2,5.0632495E-2,7.1190745E-3,2.1838844E-2,1.7516375E-2,0E0,0E0,0E0,0E0,7.89291E-2,4.3563545E-3,3.1412415E-2,9.243274E-3,2.3227615E-2,1.0192864E-2,1.5804768E-3,3.986001E-3,0E0,0E0,0E0,0E0,0E0,0E0,0E0,0E0,0E0,0E0,0E0,0E0,0E0,0E0,0E0,0E0,0E0,0E0,0E0],"parents":[2147483647,0,0,1,1,2,2,3,3,4,4,5,5,6,6,7,7,8,8,9,9,10,10,11,11,12,12,13,13,19,19,21,21,22,22,23,23,24,24,25,25,30,30,31,31,32,32,33,33,34,34,35,35,36,36,37,37],"right_children":[2,4,6,8,10,12,14,16,18,20,22,24,26,28,-1,-1,-1,-1,-1,30,-1,32,34,36,38,40,-1,-1,-1,-1,42,44,46,48,50,52,54,56,-1,-1,-1,-1,-1,-1,-1,-1,-1,-1,-1,-1,-1,-1,-1,-1,-1,-1,-1],"split_conditions":[5.01E0,4.4E0,5.79E0,3.94E0,4.68E0,5.37E0,1.4797565E-1,3.54E0,-3.8659792E-2,5E-2,4.91E0,5.21E0,5.55E0,6E0,2.6356598E-2,-2.6760245E-2,-1.9950246E-2,-6.5413774E-3,-1.3953579E-2,3.595633E-1,-4.009656E-3,4.8E0,1.3646E3,9.492E2,1.948955E-2,8.44E1,1.1082494E-2,1.4697522E-2,1.8377556E-2,-9.190795E-3,4.4096227E0,4.225352E-2,4.8E0,5.04E0,6.705276E-2,2E0,1.7843106E-1,6.821E2,7.905317E-4,2.5747174E-3,8.462529E-3,-8.124013E-3,-1.6909536E-3,-4.101147E-3,-1.3539381E-3,4.1066256E-4,-2.2406061E-3,-3.0921164E-3,-0E0,-0E0,3.6773756E-3,-0E0,2.1282276E-3,3.669928E-3,5.575212E-4,3.0626988E-3,6.624806E-3],"split_indices":[8,0,0,0,0,0,25,9,5,37,0,0,0,8,0,0,0,0,0,33,0,1,34,35,27,34,0,0,0,0,23,6,11,9,32,41,32,35,0,0,0,0,0,0,0,0,0,0,0,0,0,0,0,0,0,0,0],"split_type":[0,0,0,0,0,0,0,0,0,0,0,0,0,0,0,0,0,0,0,0,0,0,0,0,0,0,0,0,0,0,0,0,0,0,0,0,0,0,0,0,0,0,0,0,0,0,0,0,0,0,0,0,0,0,0,0,0],"sum_hessian":[8.64E2,4.41E2,4.23E2,2.3E2,2.11E2,2.42E2,1.81E2,1.1E2,1.2E2,7.4E1,1.37E2,1.05E2,1.37E2,1.6E2,2.1E1,3.5E1,7.5E1,6E0,1.14E2,5.9E1,1.5E1,1.11E2,2.6E1,6.2E1,4.3E1,5.9E1,7.8E1,6.3E1,9.7E1,3.3E1,2.6E1,4.9E1,6.2E1,1.3E1,1.3E1,3.8E1,2.4E1,3.8E1,5E0,5E0,5.4E1,1.5E1,1.1E1,4E1,9E0,1E1,5.2E1,8E0,5E0,5E0,8E0,1.3E1,2.5E1,1.9E1,5E0,1E1,2.8E1],"tree_param":{"num_deleted":"0","num_feature":"45","num_nodes":"57","size_leaf_vector":"1"}},{"base_weights":[-8.289078E-4,-2.225203E-1,2.2014788E-1,-3.636618E-1,-1.01542264E-1,1.2898418E-1,3.3352447E-1,-2.3139846E-2,-3.061952E-1,-1.7227404E-1,-6.1063234E-2,6.1110735E-2,1.8339425E-1,3.150705E-1,2.8281474E-2,-1.7184293E-2,-1.310412E-2,-2.0217247E-1,-1.313594E-1,-8.3694704E-2,-3.6984257E-2,2.1722453E-2,8.413019E-2,6.4763287E-3,9.721469E-3,2.64601E-1,1.7209522E-2,-3.853976E-3,-1.0642416E-2,-3.0736139E-3,-1.4869484E-1,-9.2403695E-2,-2.6166154E-4,1.0807122E-3,-4.426924E-2,3.6742136E-2,-1.0383085E-2,9.332189E-2,2.8957212E-2,4.6753134E-3,1.397942E-2,-3.1200573E-3,-8.1454655E-3,-3.6351942E-3,-6.757781E-3,-2.4333424E-3,-0E0,3.916535E-4,2.4063347E-3,-3.2248762E-3,1.5464469E-3,4.950726E-3,1.1708218E-3,-0E0,1.9380326E-3],"categories":[],"categories_nodes":[],"categories_segments":[],"categories_sizes":[],"default_left":[0,0,0,0,0,0,0,0,0,0,0,0,0,0,0,0,0,0,0,0,0,0,0,0,0,0,0,0,0,0,0,0,0,0,0,0,0,0,0,0,0,0,0,0,0,0,0,0,0,0,0,0,0,0,0],"id":23,"left_children":[1,3,5,7,9,11,13,-1,15,17,19,21,23,25,-1,-1,-1,27,29,31,33,35,37,-1,-1,39,-1,-1,-1,-1,41,43,-1,-1,45,47,49,51,53,-1,-1,-1,-1,-1,-1,-1,-1,-1,-1,-1,-1,-1,-1,-1,-1],"loss_changes":[4.3943058E1,7.566162E0,4.5515194E0,9.549694E-1,6.618929E-1,8.9128447E-1,5.8608437E-1,0E0,7.0961E-2,4.6515465E-2,7.039273E-2,9.095067E-2,2.4453163E-2,1.2287521E-1,0E0,0E0,0E0,1.7368078E-2,1.9515216E-2,4.305166E-2,3.7373476E-2,2.4717076E-2,2.0569026E-2,0E0,0E0,1.2630272E-1,0E0,0E0,0E0,0E0,5.328357E-3,2.7499855E-2,0E0,0E0,1.7992541E-2,4.887905E-3,3.44142E-2,8.519173E-3,1.1183424E-3,0E0,0E0,0E0,0E0,0E0,0E0,0E0,0E0,0E0,0E0,0E0,0E0,0E0,0E0,0E0,0E0],"parents":[2147483647,0,0,1,1,2,2,3,3,4,4,5,5,6,6,8,8,9,9,10,10,11,11,12,12,13,13,17,17,18,18,19,19,20,20,21,21,22,22,25,25,30,30,31,31,34,34,35,35,36,36,37,37,38,38],"right_children":[2,4,6,8,10,12,14,-1,16,18,20,22,24,26,-1,-1,-1,28,30,32,34,36,38,-1,-1,40,-1,-1,-1,-1,42,44,-1,-1,46,48,50,52,54,-1,-1,-1,-1,-1,-1,-1,-1,-1,-1,-1,-1,-1,-1,-1,-1],"split_conditions":[4.98E0,4.19E0,5.77E0,3.68E0,4.63E0,5.37E0,6.32E0,-2.3139846E-2,4E0,4.48E0,4.7E0,5.13E0,-6.1E-1,5.952E0,2.8281474E-2,-1.7184293E-2,-1.310412E-2,-4.2116746E-2,4.5E0,4.2713568E-2,9.6337765E-1,1.9813558E-2,1.2E1,6.4763287E-3,9.721469E-3,7.0853685E-3,1.7209522E-2,-3.853976E-3,-1.0642416E-2,-3.0736139E-3,1.334966E-2,1.0139284E0,-2.6166154E-4,1.0807122E-3,1.0271071E0,5.09E0,3.090207E-2,3.646E3,8.8275E2,4.6753134E-3,1.397942E-2,-3.1200573E-3,-8.1454655E-3,-3.6351942E-3,-6.757781E-3,-2.4333424E-3,-0E0,3.916535E-4,2.4063347E-3,-3.2248762E-3,1.5464469E-3,4.950726E-3,1.1708218E-3,-0E0,1.9380326E-3],"split_indices":[0,0,0,14,0,0,2,0,0,0,3,0,37,16,0,0,0,26,1,6,19,27,42,0,0,27,0,0,0,0,27,21,0,0,15,1,27,4,35,0,0,0,0,0,0,0,0,0,0,0,0,0,0,0,0],"split_type":[0,0,0,0,0,0,0,0,0,0,0,0,0,0,0,0,0,0,0,0,0,0,0,0,0,0,0,0,0,0,0,0,0,0,0,0,0,0,0,0,0,0,0,0,0,0,0,0,0,0,0,0,0,0,0],"sum_hessian":[8.95E2,4.47E2,4.48E2,2.05E2,2.42E2,2.5E2,1.98E2,7.2E1,1.33E2,8.6E1,1.56E2,1.13E2,1.37E2,1.86E2,1.2E1,6.7E1,6.6E1,4.6E1,4E1,7.7E1,7.9E1,4.4E1,6.9E1,2.7E1,1.1E2,7.3E1,1.13E2,5E0,4.1E1,1E1,3E1,6.8E1,9E0,7E0,7.2E1,3.2E1,1.2E1,5.7E1,1.2E1,7E0,6.6E1,6E0,2.4E1,5E1,1.8E1,6.7E1,5E0,1.2E1,2E1,6E0,6E0,5.1E1,6E0,5E0,7E0],"tree_param":{"num_deleted":"0","num_feature":"45","num_nodes":"55","size_leaf_vector":"1"}},{"base_weights":[-1.0532901E-4,-2.1507192E-1,2.0977177E-1,-3.4258446E-1,-9.46916E-2,1.1334388E-1,3.143286E-1,-2.399969E-2,-3.0242687E-1,-1.618436E-1,-5.8438927E-2,4.86702E-2,1.6847362E-1,2.9190403E-1,2.4927782E-2,-1.6946493E-2,-1.314536E-2,-1.69684E-1,-3.0254836E-3,-6.286334E-2,2.0041417E-3,3.021684E-2,4.7542895E-3,1.4611374E-1,1.9986929E-1,2.4922085E-1,1.6402086E-2,-1.7704281E-1,-2.2508097E-3,-9.176659E-2,-4.7179673E-2,3.7101195E-3,5.893537E-2,3.7168977E-3,7.647458E-3,1.0988473E-2,6.506054E-3,6.504872E-3,1.2962242E-2,-1.0720049E-2,-6.910769E-3,-5.9129954E-3,-2.4286008E-3,-2.7883283E-3,-4.1953455E-5,-9.94417E-4,1.043202E-3,3.7444637E-3,-9.653998E-4],"categories":[],"categories_nodes":[],"categories_segments":[],"categories_sizes":[],"default_left":[0,0,0,0,0,0,0,0,0,0,0,0,0,0,0,0,0,0,0,0,0,0,0,0,0,0,0,0,0,0,0,0,0,0,0,0,0,0,0,0,0,0,0,0,0,0,0,0,0],"id":24,"left_children":[1,3,5,7,9,11,13,-1,15,17,19,21,23,25,-1,-1,-1,27,-1,29,-1,31,-1,33,35,37,-1,39,-1,41,43,45,47,-1,-1,-1,-1,-1,-1,-1,-1,-1,-1,-1,-1,-1,-1,-1,-1],"loss_changes":[3.94324E1,6.5550327E0,4.3779354E0,9.29863E-1,5.138283E-1,7.9726887E-1,6.471119E-1,0E0,8.8736534E-2,2.788949E-2,6.93112E-2,7.79576E-2,2.3246288E-2,1.5513039E-1,0E0,0E0,0E0,3.4042597E-2,0E0,4.659897E-2,0E0,5.517675E-2,0E0,4.1695833E-3,1.6504526E-3,3.8389206E-2,0E0,2.9388905E-2,0E0,3.1358004E-2,3.2891035E-2,1.8728795E-2,5.319071E-2,0E0,0E0,0E0,0E0,0E0,0E0,0E0,0E0,0E0,0E0,0E0,0E0,0E0,0E0,0E0,0E0],"parents":[2147483647,0,0,1,1,2,2,3,3,4,4,5,5,6,6,8,8,9,9,10,10,11,11,12,12,13,13,17,17,19,19,21,21,23,23,24,24,25,25,27,27,29,29,30,30,31,31,32,32],"right_children":[2,4,6,8,10,12,14,-1,16,18,20,22,24,26,-1,-1,-1,28,-1,30,-1,32,-1,34,36,38,-1,40,-1,42,44,46,48,-1,-1,-1,-1,-1,-1,-1,-1,-1,-1,-1,-1,-1,-1,-1,-1],"split_conditions":[4.98E0,4.196E0,5.704E0,3.58E0,4.63E0,5.36E0,6.25E0,-2.399969E-2,3.97E0,1E-1,5E0,5.4266E0,1.0043963E0,5.976E0,2.4927782E-2,-1.6946493E-2,-1.314536E-2,4.96E0,-3.0254836E-3,6E0,2.0041417E-3,4.918033E-3,4.7542895E-3,5.49E0,9.5431626E-1,2.368957E-3,1.6402086E-2,4.48E0,-2.2508097E-3,2.8205564E-2,4.918033E-3,5.09E0,1.6540043E-1,3.7168977E-3,7.647458E-3,1.0988473E-2,6.506054E-3,6.504872E-3,1.2962242E-2,-1.0720049E-2,-6.910769E-3,-5.9129954E-3,-2.4286008E-3,-2.7883283E-3,-4.1953455E-5,-9.94417E-4,1.043202E-3,3.7444637E-3,-9.653998E-4],"split_indices":[0,14,14,0,0,0,2,0,0,37,2,20,15,14,0,0,0,12,0,42,0,7,0,10,36,27,0,10,0,28,7,9,24,0,0,0,0,0,0,0,0,0,0,0,0,0,0,0,0],"split_type":[0,0,0,0,0,0,0,0,0,0,0,0,0,0,0,0,0,0,0,0,0,0,0,0,0,0,0,0,0,0,0,0,0,0,0,0,0,0,0,0,0,0,0,0,0,0,0,0,0],"sum_hessian":[8.72E2,4.31E2,4.41E2,2.08E2,2.23E2,2.31E2,2.1E2,4.4E1,1.64E2,7.6E1,1.47E2,1.08E2,1.23E2,1.9E2,2E1,8E1,8.4E1,6.9E1,7E0,1.42E2,5E0,8E1,2.8E1,7.7E1,4.6E1,9.2E1,9.8E1,6.4E1,5E0,4.6E1,9.6E1,4.4E1,3.6E1,9E0,6.8E1,3.3E1,1.3E1,9E0,8.3E1,2.9E1,3.5E1,2.6E1,2E1,7.9E1,1.7E1,1.6E1,2.8E1,3.1E1,5E0],"tree_param":{"num_deleted":"0","num_feature":"45","num_nodes":"49","size_leaf_vector":"1"}},{"base_weights":[-2.7009076E-3,-2.063407E-1,2.0208792E-1,-3.3354157E-1,-9.32335E-2,1.0173167E-1,2.8936827E-1,-2.1391032E-2,-2.8698817E-1,-1.362996E-1,-4.8926365E-2,2.8399486E-2,1.3826539E-1,2.6736495E-1,2.2385698E-2,-2.9152417E-1,-5.8325143E-3,-1.6937706E-1,-1.0416671E-1,-0E0,-5.34467E-2,3.915439E-2,-0E0,1.0649476E-1,1.5978111E-1,2.3158538E-1,3.0636564E-1,-1.5996248E-2,-1.2665919E-2,-1.8197057E-1,-2.0470477E-3,-1.1004078E-1,-1.2745033E-3,-3.789384E-4,1.0081846E-4,-0E0,-5.6564257E-2,1.52867995E-2,5.950586E-2,1.2297507E-3,-2.512454E-2,1.1105925E-1,1.4738551E-3,8.329373E-3,3.3025704E-3,1.5158698E-1,2.4371175E-1,1.5621856E-2,7.27711E-3,-3.676179E-3,-9.508207E-3,-5.7940497E-3,-1.1235984E-3,-3.1547144E-3,-6.583982E-4,-0E0,1.4212923E-3,1.3357118E-3,4.965052E-3,-2.2861832E-3,-0E0,4.048926E-3,6.5548304E-3,2.8746757E-3,8.697113E-3,4.780423E-3,1.2478549E-2],"categories":[],"categories_nodes":[],"categories_segments":[],"categories_sizes":[],"default_left":[0,0,0,0,0,0,0,0,0,0,0,0,0,0,0,0,0,0,0,0,0,0,0,0,0,0,0,0,0,0,0,0,0,0,0,0,0,0,0,0,0,0,0,0,0,0,0,0,0,0,0,0,0,0,0,0,0,0,0,0,0,0,0,0,0,0,0],"id":25,"left_children":[1,3,5,7,9,11,13,-1,15,17,19,21,23,25,-1,27,-1,29,31,33,35,37,39,41,43,45,47,-1,-1,49,-1,51,-1,-1,-1,-1,53,55,57,-1,59,61,-1,-1,-1,63,65,-1,-1,-1,-1,-1,-1,-1,-1,-1,-1,-1,-1,-1,-1,-1,-1,-1,-1,-1,-1],"loss_changes":[3.740815E1,6.400526E0,3.8467827E0,7.3182106E-1,4.3276143E-1,5.420172E-1,6.3801193E-1,0E0,3.7210464E-2,8.254695E-2,2.4571985E-2,2.3182306E-2,5.1372528E-2,1.7108631E-1,0E0,1.3544083E-2,0E0,6.0836673E-2,1.3681829E-2,4.2645854E-4,2.1728635E-2,1.7355323E-2,1.2992814E-2,4.1169524E-3,1.6131163E-2,3.6057472E-2,3.443718E-3,0E0,0E0,4.07815E-3,0E0,1.373446E-2,0E0,0E0,0E0,0E0,2.1297753E-2,8.001303E-3,1.8674389E-2,0E0,5.6002513E-3,1.9298196E-3,0E0,0E0,0E0,6.8220794E-3,2.6661873E-2,0E0,0E0,0E0,0E0,0E0,0E0,0E0,0E0,0E0,0E0,0E0,0E0,0E0,0E0,0E0,0E0,0E0,0E0,0E0,0E0],"parents":[2147483647,0,0,1,1,2,2,3,3,4,4,5,5,6,6,8,8,9,9,10,10,11,11,12,12,13,13,15,15,17,17,18,18,19,19,20,20,21,21,22,22,23,23,24,24,25,25,26,26,29,29,31,31,36,36,37,37,38,38,40,40,41,41,45,45,46,46],"right_children":[2,4,6,8,10,12,14,-1,16,18,20,22,24,26,-1,28,-1,30,32,34,36,38,40,42,44,46,48,-1,-1,50,-1,52,-1,-1,-1,-1,54,56,58,-1,60,62,-1,-1,-1,64,66,-1,-1,-1,-1,-1,-1,-1,-1,-1,-1,-1,-1,-1,-1,-1,-1,-1,-1,-1,-1],"split_conditions":[4.96E0,4.17E0,5.64E0,3.69E0,4.71E0,5.23E0,6.3E0,-2.1391032E-2,1.0011E4,-4.9597062E-2,2.91824E2,2.4673853E-2,5.5E0,6E0,2.2385698E-2,4E0,-5.8325143E-3,4.48E0,4.8E0,2.08669E2,-1.5E-1,1.2209221E-2,1E-2,2.93565E3,5.71E0,2.368957E-3,1.0161606E0,-1.5996248E-2,-1.2665919E-2,-4.291432E-2,-2.0470477E-3,2E-1,-1.2745033E-3,-3.789384E-4,1.0081846E-4,-0E0,3.6464734E4,9.9627244E-1,5.15E0,1.2297507E-3,5.1E0,1.0003216E0,1.4738551E-3,8.329373E-3,3.3025704E-3,2.208E2,4.85E0,1.5621856E-2,7.27711E-3,-3.676179E-3,-9.508207E-3,-5.7940497E-3,-1.1235984E-3,-3.1547144E-3,-6.583982E-4,-0E0,1.4212923E-3,1.3357118E-3,4.965052E-3,-2.2861832E-3,-0E0,4.048926E-3,6.5548304E-3,2.8746757E-3,8.697113E-3,4.780423E-3,1.2478549E-2],"split_indices":[0,0,8,0,0,9,0,0,4,25,44,27,10,8,0,0,0,40,8,44,40,27,40,35,10,27,17,0,0,26,0,37,0,0,0,0,44,15,8,0,12,15,0,0,0,34,13,0,0,0,0,0,0,0,0,0,0,0,0,0,0,0,0,0,0,0,0],"split_type":[0,0,0,0,0,0,0,0,0,0,0,0,0,0,0,0,0,0,0,0,0,0,0,0,0,0,0,0,0,0,0,0,0,0,0,0,0,0,0,0,0,0,0,0,0,0,0,0,0,0,0,0,0,0,0,0,0,0,0,0,0,0,0,0,0,0,0],"sum_hessian":[8.95E2,4.49E2,4.46E2,2.1E2,2.39E2,2.09E2,2.37E2,6.6E1,1.44E2,1.19E2,1.2E2,7.1E1,1.38E2,2.11E2,2.6E1,1.39E2,5E0,5.5E1,6.4E1,1.1E1,1.09E2,5.2E1,1.9E1,6E1,7.8E1,1.15E2,9.6E1,7.4E1,6.5E1,4.9E1,6E0,5.8E1,6E0,6E0,5E0,5E0,1.04E2,2.7E1,2.5E1,9E0,1E1,5.5E1,5E0,7.1E1,7E0,1.8E1,9.7E1,9.1E1,5E0,5E0,4.4E1,5.3E1,5E0,8.8E1,1.6E1,1E1,1.7E1,1.6E1,9E0,5E0,5E0,2.6E1,2.9E1,5E0,1.3E1,5E0,9.2E1],"tree_param":{"num_deleted":"0","num_feature":"45","num_nodes":"67","size_leaf_vector":"1"}},{"base_weights":[5.4526865E-3,-1.8840691E-1,1.9252402E-1,-2.9683602E-1,-7.863014E-2,1.03536956E-1,2.8261334E-1,-3.7964207E-1,-2.4176224E-1,-1.1483083E-1,-4.1110665E-2,3.9432805E-2,1.3402885E-1,2.518086E-1,1.9540895E-2,-2.3217697E-2,-1.6991926E-2,-2.6598996E-1,-1.0378147E-2,-1.2702347E-1,-6.0430564E-2,-6.489204E-2,-2.4096807E-2,3.5917473E-3,4.974331E-2,2.4424892E-4,1.3864939E-1,3.6060326E-3,2.5610638E-1,-6.089639E-3,-1.36720305E-2,-8.779048E-3,-5.493252E-3,-0E0,-1.1810246E-1,-3.2018043E-2,-8.877667E-2,-4.0156882E-2,4.9039454E-4,1.9095413E-2,-6.8214897E-4,2.987786E-2,4.079649E-3,4.9746567E-3,1.5539275E-1,1.0375011E-2,1.3537787E-2,1.356022E-3,-1.3543041E-3,-1.959804E-3,-7.7289506E-3,-1.9701612E-3,-0E0,-7.4570655E-4,-6.1387843E-3,7.957282E-4,-2.619119E-3,1.1772271E-3,-9.056823E-4,-0E0,2.0863684E-3,1.7151608E-3,-0E0,5.2385237E-3,8.287379E-3],"categories":[],"categories_nodes":[],"categories_segments":[],"categories_sizes":[],"default_left":[0,0,0,0,0,0,0,0,0,0,0,0,0,0,0,0,0,0,0,0,0,0,0,0,0,0,0,0,0,0,0,0,0,0,0,0,0,0,0,0,0,0,0,0,0,0,0,0,0,0,0,0,0,0,0,0,0,0,0,0,0,0,0,0,0],"id":26,"left_children":[1,3,5,7,9,11,13,15,17,19,21,23,25,27,-1,-1,-1,29,-1,31,33,35,37,39,41,-1,43,-1,45,-1,-1,-1,-1,47,49,51,53,55,57,59,-1,61,-1,-1,63,-1,-1,-1,-1,-1,-1,-1,-1,-1,-1,-1,-1,-1,-1,-1,-1,-1,-1,-1,-1],"loss_changes":[3.1551468E1,5.0216913E0,3.4835587E0,8.2201195E-1,2.7034652E-1,4.171667E-1,5.673008E-1,4.1636467E-2,6.8068504E-3,4.4549704E-2,3.323561E-2,2.2203289E-2,7.507324E-2,8.3078384E-2,0E0,0E0,0E0,4.527569E-3,0E0,2.2984743E-2,8.338568E-2,1.8055782E-2,3.0442785E-2,6.1497907E-3,2.1846741E-2,0E0,5.4114103E-2,0E0,1.6328812E-2,0E0,0E0,0E0,0E0,9.550563E-3,9.102374E-3,3.3135656E-3,3.9647505E-2,3.3956967E-2,1.1692074E-2,5.3421515E-3,0E0,4.909359E-3,0E0,0E0,6.952524E-3,0E0,0E0,0E0,0E0,0E0,0E0,0E0,0E0,0E0,0E0,0E0,0E0,0E0,0E0,0E0,0E0,0E0,0E0,0E0,0E0],"parents":[2147483647,0,0,1,1,2,2,3,3,4,4,5,5,6,6,7,7,8,8,9,9,10,10,11,11,12,12,13,13,17,17,19,19,20,20,21,21,22,22,23,23,24,24,26,26,28,28,33,33,34,34,35,35,36,36,37,37,38,38,39,39,41,41,44,44],"right_children":[2,4,6,8,10,12,14,16,18,20,22,24,26,28,-1,-1,-1,30,-1,32,34,36,38,40,42,-1,44,-1,46,-1,-1,-1,-1,48,50,52,54,56,58,60,-1,62,-1,-1,64,-1,-1,-1,-1,-1,-1,-1,-1,-1,-1,-1,-1,-1,-1,-1,-1,-1,-1,-1,-1],"split_conditions":[4.98E0,4.26E0,5.66E0,4.0502152E0,4.7E0,5.21E0,6.04E0,3.5E0,4.03E0,1.0158201E0,2E0,2.7777779E1,1.80631E2,5.51E0,1.9540895E-2,-2.3217697E-2,-1.6991926E-2,3.863009E0,-1.0378147E-2,4.534E0,1.0732138E0,2.106896E-2,5.245098E1,5.05E0,5.15E0,2.4424892E-4,5.47E0,3.6060326E-3,-1.8737638E-2,-6.089639E-3,-1.36720305E-2,-8.779048E-3,-5.493252E-3,4.51E0,3.699679E0,1.644241E-2,4.76E0,-8.617061E-2,5.980392E1,9.492E2,-6.8214897E-4,1.346915E-1,4.079649E-3,4.9746567E-3,3.3944954E1,1.0375011E-2,1.3537787E-2,1.356022E-3,-1.3543041E-3,-1.959804E-3,-7.7289506E-3,-1.9701612E-3,-0E0,-7.4570655E-4,-6.1387843E-3,7.957282E-4,-2.619119E-3,1.1772271E-3,-9.056823E-4,-0E0,2.0863684E-3,1.7151608E-3,-0E0,5.2385237E-3,8.287379E-3],"split_indices":[0,0,0,30,1,0,3,0,0,17,41,29,44,9,0,0,0,22,0,16,19,28,29,3,0,0,0,0,24,0,0,0,0,12,31,28,11,24,29,35,0,24,0,0,29,0,0,0,0,0,0,0,0,0,0,0,0,0,0,0,0,0,0,0,0],"split_type":[0,0,0,0,0,0,0,0,0,0,0,0,0,0,0,0,0,0,0,0,0,0,0,0,0,0,0,0,0,0,0,0,0,0,0,0,0,0,0,0,0,0,0,0,0,0,0,0,0,0,0,0,0,0,0,0,0,0,0,0,0,0,0,0,0],"sum_hessian":[8.68E2,4.26E2,4.42E2,2.13E2,2.13E2,2.24E2,2.18E2,8.2E1,1.31E2,1.06E2,1.07E2,7.4E1,1.5E2,1.73E2,4.5E1,2.2E1,6E1,7.1E1,6E1,8.4E1,2.2E1,4.1E1,6.6E1,1.9E1,5.5E1,6E0,1.44E2,5E0,1.68E2,5E0,6.6E1,1.8E1,6.6E1,1.1E1,1.1E1,2E1,2.1E1,4.2E1,2.4E1,1.3E1,6E0,3.7E1,1.8E1,4.7E1,9.7E1,4.4E1,1.24E2,6E0,5E0,5E0,6E0,1.5E1,5E0,8E0,1.3E1,6E0,3.6E1,1.3E1,1.1E1,8E0,5E0,3.2E1,5E0,2E1,7.7E1],"tree_param":{"num_deleted":"0","num_feature":"45","num_nodes":"65","size_leaf_vector":"1"}},{"base_weights":[5.71166E-3,-1.92247E-1,1.715537E-1,-2.9116213E-1,-9.189225E-2,8.2623705E-2,2.6046392E-1,-1.8385164E-2,-2.4265985E-1,-1.4874241E-1,-5.591308E-2,1.1904391E-2,1.1456073E-1,2.4494956E-1,2.3560856E-2,-2.5206703E-1,-6.119244E-3,-1.6542074E-1,-7.426472E-2,-1.0830709E-1,-4.5922123E-2,-2.8261315E-2,3.2131024E-2,8.248069E-2,1.433617E-1,1.9634004E-1,1.404457E-2,-1.4236199E-2,-1.0950585E-2,-9.447073E-2,-1.7714033E-1,-0E0,-5.1609473E-3,-1.3483103E-1,-1.6539668E-3,5.4887175E-3,-5.5150032E-2,-6.196482E-2,-0E0,-0E0,4.828558E-2,9.353347E-2,2.4101341E-2,7.449459E-3,1.3884219E-3,2.0295663E-1,3.2104552E-3,-6.080143E-3,-1.5202395E-3,-4.2572333E-3,-9.512755E-3,-2.7941735E-3,-8.447654E-3,-6.5375806E-4,1.6245599E-3,-0E0,-3.0128998E-3,-0E0,-5.387818E-3,-1.0494048E-3,1.4639269E-3,-8.266611E-4,4.0972172E-4,1.5993733E-3,4.0360778E-3,3.6429155E-3,6.2117754E-3,2.608387E-3,-2.5754247E-4,9.457037E-3,1.5142421E-2],"categories":[],"categories_nodes":[],"categories_segments":[],"categories_sizes":[],"default_left":[0,0,0,0,0,0,0,0,0,0,0,0,0,0,0,0,0,0,0,0,0,0,0,0,0,0,0,0,0,0,0,0,0,0,0,0,0,0,0,0,0,0,0,0,0,0,0,0,0,0,0,0,0,0,0,0,0,0,0,0,0,0,0,0,0,0,0,0,0,0,0],"id":27,"left_children":[1,3,5,7,9,11,13,-1,15,17,19,21,23,25,-1,27,-1,29,31,33,35,37,39,41,43,45,-1,-1,-1,47,49,-1,-1,51,-1,53,55,57,59,61,63,65,67,-1,-1,69,-1,-1,-1,-1,-1,-1,-1,-1,-1,-1,-1,-1,-1,-1,-1,-1,-1,-1,-1,-1,-1,-1,-1,-1,-1],"loss_changes":[2.9183834E1,3.9552135E0,3.7710562E0,6.033573E-1,3.8643837E-1,5.3707933E-1,6.0095596E-1,0E0,7.653046E-2,5.939305E-2,4.60836E-2,6.466357E-2,1.19888544E-1,2.9372025E-1,0E0,1.3568878E-2,0E0,6.8261623E-3,3.409058E-2,1.4664903E-2,5.7454437E-2,2.6108123E-2,3.284715E-2,3.9538264E-2,3.347957E-2,4.855156E-2,0E0,0E0,0E0,1.9608662E-3,1.6585946E-2,0E0,0E0,4.0088594E-4,0E0,1.0386763E-2,2.6954293E-2,2.3592927E-2,9.52463E-3,3.2706643E-3,6.23554E-3,1.4403343E-2,1.8106455E-2,0E0,0E0,2.4629116E-2,0E0,0E0,0E0,0E0,0E0,0E0,0E0,0E0,0E0,0E0,0E0,0E0,0E0,0E0,0E0,0E0,0E0,0E0,0E0,0E0,0E0,0E0,0E0,0E0,0E0],"parents":[2147483647,0,0,1,1,2,2,3,3,4,4,5,5,6,6,8,8,9,9,10,10,11,11,12,12,13,13,15,15,17,17,18,18,19,19,20,20,21,21,22,22,23,23,24,24,25,25,29,29,30,30,33,33,35,35,36,36,37,37,38,38,39,39,40,40,41,41,42,42,45,45],"right_children":[2,4,6,8,10,12,14,-1,16,18,20,22,24,26,-1,28,-1,30,32,34,36,38,40,42,44,46,-1,-1,-1,48,50,-1,-1,52,-1,54,56,58,60,62,64,66,68,-1,-1,70,-1,-1,-1,-1,-1,-1,-1,-1,-1,-1,-1,-1,-1,-1,-1,-1,-1,-1,-1,-1,-1,-1,-1,-1,-1],"split_conditions":[4.87E0,4.196E0,5.64E0,4.026704E0,4.582E0,5.15E0,6.32E0,-1.8385164E-2,3.5326E3,8.794051E-2,-6.542056E-2,-1.9493178E-3,5.472E0,5.939E0,2.3560856E-2,4.014E0,-6.119244E-3,-9.991478E-2,0E0,5.08E0,-5.755979E-2,-2E-2,3.2320952E-1,2.425846E-2,5.79E0,5.9289165E0,1.404457E-2,-1.4236199E-2,-1.0950585E-2,-1.6038312E-2,1.0753499E-2,-0E0,-5.1609473E-3,4.61E0,-1.6539668E-3,9.072281E-3,-3.628118E-2,4.937613E0,4.96E0,5.01E0,8.333334E-3,1.4114817E-2,7.614E2,7.449459E-3,1.3884219E-3,8E-2,3.2104552E-3,-6.080143E-3,-1.5202395E-3,-4.2572333E-3,-9.512755E-3,-2.7941735E-3,-8.447654E-3,-6.5375806E-4,1.6245599E-3,-0E0,-3.0128998E-3,-0E0,-5.387818E-3,-1.0494048E-3,1.4639269E-3,-8.266611E-4,4.0972172E-4,1.5993733E-3,4.0360778E-3,3.6429155E-3,6.2117754E-3,2.608387E-3,-2.5754247E-4,9.457037E-3,1.5142421E-2],"split_indices":[1,14,8,30,14,1,2,0,34,25,7,38,14,16,0,14,0,25,39,12,25,39,33,27,10,22,0,0,0,26,28,0,0,1,0,28,6,22,1,8,5,27,35,0,0,37,0,0,0,0,0,0,0,0,0,0,0,0,0,0,0,0,0,0,0,0,0,0,0,0,0],"split_type":[0,0,0,0,0,0,0,0,0,0,0,0,0,0,0,0,0,0,0,0,0,0,0,0,0,0,0,0,0,0,0,0,0,0,0,0,0,0,0,0,0,0,0,0,0,0,0,0,0,0,0,0,0,0,0,0,0,0,0,0,0,0,0,0,0,0,0,0,0,0,0],"sum_hessian":[8.87E2,4.04E2,4.83E2,2.02E2,2.02E2,2.43E2,2.4E2,7.5E1,1.27E2,7.6E1,1.26E2,7.7E1,1.66E2,2.26E2,1.4E1,1.16E2,1.1E1,6E1,1.6E1,1.7E1,1.09E2,2.4E1,5.3E1,8.2E1,8.4E1,1E2,1.26E2,5.3E1,6.3E1,1.1E1,4.9E1,5E0,1.1E1,1.1E1,6E0,1.5E1,9.4E1,1.1E1,1.3E1,1.6E1,3.7E1,6.7E1,1.5E1,7.9E1,5E0,9.4E1,6E0,6E0,5E0,8E0,4.1E1,5E0,6E0,7E0,8E0,8E0,8.6E1,6E0,5E0,7E0,6E0,9E0,7E0,2.8E1,9E0,4.4E1,2.3E1,9E0,6E0,8.6E1,8E0],"tree_param":{"num_deleted":"0","num_feature":"45","num_nodes":"71","size_leaf_vector":"1"}},{"base_weights":[-1.5573495E-3,-1.5948726E-1,1.778606E-1,-2.596873E-1,-5.4633327E-2,1.0271688E-1,2.4468313E-1,-3.1732845E-1,-2.0048979E-1,-9.812652E-2,-2.7395228E-2,4.1995544E-2,1.21707484E-1,2.2635016E-1,1.913687E-2,-1.6690927E-2,-9.74046E-3,-5.0993133E-3,-2.057223E-1,-6.500424E-2,-1.16610244E-1,-4.07712E-2,-5.0580077E-4,2.2986095E-2,3.0742497E-3,9.484102E-2,7.071841E-3,1.9165888E-1,1.3007173E-2,-1.0546388E-2,-4.95927E-3,-4.2015878E-3,-0E0,-1.2490234E-1,-7.776888E-4,-4.586015E-2,1.1997613E-3,-1.4988997E-2,3.1699E-2,-0E0,3.3010956E-2,1.7468901E-3,1.0180983E-1,4.461676E-3,9.809177E-3,-2.2367532E-3,-6.7656613E-3,-1.1475276E-3,-3.079256E-3,-0E0,-2.6008906E-3,3.0664743E-3,-0E0,-0E0,2.0842415E-3,8.479031E-4,5.3803977E-3],"categories":[],"categories_nodes":[],"categories_segments":[],"categories_sizes":[],"default_left":[0,0,0,0,0,0,0,0,0,0,0,0,0,0,0,0,0,0,0,0,0,0,0,0,0,0,0,0,0,0,0,0,0,0,0,0,0,0,0,0,0,0,0,0,0,0,0,0,0,0,0,0,0,0,0,0,0],"id":28,"left_children":[1,3,5,7,9,11,13,15,17,19,21,23,25,27,-1,-1,-1,-1,29,31,33,35,37,39,-1,41,-1,43,-1,-1,-1,-1,-1,45,-1,47,-1,49,51,-1,53,-1,55,-1,-1,-1,-1,-1,-1,-1,-1,-1,-1,-1,-1,-1,-1],"loss_changes":[2.4650045E1,4.8188286E0,1.9837933E0,6.898813E-1,2.5486475E-1,2.0222664E-1,3.9408016E-1,1.1848736E-1,1.0098934E-2,2.690959E-2,4.728482E-2,8.293293E-3,4.0346622E-2,1.300497E-1,0E0,0E0,0E0,0E0,1.017952E-2,4.2761788E-2,2.7586102E-2,3.3939064E-2,2.2591988E-2,9.741176E-3,0E0,1.0737658E-2,0E0,2.963543E-4,0E0,0E0,0E0,0E0,0E0,1.5168786E-2,0E0,2.1835268E-2,0E0,2.1226916E-2,1.2261568E-2,0E0,2.7383678E-3,0E0,1.42534375E-2,0E0,0E0,0E0,0E0,0E0,0E0,0E0,0E0,0E0,0E0,0E0,0E0,0E0,0E0],"parents":[2147483647,0,0,1,1,2,2,3,3,4,4,5,5,6,6,7,7,8,8,9,9,10,10,11,11,12,12,13,13,18,18,19,19,20,20,21,21,22,22,23,23,25,25,27,27,33,33,35,35,37,37,38,38,40,40,42,42],"right_children":[2,4,6,8,10,12,14,16,18,20,22,24,26,28,-1,-1,-1,-1,30,32,34,36,38,40,-1,42,-1,44,-1,-1,-1,-1,-1,46,-1,48,-1,50,52,-1,54,-1,56,-1,-1,-1,-1,-1,-1,-1,-1,-1,-1,-1,-1,-1,-1],"split_conditions":[5.09E0,4.4E0,5.64E0,3.96E0,4.7E0,5.21E0,6.26E0,1.661157E-1,3.89E0,1.3969521E-1,4.901E0,9.4045E2,5.41E0,5.95E0,1.913687E-2,-1.6690927E-2,-9.74046E-3,-5.0993133E-3,4.86E0,2.150857E-2,1.1004936E0,8.68E3,-2.4994407E-2,1E0,3.0742497E-3,-1.7921147E-3,7.071841E-3,-6.1E0,1.3007173E-2,-1.0546388E-2,-4.95927E-3,-4.2015878E-3,-0E0,1.6715E2,-7.776888E-4,-2.1290823E-3,1.1997613E-3,-6.0798276E-2,-3.628118E-2,-0E0,7.343565E-2,1.7468901E-3,1.5996E2,4.461676E-3,9.809177E-3,-2.2367532E-3,-6.7656613E-3,-1.1475276E-3,-3.079256E-3,-0E0,-2.6008906E-3,3.0664743E-3,-0E0,-0E0,2.0842415E-3,8.479031E-4,5.3803977E-3],"split_indices":[0,0,0,0,0,0,0,32,13,32,20,35,2,0,0,0,0,0,13,28,19,34,25,41,0,5,0,39,0,0,0,0,0,35,0,26,0,25,6,0,32,0,44,0,0,0,0,0,0,0,0,0,0,0,0,0,0],"split_type":[0,0,0,0,0,0,0,0,0,0,0,0,0,0,0,0,0,0,0,0,0,0,0,0,0,0,0,0,0,0,0,0,0,0,0,0,0,0,0,0,0,0,0,0,0,0,0,0,0,0,0,0,0,0,0,0,0],"sum_hessian":[8.68E2,4.62E2,4.06E2,2.35E2,2.27E2,1.93E2,2.13E2,1.16E2,1.19E2,8.5E1,1.42E2,4.8E1,1.45E2,1.91E2,2.2E1,1E2,1.6E1,8E0,1.11E2,3.4E1,5.1E1,9.2E1,5E1,2.8E1,2E1,6.6E1,7.9E1,9.9E1,9.2E1,1.04E2,7E0,2.6E1,8E0,4.6E1,5E0,8.7E1,5E0,3.7E1,1.3E1,6E0,2.2E1,9E0,5.7E1,6E0,9.3E1,7E0,3.9E1,3.9E1,4.8E1,2.7E1,1E1,6E0,7E0,7E0,1.5E1,5E0,5.2E1],"tree_param":{"num_deleted":"0","num_feature":"45","num_nodes":"57","size_leaf_vector":"1"}},{"base_weights":[8.0396363E-4,-1.6538195E-1,1.5873472E-1,-2.559385E-1,-6.788976E-2,7.821241E-2,2.3601742E-1,-1.7930731E-2,-2.1658985E-1,-1.0535757E-1,-3.1295877E-2,1.9298173E-2,1.08466506E-1,1.9641678E-1,3.03394E-1,-2.400652E-1,-8.748145E-3,-1.0960347E-1,-9.198931E-4,9.0591784E-4,-3.9761126E-2,3.5876125E-2,-9.640778E-3,6.2287197E-2,1.2000554E-1,1.6960263E-1,1.1668831E-2,2.6673412E-1,2.0668304E-2,-2.4562235E-1,-5.8429916E-3,-1.4171252E-1,-8.495266E-2,1.9115374E-3,-4.9530313E-4,-4.9730673E-2,-1.4315125E-2,2.0932257E-2,5.733391E-3,-2.9799147E-2,1.329859E-2,2.6522547E-2,4.4252775E-3,6.153801E-3,1.3778798E-3,1.7482106E-1,2.4935636E-3,2.7537856E-1,5.9583737E-3,-1.2553907E-2,-5.3545684E-3,-3.1585132E-3,-7.8609055E-3,-4.6927696E-3,-2.5393307E-4,-4.008548E-3,-1.3683004E-3,1.2518638E-3,-1.5008686E-3,3.2689597E-3,5.0653686E-4,-3.1186386E-3,1.07138745E-4,1.6737812E-3,-0E0,-0E0,2.0759578E-3,5.282138E-3,9.384775E-3,1.4354658E-2,7.5423503E-3],"categories":[],"categories_nodes":[],"categories_segments":[],"categories_sizes":[],"default_left":[0,0,0,0,0,0,0,0,0,0,0,0,0,0,0,0,0,0,0,0,0,0,0,0,0,0,0,0,0,0,0,0,0,0,0,0,0,0,0,0,0,0,0,0,0,0,0,0,0,0,0,0,0,0,0,0,0,0,0,0,0,0,0,0,0,0,0,0,0,0,0],"id":29,"left_children":[1,3,5,7,9,11,13,-1,15,17,19,21,23,25,27,29,-1,31,-1,33,35,37,39,41,43,45,-1,47,-1,49,-1,51,53,-1,-1,55,57,59,-1,61,63,65,-1,-1,-1,67,-1,69,-1,-1,-1,-1,-1,-1,-1,-1,-1,-1,-1,-1,-1,-1,-1,-1,-1,-1,-1,-1,-1,-1,-1],"loss_changes":[2.3069458E1,3.7288637E0,2.7566824E0,7.576847E-1,2.6822472E-1,3.8260472E-1,5.014343E-1,0E0,7.577896E-2,2.2474885E-2,3.3361927E-2,4.03898E-2,5.209434E-2,6.67963E-2,1.5231895E-1,3.5161972E-3,0E0,4.048848E-2,0E0,1.1685847E-2,1.5207812E-2,4.526727E-2,1.4531689E-2,1.7093554E-2,1.390481E-2,2.5670052E-2,0E0,1.064539E-2,0E0,8.338928E-3,0E0,1.4307737E-2,3.0873567E-2,0E0,0E0,2.7899563E-2,1.9169275E-2,1.3871014E-2,0E0,2.384454E-2,4.778326E-3,8.727511E-3,0E0,0E0,0E0,2.7431488E-2,0E0,4.2915344E-4,0E0,0E0,0E0,0E0,0E0,0E0,0E0,0E0,0E0,0E0,0E0,0E0,0E0,0E0,0E0,0E0,0E0,0E0,0E0,0E0,0E0,0E0,0E0],"parents":[2147483647,0,0,1,1,2,2,3,3,4,4,5,5,6,6,8,8,9,9,10,10,11,11,12,12,13,13,14,14,15,15,17,17,19,19,20,20,21,21,22,22,23,23,24,24,25,25,27,27,29,29,31,31,32,32,35,35,36,36,37,37,39,39,40,40,41,41,45,45,47,47],"right_children":[2,4,6,8,10,12,14,-1,16,18,20,22,24,26,28,30,-1,32,-1,34,36,38,40,42,44,46,-1,48,-1,50,-1,52,54,-1,-1,56,58,60,-1,62,64,66,-1,-1,-1,68,-1,70,-1,-1,-1,-1,-1,-1,-1,-1,-1,-1,-1,-1,-1,-1,-1,-1,-1,-1,-1,-1,-1,-1,-1],"split_conditions":[4.91E0,4.26E0,5.64E0,3.69E0,4.7E0,5.21E0,6.03E0,-1.7930731E-2,4.02E0,4.829E0,2.67637E3,1.9940827E-2,5.5973153E0,5.939E0,3.809524E-2,4.11E0,-8.748145E-3,-2.2123894E-3,-9.198931E-4,-3.9333828E-2,2.1908438E-2,1.0235415E0,1.1E1,1.1516817E-2,5.835594E0,4.0239833E-2,1.1668831E-2,6.0633707E0,2.0668304E-2,5.782E3,-5.8429916E-3,7.816522E-2,1.7689041E0,1.9115374E-3,-4.9530313E-4,4.7954197E0,2.6093448E-2,9.9065006E-1,5.733391E-3,3.090207E-2,5.144685E0,5.357187E0,4.4252775E-3,6.153801E-3,1.3778798E-3,7.0853685E-3,2.4935636E-3,3.0094415E-2,5.9583737E-3,-1.2553907E-2,-5.3545684E-3,-3.1585132E-3,-7.8609055E-3,-4.6927696E-3,-2.5393307E-4,-4.008548E-3,-1.3683004E-3,1.2518638E-3,-1.5008686E-3,3.2689597E-3,5.0653686E-4,-3.1186386E-3,1.07138745E-4,1.6737812E-3,-0E0,-0E0,2.0759578E-3,5.282138E-3,9.384775E-3,1.4354658E-2,7.5423503E-3],"split_indices":[0,0,0,0,0,9,0,0,0,16,44,27,30,16,6,9,0,38,0,24,27,15,42,26,23,26,0,31,0,4,0,32,36,0,0,23,27,15,0,27,22,23,0,0,0,27,0,27,0,0,0,0,0,0,0,0,0,0,0,0,0,0,0,0,0,0,0,0,0,0,0],"split_type":[0,0,0,0,0,0,0,0,0,0,0,0,0,0,0,0,0,0,0,0,0,0,0,0,0,0,0,0,0,0,0,0,0,0,0,0,0,0,0,0,0,0,0,0,0,0,0,0,0,0,0,0,0,0,0,0,0,0,0,0,0,0,0,0,0,0,0,0,0,0,0],"sum_hessian":[8.77E2,4.27E2,4.5E2,2.2E2,2.07E2,2.22E2,2.28E2,5.8E1,1.62E2,1E2,1.07E2,7.7E1,1.45E2,1.47E2,8.1E1,9.9E1,6.3E1,9.4E1,6E0,2E1,8.7E1,5.1E1,2.6E1,3.2E1,1.13E2,9E1,5.7E1,6.4E1,1.7E1,9.3E1,6E0,3.7E1,5.7E1,6E0,1.4E1,5.9E1,2.8E1,4.5E1,6E0,1.6E1,1E1,1.6E1,1.6E1,1.08E2,5E0,8.5E1,5E0,5.9E1,5E0,8.8E1,5E0,8E0,2.9E1,5E1,7E0,2.2E1,3.7E1,6E0,2.2E1,6E0,3.9E1,9E0,7E0,5E0,5E0,5E0,1.1E1,1.6E1,6.9E1,5.2E1,7E0],"tree_param":{"num_deleted":"0","num_feature":"45","num_nodes":"71","size_leaf_vector":"1"}},{"base_weights":[5.9795664E-3,-1.5092774E-1,1.6453072E-1,-2.6362103E-1,-7.3859714E-2,9.700367E-2,2.4498042E-1,-2.0866716E-2,-2.442972E-1,-1.1477878E-1,-2.6312133E-2,2.8198553E-2,1.1762156E-1,2.2776188E-1,1.9542644E-2,-2.577201E-1,-1.7603524E-1,-1.1924543E-1,-0E0,-3.468622E-2,1.983862E-2,3.6780287E-2,-3.3359003E-4,9.4337516E-2,1.4421467E-1,3.6453158E-3,2.3117876E-1,-1.330667E-2,-7.153804E-3,-9.561456E-3,-3.209465E-3,-1.2366082E-1,-0E0,-4.3689188E-2,-0E0,-8.357397E-4,4.2875685E-2,7.942354E-3,5.8139138E-2,9.752316E-2,1.121551E-3,1.4769427E-3,1.4997883E-1,2.3631564E-1,6.6474252E-3,-6.398689E-3,-7.3460443E-4,-1.5898421E-3,-4.2102686E-3,-1.5767993E-3,9.832744E-4,-0E0,3.5423066E-3,-1.639111E-3,1.2823943E-3,1.3669424E-3,4.1730623E-3,3.848344E-3,5.6653367E-3,7.964471E-3,3.0834505E-3,7.903593E-3,1.2120977E-2],"categories":[],"categories_nodes":[],"categories_segments":[],"categories_sizes":[],"default_left":[0,0,0,0,0,0,0,0,0,0,0,0,0,0,0,0,0,0,0,0,0,0,0,0,0,0,0,0,0,0,0,0,0,0,0,0,0,0,0,0,0,0,0,0,0,0,0,0,0,0,0,0,0,0,0,0,0,0,0,0,0,0,0],"id":30,"left_children":[1,3,5,7,9,11,13,-1,15,17,19,21,23,25,-1,27,29,31,-1,33,35,37,-1,39,41,-1,43,-1,-1,-1,-1,45,-1,47,49,-1,51,53,55,57,-1,-1,59,61,-1,-1,-1,-1,-1,-1,-1,-1,-1,-1,-1,-1,-1,-1,-1,-1,-1,-1,-1],"loss_changes":[2.1943567E1,3.7942572E0,2.3269186E0,3.6357307E-1,4.9845564E-1,3.2398772E-1,3.4894753E-1,0E0,5.9693336E-2,7.629061E-2,5.04817E-2,2.0612624E-2,7.6471806E-2,4.8508644E-2,0E0,4.8319817E-2,1.4863908E-2,6.940317E-2,0E0,3.4213617E-2,1.849025E-2,2.3111403E-2,0E0,9.411156E-3,3.1820893E-2,0E0,2.0464897E-2,0E0,0E0,0E0,0E0,4.5420647E-2,0E0,2.7159914E-2,1.4751637E-2,0E0,1.12360045E-2,1.7432569E-2,6.9163814E-3,3.7236214E-3,0E0,0E0,3.13915E-2,4.3296814E-4,0E0,0E0,0E0,0E0,0E0,0E0,0E0,0E0,0E0,0E0,0E0,0E0,0E0,0E0,0E0,0E0,0E0,0E0,0E0],"parents":[2147483647,0,0,1,1,2,2,3,3,4,4,5,5,6,6,8,8,9,9,10,10,11,11,12,12,13,13,15,15,16,16,17,17,19,19,20,20,21,21,23,23,24,24,26,26,31,31,33,33,34,34,36,36,37,37,38,38,39,39,42,42,43,43],"right_children":[2,4,6,8,10,12,14,-1,16,18,20,22,24,26,-1,28,30,32,-1,34,36,38,-1,40,42,-1,44,-1,-1,-1,-1,46,-1,48,50,-1,52,54,56,58,-1,-1,60,62,-1,-1,-1,-1,-1,-1,-1,-1,-1,-1,-1,-1,-1,-1,-1,-1,-1,-1,-1],"split_conditions":[5.05E0,4.12E0,5.76E0,3.48E0,4.7E0,5.21E0,1.4797565E-1,-2.0866716E-2,7.857974E3,1E-1,1.0239162E0,2.7656473E-2,5.53E0,-6.176704E-2,1.9542644E-2,3.9455228E0,3.1283329E0,6.106946E0,-0E0,5.2832217E0,4.64E0,1.2209221E-2,-3.3359003E-4,5.58E0,3.9039887E-2,3.6453158E-3,1.41082E4,-1.330667E-2,-7.153804E-3,-9.561456E-3,-3.209465E-3,4.812E0,-0E0,1.0039306E0,-6.462585E-2,-8.357397E-4,6.1503626E-2,-1.9991675E-3,5.15E0,5.44E0,1.121551E-3,1.4769427E-3,1.7171608E-1,6.502E2,6.6474252E-3,-6.398689E-3,-7.3460443E-4,-1.5898421E-3,-4.2102686E-3,-1.5767993E-3,9.832744E-4,-0E0,3.5423066E-3,-1.639111E-3,1.2823943E-3,1.3669424E-3,4.1730623E-3,3.848344E-3,5.6653367E-3,7.964471E-3,3.0834505E-3,7.903593E-3,1.2120977E-2],"split_indices":[8,0,0,0,0,9,25,0,44,39,15,27,0,25,0,31,36,36,0,30,9,27,0,8,33,0,35,0,0,0,0,16,0,15,7,0,36,26,1,10,0,0,25,35,0,0,0,0,0,0,0,0,0,0,0,0,0,0,0,0,0,0,0],"split_type":[0,0,0,0,0,0,0,0,0,0,0,0,0,0,0,0,0,0,0,0,0,0,0,0,0,0,0,0,0,0,0,0,0,0,0,0,0,0,0,0,0,0,0,0,0,0,0,0,0,0,0,0,0,0,0,0,0,0,0,0,0,0,0],"sum_hessian":[8.8E2,4.42E2,4.38E2,1.78E2,2.64E2,2.4E2,1.98E2,1.7E1,1.61E2,1.4E2,1.24E2,5.7E1,1.83E2,1.8E2,1.8E1,1.31E2,3E1,1.35E2,5E0,1.07E2,1.7E1,4.8E1,9E0,1.02E2,8.1E1,5E0,1.75E2,1.2E2,1.1E1,2.5E1,5E0,1.3E2,5E0,8.5E1,2.2E1,5E0,1.2E1,2.3E1,2.5E1,9.6E1,6E0,5E0,7.6E1,1.64E2,1.1E1,1.24E2,6E0,6.9E1,1.6E1,8E0,1.4E1,6E0,6E0,5E0,1.8E1,1.4E1,1.1E1,4.7E1,4.9E1,6.7E1,9E0,1.5E1,1.49E2],"tree_param":{"num_deleted":"0","num_feature":"45","num_nodes":"63","size_leaf_vector":"1"}},{"base_weights":[9.51559E-4,-1.5565793E-1,1.4463907E-1,-2.4899663E-1,-7.1513094E-2,6.9803186E-2,2.1530269E-1,-1.735976E-2,-2.1862763E-1,-1.05696924E-1,-3.7324134E-2,1.8171966E-2,9.484135E-2,2.0188604E-1,1.9129544E-2,-1.2363396E-2,-1.859541E-1,-1.204006E-1,-6.747179E-2,-5.5635266E-2,-2.4406137E-2,3.2610956E-3,6.1309755E-2,6.8224356E-2,1.213416E-1,1.6129665E-1,2.3707369E-1,-9.586564E-3,-4.242789E-3,-1.5109236E-3,-1.2755854E-1,-0E0,-7.862163E-2,-6.935164E-2,-0E0,-0E0,-3.2716617E-2,-1.4130111E-2,1.6333112E-2,-0E0,4.369396E-3,2.7023373E-2,8.166226E-2,6.37549E-3,2.6099968E-3,1.7648364E-3,1.6868974E-1,1.2145891E-2,3.6389262E-3,-3.0410672E-3,-6.9296733E-3,-1.2233574E-4,-4.51114E-3,-1.9731768E-3,-5.460178E-3,1.3357452E-3,-2.2640282E-3,-9.443515E-4,-3.3593928E-3,-1.7657726E-3,1.2526436E-3,1.4592138E-3,-1.1503393E-3,2.1477393E-3,-4.3040435E-4,3.7800788E-4,4.3311794E-3,8.63838E-3,2.9331278E-3],"categories":[],"categories_nodes":[],"categories_segments":[],"categories_sizes":[],"default_left":[0,0,0,0,0,0,0,0,0,0,0,0,0,0,0,0,0,0,0,0,0,0,0,0,0,0,0,0,0,0,0,0,0,0,0,0,0,0,0,0,0,0,0,0,0,0,0,0,0,0,0,0,0,0,0,0,0,0,0,0,0,0,0,0,0,0,0,0,0],"id":31,"left_children":[1,3,5,7,9,11,13,-1,15,17,19,21,23,25,-1,-1,27,29,31,33,35,37,39,41,43,45,47,-1,-1,-1,49,-1,51,53,-1,55,57,59,61,-1,-1,63,65,-1,-1,-1,67,-1,-1,-1,-1,-1,-1,-1,-1,-1,-1,-1,-1,-1,-1,-1,-1,-1,-1,-1,-1,-1,-1],"loss_changes":[2.004893E1,3.2959337E0,2.4154625E0,4.6693134E-1,2.4588132E-1,2.8172243E-1,3.984909E-1,0E0,5.761528E-2,3.5476685E-2,1.807703E-2,4.287107E-2,7.997918E-2,2.4042225E-1,0E0,0E0,2.2127628E-3,3.007257E-2,1.9923985E-2,3.214532E-2,1.4317211E-2,1.4091378E-2,2.3979813E-2,3.1217039E-2,6.5060854E-3,7.425237E-2,6.2129974E-2,0E0,0E0,0E0,2.3179889E-2,0E0,1.6140103E-2,2.2512168E-2,0E0,2.5680555E-2,1.586657E-2,2.1003423E-2,2.0500597E-2,0E0,0E0,1.6860597E-2,1.12501085E-2,0E0,0E0,0E0,1.2038231E-2,0E0,0E0,0E0,0E0,0E0,0E0,0E0,0E0,0E0,0E0,0E0,0E0,0E0,0E0,0E0,0E0,0E0,0E0,0E0,0E0,0E0,0E0],"parents":[2147483647,0,0,1,1,2,2,3,3,4,4,5,5,6,6,8,8,9,9,10,10,11,11,12,12,13,13,16,16,17,17,18,18,19,19,20,20,21,21,22,22,23,23,24,24,25,25,26,26,30,30,32,32,33,33,35,35,36,36,37,37,38,38,41,41,42,42,46,46],"right_children":[2,4,6,8,10,12,14,-1,16,18,20,22,24,26,-1,-1,28,30,32,34,36,38,40,42,44,46,48,-1,-1,-1,50,-1,52,54,-1,56,58,60,62,-1,-1,64,66,-1,-1,-1,68,-1,-1,-1,-1,-1,-1,-1,-1,-1,-1,-1,-1,-1,-1,-1,-1,-1,-1,-1,-1,-1,-1],"split_conditions":[4.91E0,4.17E0,5.63E0,3.56E0,4.68E0,5.19E0,1.0398613E0,-1.735976E-2,3.96E0,8.985595E-3,4.79E0,1.0418744E0,5.43E0,6E0,1.9129544E-2,-1.2363396E-2,1.046798E0,-1.3436481E-1,4.45E0,8.462677E-1,4.594314E0,5.09E0,4.2392E0,9.841055E-1,2.2568512E0,9.36E1,1.0319586E0,-9.586564E-3,-4.242789E-3,-1.5109236E-3,7.418809E-3,-0E0,3.8636364E1,1E-2,-0E0,2.360128E4,6.272665E-2,5.19E0,5.19E0,-0E0,4.369396E-3,5.24E0,6.862039E-3,6.37549E-3,2.6099968E-3,1.7648364E-3,3.8731348E-2,1.2145891E-2,3.6389262E-3,-3.0410672E-3,-6.9296733E-3,-1.2233574E-4,-4.51114E-3,-1.9731768E-3,-5.460178E-3,1.3357452E-3,-2.2640282E-3,-9.443515E-4,-3.3593928E-3,-1.7657726E-3,1.2526436E-3,1.4592138E-3,-1.1503393E-3,2.1477393E-3,-4.3040435E-4,3.7800788E-4,