{"learner":{"attributes":{"best_iteration":"0","best_score":"44880.196974742285","scikit_learn":"{\"_estimator_type\": \"regressor\"}"},"feature_names":[],"feature_types":[],"gradient_booster":{"model":{"cats":{"enc":[],"feature_segments":[],"sorted_idx":[]},"gbtree_model_param":{"num_parallel_tree":"1","num_trees":"21"},"iteration_indptr":[0,1,2,3,4,5,6,7,8,9,10,11,12,13,14,15,16,17,18,19,20,21],"tree_info":[0,0,0,0,0,0,0,0,0,0,0,0,0,0,0,0,0,0,0,0,0],"trees":[{"base_weights":[-2.602745E2,-6.7782495E2,2.5646445E4,1.8382475E4,-7.6518146E2,2.0004844E3,9.872806E3,1.2660878E3,-6.0884144E1,-9.132293E2,9.007894E3,5.645201E2,-1.2591431E0,-1.1356624E3,3.0137075E3,2.895109E4,2.7499404E3,-7.90779E1,-1.795201E1,7.370081E1,3.626666E2,-4.9684143E1,2.2210159E3,3.753954E2,-5.2072815E1],"categories":[],"categories_nodes":[],"categories_segments":[],"categories_sizes":[],"default_left":[0,0,0,0,0,0,0,0,0,0,0,0,0,0,0,0,0,0,0,0,0,0,0,0,0],"id":0,"left_children":[1,3,5,7,9,-1,11,-1,-1,13,15,-1,-1,17,19,21,23,-1,-1,-1,-1,-1,-1,-1,-1],"loss_changes":[9.547481E9,1.4593216E9,2.7768402E9,5.748778E8,1.2597797E9,0E0,1.125351E8,0E0,0E0,7.4850125E8,1.5428328E9,0E0,0E0,2.792364E8,2.895832E8,1.4338071E9,2.0625192E8,0E0,0E0,0E0,0E0,0E0,0E0,0E0,0E0],"parents":[2147483647,0,0,1,1,2,2,3,3,4,4,6,6,9,9,10,10,13,13,14,14,15,15,16,16],"right_children":[2,4,6,8,10,-1,12,-1,-1,14,16,-1,-1,18,20,22,24,-1,-1,-1,-1,-1,-1,-1,-1],"split_conditions":[1.779548E5,-6.47E0,7.550853E-1,6.5E0,1.168795E0,2.0004844E3,5.71E0,1.2660878E3,-6.0884144E1,9.43505E3,1.1895571E0,5.645201E2,-1.2591431E0,1.5386E3,4.2684373E-1,3.93E0,1.2174474E0,-7.90779E1,-1.795201E1,7.370081E1,3.626666E2,-4.9684143E1,2.2210159E3,3.753954E2,-5.2072815E1],"split_indices":[44,39,33,0,33,0,1,0,0,35,33,0,0,35,36,0,33,0,0,0,0,0,0,0,0],"split_type":[0,0,0,0,0,0,0,0,0,0,0,0,0,0,0,0,0,0,0,0,0,0,0,0,0],"sum_hessian":[8.8E2,8.67E2,1.3E1,3E0,8.64E2,6E0,7E0,2E0,1E0,8.52E2,1.2E1,6E0,1E0,8.07E2,4.5E1,2E0,1E1,5.12E2,2.95E2,3.4E1,1.1E1,1E0,1E0,4E0,6E0],"tree_param":{"num_deleted":"0","num_feature":"45","num_nodes":"25","size_leaf_vector":"1"}},{"base_weights":[-7.6767116E0,-4.8638187E2,2.5394096E4,1.2238849E3,-5.742282E2,1.5761921E4,3.882073E4,-8.6370996E2,4.604174E3,1.9760121E4,3.8250393E3,1.9655286E2,2.2506228E3,-9.874433E2,8.1348545E3,1.6925518E4,1.4826534E3,1.1082875E2,2.194969E4,2.5582108E2,-1.2276672E0,-6.162525E1,3.330992E1,1.4182388E3,2.4383741E1,2.2655814E2,1.2967384E3,5.1726727E1,4.4037335E2,1.8477786E2,1.218806E3],"categories":[],"categories_nodes":[],"categories_segments":[],"categories_sizes":[],"default_left":[0,0,0,0,0,0,0,0,0,0,0,0,0,0,0,0,0,0,0,0,0,0,0,0,0,0,0,0,0,0,0],"id":1,"left_children":[1,3,5,-1,7,9,11,13,15,17,19,-1,-1,21,23,25,27,-1,29,-1,-1,-1,-1,-1,-1,-1,-1,-1,-1,-1,-1],"loss_changes":[1.0518555E10,1.8759155E9,1.4573537E9,0E0,1.2736748E9,4.494034E8,1.1192166E9,9.0211066E8,1.7056649E9,2.5864883E8,2.0010808E7,0E0,0E0,3.221797E8,1.6878874E9,8.874601E8,1.12336696E8,0E0,2.1996314E8,0E0,0E0,0E0,0E0,0E0,0E0,0E0,0E0,0E0,0E0,0E0,0E0],"parents":[2147483647,0,0,1,1,2,2,4,4,5,5,6,6,7,7,8,8,9,9,10,10,13,13,14,14,15,15,16,16,18,18],"right_children":[2,4,6,-1,8,10,12,14,16,18,20,-1,-1,22,24,26,28,-1,30,-1,-1,-1,-1,-1,-1,-1,-1,-1,-1,-1,-1],"split_conditions":[1.779548E5,-6.47E0,7.682119E1,1.2238849E3,9.43505E3,5.56E0,1.0568E4,1.168795E0,4.51E0,1.1395E4,5.56E0,1.9655286E2,2.2506228E3,3.646E3,5.2E0,4.5057273E0,5.91E0,1.1082875E2,5.52E0,2.5582108E2,-1.2276672E0,-6.162525E1,3.330992E1,1.4182388E3,2.4383741E1,2.2655814E2,1.2967384E3,5.1726727E1,4.4037335E2,1.8477786E2,1.218806E3],"split_indices":[44,39,29,0,35,0,4,33,10,4,1,0,0,4,0,22,10,0,1,0,0,0,0,0,0,0,0,0,0,0,0],"split_type":[0,0,0,0,0,0,0,0,0,0,0,0,0,0,0,0,0,0,0,0,0,0,0,0,0,0,0,0,0,0,0],"sum_hessian":[8.63E2,8.48E2,1.5E1,2E0,8.46E2,1E1,5E0,8.02E2,4.4E1,7E0,3E0,1E0,4E0,7.92E2,1E1,8E0,3.6E1,1E0,6E0,2E0,1E0,6.9E2,1.02E2,2E0,8E0,4E0,4E0,3.5E1,1E0,1E0,5E0],"tree_param":{"num_deleted":"0","num_feature":"45","num_nodes":"31","size_leaf_vector":"1"}},{"base_weights":[1.7952655E2,-3.463372E2,2.5060436E4,-6.965326E2,6.7800435E3,1.20204E4,3.985793E4,-8.3319196E2,9.342923E3,3.7553797E4,2.3175764E3,1.6877998E4,5.1594023E3,2.8107263E3,1.8801066E4,1.0663098E4,-8.7520905E2,3.504802E4,-2.635457E2,1.19243034E2,3.01024E3,1.3901361E3,6.02802E2,1.0805804E2,9.694567E2,3.1004294E2,-1.1969727E0,1.8015842E2,1.0849875E3,8.896915E2,-8.995917E1,-4.637997E1,2.599931E2,4.98567E2,2.1300347E3,2.952464E2,-8.863604E1,1.3406157E2,-6.0015392E1],"categories":[],"categories_nodes":[],"categories_segments":[],"categories_sizes":[],"default_left":[0,0,0,0,0,0,0,0,0,0,0,0,0,0,0,0,0,0,0,0,0,0,0,0,0,0,0,0,0,0,0,0,0,0,0,0,0,0,0],"id":2,"left_children":[1,3,5,7,9,11,13,15,17,19,21,23,25,-1,27,29,31,33,35,-1,-1,37,-1,-1,-1,-1,-1,-1,-1,-1,-1,-1,-1,-1,-1,-1,-1,-1,-1],"loss_changes":[1.1378648E10,2.1309957E9,2.9941688E9,1.1232087E9,5.40604E9,2.7952717E8,1.6984556E9,3.9721395E8,2.7255242E9,3.8394793E9,3.083868E8,1.7983283E8,3.2537792E7,0E0,1.4208166E8,2.9860992E8,2.5976147E8,1.4340173E8,9.425155E7,0E0,0E0,1.1693163E8,0E0,0E0,0E0,0E0,0E0,0E0,0E0,0E0,0E0,0E0,0E0,0E0,0E0,0E0,0E0,0E0,0E0],"parents":[2147483647,0,0,1,1,2,2,3,3,4,4,5,5,6,6,7,7,8,8,9,9,10,10,11,11,12,12,14,14,15,15,16,16,17,17,18,18,21,21],"right_children":[2,4,6,8,10,12,14,16,18,20,22,24,26,-1,28,30,32,34,36,-1,-1,38,-1,-1,-1,-1,-1,-1,-1,-1,-1,-1,-1,-1,-1,-1,-1,-1,-1],"split_conditions":[1.779548E5,1.27552E4,4.05E4,1.168795E0,4.536E0,1.1584116E-2,3.4981236E-2,-6.47E0,7.1818184E1,4.51E0,5.87E0,1.1395E4,5.56E0,2.8107263E3,-4.945055E-2,6.5E0,5.5900622E-2,4.53E0,1.2174474E0,1.19243034E2,3.01024E3,1.710655E4,6.02802E2,1.0805804E2,9.694567E2,3.1004294E2,-1.1969727E0,1.8015842E2,1.0849875E3,8.896915E2,-8.995917E1,-4.637997E1,2.599931E2,4.98567E2,2.1300347E3,2.952464E2,-8.863604E1,1.3406157E2,-6.0015392E1],"split_indices":[44,35,4,33,14,27,28,39,29,0,9,4,3,0,6,0,5,0,33,0,0,35,0,0,0,0,0,0,0,0,0,0,0,0,0,0,0,0,0],"split_type":[0,0,0,0,0,0,0,0,0,0,0,0,0,0,0,0,0,0,0,0,0,0,0,0,0,0,0,0,0,0,0,0,0,0,0,0,0,0,0],"sum_hessian":[8.68E2,8.51E2,1.7E1,8.12E2,3.9E1,1E1,7E0,8.02E2,1E1,4E0,3.5E1,5E0,5E0,3E0,4E0,2E0,8E2,2E0,8E0,2E0,2E0,3.3E1,2E0,1E0,4E0,4E0,1E0,1E0,3E0,1E0,1E0,7.94E2,6E0,1E0,1E0,1E0,7E0,2.2E1,1.1E1],"tree_param":{"num_deleted":"0","num_feature":"45","num_nodes":"39","size_leaf_vector":"1"}},{"base_weights":[1.009416E2,-3.7731644E2,3.001902E4,-8.567091E2,8.291219E3,2.705324E3,1.8530941E4,-9.796435E2,7.6151997E3,4.3347406E4,3.9204524E3,1.4134589E3,1.1345456E4,-1.0201677E3,1.03965205E4,2.0767837E3,7.5555E2,2.6545488E3,1.0932831E2,2.6355928E3,1.1190346E4,2.6232196E2,1.3955579E4,-7.460837E1,-1.2494931E1,8.674492E2,-8.771019E1,-5.5665314E1,4.8610284E2,8.936345E1,5.827086E2,8.971374E2,1.664229E2,7.777549E2,1.8893759E2],"categories":[],"categories_nodes":[],"categories_segments":[],"categories_sizes":[],"default_left":[0,0,0,0,0,0,0,0,0,0,0,0,0,0,0,0,0,0,0,0,0,0,0,0,0,0,0,0,0,0,0,0,0,0,0],"id":3,"left_children":[1,3,5,7,9,-1,11,13,15,17,19,-1,21,23,25,-1,27,-1,-1,29,31,-1,33,-1,-1,-1,-1,-1,-1,-1,-1,-1,-1,-1,-1],"loss_changes":[1.2731638E10,3.6474363E9,2.8714168E9,8.729375E8,6.878289E9,0E0,4.4898688E8,3.8863507E8,2.7608084E9,1.8891807E9,3.6282016E8,0E0,5.413645E7,2.9702458E8,2.8386605E8,0E0,1.9515187E8,0E0,0E0,2.6224584E8,2.5879802E8,0E0,2.2611264E7,0E0,0E0,0E0,0E0,0E0,0E0,0E0,0E0,0E0,0E0,0E0,0E0],"parents":[2147483647,0,0,1,1,2,2,3,3,4,4,6,6,7,7,8,8,9,9,10,10,12,12,13,13,14,14,16,16,19,19,20,20,22,22],"right_children":[2,4,6,8,10,-1,12,14,16,18,20,-1,22,24,26,-1,28,-1,-1,30,32,-1,34,-1,-1,-1,-1,-1,-1,-1,-1,-1,-1,-1,-1],"split_conditions":[2.0402695E5,1.27552E4,3.4981236E-2,1.2090164E-1,4.536E0,2.705324E3,5.484461E-3,6.47E0,1.4733545E-1,4.6E0,1.779548E5,1.4134589E3,2.074689E-3,1.5386E3,6.5E0,2.0767837E3,3.2E3,2.6545488E3,1.0932831E2,5.91E0,5.56E0,2.6232196E2,5.75E0,-7.460837E1,-1.2494931E1,8.674492E2,-8.771019E1,-5.5665314E1,4.8610284E2,8.936345E1,5.827086E2,8.971374E2,1.664229E2,7.777549E2,1.8893759E2],"split_indices":[44,35,28,6,14,0,7,40,32,2,44,0,6,35,1,0,4,0,0,10,2,0,2,0,0,0,0,0,0,0,0,0,0,0,0],"split_type":[0,0,0,0,0,0,0,0,0,0,0,0,0,0,0,0,0,0,0,0,0,0,0,0,0,0,0,0,0,0,0,0,0,0,0],"sum_hessian":[8.88E2,8.75E2,1.3E1,8.3E2,4.5E1,3E0,1E1,8.19E2,1.1E1,4E0,4.1E1,3E0,7E0,8.17E2,2E0,1E0,1E1,3E0,1E0,3.6E1,5E0,3E0,4E0,5.06E2,3.11E2,1E0,1E0,9E0,1E0,3.4E1,2E0,2E0,3E0,3E0,1E0],"tree_param":{"num_deleted":"0","num_feature":"45","num_nodes":"35","size_leaf_vector":"1"}},{"base_weights":[-2.207251E2,-8.372214E2,9.263523E3,-9.673418E2,9.73421E3,2.9067941E4,4.5519844E3,-1.1176158E3,1.4832032E3,2.4215064E4,6.883427E1,9.562795E2,4.0979184E4,1.7068279E3,1.1205294E4,-1.3644683E3,-5.1324176E2,2.4515412E4,-8.5237335E1,5.2885645E3,2.0248641E3,2.6424222E2,-1.5372693E2,1.6171953E2,-8.812211E2,4.6743055E4,1.5989929E2,6.9404645E2,5.63285E2,9.743101E1,1.3787435E4,-7.2788475E1,2.4648348E1,1.3780473E2,-3.5659264E1,1.8834037E3,-4.4747845E1,3.264861E2,-2.7238195E1,4.739503E2,-7.7307945E1,4.4888797E0,-7.058047E1,2.0614513E2,2.7221252E3,8.302621E1,-8.727855E1,8.6480646E2,3.4097574E2],"categories":[],"categories_nodes":[],"categories_segments":[],"categories_sizes":[],"default_left":[0,0,0,0,0,0,0,0,0,0,0,0,0,0,0,0,0,0,0,0,0,0,0,0,0,0,0,0,0,0,0,0,0,0,0,0,0,0,0,0,0,0,0,0,0,0,0,0,0],"id":4,"left_children":[1,3,5,7,9,11,13,15,17,19,21,23,25,27,29,31,33,35,37,39,-1,-1,-1,-1,41,43,-1,45,-1,-1,47,-1,-1,-1,-1,-1,-1,-1,-1,-1,-1,-1,-1,-1,-1,-1,-1,-1,-1],"loss_changes":[5.0771077E9,1.1304973E9,4.8130755E9,2.9846982E8,1.3979622E9,3.3092603E9,8.137816E8,1.1268499E8,1.6999482E9,1.0184891E9,1.3101949E8,1.9594336E7,1.3748777E9,3.019746E8,2.8385997E8,9.212454E7,1.470831E8,1.0363533E9,1.4034589E8,1.00577576E8,0E0,0E0,0E0,0E0,1.6717492E6,1.7444495E9,0E0,7.363363E7,0E0,0E0,1.2653184E8,0E0,0E0,0E0,0E0,0E0,0E0,0E0,0E0,0E0,0E0,0E0,0E0,0E0,0E0,0E0,0E0,0E0,0E0],"parents":[2147483647,0,0,1,1,2,2,3,3,4,4,5,5,6,6,7,7,8,8,9,9,10,10,11,11,12,12,13,13,14,14,15,15,16,16,17,17,18,18,19,19,24,24,25,25,27,27,30,30],"right_children":[2,4,6,8,10,12,14,16,18,20,22,24,26,28,30,32,34,36,38,40,-1,-1,-1,-1,42,44,-1,46,-1,-1,48,-1,-1,-1,-1,-1,-1,-1,-1,-1,-1,-1,-1,-1,-1,-1,-1,-1,-1],"split_conditions":[1.27552E4,1.168795E0,1.2269333E-1,2E-2,5.2E0,2.5811171E-2,2.8510999E-2,1.86515E3,3.73E0,4.7E0,9.408687E3,4.61E0,5.51E0,5.91E0,1.7060933E-1,9.6876895E-1,1.99425E3,4.01E0,3E-2,4.53E0,2.0248641E3,2.6424222E2,-1.5372693E2,1.6171953E2,5.03E0,4.04E0,1.5989929E2,5.65E0,5.63285E2,9.743101E1,1.17936665E-2,-7.2788475E1,2.4648348E1,1.3780473E2,-3.5659264E1,1.8834037E3,-4.4747845E1,3.264861E2,-2.7238195E1,4.739503E2,-7.7307945E1,4.4888797E0,-7.058047E1,2.0614513E2,2.7221252E3,8.302621E1,-8.727855E1,8.6480646E2,3.4097574E2],"split_indices":[35,33,25,39,0,28,28,35,13,0,44,0,9,10,36,33,35,0,39,0,0,0,0,0,0,13,0,3,0,0,27,0,0,0,0,0,0,0,0,0,0,0,0,0,0,0,0,0,0],"split_type":[0,0,0,0,0,0,0,0,0,0,0,0,0,0,0,0,0,0,0,0,0,0,0,0,0,0,0,0,0,0,0,0,0,0,0,0,0,0,0,0,0,0,0,0,0,0,0,0,0],"sum_hessian":[8.66E2,8.14E2,5.2E1,8.05E2,9E0,9E0,4.3E1,7.59E2,4.6E1,3E0,6E0,3E0,6E0,3.1E1,1.2E1,5.38E2,2.21E2,2E0,4.4E1,2E0,1E0,2E0,4E0,1E0,2E0,5E0,1E0,2.9E1,2E0,3E0,9E0,5.13E2,2.5E1,1.2E1,2.09E2,1E0,1E0,2E0,4.2E1,1E0,1E0,1E0,1E0,1E0,4E0,2.1E1,8E0,5E0,4E0],"tree_param":{"num_deleted":"0","num_feature":"45","num_nodes":"49","size_leaf_vector":"1"}},{"base_weights":[-1.0199027E1,-4.6522354E2,2.223601E4,1.6067177E4,-5.400974E2,1.5412527E4,4.226507E4,1.1269437E3,-8.3697716E1,-7.477965E2,3.2282883E3,1.3089176E3,7.411781E3,2.4082302E3,6.141618E2,-8.402875E2,6.9389897E3,1.1860452E4,1.3748115E3,4.360978E2,1.4473873E3,-4.4118237E1,3.997816E2,1.9742424E3,-5.3221107E1,1.2636073E3,1.5889314E2,2.8306921E1,5.445088E2,1.1169971E2,-3.1456544E0],"categories":[],"categories_nodes":[],"categories_segments":[],"categories_sizes":[],"default_left":[0,0,0,0,0,0,0,0,0,0,0,0,0,0,0,0,0,0,0,0,0,0,0,0,0,0,0,0,0,0,0],"id":5,"left_children":[1,3,5,7,9,11,13,-1,-1,15,17,-1,19,-1,-1,21,23,25,27,-1,29,-1,-1,-1,-1,-1,-1,-1,-1,-1,-1],"loss_changes":[9.090291E9,1.0979812E9,1.8086113E9,4.9698982E8,6.8883354E8,1.0979909E9,1.1589837E8,0E0,0E0,5.97348E8,7.196718E8,0E0,6.5519936E7,0E0,0E0,3.130396E8,2.6468076E9,8.512745E8,2.939326E8,0E0,3.7045855E6,0E0,0E0,0E0,0E0,0E0,0E0,0E0,0E0,0E0,0E0],"parents":[2147483647,0,0,1,1,2,2,3,3,4,4,5,5,6,6,9,9,10,10,12,12,15,15,16,16,17,17,18,18,20,20],"right_children":[2,4,6,8,10,12,14,-1,-1,16,18,-1,20,-1,-1,22,24,26,28,-1,30,-1,-1,-1,-1,-1,-1,-1,-1,-1,-1],"split_conditions":[1.779548E5,-6.47E0,1.425E-1,6.5E0,9.43505E3,5.484461E-3,5.52E0,1.1269437E3,-8.3697716E1,1.2090164E-1,4.51E0,1.3089176E3,5.622E0,2.4082302E3,6.141618E2,5.9196617E-2,1.4733545E-1,1E-2,5.91E0,4.360978E2,5.61E0,-4.4118237E1,3.997816E2,1.9742424E3,-5.3221107E1,1.2636073E3,1.5889314E2,2.8306921E1,5.445088E2,1.1169971E2,-3.1456544E0],"split_indices":[44,39,7,0,35,7,3,0,0,6,8,0,14,0,0,38,32,39,10,0,0,0,0,0,0,0,0,0,0,0,0],"split_type":[0,0,0,0,0,0,0,0,0,0,0,0,0,0,0,0,0,0,0,0,0,0,0,0,0,0,0,0,0,0,0],"sum_hessian":[8.96E2,8.79E2,1.7E1,3E0,8.76E2,1.4E1,3E0,2E0,1E0,8.31E2,4.5E1,5E0,9E0,2E0,1E0,8.22E2,9E0,7E0,3.8E1,7E0,2E0,8.19E2,3E0,1E0,8E0,2E0,5E0,3.6E1,2E0,1E0,1E0],"tree_param":{"num_deleted":"0","num_feature":"45","num_nodes":"31","size_leaf_vector":"1"}},{"base_weights":[-3.5134528E2,-5.9552484E2,1.5772749E4,-6.4773804E2,8.431159E3,1.0526513E4,1.4875682E3,7.058288E3,-7.01498E2,7.353018E2,-6.54104E2,1.5320396E4,3.9782104E3,1.01138086E3,3.7889853E2,-1.2448636E3,9.821468E1,3.668988E0,-5.2726788E1,6.603729E1,8.928089E2,2.3991943E2,-3.0670106E0,-7.191621E1,1.0349108E2,5.1032078E1,-6.8498276E1,1.6168608E2,-3.219351E1],"categories":[],"categories_nodes":[],"categories_segments":[],"categories_sizes":[],"default_left":[0,0,0,0,0,0,0,0,0,0,0,0,0,0,0,0,0,0,0,0,0,0,0,0,0,0,0,0,0],"id":6,"left_children":[1,3,5,7,9,11,-1,13,15,-1,17,19,21,-1,23,25,27,-1,-1,-1,-1,-1,-1,-1,-1,-1,-1,-1,-1],"loss_changes":[3.4307973E9,4.0937597E8,6.401784E8,3.583283E8,2.946638E8,2.843621E8,0E0,5.2011427E8,3.6860918E8,0E0,9.513044E5,1.894167E8,2.017324E7,0E0,1.8340992E7,1.4452474E8,8.0250534E8,0E0,0E0,0E0,0E0,0E0,0E0,0E0,0E0,0E0,0E0,0E0,0E0],"parents":[2147483647,0,0,1,1,2,2,3,3,4,4,5,5,7,7,8,8,10,10,11,11,12,12,14,14,15,15,16,16],"right_children":[2,4,6,8,10,12,-1,14,16,-1,18,20,22,-1,24,26,28,-1,-1,-1,-1,-1,-1,-1,-1,-1,-1,-1,-1],"split_conditions":[1.779548E5,5.9485E4,9.1453E4,3.4968E0,4.53E0,1.17936665E-2,1.4875682E3,3.46E0,1.5386E3,7.353018E2,5.03E0,1.1395E4,5.61E0,1.01138086E3,3.5E0,-1.4E-1,-3.5714287E-2,3.668988E0,-5.2726788E1,6.603729E1,8.928089E2,2.3991943E2,-3.0670106E0,-7.191621E1,1.0349108E2,5.1032078E1,-6.8498276E1,1.6168608E2,-3.219351E1],"split_indices":[44,4,4,20,0,27,0,0,35,0,0,4,0,0,2,40,7,0,0,0,0,0,0,0,0,0,0,0,0],"split_type":[0,0,0,0,0,0,0,0,0,0,0,0,0,0,0,0,0,0,0,0,0,0,0,0,0,0,0,0,0],"sum_hessian":[8.68E2,8.56E2,1.2E1,8.52E2,4E0,1E1,2E0,5E0,8.47E2,2E0,2E0,5E0,5E0,1E0,4E0,5.04E2,3.43E2,1E0,1E0,1E0,4E0,4E0,1E0,2E0,2E0,2.6E1,4.78E2,6.5E1,2.78E2],"tree_param":{"num_deleted":"0","num_feature":"45","num_nodes":"29","size_leaf_vector":"1"}},{"base_weights":[2.9123892E2,-1.4158253E2,2.5404322E4,-4.9287766E2,5.18251E3,1.2100951E4,3.5532152E4,1.5576004E4,-5.7113855E2,3.769156E4,3.2073242E3,1.5468476E4,1.3322518E3,1.4367159E2,3.9787195E4,1.0916621E3,-7.9892815E1,-6.9688666E2,4.2165215E3,1.0135196E2,2.725515E3,1.5638348E4,9.260907E2,1.3900139E2,8.72508E2,1.0290923E2,-2.990338E0,2.4298828E3,5.9203455E2,4.3284482E2,-3.77566E1,5.5326074E2,-9.2105034E1,1.4717382E3,3.0668744E2,2.8342764E1,4.1831125E2],"categories":[],"categories_nodes":[],"categories_segments":[],"categories_sizes":[],"default_left":[0,0,0,0,0,0,0,0,0,0,0,0,0,0,0,0,0,0,0,0,0,0,0,0,0,0,0,0,0,0,0,0,0,0,0,0,0],"id":7,"left_children":[1,3,5,7,9,11,13,15,17,19,21,23,25,-1,27,-1,-1,29,31,-1,-1,33,35,-1,-1,-1,-1,-1,-1,-1,-1,-1,-1,-1,-1,-1,-1],"loss_changes":[9.623089E9,1.6316097E9,1.591041E9,1.0375845E9,3.3465267E9,2.6950285E8,9.9738726E8,4.6473018E8,4.9360013E8,1.6890022E9,1.460137E9,1.0235507E8,3.154716E6,0E0,1.1481221E9,0E0,0E0,4.3966416E8,8.917498E8,0E0,0E0,8.684896E8,1.1553173E8,0E0,0E0,0E0,0E0,0E0,0E0,0E0,0E0,0E0,0E0,0E0,0E0,0E0,0E0],"parents":[2147483647,0,0,1,1,2,2,3,3,4,4,5,5,6,6,7,7,8,8,9,9,10,10,11,11,12,12,14,14,17,17,18,18,21,21,22,22],"right_children":[2,4,6,8,10,12,14,16,18,20,22,24,26,-1,28,-1,-1,30,32,-1,-1,34,36,-1,-1,-1,-1,-1,-1,-1,-1,-1,-1,-1,-1,-1,-1],"split_conditions":[1.779548E5,9.43505E3,7.65625E1,-6.47E0,1.3441676E4,5.56E0,-4.945055E-2,6.5E0,1.0429057E0,4.51E0,4.51E0,5.52E0,5.61E0,1.4367159E2,2.8752542E-1,1.0916621E3,-7.9892815E1,3.4968E0,2.6872132E-2,1.0135196E2,2.725515E3,1.6666667E-3,5.91E0,1.3900139E2,8.72508E2,1.0290923E2,-2.990338E0,2.4298828E3,5.9203455E2,4.3284482E2,-3.77566E1,5.5326074E2,-9.2105034E1,1.4717382E3,3.0668744E2,2.8342764E1,4.1831125E2],"split_indices":[44,35,29,39,44,0,6,0,15,0,10,1,0,0,32,0,0,20,26,0,0,6,10,0,0,0,0,0,0,0,0,0,0,0,0,0,0],"split_type":[0,0,0,0,0,0,0,0,0,0,0,0,0,0,0,0,0,0,0,0,0,0,0,0,0,0,0,0,0,0,0,0,0,0,0,0,0],"sum_hessian":[8.84E2,8.7E2,1.4E1,8.17E2,5.3E1,7E0,7E0,3E0,8.14E2,2E0,5.1E1,5E0,2E0,1E0,6E0,2E0,1E0,7.94E2,2E1,1E0,1E0,7E0,4.4E1,1E0,4E0,1E0,1E0,4E0,2E0,4E0,7.9E2,9E0,1.1E1,2E0,5E0,4.3E1,1E0],"tree_param":{"num_deleted":"0","num_feature":"45","num_nodes":"37","size_leaf_vector":"1"}},{"base_weights":[-1.0393393E2,-3.156934E2,1.8202477E4,1.0552733E3,-3.8987875E2,2.5278578E4,3.0353293E2,-7.82626E2,1.8276104E3,3.7107578E2,1.6175867E3,-1.172015E3,-1.10555145E2,4.740715E3,-1.2506024E3,1.4251486E2,-6.289208E1,2.9297635E2,-2.1767172E1,1.8541443E2,1.2764857E3,-6.7091354E1,1.1241382E2],"categories":[],"categories_nodes":[],"categories_segments":[],"categories_sizes":[],"default_left":[0,0,0,0,0,0,0,0,0,0,0,0,0,0,0,0,0,0,0,0,0,0,0],"id":8,"left_children":[1,3,5,-1,7,9,-1,11,13,-1,-1,15,17,19,21,-1,-1,-1,-1,-1,-1,-1,-1],"loss_changes":[3.3899794E9,1.3812428E9,7.0500224E8,0E0,7.5215706E8,5.1773542E8,0E0,1.9169427E8,1.171659E9,0E0,0E0,1.6376794E8,5.2608438E8,1.3433567E9,2.3444592E7,0E0,0E0,0E0,0E0,0E0,0E0,0E0,0E0],"parents":[2147483647,0,0,1,1,2,2,4,4,5,5,7,7,8,8,11,11,12,12,13,13,14,14],"right_children":[2,4,6,-1,8,10,-1,12,14,-1,-1,16,18,20,22,-1,-1,-1,-1,-1,-1,-1,-1],"split_conditions":[2.0402695E5,-6.47E0,5.293008E5,1.0552733E3,1.0450463E0,5.52E0,3.0353293E2,1.5386E3,1.41577E-1,3.7107578E2,1.6175867E3,3.46E0,3.9E0,1.1691068E0,4.5E-2,1.4251486E2,-6.289208E1,2.9297635E2,-2.1767172E1,1.8541443E2,1.2764857E3,-6.7091354E1,1.1241382E2],"split_indices":[44,39,44,0,21,0,0,35,24,0,0,0,13,21,5,0,0,0,0,0,0,0,0],"split_type":[0,0,0,0,0,0,0,0,0,0,0,0,0,0,0,0,0,0,0,0,0,0,0],"sum_hessian":[8.72E2,8.63E2,9E0,2E0,8.61E2,5E0,4E0,7.32E2,1.29E2,2E0,3E0,4.63E2,2.69E2,6.6E1,6.3E1,9E0,4.54E2,1.3E1,2.56E2,6.4E1,2E0,6.2E1,1E0],"tree_param":{"num_deleted":"0","num_feature":"45","num_nodes":"23","size_leaf_vector":"1"}},{"base_weights":[9.2735504E1,-2.9034827E2,2.3481584E4,1.0200976E3,-3.6278265E2,2.291246E3,1.3222044E4,-6.205599E2,3.703058E3,1.0836693E3,7.343618E3,-7.106249E2,6.5926587E3,3.662566E4,1.611816E3,9.2006875E3,1.5931888E2,1.2902715E1,-5.530556E1,1.8799475E3,-5.1507294E1,9.41828E1,2.6527417E3,5.1638874E1,5.0730743E2,5.1121725E2,1.2765143E2],"categories":[],"categories_nodes":[],"categories_segments":[],"categories_sizes":[],"default_left":[0,0,0,0,0,0,0,0,0,0,0,0,0,0,0,0,0,0,0,0,0,0,0,0,0,0,0],"id":9,"left_children":[1,3,5,-1,7,-1,9,11,13,-1,15,17,19,21,23,25,-1,-1,-1,-1,-1,-1,-1,-1,-1,-1,-1],"loss_changes":[7.7840005E9,1.2889051E9,2.6033546E9,0E0,8.963112E8,0E0,3.873252E8,5.2636083E8,3.4522716E9,0E0,3.2445408E7,3.0446637E8,2.4022815E9,1.6124101E9,2.3166496E8,7.921568E6,0E0,0E0,0E0,0E0,0E0,0E0,0E0,0E0,0E0,0E0,0E0],"parents":[2147483647,0,0,1,1,2,2,4,4,6,6,7,7,8,8,10,10,11,11,12,12,13,13,14,14,15,15],"right_children":[2,4,6,-1,8,-1,10,12,14,-1,16,18,20,22,24,26,-1,-1,-1,-1,-1,-1,-1,-1,-1,-1,-1],"split_conditions":[2.0402695E5,-6.47E0,3.4981236E-2,1.0200976E3,9.43505E3,2.291246E3,-1.754386E-3,1.2090164E-1,1.3441676E4,1.0836693E3,4.629247E-1,-2.6548672E-2,1.23655915E-1,4.51E0,5.91E0,5.75E0,1.5931888E2,1.2902715E1,-5.530556E1,1.8799475E3,-5.1507294E1,9.41828E1,2.6527417E3,5.1638874E1,5.0730743E2,5.1121725E2,1.2765143E2],"split_indices":[44,39,28,0,35,0,38,6,44,0,36,7,7,0,10,2,0,0,0,0,0,0,0,0,0,0,0],"split_type":[0,0,0,0,0,0,0,0,0,0,0,0,0,0,0,0,0,0,0,0,0,0,0,0,0,0,0],"sum_hessian":[8.67E2,8.54E2,1.3E1,2E0,8.52E2,3E0,1E1,8.02E2,5E1,3E0,7E0,7.93E2,9E0,2E0,4.8E1,4E0,3E0,2.3E2,5.63E2,1E0,8E0,1E0,1E0,4.6E1,2E0,3E0,1E0],"tree_param":{"num_deleted":"0","num_feature":"45","num_nodes":"27","size_leaf_vector":"1"}},{"base_weights":[1.269735E2,-2.4362254E2,1.8196771E4,9.8609436E2,-3.1171945E2,3.3389293E4,1.1471101E4,1.010686E3,-8.2677496E2,2.073069E3,7.0937213E2,1.6915406E4,5.273445E3,-6.223602E2,5.6643857E3,1.2184194E3,-9.096466E2,4.2959988E1,1.9448242E4,3.3587234E2,6.276259E2,4.175228E2,-4.3476036E1,2.4010374E3,1.7617615E2,7.7120654E2,-3.4373707E1,-3.5079716E1,-8.025459E1,1.1171105E3,1.24460144E2,5.5913857E1,-8.841913E0],"categories":[],"categories_nodes":[],"categories_segments":[],"categories_sizes":[],"default_left":[0,0,0,0,0,0,0,0,0,0,0,0,0,0,0,0,0,0,0,0,0,0,0,0,0,0,0,0,0,0,0,0,0],"id":10,"left_children":[1,3,5,-1,7,9,11,13,15,-1,-1,17,19,21,23,25,27,-1,29,-1,31,-1,-1,-1,-1,-1,-1,-1,-1,-1,-1,-1,-1],"loss_changes":[5.9978865E9,1.1998675E9,1.4562263E9,0E0,5.9748986E8,1.8676429E8,3.8318477E8,1.873053E9,1.0805562E8,0E0,0E0,2.6796403E8,4.945251E7,4.1310464E8,5.634263E9,6.87468E8,8.670006E7,0E0,2.38859E8,0E0,1.3818879E6,0E0,0E0,0E0,0E0,0E0,0E0,0E0,0E0,0E0,0E0,0E0,0E0],"parents":[2147483647,0,0,1,1,2,2,4,4,5,5,6,6,7,7,8,8,11,11,12,12,13,13,14,14,15,15,16,16,18,18,20,20],"right_children":[2,4,6,-1,8,10,12,14,16,-1,-1,18,20,22,24,26,28,-1,30,-1,32,-1,-1,-1,-1,-1,-1,-1,-1,-1,-1,-1,-1],"split_conditions":[1.779548E5,-6.47E0,1E0,9.8609436E2,4.443E0,5.52E0,1.17936665E-2,4.15E0,-1.4E-1,2.073069E3,7.0937213E2,-9.746589E-3,5.59E0,3.4968E0,3.9785E0,1.1211875E-2,1.0123641E0,4.2959988E1,5.66E0,3.3587234E2,5.61E0,4.175228E2,-4.3476036E1,2.4010374E3,1.7617615E2,7.7120654E2,-3.4373707E1,-3.5079716E1,-8.025459E1,1.1171105E3,1.24460144E2,5.5913857E1,-8.841913E0],"split_indices":[44,39,41,0,20,9,27,12,40,0,0,5,14,20,18,27,19,0,0,0,0,0,0,0,0,0,0,0,0,0,0,0,0],"split_type":[0,0,0,0,0,0,0,0,0,0,0,0,0,0,0,0,0,0,0,0,0,0,0,0,0,0,0,0,0,0,0,0,0],"sum_hessian":[8.94E2,8.77E2,1.7E1,2E0,8.75E2,4E0,1.3E1,2.45E2,6.3E2,2E0,2E0,6E0,7E0,1.82E2,6.3E1,2.4E1,6.06E2,1E0,5E0,5E0,2E0,4E0,1.78E2,2E0,6.1E1,2E0,2.2E1,4.68E2,1.38E2,4E0,1E0,1E0,1E0],"tree_param":{"num_deleted":"0","num_feature":"45","num_nodes":"33","size_leaf_vector":"1"}},{"base_weights":[2.0047139E2,-1.3265474E2,2.3641396E4,-2.0830313E2,1.048023E4,2.1492993E3,1.24169795E4,-9.127013E2,7.288698E2,8.260859E2,-5.3424824E1,1.6408059E4,1.6630579E2,-3.4497568E2,-1.3382725E3,5.507012E3,3.1010855E1,1.0332885E3,2.630878E2,5.40131E1,-4.4688385E1,-7.008272E1,1.1760003E2,1.9630964E1,8.0252924E2,2.4356233E2,-1.7387625E1],"categories":[],"categories_nodes":[],"categories_segments":[],"categories_sizes":[],"default_left":[0,0,0,0,0,0,0,0,0,0,0,0,0,0,0,0,0,0,0,0,0,0,0,0,0,0,0],"id":11,"left_children":[1,3,5,7,9,-1,11,13,15,-1,-1,17,-1,19,21,23,25,-1,-1,-1,-1,-1,-1,-1,-1,-1,-1],"loss_changes":[6.687455E9,6.805894E8,2.0718249E9,5.5518534E8,4.3628224E8,0E0,2.719662E8,1.1550998E8,1.2035727E9,0E0,0E0,1.760082E8,0E0,1.6287243E8,6.738429E7,2.4742008E9,5.81018E8,0E0,0E0,0E0,0E0,0E0,0E0,0E0,0E0,0E0,0E0],"parents":[2147483647,0,0,1,1,2,2,3,3,4,4,6,6,7,7,8,8,11,11,13,13,14,14,15,15,16,16],"right_children":[2,4,6,8,10,-1,12,14,16,-1,-1,18,-1,20,22,24,26,-1,-1,-1,-1,-1,-1,-1,-1,-1,-1],"split_conditions":[2.0402695E5,5.9485E4,3.4981236E-2,-8.136522E-3,9.1453E4,2.1492993E3,1.1584116E-2,1.686738E-2,4.51E0,8.260859E2,-5.3424824E1,5.66E0,1.6630579E2,4E0,2.4E-1,1.6532E3,-1.3E-1,1.0332885E3,2.630878E2,5.40131E1,-4.4688385E1,-7.008272E1,1.1760003E2,1.9630964E1,8.0252924E2,2.4356233E2,-1.7387625E1],"split_indices":[44,4,28,25,4,0,27,28,10,0,0,0,0,42,37,34,40,0,0,0,0,0,0,0,0,0,0],"split_type":[0,0,0,0,0,0,0,0,0,0,0,0,0,0,0,0,0,0,0,0,0,0,0,0,0,0,0],"sum_hessian":[8.55E2,8.44E2,1.1E1,8.39E2,5E0,3E0,8E0,4.79E2,3.6E2,3E0,2E0,5E0,3E0,2.06E2,2.73E2,4.5E1,3.15E2,3E0,2E0,5.7E1,1.49E2,2.69E2,4E0,3.1E1,1.4E1,2.2E1,2.93E2],"tree_param":{"num_deleted":"0","num_feature":"45","num_nodes":"27","size_leaf_vector":"1"}},{"base_weights":[2.0919714E2,-3.8380746E2,9.407876E3,9.5380414E2,-4.531805E2,3.1808693E4,6.4729214E3,-5.286715E2,4.774592E3,2.3278428E3,7.7078926E1,1.63049E3,1.8462537E4,-5.592844E2,6.1740936E2,1.8224554E3,-1.4184653E3,8.5657935E2,4.9289902E2,1.9323236E3,1.1878009E4,3.0877737E2,-3.0397049E1,-7.510732E0,-1.0608604E2,1.7498188E0,3.5048514E2,4.232068E1,6.401967E2],"categories":[],"categories_nodes":[],"categories_segments":[],"categories_sizes":[],"default_left":[0,0,0,0,0,0,0,0,0,0,0,0,0,0,0,0,0,0,0,0,0,0,0,0,0,0,0,0,0],"id":12,"left_children":[1,3,5,-1,7,9,11,13,15,-1,-1,17,19,21,-1,-1,23,25,-1,-1,27,-1,-1,-1,-1,-1,-1,-1,-1],"loss_changes":[4.8638904E9,1.139938E9,3.3443553E9,0E0,3.3245142E8,2.6065352E9,2.814783E9,3.3211968E8,2.4056468E9,0E0,0E0,2.2078016E8,1.401581E9,2.737739E8,0E0,0E0,9.492232E6,1.7163494E8,0E0,0E0,1.1173568E8,0E0,0E0,0E0,0E0,0E0,0E0,0E0,0E0],"parents":[2147483647,0,0,1,1,2,2,4,4,5,5,6,6,7,7,8,8,11,11,12,12,13,13,16,16,17,17,20,20],"right_children":[2,4,6,-1,8,10,12,14,16,-1,-1,18,20,22,-1,-1,24,26,-1,-1,28,-1,-1,-1,-1,-1,-1,-1,-1],"split_conditions":[1.27552E4,-6.47E0,4.536E0,9.5380414E2,1.2090164E-1,4.6E0,2.9137721E-2,5.9485E4,1.4733545E-1,2.3278428E3,7.7078926E1,5.91E0,5.524E0,3.4968E0,6.1740936E2,1.8224554E3,4.67E0,1.6864341E-1,4.9289902E2,1.9323236E3,1.1395E4,3.0877737E2,-3.0397049E1,-7.510732E0,-1.0608604E2,1.7498188E0,3.5048514E2,4.232068E1,6.401967E2],"split_indices":[35,39,14,0,6,2,28,4,32,0,0,10,14,20,0,0,2,25,0,0,4,0,0,0,0,0,0,0,0],"split_type":[0,0,0,0,0,0,0,0,0,0,0,0,0,0,0,0,0,0,0,0,0,0,0,0,0,0,0,0,0],"sum_hessian":[8.9E2,8.37E2,5.3E1,2E0,8.35E2,5E0,4.8E1,8.24E2,1.1E1,3E0,2E0,3.5E1,1.3E1,8.23E2,1E0,1E0,1E1,3.3E1,2E0,2E0,1.1E1,5E0,8.18E2,4E0,6E0,3E1,3E0,1E0,1E1],"tree_param":{"num_deleted":"0","num_feature":"45","num_nodes":"29","size_leaf_vector":"1"}},{"base_weights":[1.0645159E1,-4.972201E2,8.7499375E3,1.2051734E4,-5.5760724E2,3.0619078E4,5.494943E3,9.220107E2,-1.7784254E2,-6.1694916E2,4.878091E3,4.4810973E4,7.450963E1,1.0780347E3,1.6815453E4,-6.4076996E1,-1.1444768E3,6.214439E2,-9.6878217E2,6.796995E2,2.5342654E3,1.9696553E2,4.7646906E2,2.0574807E4,7.437397E3,6.0617804E2,-7.8006806E0,-3.3059925E1,-6.880118E1,1.0527929E2,-1.0023865E2,9.260113E1,-9.134078E1,4.126266E1,1.163914E3,4.8150275E2,1.3828036E2],"categories":[],"categories_nodes":[],"categories_segments":[],"categories_sizes":[],"default_left":[0,0,0,0,0,0,0,0,0,0,0,0,0,0,0,0,0,0,0,0,0,0,0,0,0,0,0,0,0,0,0,0,0,0,0,0,0],"id":13,"left_children":[1,3,5,7,9,11,13,-1,-1,15,17,19,-1,21,23,25,27,-1,29,-1,-1,31,-1,33,35,-1,-1,-1,-1,-1,-1,-1,-1,-1,-1,-1,-1],"loss_changes":[3.8790592E9,6.3265894E8,3.2485793E9,4.644496E8,2.6848042E8,2.4135875E9,2.1319433E9,0E0,0E0,2.3762576E8,4.093773E8,4.450048E7,0E0,2.364021E8,2.7004237E8,4.48967E8,4.575309E7,0E0,2.333132E7,0E0,0E0,1.03867496E8,0E0,4.0792858E8,2.4585248E7,0E0,0E0,0E0,0E0,0E0,0E0,0E0,0E0,0E0,0E0,0E0,0E0],"parents":[2147483647,0,0,1,1,2,2,3,3,4,4,5,5,6,6,9,9,10,10,11,11,13,13,14,14,15,15,16,16,18,18,21,21,23,23,24,24],"right_children":[2,4,6,8,10,12,14,-1,-1,16,18,20,-1,22,24,26,28,-1,30,-1,-1,32,-1,34,36,-1,-1,-1,-1,-1,-1,-1,-1,-1,-1,-1,-1],"split_conditions":[1.27552E4,-6.47E0,4.536E0,6.5E0,5.5900622E-2,4.6E0,2.910553E-2,9.220107E2,-1.7784254E2,1.6732482E-2,3.2997478E-2,4.51E0,7.450963E1,5.87E0,1E-2,3.49E0,-1.7699115E-2,6.214439E2,-1.4893357E-1,6.796995E2,2.5342654E3,4.8415E0,4.7646906E2,-2.8037382E-2,1.0186818E0,6.0617804E2,-7.8006806E0,-3.3059925E1,-6.880118E1,1.0527929E2,-1.0023865E2,9.260113E1,-9.134078E1,4.126266E1,1.163914E3,4.8150275E2,1.3828036E2],"split_indices":[35,39,14,0,5,2,28,0,0,27,27,0,0,9,39,11,6,0,24,0,0,18,0,6,17,0,0,0,0,0,0,0,0,0,0,0,0],"split_type":[0,0,0,0,0,0,0,0,0,0,0,0,0,0,0,0,0,0,0,0,0,0,0,0,0,0,0,0,0,0,0,0,0,0,0,0,0],"sum_hessian":[8.72E2,8.25E2,4.7E1,3E0,8.22E2,5E0,4.2E1,2E0,1E0,8.14E2,8E0,3E0,2E0,3.1E1,1.1E1,3.98E2,4.16E2,3E0,5E0,1E0,2E0,2.9E1,2E0,7E0,4E0,2E0,3.96E2,1.36E2,2.8E2,1E0,4E0,1.6E1,1.3E1,1E0,6E0,2E0,2E0],"tree_param":{"num_deleted":"0","num_feature":"45","num_nodes":"37","size_leaf_vector":"1"}},{"base_weights":[-1.8196346E1,-2.3983794E2,1.8978309E4,-5.94462E2,1.6779802E3,1.8291156E3,1.0004518E4,-7.322492E2,2.223345E3,4.3942363E3,-1.02300726E3,9.695534E2,3.6438235E3,4.6160116E0,-1.0387825E3,1.7475422E3,1.7248601E2,3.2111448E3,2.8563143E4,-1.3996694E3,1.05603E3,2.0970305E2,2.231587E1,-1.6474913E1,1.6957454E3,1.6263806E2,-5.404852E1,-3.318357E1,2.0229031E2,7.1312823E2,7.04924E1,3.6362167E2,1.7786141E3,-7.4923195E1,1.05790306E2,-1.3230133E1,2.332959E2],"categories":[],"categories_nodes":[],"categories_segments":[],"categories_sizes":[],"default_left":[0,0,0,0,0,0,0,0,0,0,0,0,0,0,0,0,0,0,0,0,0,0,0,0,0,0,0,0,0,0,0,0,0,0,0,0,0],"id":14,"left_children":[1,3,5,7,9,-1,11,13,15,17,19,-1,21,23,25,-1,27,29,31,33,35,-1,-1,-1,-1,-1,-1,-1,-1,-1,-1,-1,-1,-1,-1,-1,-1],"loss_changes":[3.6507717E9,5.83847E8,1.213758E9,2.827267E8,9.875963E8,0E0,4.0698214E8,1.5608355E8,2.2760338E9,1.8240797E9,5.472852E7,0E0,8.684448E6,2.322477E9,9.186906E7,0E0,1.09562344E8,1.2738397E9,1.8899149E8,2.33144E7,5.367531E7,0E0,0E0,0E0,0E0,0E0,0E0,0E0,0E0,0E0,0E0,0E0,0E0,0E0,0E0,0E0,0E0],"parents":[2147483647,0,0,1,1,2,2,3,3,4,4,6,6,7,7,8,8,9,9,10,10,12,12,13,13,14,14,16,16,17,17,18,18,19,19,20,20],"right_children":[2,4,6,8,10,-1,12,14,16,18,20,-1,22,24,26,-1,28,30,32,34,36,-1,-1,-1,-1,-1,-1,-1,-1,-1,-1,-1,-1,-1,-1,-1,-1],"split_conditions":[2.0402695E5,1.0450463E0,3.4981236E-2,3E-2,1.4489149E-1,1.8291156E3,5.484461E-3,-3.0141843E-2,3.73E0,1.2090164E-1,1.621695E4,9.695534E2,9.433962E-3,6.0240963E1,1.0585644E-2,1.7475422E3,6.381E3,9.077293E-4,4.29E0,4.5E-2,2.028829E-1,2.0970305E2,2.231587E1,-1.6474913E1,1.6957454E3,1.6263806E2,-5.404852E1,-3.318357E1,2.0229031E2,7.1312823E2,7.04924E1,3.6362167E2,1.7786141E3,-7.4923195E1,1.05790306E2,-1.3230133E1,2.332959E2],"split_indices":[44,21,28,39,24,0,7,7,13,6,35,0,5,29,32,0,4,36,1,5,24,0,0,0,0,0,0,0,0,0,0,0,0,0,0,0,0],"split_type":[0,0,0,0,0,0,0,0,0,0,0,0,0,0,0,0,0,0,0,0,0,0,0,0,0,0,0,0,0,0,0,0,0,0,0,0,0],"sum_hessian":[8.65E2,8.56E2,9E0,7.23E2,1.33E2,2E0,7E0,6.9E2,3.3E1,6.6E1,6.7E1,2E0,5E0,2.03E2,4.87E2,1E0,3.2E1,6.4E1,2E0,5.7E1,1E1,4E0,1E0,2.02E2,1E0,4E0,4.83E2,2.7E1,5E0,8E0,5.6E1,1E0,1E0,5.6E1,1E0,8E0,2E0],"tree_param":{"num_deleted":"0","num_feature":"45","num_nodes":"37","size_leaf_vector":"1"}},{"base_weights":[7.02262E1,-5.4387054E2,8.698134E3,-6.092311E2,8.67506E2,2.9470355E4,6.182446E3,-7.438306E2,1.6512402E3,6.967623E1,4.316039E4,2.507064E3,2.3872416E4,-3.7253574E2,-1.2003901E3,2.2293479E4,2.0628683E2,6.6094476E2,2.4367295E3,8.265008E3,1.2288898E3,1.0251802E4,3.2718547E4,3.4179654E2,-2.4603725E1,-5.3330585E1,-1.00156815E2,1.7038538E3,-3.184289E1,2.3967369E2,-1.231375E1,7.403358E1,6.019738E2,2.7564207E1,4.4752637E2,1.4368541E2,7.106314E2,3.218189E2,1.8839999E3],"categories":[],"categories_nodes":[],"categories_segments":[],"categories_sizes":[],"default_left":[0,0,0,0,0,0,0,0,0,0,0,0,0,0,0,0,0,0,0,0,0,0,0,0,0,0,0,0,0,0,0,0,0,0,0,0,0,0,0],"id":15,"left_children":[1,3,5,7,-1,9,11,13,15,-1,17,19,21,23,25,27,29,-1,-1,31,33,35,37,-1,-1,-1,-1,-1,-1,-1,-1,-1,-1,-1,-1,-1,-1,-1,-1],"loss_changes":[4.6249093E9,9.63762E8,2.8486738E9,2.4859037E8,0E0,2.2460918E9,3.386072E9,1.2974285E8,1.3674464E9,0E0,2.3382016E7,3.2102768E8,7.489838E8,3.6958243E8,3.480563E7,8.3230784E8,9.252389E7,0E0,0E0,1.8703155E8,1.9389027E8,1.0527382E8,4.0946534E8,0E0,0E0,0E0,0E0,0E0,0E0,0E0,0E0,0E0,0E0,0E0,0E0,0E0,0E0,0E0,0E0],"parents":[2147483647,0,0,1,1,2,2,3,3,5,5,6,6,7,7,8,8,10,10,11,11,12,12,13,13,14,14,15,15,16,16,19,19,20,20,21,21,22,22],"right_children":[2,4,6,8,-1,10,12,14,16,-1,18,20,22,24,26,28,30,-1,-1,32,34,36,38,-1,-1,-1,-1,-1,-1,-1,-1,-1,-1,-1,-1,-1,-1,-1,-1],"split_conditions":[1.27552E4,6.6E0,4.536E0,2E-2,8.67506E2,4.524E0,4.2689E4,1.9054214E-2,3.73E0,6.967623E1,4.51E0,1.1584116E-2,7.0593E4,-1.4E-1,3.267E3,4.01E0,1.7421757E-3,6.6094476E2,2.4367295E3,1.1395E4,5.91E0,5.53E0,5.52E0,3.4179654E2,-2.4603725E1,-5.3330585E1,-1.00156815E2,1.7038538E3,-3.184289E1,2.3967369E2,-1.231375E1,7.403358E1,6.019738E2,2.7564207E1,4.4752637E2,1.4368541E2,7.106314E2,3.218189E2,1.8839999E3],"split_indices":[35,13,14,39,0,14,4,27,13,0,0,27,34,40,34,0,27,0,0,4,10,0,0,0,0,0,0,0,0,0,0,0,0,0,0,0,0,0,0],"split_type":[0,0,0,0,0,0,0,0,0,0,0,0,0,0,0,0,0,0,0,0,0,0,0,0,0,0,0,0,0,0,0,0,0,0,0,0,0,0,0],"sum_hessian":[8.71E2,8.14E2,5.7E1,8.12E2,2E0,5E0,5.2E1,7.67E2,4.5E1,2E0,3E0,4.4E1,8E0,4.24E2,3.43E2,2E0,4.3E1,1E0,2E0,7E0,3.7E1,4E0,4E0,6E0,4.18E2,2.96E2,4.7E1,1E0,1E0,3E0,4E1,3E0,4E0,3.5E1,2E0,2E0,2E0,1E0,3E0],"tree_param":{"num_deleted":"0","num_feature":"45","num_nodes":"39","size_leaf_vector":"1"}},{"base_weights":[-6.0614357E1,-2.3116055E2,1.3154474E4,-3.2149127E2,6.1187812E3,1.3131589E3,7.3232974E3,-4.522176E2,2.5313787E3,1.7347637E3,3.668024E2,1.2244495E2,9.352347E3,-4.8391156E2,8.1819424E3,1.8395254E4,5.90588E2,-1.0246576E3,3.5703506E2,5.527133E2,2.1068872E1,1.47237425E1,-4.022694E1,-1.7671204E1,6.313169E2,1.1863058E3,6.006666E1,-3.4603832E1,1.4999065E2,2.9626038E1,-9.0118996E1],"categories":[],"categories_nodes":[],"categories_segments":[],"categories_sizes":[],"default_left":[0,0,0,0,0,0,0,0,0,0,0,0,0,0,0,0,0,0,0,0,0,0,0,0,0,0,0,0,0,0,0],"id":16,"left_children":[1,3,5,7,9,-1,11,13,15,-1,17,-1,19,21,23,25,27,29,-1,-1,-1,-1,-1,-1,-1,-1,-1,-1,-1,-1,-1],"loss_changes":[1.9458016E9,4.9066992E8,6.4849766E8,3.1479165E8,1.9597303E9,0E0,6.611059E7,2.2424832E8,1.1283089E9,0E0,1.1099847E8,0E0,8.654067E7,2.0064314E8,1.182661E8,3.381308E8,1.0714384E8,1.3645105E7,0E0,0E0,0E0,0E0,0E0,0E0,0E0,0E0,0E0,0E0,0E0,0E0,0E0],"parents":[2147483647,0,0,1,1,2,2,3,3,4,4,6,6,7,7,8,8,10,10,12,12,13,13,14,14,15,15,16,16,17,17],"right_children":[2,4,6,8,10,-1,12,14,16,-1,18,-1,20,22,24,26,28,30,-1,-1,-1,-1,-1,-1,-1,-1,-1,-1,-1,-1,-1],"split_conditions":[2.0402695E5,1.2090164E-1,-8.752735E-3,1.318705E4,2.6872132E-2,1.3131589E3,5.52E0,6.3975E0,4.536E0,1.7347637E3,4.2689E4,1.2244495E2,5.622E0,-2.6548672E-2,6.26E0,4.59E0,2.0702204E-1,-2E-2,3.5703506E2,5.527133E2,2.1068872E1,1.47237425E1,-4.022694E1,-1.7671204E1,6.313169E2,1.1863058E3,6.006666E1,-3.4603832E1,1.4999065E2,2.9626038E1,-9.0118996E1],"split_indices":[44,6,5,35,26,0,1,18,14,0,4,0,14,7,0,2,32,39,0,0,0,0,0,0,0,0,0,0,0,0,0],"split_type":[0,0,0,0,0,0,0,0,0,0,0,0,0,0,0,0,0,0,0,0,0,0,0,0,0,0,0,0,0,0,0],"sum_hessian":[8.61E2,8.51E2,1E1,8.4E2,1.1E1,2E0,8E0,8.04E2,3.6E1,1E0,1E1,3E0,5E0,8.02E2,2E0,3E0,3.3E1,9E0,1E0,4E0,1E0,2.34E2,5.68E2,1E0,1E0,2E0,1E0,2.2E1,1.1E1,3E0,6E0],"tree_param":{"num_deleted":"0","num_feature":"45","num_nodes":"31","size_leaf_vector":"1"}},{"base_weights":[1.3118417E2,-1.0007471E2,2.2111896E4,-3.4884943E2,5.2643086E3,1.788496E3,9.321234E3,-4.3154706E2,4.1125137E3,3.3423473E4,9.684226E2,9.0650566E1,6.311047E2,-5.421695E2,1.7550927E3,1.6913948E3,-4.2629187E2,8.977712E3,2.3364038E3,5.227237E2,3.9191217E2,2.7203774E0,-4.5349895E1,1.0774574E3,5.1367145E0,-7.650944E1,3.481092E2,5.856499E1,6.147634E2,-4.603528E1,1.4071037E2],"categories":[],"categories_nodes":[],"categories_segments":[],"categories_sizes":[],"default_left":[0,0,0,0,0,0,0,0,0,0,0,0,0,0,0,0,0,0,0,0,0,0,0,0,0,0,0,0,0,0,0],"id":17,"left_children":[1,3,5,7,9,-1,11,13,15,17,19,-1,-1,21,23,-1,25,27,-1,29,-1,-1,-1,-1,-1,-1,-1,-1,-1,-1,-1],"loss_changes":[4.394128E9,1.1441882E9,1.2388362E9,3.0394E8,4.5644375E9,0E0,1.258175E8,1.9567413E8,2.0375054E9,1.2066944E9,1.0000639E8,0E0,0E0,1.6698557E8,1.2733542E9,0E0,1.24839064E8,6.3293184E7,0E0,1.1174169E8,0E0,0E0,0E0,0E0,0E0,0E0,0E0,0E0,0E0,0E0,0E0],"parents":[2147483647,0,0,1,1,2,2,3,3,4,4,6,6,7,7,8,8,9,9,10,10,13,13,14,14,16,16,17,17,19,19],"right_children":[2,4,6,8,10,-1,12,14,16,18,20,-1,-1,22,24,-1,26,28,-1,30,-1,-1,-1,-1,-1,-1,-1,-1,-1,-1,-1],"split_conditions":[4.31842E4,1.27552E4,3.4981236E-2,1.2090164E-1,4.536E0,1.788496E3,5.52E0,3E-2,2.6872132E-2,1.610306E-3,6.637915E4,9.0650566E1,6.311047E2,1.1584116E-2,3.97E0,1.6913948E3,1.932E4,4.51E0,2.3364038E3,2.1064335E-2,3.9191217E2,2.7203774E0,-4.5349895E1,1.0774574E3,5.1367145E0,-7.650944E1,3.481092E2,5.856499E1,6.147634E2,-4.603528E1,1.4071037E2],"split_indices":[34,35,28,6,14,0,1,39,26,5,35,0,0,27,10,0,4,1,0,27,0,0,0,0,0,0,0,0,0,0,0],"split_type":[0,0,0,0,0,0,0,0,0,0,0,0,0,0,0,0,0,0,0,0,0,0,0,0,0,0,0,0,0,0,0],"sum_hessian":[8.63E2,8.55E2,8E0,8.18E2,3.7E1,3E0,5E0,8.04E2,1.4E1,4E0,3.3E1,2E0,3E0,7.66E2,3.8E1,1E0,1.3E1,2E0,2E0,3.2E1,1E0,2.91E2,4.75E2,2E0,3.6E1,1.2E1,1E0,1E0,1E0,2E1,1.2E1],"tree_param":{"num_deleted":"0","num_feature":"45","num_nodes":"31","size_leaf_vector":"1"}},{"base_weights":[1.7431386E2,-1.5612297E2,1.3745394E4,8.174545E2,-2.134511E2,6.4704907E3,2.4758299E4,-3.9593845E2,4.104563E3,-1.2355516E3,9.676463E3,5.2452297E1,2.7995473E4,-4.3988364E2,8.755751E3,3.92028E4,7.8943353E2,-8.292078E0,-7.307594E1,8.9050995E1,1.1427696E4,1.7577594E3,6.7307856E3,7.0815864E0,-4.9175488E1,6.191503E2,-5.3150402E1,5.9939435E2,2.3408157E3,1.9394177E-1,4.321844E2,1.7841818E2,6.726373E2,4.143129E2,9.049605E1],"categories":[],"categories_nodes":[],"categories_segments":[],"categories_sizes":[],"default_left":[0,0,0,0,0,0,0,0,0,0,0,0,0,0,0,0,0,0,0,0,0,0,0,0,0,0,0,0,0,0,0,0,0,0,0],"id":18,"left_children":[1,3,5,-1,7,9,11,13,15,17,19,-1,21,23,25,27,29,-1,-1,-1,31,-1,33,-1,-1,-1,-1,-1,-1,-1,-1,-1,-1,-1,-1],"loss_changes":[3.9618575E9,8.200716E8,1.5222758E9,0E0,6.800785E8,3.578308E8,5.84639E8,3.3644826E8,4.041484E9,9.66216E5,1.1791469E8,0E0,8.2912205E8,2.6062789E8,1.5562384E8,6.037453E7,2.035747E8,0E0,0E0,0E0,7.932006E7,0E0,7.965344E6,0E0,0E0,0E0,0E0,0E0,0E0,0E0,0E0,0E0,0E0,0E0,0E0],"parents":[2147483647,0,0,1,1,2,2,4,4,5,5,6,6,7,7,8,8,9,9,10,10,12,12,13,13,14,14,15,15,16,16,20,20,22,22],"right_children":[2,4,6,-1,8,10,12,14,16,18,20,-1,22,24,26,28,30,-1,-1,-1,32,-1,34,-1,-1,-1,-1,-1,-1,-1,-1,-1,-1,-1,-1],"split_conditions":[3.171715E4,-6.47E0,7.65625E1,8.174545E2,1.27552E4,3.06124E4,-4.945055E-2,5.9485E4,4.536E0,5.53E0,1.932E4,5.2452297E1,2.8752542E-1,1.6412053E-2,4.53E0,4.51E0,5.91E0,-8.292078E0,-7.307594E1,8.9050995E1,5.53E0,1.7577594E3,5.66E0,7.0815864E0,-4.9175488E1,6.191503E2,-5.3150402E1,5.9939435E2,2.3408157E3,1.9394177E-1,4.321844E2,1.7841818E2,6.726373E2,4.143129E2,9.049605E1],"split_indices":[35,39,29,0,35,34,6,4,14,0,4,0,32,27,0,0,10,0,0,0,9,0,0,0,0,0,0,0,0,0,0,0,0,0,0],"split_type":[0,0,0,0,0,0,0,0,0,0,0,0,0,0,0,0,0,0,0,0,0,0,0,0,0,0,0,0,0,0,0,0,0,0,0],"sum_hessian":[8.82E2,8.62E2,2E1,2E0,8.6E2,1.3E1,7E0,8.26E2,3.4E1,4E0,9E0,1E0,6E0,8.23E2,3E0,2E0,3.2E1,1E0,3E0,2E0,7E0,4E0,2E0,3.98E2,4.25E2,2E0,1E0,1E0,1E0,3E1,2E0,2E0,5E0,1E0,1E0],"tree_param":{"num_deleted":"0","num_feature":"45","num_nodes":"35","size_leaf_vector":"1"}},{"base_weights":[1.5610184E2,-9.526938E1,1.4507371E4,-3.1422092E2,4.505156E3,8.79392E3,2.1611895E4,-3.6420477E2,9.961038E3,2.6059238E4,5.6898975E2,1.1244104E4,2.3076184E3,8.823364E1,1.2614203E3,-4.2859872E2,4.387225E3,7.9020605E2,-1.8920525E2,3.855154E4,3.582106E1,3.8479233E3,-2.7106473E2,3.388584E1,6.446108E2,1.5687785E2,-4.554938E0,2.8941827E2,-2.3731634E1,1.6503392E3,-8.877047E1,5.844095E2,2.1804963E3,-3.2726116E1,3.694194E2,1.811949E2,-4.417081E1],"categories":[],"categories_nodes":[],"categories_segments":[],"categories_sizes":[],"default_left":[0,0,0,0,0,0,0,0,0,0,0,0,0,0,0,0,0,0,0,0,0,0,0,0,0,0,0,0,0,0,0,0,0,0,0,0,0],"id":19,"left_children":[1,3,5,7,9,11,13,15,17,19,21,23,25,-1,-1,27,29,-1,-1,31,-1,33,35,-1,-1,-1,-1,-1,-1,-1,-1,-1,-1,-1,-1,-1,-1],"loss_changes":[3.1435108E9,8.6464614E8,4.1881728E8,4.2426374E8,3.29395E9,1.329792E8,3.861463E8,2.5154646E8,3.8106048E8,1.8719212E9,9.469546E7,1.1316486E8,8.24898E6,0E0,0E0,2.3341755E8,1.9986912E9,0E0,0E0,3.382016E7,0E0,1.1642111E8,6.998382E7,0E0,0E0,0E0,0E0,0E0,0E0,0E0,0E0,0E0,0E0,0E0,0E0,0E0,0E0],"parents":[2147483647,0,0,1,1,2,2,3,3,4,4,5,5,6,6,7,7,8,8,9,9,10,10,11,11,12,12,15,15,16,16,19,19,21,21,22,22],"right_children":[2,4,6,8,10,12,14,16,18,20,22,24,26,-1,-1,28,30,-1,-1,32,-1,34,36,-1,-1,-1,-1,-1,-1,-1,-1,-1,-1,-1,-1,-1,-1],"split_conditions":[1.779548E5,1.27552E4,7.682119E1,6.48E0,4.536E0,9.992975E-1,1.0568E4,1.2090164E-1,6.5E0,4.6E0,-1.724138E-2,1.1395E4,5.56E0,8.823364E1,1.2614203E3,3.4968E0,2.6872132E-2,7.9020605E2,-1.8920525E2,4.51E0,3.582106E1,4.99E0,4.58E0,3.388584E1,6.446108E2,1.5687785E2,-4.554938E0,2.8941827E2,-2.3731634E1,1.6503392E3,-8.877047E1,5.844095E2,2.1804963E3,-3.2726116E1,3.694194E2,1.811949E2,-4.417081E1],"split_indices":[44,35,29,40,14,15,4,6,0,2,38,4,3,0,0,20,26,0,0,0,0,11,10,0,0,0,0,0,0,0,0,0,0,0,0,0,0],"split_type":[0,0,0,0,0,0,0,0,0,0,0,0,0,0,0,0,0,0,0,0,0,0,0,0,0,0,0,0,0,0,0,0,0,0,0,0,0],"sum_hessian":[8.7E2,8.56E2,1.4E1,8.18E2,3.8E1,9E0,5E0,8.15E2,3E0,5E0,3.3E1,6E0,3E0,1E0,4E0,8.05E2,1E1,2E0,1E0,3E0,2E0,6E0,2.7E1,1E0,5E0,2E0,1E0,5E0,8E2,1E0,9E0,1E0,2E0,3E0,3E0,3E0,2.4E1],"tree_param":{"num_deleted":"0","num_feature":"45","num_nodes":"37","size_leaf_vector":"1"}},{"base_weights":[2.4533658E2,-1.3631357E0,1.3001243E4,-3.5238916E2,1.8724691E3,1.3665546E3,7.978342E3,7.49347E3,-4.050679E2,4.9350093E3,-1.2168206E3,1.1860474E4,2.4018557E3,9.317047E2,4.979077E1,-7.547501E2,4.2170538E2,2.1032709E4,3.3731445E3,1.7176316E3,-1.3283873E3,6.7505054E3,9.06346E2,3.488032E3,-1.0452832E1,-9.537267E1,6.690117E1,1.2951797E2,-4.0609447E1,9.8971545E2,-1.0697424E1,1.8466718E3,1.9244942E2,6.0418884E2,5.8646523E1,2.1406864E1,1.07415504E2,-7.724092E1,-2.9411112E1,7.937767E1,4.4675464E2,9.237861E1,2.5124678E2],"categories":[],"categories_nodes":[],"categories_segments":[],"categories_sizes":[],"default_left":[0,0,0,0,0,0,0,0,0,0,0,0,0,0,0,0,0,0,0,0,0,0,0,0,0,0,0,0,0,0,0,0,0,0,0,0,0,0,0,0,0,0,0],"id":20,"left_children":[1,3,5,7,9,-1,11,13,15,17,19,21,23,-1,25,27,29,31,33,35,37,39,-1,41,-1,-1,-1,-1,-1,-1,-1,-1,-1,-1,-1,-1,-1,-1,-1,-1,-1,-1,-1],"loss_changes":[2.8196209E9,5.7949203E8,1.00555904E9,3.0971136E8,1.3210944E9,0E0,2.7459405E8,4.1370832E8,2.136799E8,1.6890236E9,2.5198784E7,1.338048E8,2.0580572E7,0E0,1.2637761E7,1.0182406E8,2.7133742E9,1.4972449E9,1.2315681E9,7.463E5,9.984544E6,5.348861E7,0E0,3.322216E6,0E0,0E0,0E0,0E0,0E0,0E0,0E0,0E0,0E0,0E0,0E0,0E0,0E0,0E0,0E0,0E0,0E0,0E0,0E0],"parents":[2147483647,0,0,1,1,2,2,3,3,4,4,6,6,7,7,8,8,9,9,10,10,11,11,12,12,14,14,15,15,16,16,17,17,18,18,19,19,20,20,21,21,23,23],"right_children":[2,4,6,8,10,-1,12,14,16,18,20,22,24,-1,26,28,30,32,34,36,38,40,-1,42,-1,-1,-1,-1,-1,-1,-1,-1,-1,-1,-1,-1,-1,-1,-1,-1,-1,-1,-1],"split_conditions":[1.779548E5,1.0450463E0,1E0,3.4968E0,1.4489149E-1,1.3665546E3,1.17936665E-2,3.46E0,1.778E3,-1.3E-1,4.48E0,5.52E0,5.53E0,9.317047E2,3.49E0,3.372579E-3,4.833605E3,4.4E2,5.035461E1,4.5E0,9E-2,1.1395E4,9.06346E2,5.52E0,-1.0452832E1,-9.537267E1,6.690117E1,1.2951797E2,-4.0609447E1,9.8971545E2,-1.0697424E1,1.8466718E3,1.9244942E2,6.0418884E2,5.8646523E1,2.1406864E1,1.07415504E2,-7.724092E1,-2.9411112E1,7.937767E1,4.4675464E2,9.237861E1,2.5124678E2],"split_indices":[44,21,41,20,24,0,27,0,34,40,1,12,0,0,0,28,44,4,29,0,40,4,0,1,0,0,0,0,0,0,0,0,0,0,0,0,0,0,0,0,0,0,0],"split_type":[0,0,0,0,0,0,0,0,0,0,0,0,0,0,0,0,0,0,0,0,0,0,0,0,0,0,0,0,0,0,0,0,0,0,0,0,0,0,0,0,0,0,0],"sum_hessian":[8.95E2,8.79E2,1.6E1,7.41E2,1.38E2,3E0,1.3E1,4E0,7.37E2,6.9E1,6.9E1,7E0,6E0,1E0,3E0,5.18E2,2.19E2,5E0,6.4E1,2E0,6.7E1,5E0,2E0,4E0,2E0,1E0,2E0,8E0,5.1E2,6E0,2.13E2,2E0,3E0,1.2E1,5.2E1,1E0,1E0,5.1E1,1.6E1,2E0,3E0,3E0,1E0],"tree_param":{"num_deleted":"0","num_feature":"45","num_nodes":"43","size_leaf_vector":"1"}}]},"name":"gbtree"},"learner_model_param":{"base_score":"[2.6123657E3]","boost_from_average":"1","num_class":"0","num_feature":"45","num_target":"1"},"objective":{"name":"reg:squarederror","reg_loss_param":{"scale_pos_weight":"1"}}},"version":[3,1,3]}